
//<![CDATA[

// a few things don't have var in front of them - they update already existing variables the game needs
lanesSide = 3;
patchesAhead = 50;
patchesBehind = 10;
trainIterations = 600000;

// the number of other autonomous vehicles controlled by your network
otherAgents = 9; // max of 9

var num_inputs = (lanesSide * 2 + 1) * (patchesAhead + patchesBehind);
var num_actions = 5;
var temporal_window = 0;
var network_size = num_inputs * temporal_window + num_actions * temporal_window + num_inputs;

var layer_defs = [];
    layer_defs.push({
    type: 'input',
    out_sx: 1,
    out_sy: 1,
    out_depth: network_size
});
layer_defs.push({
    type: 'fc',
    num_neurons: 48,
    activation: 'relu'
});
layer_defs.push({
    type: 'fc',
    num_neurons: 36,
    activation: 'relu'
});
layer_defs.push({
    type: 'fc',
    num_neurons: 24,
    activation: 'tanh'
});
layer_defs.push({
    type: 'regression',
    num_neurons: num_actions
});

var tdtrainer_options = {
    learning_rate: 0.001,
    momentum: 0.9,
    batch_size: 128,
    l2_decay: 0.01
};

var opt = {};
opt.temporal_window = temporal_window;
opt.experience_size = 100000;
opt.start_learn_threshold = 5000;
opt.gamma = 0.98;
opt.learning_steps_total = 10000;
opt.learning_steps_burnin = 1000;
opt.epsilon_min = 0.0;
opt.epsilon_test_time = 0.0;
opt.layer_defs = layer_defs;
opt.tdtrainer_options = tdtrainer_options;

brain = new deepqlearn.Brain(num_inputs, num_actions, opt);

learn = function (state, lastReward) {
brain.backward(lastReward);
var action = brain.forward(state);

draw_net();
draw_stats();

return action;
}

//]]>

/*###########*/
if (brain) {
brain.value_net.fromJSON({"layers":[{"out_depth":420,"out_sx":1,"out_sy":1,"layer_type":"input"},{"out_depth":48,"out_sx":1,"out_sy":1,"layer_type":"fc","num_inputs":420,"l1_decay_mul":0,"l2_decay_mul":1,"filters":[{"sx":1,"sy":1,"depth":420,"w":{"0":-0.4284323183063389,"1":0.4341955440841184,"2":0.2953448637623834,"3":-0.2489553771365599,"4":0.3549821066133131,"5":0.042226515474652615,"6":-0.02844955321600376,"7":0.14375614354293992,"8":-0.07320035411808194,"9":0.005402461053551604,"10":-0.10984082905664627,"11":0.08692256644880994,"12":-0.1608524436931335,"13":0.014560482003656745,"14":0.004010268541896977,"15":-0.1528640080770382,"16":-0.721935895698788,"17":-0.029985486795767145,"18":0.05731884656818814,"19":-0.16787667058695205,"20":-0.16275467966787807,"21":0.047136050943087156,"22":0.026276067091216222,"23":-0.19756836983970413,"24":0.009410404853219298,"25":0.17702875487469144,"26":0.12908280809896516,"27":-0.4996928803430314,"28":-0.0036395835389989232,"29":-0.2947612773368559,"30":0.1409024387821205,"31":0.2954398958147157,"32":0.16221797237776994,"33":0.2241649316969594,"34":-0.2547053344415554,"35":-0.10226860646896192,"36":0.1074528531403706,"37":0.045075997023014736,"38":-0.1480034271742615,"39":0.0832961569536576,"40":0.2176983409446015,"41":-0.03349175027187364,"42":0.045910455627895086,"43":0.1259055935911986,"44":0.4647972512051901,"45":0.017887367981318566,"46":-0.10534808696117963,"47":-0.01369340972237556,"48":-0.03557136103944189,"49":0.1244592938899311,"50":0.01911010081648321,"51":-0.13898522090425394,"52":0.14151184479086276,"53":-0.34070570328254024,"54":0.16685805656079905,"55":-0.14040455054733497,"56":0.08890521908013489,"57":0.13327261719432174,"58":-0.30369232004076235,"59":0.09850695923170899,"60":0.1449883104238909,"61":0.30505875287733114,"62":-0.06504883048978345,"63":0.14886120099339958,"64":0.05168729622049638,"65":-0.1514682651850547,"66":0.3958478108112807,"67":-0.34496578077846024,"68":0.11277256342313782,"69":0.09627698400804638,"70":-0.0777662660726409,"71":0.06681451581421552,"72":-0.19630642374423388,"73":-0.037140206869619954,"74":-0.4244959441530826,"75":0.07848303247697118,"76":-0.159619941639589,"77":-0.21828627262579972,"78":-0.2464566218346068,"79":0.18214543678973252,"80":0.4616404272178997,"81":-0.2965422857343495,"82":0.1933114215226641,"83":0.06832381954886352,"84":-0.08635737092426826,"85":0.19802453951691043,"86":0.3839022152977715,"87":0.12101362172251778,"88":-0.44793351574587464,"89":-0.0001895158633372877,"90":0.16561642240690574,"91":-0.019867134246707278,"92":-0.07160912668006017,"93":0.2037286969411652,"94":-0.08721642245752581,"95":0.03693438197949079,"96":0.19656431086298695,"97":-0.073064012437427,"98":0.006348450808136131,"99":-0.19222346894457024,"100":0.199035737728487,"101":0.255135940589413,"102":-0.046857160798883454,"103":0.00884922321020624,"104":0.15990859383717576,"105":0.1328017742907004,"106":0.015201418571522416,"107":0.16183219344280692,"108":-0.08156126906309832,"109":-0.15853490588727215,"110":-0.1094000128224237,"111":-0.236002603606998,"112":0.07134388747404176,"113":-0.37094989564139497,"114":0.10327456366911668,"115":0.16766315628378295,"116":-0.15788228075406438,"117":-0.06550622997405711,"118":-0.5016958201658611,"119":-0.13966470172091303,"120":-0.0014770075836249984,"121":0.21383315830365635,"122":0.107001092406686,"123":-0.038308471139510934,"124":-0.16072977932957946,"125":-0.3126291076685185,"126":-0.2573334248002784,"127":-0.3159004462445415,"128":0.10655146003286135,"129":0.0005158888409004168,"130":0.3419635179963702,"131":0.05199003530039219,"132":-0.15032057881822852,"133":-0.07797544103687568,"134":0.13245687393139619,"135":0.1540457392389969,"136":-0.05180636731538128,"137":0.2766374648128252,"138":0.020470689389365197,"139":0.11194175323818963,"140":0.08774217280595302,"141":0.41394208105424773,"142":-0.018036587794829872,"143":0.1677844112500508,"144":0.31045018705821137,"145":-0.1157946541911832,"146":-0.023529649017095616,"147":0.5089924231406204,"148":0.26338390016631763,"149":-0.3680607179580223,"150":-0.01095950957220903,"151":0.1963821749490733,"152":0.09827552897308336,"153":-0.08019397869392018,"154":0.4340836141127375,"155":0.14849268469171362,"156":0.09088262079054407,"157":-0.04850723227137222,"158":0.15088930260956657,"159":-0.061161106192796105,"160":-0.24320477184525838,"161":0.4749564437680549,"162":-0.10205338021762013,"163":0.35699574900222963,"164":0.09372381965479253,"165":0.2766709740182705,"166":-0.37894804629528006,"167":-0.2330192190536503,"168":0.20072662282383402,"169":-0.05922930081476557,"170":0.2547488149187772,"171":-0.5366585540237773,"172":0.36002971385732924,"173":0.12507684670007238,"174":0.43049098295018196,"175":-0.1434030873120087,"176":-0.03591045152110071,"177":0.4148522198000691,"178":-0.13428584185497636,"179":0.16701063937186336,"180":-0.2461523037156994,"181":0.35133633537270065,"182":-0.03148860917505364,"183":0.2992066072832306,"184":0.09300735597414417,"185":-0.05407085562935642,"186":0.3692032380218439,"187":0.3514889634900312,"188":0.4666027833774088,"189":0.06280662899000715,"190":0.4321235340963578,"191":0.10360690409413138,"192":-0.21742800906656023,"193":0.10693171401522679,"194":0.0812539781359236,"195":0.3523250965122286,"196":-0.23509039224199943,"197":0.29440814249038505,"198":0.1288592478561951,"199":0.14473261680765423,"200":0.17404728749445605,"201":0.2243216811963669,"202":0.12348169466495092,"203":-0.13821693184690473,"204":0.32855674037236593,"205":-0.06642803904682988,"206":-0.169428739685632,"207":0.13997605175361374,"208":-0.10828676509088805,"209":-0.14237727904950884,"210":-0.1635479337862132,"211":0.02031953078381302,"212":0.35018232853775,"213":0.015570374968509052,"214":-0.2263306230504788,"215":-0.45368045518524663,"216":-0.11589301416179847,"217":-0.1855344970744546,"218":-0.21625938405991602,"219":0.09715119097626186,"220":-0.203740866578679,"221":-0.004011002630612422,"222":0.24607821906098734,"223":0.05730955972520505,"224":-0.1104934077504811,"225":-0.2555290121325158,"226":0.36692828148544493,"227":0.09254069881462827,"228":0.1872480750204723,"229":0.11441348904975485,"230":0.16023819995642652,"231":0.15865585498718743,"232":-0.048871958569704464,"233":0.11773096340463142,"234":-0.0861836257924422,"235":-0.09665999667505187,"236":-0.1731061957480581,"237":0.16522868667448773,"238":0.08809568048057356,"239":-0.15612996900526804,"240":-0.1794894793312438,"241":0.03482357049972857,"242":0.20824567170554453,"243":-0.11979542933163354,"244":-0.2817857258645783,"245":-0.34132908258610345,"246":-0.002249731341647434,"247":0.32705925305628525,"248":-0.13298907723313774,"249":0.28627772733287876,"250":-0.08395116507709009,"251":-0.28370958724825096,"252":0.0029791856110448103,"253":-0.037469239466281765,"254":0.057668460691654114,"255":-0.6258207983937896,"256":-0.1192806256042874,"257":-0.5580910067284758,"258":0.05183122313881539,"259":-0.4287791765732684,"260":-0.299622294749605,"261":0.03087549254273939,"262":-0.30820215262994927,"263":-0.1396183484919997,"264":-0.12265712096210654,"265":-0.08316289571362628,"266":-0.05601366686633065,"267":0.2990701891309349,"268":-0.0024946857443975522,"269":-0.13407077166863246,"270":-0.11231030093424825,"271":0.015457174961945245,"272":0.21537543133002604,"273":-0.15233173854999327,"274":0.20718611602174808,"275":-0.32709971837359214,"276":-0.030049602683249254,"277":-0.08028593138831132,"278":-0.3003392835395701,"279":0.3054193243421731,"280":-0.08988735389109376,"281":-0.30799242331606336,"282":-0.45017237782337166,"283":0.4979774524801883,"284":-0.22071554509332186,"285":-0.14560645031435124,"286":-0.49644736580407683,"287":-0.031020381491798504,"288":0.15874338062372007,"289":-0.15325059233351382,"290":-0.36503698945407537,"291":-0.22891588274808528,"292":0.3857712531659906,"293":-0.24444051691564328,"294":0.056524500712060166,"295":0.15003743234239017,"296":0.35689358786045483,"297":-0.4719116435863648,"298":0.14657226318980782,"299":0.26571461348002384,"300":-0.13556538143565752,"301":0.06791302607863117,"302":-0.24081787980284114,"303":-0.8224282490988155,"304":-0.21716026281989137,"305":-0.21386659236430886,"306":0.7625718860376607,"307":-0.41543938278334713,"308":-0.03210782389151149,"309":0.5128421188835918,"310":-0.5535877257609615,"311":-0.09040081338356293,"312":-0.351746908059377,"313":-0.010533326218999916,"314":0.21092588395171707,"315":-0.21486991337504174,"316":-0.038572396499320476,"317":-0.20574817536833945,"318":0.28299400410549824,"319":-0.31487924979339327,"320":-0.17776887327039623,"321":0.18998326287777462,"322":-0.24009075204468855,"323":-0.18681802241945192,"324":-0.0017008800971429544,"325":0.3904104408693445,"326":-0.5708642058087574,"327":0.021293229228471506,"328":0.31230218910902796,"329":-0.01417163712842064,"330":-0.0075350659308732445,"331":0.06679504303385311,"332":-0.19396872633411344,"333":-0.2327615795939208,"334":-0.6598592778374165,"335":0.2469769241317833,"336":0.2535123249330187,"337":0.06826153529330943,"338":-0.0069167887817500485,"339":-0.5229797748879574,"340":-0.025128358535238874,"341":-0.23373237220396983,"342":0.10788710512733697,"343":-0.4241660790018807,"344":-0.051425649887841846,"345":-0.43672748062048233,"346":-0.24521714884778376,"347":0.30303304579074253,"348":0.11676470802310583,"349":-0.010877843005958473,"350":-0.1196455824658752,"351":-0.6200348251303778,"352":-0.09553077051692177,"353":0.00584776444005211,"354":-0.1287895913618874,"355":0.0015114685253912324,"356":-0.15304470257927044,"357":-0.09691546246113421,"358":0.17994235329131406,"359":-0.023891617904860354,"360":0.14647967568231368,"361":-0.0012852279414415752,"362":-0.004532266642785869,"363":0.21676285358681713,"364":-0.3759235611124862,"365":-0.35718653893183466,"366":-0.5010898260505796,"367":0.24111746991503144,"368":0.06714128341520288,"369":0.33471616003716964,"370":0.3528734984388132,"371":0.346281416271284,"372":-0.0351649484321809,"373":-0.010247393503647256,"374":0.286625589063698,"375":-0.06298046456567279,"376":-0.04574817179104599,"377":0.24716548847651088,"378":-0.06084798639721263,"379":0.03008210351641237,"380":-0.22067843607929025,"381":-0.07679272077237657,"382":0.17216207885493082,"383":-0.2784988217015786,"384":-0.29857550614041567,"385":0.20077337865257577,"386":-0.08216136403750215,"387":-0.2362588995502292,"388":0.19444408627980983,"389":-0.035207924490148965,"390":0.00423740015399878,"391":-0.10313832375817004,"392":-0.11578144160432435,"393":-0.11468091925546356,"394":0.17859184616078855,"395":0.3599771960451366,"396":0.23118675127686975,"397":-0.061578026443892785,"398":-0.25754971229141393,"399":0.05988040835703207,"400":-0.16954114320181066,"401":-0.32347638278033564,"402":0.36002185145788984,"403":-0.3095751994728966,"404":0.26074865492817956,"405":-0.1352543706143755,"406":0.09948204617579867,"407":-0.15861567394218484,"408":-0.5176141070208816,"409":0.1900742061832054,"410":-0.07038757960970302,"411":0.23130110334074336,"412":-0.038690462096965375,"413":-0.16128133853017826,"414":-0.3123031149361353,"415":0.4408643290644939,"416":0.058050149187298505,"417":-0.014968333921319283,"418":-0.07525407986391648,"419":-0.23726100712855594}},{"sx":1,"sy":1,"depth":420,"w":{"0":-0.35641611963857095,"1":-0.7301731594571935,"2":0.16106782931387184,"3":-0.04948410524751705,"4":-0.2329484905825541,"5":0.6658122186395458,"6":0.17181285012816883,"7":0.2955171807023923,"8":0.5621886982950618,"9":-0.26163873086722467,"10":0.075194781438232,"11":-0.08030458224235663,"12":0.7211473825952163,"13":-0.04824720130555048,"14":-0.24802305981406203,"15":-0.018373257527251396,"16":-0.13182739684204492,"17":-0.4042009591946243,"18":-0.474222665839094,"19":0.6743666555411181,"20":0.5541615522096772,"21":0.2097483449575446,"22":0.10831256308501075,"23":0.8932536633695972,"24":0.8029951879234577,"25":-0.13312699948595003,"26":-0.28532103083967136,"27":-0.1681341648596836,"28":0.083347666904303,"29":0.4764991623277227,"30":-0.3765694479186387,"31":-0.8537055036727924,"32":0.26666652889083237,"33":-0.18907675815520292,"34":-0.4443004322990086,"35":0.12066880739208354,"36":-0.05015975916799185,"37":-0.6809158235478229,"38":0.2983725593202963,"39":-0.20050781923580363,"40":0.227130090437753,"41":-0.2635486274739624,"42":-0.08596253154911493,"43":-0.9355400153483788,"44":0.1998440893702202,"45":-0.06326361833840637,"46":-0.21177214181101378,"47":-0.5498532574048811,"48":-0.2125377720302053,"49":0.24304896845061902,"50":0.39302916544939365,"51":-0.07965093681130422,"52":0.05597387783867847,"53":-0.1908333211843133,"54":1.1559036641052536,"55":0.2859238030514285,"56":-0.3015382353546728,"57":-0.5377428413757621,"58":0.16997585486626696,"59":-0.017682858405740978,"60":-0.2613343610382995,"61":0.010066214317188845,"62":0.3246977735341252,"63":0.39128973307361953,"64":0.007382664173108286,"65":-0.160604074949201,"66":-0.5823869638710502,"67":0.051626742539357603,"68":0.09824296754381814,"69":0.4085928300429917,"70":-0.2617917844196043,"71":0.5951741014992075,"72":0.25588855471829464,"73":-0.08700566288531907,"74":-0.45986772701542866,"75":-0.2472563978536107,"76":-0.7339285187178762,"77":0.2730745293213481,"78":-0.7134916390810994,"79":-0.7737333433798672,"80":-0.32763467785383404,"81":-0.030490057131863195,"82":-0.39556841548158356,"83":0.3861059899238581,"84":0.3565501374116657,"85":0.045868962354026724,"86":0.463895988748696,"87":-0.12056867640916545,"88":0.5293078869159333,"89":0.293561725390742,"90":-0.15441765644887323,"91":-0.2378549342058751,"92":-0.328931580585051,"93":-0.09122329059505876,"94":0.06294004739429579,"95":-1.2792771206349536,"96":-0.184984618832953,"97":-0.24727173563107452,"98":0.2899233029459108,"99":-0.09442254264320998,"100":-0.03433569598362135,"101":-0.3423491497697988,"102":0.7471963501852525,"103":0.28011079983900894,"104":0.27962307877492987,"105":-0.4757481450077578,"106":0.16220857124908672,"107":-0.06389062893455259,"108":-0.5889337779094015,"109":-0.206923952870341,"110":-0.4439592849173857,"111":-0.48864339913898014,"112":-0.23450303350831814,"113":-0.1748292814903878,"114":-0.186521516220683,"115":-0.13192229918091739,"116":-0.6030989213302314,"117":0.45803930531207887,"118":0.13422038895310004,"119":-0.11292670778328182,"120":0.2398283110758672,"121":0.08115408526167343,"122":0.1513270046463841,"123":0.09970408635489979,"124":-0.1436819198067994,"125":0.0878711785325209,"126":0.35300303363384194,"127":-0.07593683219875119,"128":-0.6281085266200526,"129":-0.24113827224283738,"130":0.2096559003132066,"131":-0.13813091727656207,"132":0.1610892746283868,"133":0.09895332777344115,"134":0.21056490908034256,"135":0.08275192535098831,"136":-0.21606708066609273,"137":0.43062860998625574,"138":0.14743496066926076,"139":-0.20650935005327634,"140":0.20829420249188668,"141":0.07120562693155373,"142":-0.10226022895879089,"143":-0.24260254279891827,"144":0.37131056062041284,"145":-0.2224195797440038,"146":-0.2132563449802334,"147":0.06265729919319143,"148":-0.018399171240914156,"149":-0.12704473719593753,"150":-0.09618033687746845,"151":-0.159318757049523,"152":-0.12715837655786408,"153":-0.22612659586223288,"154":0.00250538221312842,"155":0.009408429397074404,"156":0.09474802484736013,"157":-0.05489717178528665,"158":-0.28154930239262743,"159":0.009133590404966297,"160":0.052279500092074056,"161":0.3812047226791876,"162":-0.06452813660811257,"163":0.1904501009025811,"164":-0.18884231547368407,"165":0.15011029669847809,"166":-0.11126539937032749,"167":-0.001699796762713342,"168":0.15148853874100274,"169":0.4015836584918858,"170":0.246821066601849,"171":0.38274327270510433,"172":-0.6154804308288047,"173":0.3997100171533451,"174":0.11215401893064651,"175":0.09411214621016566,"176":-0.5240150535866667,"177":-0.0660892637472957,"178":-0.07040323093733061,"179":0.6661630574230467,"180":-0.09512437641412068,"181":0.5374409939616954,"182":-0.20187456126564868,"183":0.05578523843633657,"184":0.1911895010822835,"185":0.244480630627885,"186":0.1939513792141049,"187":0.1802617882776498,"188":-0.15255597938231416,"189":0.16842350975502698,"190":0.6211398783507956,"191":0.2677185449092786,"192":-0.1217336910007864,"193":-0.41666488648241007,"194":0.5824031817403149,"195":-0.5010349607327239,"196":-0.059258837753877906,"197":-0.6576886710175661,"198":-0.0987351610414382,"199":-0.4952340476904845,"200":0.2880848883095076,"201":-0.6397845064075786,"202":0.26208703585741217,"203":0.06689426404954284,"204":-0.2300169453735935,"205":0.7270284052562739,"206":0.00230760650869612,"207":0.14727946080595897,"208":-0.26834468800020883,"209":-0.11627189492827701,"210":-0.18490551837906033,"211":0.2300246271413913,"212":0.047958151241972766,"213":0.361042758395715,"214":-0.6666095453813887,"215":-0.3329379750322625,"216":-0.06350835884224947,"217":0.11459693561095219,"218":0.6199329609993752,"219":0.09530318038856,"220":0.10996451537935809,"221":0.055800880446464265,"222":0.05344683577032068,"223":-0.4520483603001391,"224":0.23370393549525928,"225":0.10398352152290016,"226":0.5232914295625928,"227":0.4877297501911748,"228":0.14342881764437973,"229":0.2391563155335595,"230":-0.14555300455656384,"231":-0.5168614228681067,"232":0.08725963924252463,"233":-0.18621944558915238,"234":-0.3749351697599551,"235":-0.05941988569637573,"236":-0.052109509365424696,"237":0.3196326495854062,"238":-0.16787226833566532,"239":0.11321094911120598,"240":0.4691394007512199,"241":-0.10743060361759382,"242":-0.6814004392739866,"243":0.39563376192151667,"244":0.4526662226079732,"245":-0.4240588485820208,"246":-0.04511162292872606,"247":0.8404512859949248,"248":-0.04780324319480941,"249":0.28859044559415464,"250":-0.0817195902997193,"251":0.6215429734504713,"252":0.049812222971811454,"253":0.21312181317356735,"254":0.22331291314881146,"255":-0.410703182193377,"256":0.6225419435361647,"257":-0.06055935205388778,"258":-0.055279555799949774,"259":0.33852612105959884,"260":0.35404629637913515,"261":0.5717516689800612,"262":0.4601064674637193,"263":-0.5639134606316868,"264":-0.2961541349868586,"265":-0.14130756822625834,"266":-0.11576854854604243,"267":-0.27349567213612064,"268":0.48399766860888194,"269":0.2058438782308937,"270":0.6558155939745532,"271":-0.33939500998657524,"272":-0.08586398317764621,"273":-0.20701973943604562,"274":0.44032188611498535,"275":-0.252336043847239,"276":0.6563424409567148,"277":0.024267779451511106,"278":0.17876510785129363,"279":0.43147567357332284,"280":0.004159222926989237,"281":0.22832162519008475,"282":-0.07078350066610287,"283":-0.2601908940317642,"284":-0.13024771399763055,"285":0.08711976842517587,"286":-0.015401431229927714,"287":-0.15357149894608044,"288":-0.08611291125204558,"289":-0.01026853193756245,"290":-0.24379636980696426,"291":0.1839739812849801,"292":0.4345408266192975,"293":0.19502185881262876,"294":0.6782546820543571,"295":-0.6392191125559116,"296":0.3951494594726199,"297":0.1039746142930186,"298":0.9725407700141657,"299":-0.11356870155783257,"300":-0.0180953257987563,"301":0.26648339313477226,"302":0.14598722843430803,"303":-0.004619769717962065,"304":-0.033926809023006044,"305":-0.2939067895015965,"306":-0.05482464843822469,"307":-0.4674308382828679,"308":-0.4879110336211278,"309":-0.41549207251494663,"310":0.025098710926006927,"311":-0.1567286838171866,"312":0.061159575246015445,"313":-0.07033570875521712,"314":0.5765836100284146,"315":-0.2154723126185945,"316":0.5381540550373441,"317":-1.3916578911567528,"318":-0.6839120447729365,"319":0.39555529325794314,"320":0.09482064146164736,"321":0.18795564754072827,"322":0.20464668136171837,"323":0.7405501072444928,"324":-2.4528058443505,"325":0.26070097192777064,"326":-0.04400361669436546,"327":-0.07844201661329302,"328":-0.1408031799705995,"329":0.19657329352267058,"330":-0.07778956092857733,"331":-1.0068098120808127,"332":-0.27755558347965553,"333":0.9037357485213483,"334":-0.21196166314149428,"335":0.08218360021508005,"336":-0.22449905551632857,"337":0.4053328400515695,"338":-0.8336602804655473,"339":-0.14365017339646455,"340":-0.24095216518683307,"341":-0.2963841120002626,"342":0.5531721984452131,"343":0.377908049073457,"344":-1.176420700111887,"345":1.0725105587532784,"346":-0.8926874610038671,"347":-0.18565110516236855,"348":0.38746248805466443,"349":-0.13283288773347227,"350":-0.15356714492228762,"351":0.10802296396423497,"352":-1.189408505198321,"353":1.019286622087159,"354":0.32694920449508214,"355":-0.6696382134345369,"356":0.1950171385991644,"357":-0.23903452220656257,"358":0.3960639874149564,"359":-0.8015036726726967,"360":1.012053488871055,"361":-0.07679486637036192,"362":-0.03978850176237371,"363":0.11464572825970265,"364":0.4993594724453201,"365":0.38511881932852526,"366":-0.8215581021561029,"367":0.8185801274472052,"368":0.0979619877218259,"369":-0.024595388644464696,"370":-0.21624991215699438,"371":-0.18063518764500025,"372":-0.11225553264011726,"373":-1.7804550619840094,"374":0.19205353985933277,"375":0.26461376594200225,"376":-0.006610176873663653,"377":-0.41854339328645584,"378":0.20864249961397957,"379":-0.27139262689564786,"380":0.46503063830718716,"381":-0.5439312425681171,"382":0.24673110434822404,"383":-0.04908009199662613,"384":-0.2361048730311684,"385":0.3272505784380349,"386":-0.019580079221099042,"387":0.25057901566963997,"388":-0.4463303310738697,"389":0.04956831662513169,"390":-0.10123495056114902,"391":-0.37958338026793553,"392":0.11240458522640598,"393":-0.04652829665652861,"394":-1.0317213653045927,"395":0.5160312799127306,"396":0.15368903717973303,"397":0.009914553835770496,"398":0.02778543268630393,"399":0.09118508860406092,"400":-0.5443920350967879,"401":-0.7461570856018351,"402":0.6446560703462993,"403":-0.6505430068341547,"404":-0.3178717301936375,"405":0.2351458957382113,"406":-0.48328075243785745,"407":0.34353234916154973,"408":-0.11632943754445066,"409":0.004744100764221739,"410":-0.002570635097560597,"411":0.07979802746333345,"412":-0.2406470211780435,"413":0.11877944859572749,"414":-0.4111522384470318,"415":0.342941215569048,"416":0.19376158827654663,"417":-0.0941241410852463,"418":-0.16917510782102735,"419":-0.4229806268519517}},{"sx":1,"sy":1,"depth":420,"w":{"0":-0.1961554105311265,"1":-0.07027857066449274,"2":-0.06525574218888158,"3":0.35253374200500226,"4":-0.060227721670164165,"5":0.5015482659905828,"6":0.37997100000879247,"7":-0.2136413757472576,"8":0.12372296446550858,"9":-0.10217473286407223,"10":0.15974539910111718,"11":0.13971226374952317,"12":-0.39012929844159433,"13":-0.23819213823043,"14":-0.21817451196814816,"15":-0.006594159668241645,"16":-0.11068202557979548,"17":-0.217532758403769,"18":-0.062412509182414054,"19":-0.27814651178775357,"20":0.3800966890757528,"21":-0.1433028396961423,"22":-0.00018073437912426496,"23":0.06944063078419498,"24":-0.5960436750582921,"25":-0.23385823062500813,"26":-0.006751222070395276,"27":-0.06038001762232558,"28":0.2244020878383418,"29":0.02101123626882024,"30":-0.07170468657720168,"31":-0.12169324124527439,"32":0.18319729578951272,"33":-0.06353944792932313,"34":-0.7393307089340364,"35":0.17656030016859917,"36":-0.3040909360813724,"37":0.12902758239308743,"38":-0.019953821064613287,"39":0.36200584132450553,"40":-0.06924878459500601,"41":0.06631471793211993,"42":0.17494365519005883,"43":-0.37680574024028174,"44":0.08970550442013668,"45":-0.35676890624547297,"46":-0.288483184353956,"47":-0.028513063102662887,"48":-0.11224608363130108,"49":0.20015612582225037,"50":-0.38365981994823145,"51":0.17141709910026956,"52":-0.047304073919145165,"53":0.2093023243626869,"54":0.06654835877946925,"55":-0.23468217815105005,"56":0.10260731012653147,"57":-0.4983734383648809,"58":-0.1420878563979198,"59":-0.07629581242720075,"60":0.1814003820389881,"61":-0.21843145771925396,"62":0.48582498122874457,"63":0.06103149750459184,"64":-0.15752353067024386,"65":-0.4247753471412865,"66":-0.07843642537126168,"67":0.15533665650829967,"68":-0.27461348365987476,"69":-0.38188940371948943,"70":-0.025539872378355744,"71":0.02471326872288622,"72":-0.12713563514106854,"73":-0.10723863485700268,"74":-0.779633820198463,"75":-0.2740639652201909,"76":0.18496555541641707,"77":-0.0179956199187017,"78":0.006733878822476431,"79":-0.31503590653734204,"80":-0.5459911337752511,"81":0.014508558825121911,"82":0.15182180054631372,"83":-0.25686073442581814,"84":0.015019561049884975,"85":0.15024424392217814,"86":-0.13947051580965458,"87":-0.20716010564589335,"88":0.29519746711487904,"89":0.05849879699923079,"90":-0.4162429944802887,"91":0.17179813004100522,"92":0.1087250336617416,"93":0.032907743977734716,"94":0.34650102644840225,"95":-0.8460842443752671,"96":-0.0950604515924155,"97":0.1240482924090694,"98":0.10785789482656984,"99":0.03572340924166043,"100":-0.2800322444304749,"101":-0.30571829613089646,"102":-0.14635966430169964,"103":-0.2233337767605636,"104":-0.10830785630339759,"105":0.08908004297422659,"106":0.11057039598626452,"107":-0.38964147800780824,"108":-0.13294970035003953,"109":-0.040758164452729916,"110":0.1671774331754593,"111":0.14928127577032568,"112":-0.012017871722602462,"113":-0.2379615218719947,"114":-0.5585603557563781,"115":0.5486361141110013,"116":-0.5696358605378836,"117":-0.16634493360919284,"118":-0.367387637840912,"119":-0.058576640124181144,"120":-0.13774392650258943,"121":-0.23729599173183838,"122":0.12747870749089704,"123":-0.21581647127734058,"124":-0.010089305096966142,"125":-0.35211759158918987,"126":0.015166414719142597,"127":-0.24292088821067245,"128":-0.21372215539686273,"129":-0.3698205079057932,"130":-0.8225398954861037,"131":0.012245373040374739,"132":-0.14049282921226905,"133":-0.0003220947578323914,"134":-0.4150551342287393,"135":-0.22896107536261256,"136":0.22584391769287077,"137":-0.23486887971646372,"138":-0.3792312835471919,"139":-0.37462500469348575,"140":-0.08494595869966524,"141":-0.1935918446746374,"142":0.15457781047400193,"143":-0.25920210864642423,"144":-0.4285455133320172,"145":0.07322421526748098,"146":0.18805586596141685,"147":0.1097526813179172,"148":-0.22190349086113173,"149":-0.13169373337542872,"150":-0.11330036850418874,"151":-0.2091030032243787,"152":0.2762337645817913,"153":-0.642560845914748,"154":0.14214434252780137,"155":-0.16239975426084108,"156":-0.21633405176414214,"157":0.6116907569650024,"158":0.04497909491899927,"159":-0.05439863523834343,"160":0.3180978998937582,"161":0.1597450205310753,"162":0.013200550968346512,"163":-0.08147865405736271,"164":0.2379178160776794,"165":-0.20157818143292627,"166":-0.25108435607138846,"167":-0.05331474758127854,"168":0.17638898101296316,"169":0.044250979890067675,"170":-0.02270731035668409,"171":-0.1807747030563395,"172":0.30152012137631007,"173":-0.25900061863095036,"174":0.4055993145950082,"175":0.23229926916308366,"176":0.07899157878747307,"177":-0.004068573255827384,"178":0.06307451663213598,"179":-0.16875963187821993,"180":-0.5736843813217187,"181":0.007276208646327012,"182":0.08563228090020727,"183":0.008289540883995793,"184":0.04766038259196386,"185":0.4309841404782011,"186":-0.12211730662636776,"187":0.04890174884108616,"188":-0.30995663457254075,"189":0.12810624959567107,"190":0.07742440080031308,"191":0.000050230277133483525,"192":0.33503917041569387,"193":0.06365272197951752,"194":0.3163868616203347,"195":0.33169559911676094,"196":0.010587289157544722,"197":0.07111821135221869,"198":0.10658173568384546,"199":0.3766763115411382,"200":0.15575095337015074,"201":-0.529357856477082,"202":-0.4874616845625604,"203":-0.16320044464039107,"204":0.015497318503265639,"205":-0.14458632589732634,"206":-0.09012429772628047,"207":0.13819702455077373,"208":0.24636567636875834,"209":0.1513079862530823,"210":-0.005367397865396039,"211":0.3049255165722863,"212":-0.012383276819136594,"213":-0.10283296307565407,"214":0.4350903491084293,"215":-0.09907951887477391,"216":0.09091959887776783,"217":-0.1922220797184492,"218":0.12680146878868412,"219":-0.08902824108869851,"220":0.3367192770654488,"221":0.7345092967266548,"222":-0.22753499160786367,"223":0.7133920336153794,"224":-0.05369797990325683,"225":0.15525386967285532,"226":-0.18656938680963056,"227":0.0891805682962721,"228":-0.45526817159902344,"229":0.697435610633146,"230":0.00946859059945609,"231":0.019296659581475632,"232":0.08652195747405393,"233":-0.18390774881916477,"234":0.2396428155768745,"235":0.5364603567350125,"236":-0.07952667650139023,"237":0.13313865934990338,"238":0.07573422390622693,"239":0.03432699248084035,"240":-0.23798974010428378,"241":-0.14125215915563788,"242":-0.1330385731564733,"243":0.09243987120004338,"244":-0.20222151733382127,"245":0.08843592236009294,"246":-0.016343912880016617,"247":-0.38810796022676886,"248":0.3618738409518136,"249":0.5191462719260409,"250":0.6305924793391027,"251":-0.23579221571646838,"252":0.09534463390986452,"253":-0.08685414686620652,"254":-0.30079737189490074,"255":0.45420300277902104,"256":0.04418897826540418,"257":-0.6577511659669983,"258":0.5174884038140667,"259":0.1676843684742138,"260":0.09028221389437212,"261":-0.12327174404077555,"262":1.0032541324702373,"263":0.08758916171033557,"264":0.2955188879152814,"265":0.17281223061008164,"266":0.13176877851322832,"267":-0.14240281713205472,"268":-0.07741740780364785,"269":0.00622863599620024,"270":0.37383149241300423,"271":-0.10886505936585025,"272":-0.05173717161333322,"273":0.24089000305473135,"274":-0.11730667899987227,"275":0.03952877144877821,"276":0.7090483016302709,"277":-0.1622475122865424,"278":-0.19218823272261365,"279":-0.1433164258244279,"280":0.20984032008610848,"281":-0.29770487340974217,"282":-0.4114348373882918,"283":0.6345506549187948,"284":0.781780084541027,"285":0.40017740845487626,"286":0.10685810226810714,"287":0.05165039981587589,"288":-0.45586458931387686,"289":-0.36225247724680154,"290":1.1955696236545774,"291":-0.19008232523274354,"292":-0.23613686466439215,"293":0.4501625047176081,"294":0.003344485644175274,"295":-0.064751195492161,"296":-0.45014542485619935,"297":0.6042641256197143,"298":0.1324048534548607,"299":-0.17785222433511996,"300":-0.5824274241863469,"301":-0.07331544940012916,"302":-0.17067143441242902,"303":-0.3709318619891885,"304":0.5793125139425567,"305":0.16029302482161645,"306":0.060230282704821544,"307":0.15085251255861376,"308":0.07329718798935621,"309":0.08988023227434919,"310":-0.3414158572751388,"311":0.9287439602301442,"312":0.41899405879408463,"313":0.13577806128572376,"314":0.25462380451085037,"315":-0.09721478007551633,"316":0.009953920418001616,"317":-0.47843530682238045,"318":0.41650318972263756,"319":-0.315697269811077,"320":-0.48708270337050935,"321":0.04593055932807812,"322":-0.0778359388025869,"323":-0.19864505847559571,"324":-0.42628883746450763,"325":1.7927167772411252,"326":0.5037083828760405,"327":0.05422505837403095,"328":0.004716863284645598,"329":-0.07560078440729567,"330":-0.0016737698840141061,"331":-0.31460925999968903,"332":0.08030905881275265,"333":-0.46977414903328646,"334":-0.32635952561632803,"335":-0.2721597337115563,"336":-0.2600727176431764,"337":-0.17276594902720352,"338":-0.20745459382101736,"339":-0.21359553809339624,"340":-1.0408432975090984,"341":-0.01663171057989373,"342":0.28992278807168786,"343":-0.3117703317886721,"344":-0.15974919730011863,"345":-0.05162267776330229,"346":-0.7445240491438829,"347":-0.34455393785952915,"348":-0.0626261356699854,"349":-0.4358269079461451,"350":-0.26345160456448674,"351":-0.017165657405665904,"352":-0.14547969780631584,"353":-0.06417493362535176,"354":-0.2677070346097437,"355":-0.6830365922546451,"356":0.4528048495547481,"357":-0.31304864402696947,"358":-0.11365715007049147,"359":-0.26557237374298626,"360":-0.03878856051544595,"361":0.21659283128687604,"362":0.16926890745135448,"363":-0.2102487234057985,"364":-0.16412203529026745,"365":0.1094948866897651,"366":-0.3358580090660402,"367":0.004785318522955417,"368":-0.12708001039170694,"369":0.0539052136521646,"370":-0.07786495776206395,"371":0.04683292267059797,"372":0.08549691175174669,"373":-0.22647967521822013,"374":0.156681745561431,"375":-0.31554667887516635,"376":-0.12666265214084982,"377":-0.366279862557953,"378":0.10429475494409336,"379":-0.2634698733843799,"380":-0.2968878629564149,"381":-0.3528338009309029,"382":-0.6539110032492602,"383":0.1720731336527353,"384":0.08583127576006881,"385":-0.061576787705449124,"386":-0.35462396432904464,"387":-0.31786623289141036,"388":0.7787851413145088,"389":0.2792586148171097,"390":-0.05512184304592581,"391":0.3843574391778153,"392":0.08573032665778098,"393":-0.35617013122308977,"394":0.030917585494102267,"395":0.5171326673555229,"396":0.14147081844216808,"397":0.3013680621101282,"398":-0.2951393474636921,"399":-0.05922928032511957,"400":-0.2412988404171883,"401":0.26414929188961167,"402":-0.026119626257153538,"403":0.01799335811388048,"404":0.42639786652514755,"405":0.5555420331067619,"406":-0.003628842254553947,"407":0.13235059152429296,"408":-0.23757019560442563,"409":0.4048455004281088,"410":0.14074038712823542,"411":0.1879129406043543,"412":-0.3939435203116815,"413":-0.033481509806965855,"414":0.14032889512046617,"415":-0.6204841423013467,"416":0.10641554509947564,"417":0.45175603827624145,"418":-0.14870950891029716,"419":-0.2181772504900468}},{"sx":1,"sy":1,"depth":420,"w":{"0":-0.038282257792014655,"1":0.010038567052847901,"2":-0.07210377420894656,"3":-0.006250946464218275,"4":0.008926394418830088,"5":-0.024193254689263553,"6":-0.042905713015294555,"7":-0.02774722835318049,"8":0.0030572976813271055,"9":0.008371280102704208,"10":-0.04675946860981977,"11":0.014278350749731494,"12":-0.016483495155073292,"13":-0.017438245400965717,"14":0.0077303551674633075,"15":0.005064571402266197,"16":-0.021765712006220544,"17":0.033490055957009934,"18":-0.04793546169029659,"19":0.0060731872787955716,"20":0.037748376756996604,"21":0.0010957160827458313,"22":-0.0048354752003696745,"23":-0.01265287690668568,"24":-0.06328088998914151,"25":-0.00708446283736044,"26":-0.005380863700978189,"27":0.07501607016145176,"28":-0.02416426900808165,"29":0.0180403670611142,"30":0.010808030505628542,"31":-0.050172939665874904,"32":0.03643225218768645,"33":-0.015515656131569315,"34":-0.002925653247582979,"35":0.003962176514688809,"36":-0.04993610465953631,"37":0.03367508424212973,"38":-0.0036341742416663883,"39":-0.00787352761053647,"40":0.04409905436363313,"41":0.031166975723552946,"42":0.02100974612004107,"43":-0.02068267397512064,"44":0.01291622325128158,"45":0.005676541575062026,"46":-0.0006822523750004998,"47":-0.042194836114674686,"48":0.006458302987108865,"49":0.009221216776676954,"50":0.03946350216738478,"51":-0.0552586540716629,"52":0.0018252418882873796,"53":-0.01920176349567635,"54":-0.03350215195038535,"55":0.01897788053696283,"56":0.044173220248179976,"57":-0.032829863811372685,"58":0.055671221571723044,"59":0.03212878317217693,"60":-0.007501752141632467,"61":-0.01158287626244483,"62":0.005336939475266127,"63":0.031560696659411414,"64":0.0652496731635252,"65":0.024990536896910227,"66":-0.020396600778681964,"67":-0.009342954813333004,"68":0.03265215874135506,"69":0.02896323647225961,"70":0.0005063843641689552,"71":-0.00447739566862579,"72":-0.016548774084917433,"73":0.0019629831083650567,"74":-0.015672583125813613,"75":0.012689914366447676,"76":-0.01831609762564968,"77":0.02019334362994436,"78":-0.01478870234861715,"79":0.021054255953448828,"80":0.01978642381850996,"81":-0.028889326160414765,"82":-0.040245297625058365,"83":0.013737816878901942,"84":0.014153132470227411,"85":0.03633147564884556,"86":-0.1247480302404324,"87":-0.015469973479991886,"88":0.03284894881716523,"89":0.0024214175257798475,"90":0.015495952197074713,"91":-0.04660094717348067,"92":-0.03225339157727217,"93":-0.0369227547506451,"94":-0.029844364252135318,"95":0.043394306095300234,"96":0.04324916428738257,"97":0.008952588169515356,"98":0.027762034367380936,"99":0.026362368990637614,"100":-0.0017746748386290383,"101":-0.035549673936336616,"102":0.07339333663491197,"103":-0.04104659923206358,"104":-0.021339205005875224,"105":0.011197332604078994,"106":-0.043027029369840014,"107":-0.02886538461450731,"108":0.002458874281964698,"109":0.001561739863980374,"110":-0.00893124348724202,"111":0.0003335388216803895,"112":-0.013878347767881705,"113":0.04188030550023602,"114":0.03887056155746148,"115":-0.0036505624277334827,"116":0.008692166867127718,"117":-0.0032556833632673312,"118":-0.03488262592348926,"119":0.029204981359719138,"120":-0.01592275163400219,"121":-0.02376797233359344,"122":0.06603552241671312,"123":-0.04585019735110883,"124":0.014376163065593434,"125":0.01418570389861367,"126":0.021996002438258624,"127":0.03449861054696704,"128":-0.00841417358541711,"129":0.022914139034876324,"130":0.013414861978225015,"131":0.0027406786932423297,"132":0.02252295378273564,"133":-0.0052593389258353265,"134":-0.0454366604524894,"135":0.05223653434721462,"136":-0.03222989788089344,"137":0.006052837871793145,"138":-0.022076420152491737,"139":-0.04421230131611143,"140":0.036209511543811385,"141":-0.018889219600886457,"142":-0.014108619081754372,"143":-0.04985506761526708,"144":-0.0623743551990092,"145":-0.007290130346007253,"146":-0.03429788769435744,"147":-0.018470278542901543,"148":-0.011682234563787754,"149":-0.03584052394178643,"150":0.00985589128444596,"151":0.008353104652287476,"152":-0.0173106583155137,"153":-0.011395291714654294,"154":0.03007860559289546,"155":0.03742529810259678,"156":-0.02179839918637305,"157":-0.011991286996391754,"158":-0.03177584729055247,"159":-0.060782820353490676,"160":0.007703219073560916,"161":-0.01650470129647747,"162":-0.04630543051853894,"163":-0.033219757782814524,"164":-0.05947430217886293,"165":-0.010418349955828113,"166":0.02339475263544855,"167":0.03265557663384641,"168":-0.034325655849812856,"169":-0.02007035601728433,"170":-0.03677966178166612,"171":0.002971587056467107,"172":-0.09126550801555747,"173":-0.002151087946892472,"174":-0.02253118063916738,"175":-0.02666026697675998,"176":0.014452980491584664,"177":-0.0197209296876933,"178":-0.03483107587625748,"179":0.008863550427467138,"180":-0.029016047987065665,"181":-0.04926974751379791,"182":0.028115283196932007,"183":-0.0054309889943210555,"184":0.017682833526716048,"185":-0.03852970181656641,"186":-0.04793884268428171,"187":0.031053815662525325,"188":-0.005314763654418154,"189":0.013907128363176788,"190":-0.02356681997492509,"191":-0.012409940012162179,"192":0.03033592947626984,"193":0.041265670620428324,"194":-0.005327372121718219,"195":0.023202594506184972,"196":0.019147311287993678,"197":-0.07826869570925378,"198":0.0071383334876969125,"199":-0.019589910086862408,"200":-0.01038735619091012,"201":-0.0517047712536925,"202":0.005713304519932398,"203":-0.030722831503993003,"204":0.016539949264076904,"205":-0.006965796045694093,"206":0.008717099127925601,"207":-0.028241175085141398,"208":0.012319533580382323,"209":0.0346270809846745,"210":0.07224440933299889,"211":-0.04938120140253258,"212":-0.0030658466893495146,"213":0.030190642777212128,"214":-0.02253527176533194,"215":0.02440958476794621,"216":0.0032759815790125643,"217":0.01679850791896009,"218":0.0037816900261185026,"219":0.04438441279424175,"220":-0.0063761801619066855,"221":-0.0269547050187768,"222":-0.03625573868621967,"223":-0.014514396034946806,"224":0.014627360376725806,"225":0.040582543410161334,"226":-0.04639989838108042,"227":0.047057621401050714,"228":-0.029642198711232425,"229":-0.028170919102742074,"230":-0.022905425064415445,"231":0.009988547930914915,"232":0.009856761132004604,"233":-0.04556988211127369,"234":0.005143126493003874,"235":-0.030716208504205356,"236":0.00042124145078529385,"237":0.022643867923183666,"238":-0.0002040610088703233,"239":0.0032136253531374363,"240":0.004771963115289259,"241":0.0050907842051343384,"242":0.025738406703384207,"243":0.003389031611961351,"244":-0.057584254985094174,"245":-0.011590382644950948,"246":-0.013366751978524148,"247":0.01802849254780577,"248":-0.02384654622553733,"249":0.0075314657853705795,"250":-0.03921378145930329,"251":0.0018426277149429077,"252":0.018069960968696945,"253":-0.054520100445906494,"254":-0.044137667242570094,"255":-0.0017941027176043038,"256":0.051510771175405604,"257":-0.005007325790135001,"258":-0.04123500100287961,"259":0.010367396861287612,"260":0.060969938028838586,"261":-0.01325133089273379,"262":-0.03269789258410695,"263":-0.046240313734764976,"264":0.052567515102446095,"265":-0.03473803181328797,"266":0.0022499697320516763,"267":-0.0030904266234310493,"268":-0.026766737105525046,"269":0.025412980900136904,"270":0.008726076435379945,"271":0.026926322254083097,"272":-0.025997780108811475,"273":-0.01646609157631381,"274":0.014413362930987836,"275":0.010412624780075819,"276":-0.03262330793486651,"277":-0.04354533397651233,"278":-0.0044325681733572595,"279":0.01968767805988466,"280":-0.01740256846496561,"281":-0.021091007424258058,"282":-0.0534939902612621,"283":0.0020490337212873944,"284":0.0027886031859076102,"285":-0.03452261193836755,"286":-0.04958982423573552,"287":0.0012656560044770606,"288":-0.001258367670658486,"289":0.00021883601674873332,"290":-0.019231295616166724,"291":0.0025853508465613424,"292":0.01503505596198654,"293":-0.010860986683041798,"294":-0.014555550795671975,"295":-0.022392115857106085,"296":-0.04136599381941683,"297":0.03846476221324211,"298":-0.03682254149375606,"299":0.020618874070592912,"300":0.018241690427446448,"301":-0.008638729606749312,"302":0.009988196156320761,"303":0.03577154808081695,"304":0.026831811974598295,"305":-0.006165895086850073,"306":-0.042841898984940056,"307":-0.006926689197901098,"308":0.01777534166391295,"309":-0.0060072782446258756,"310":-0.0052554638493629326,"311":-0.04297450755221807,"312":-0.051149071721607056,"313":0.04259120571231083,"314":0.004714092588246601,"315":-0.0011872638374833496,"316":-0.011172211293388452,"317":0.018575531636738703,"318":0.004595712351451845,"319":0.031659849595635746,"320":0.043371775832537963,"321":-0.021123730705801803,"322":-0.04424071964216646,"323":0.04122096050651023,"324":-0.037033178528214736,"325":0.048825239467326725,"326":0.02268244815875347,"327":0.0034948431553975656,"328":-0.07412868438172343,"329":-0.018442969480381956,"330":0.03719556346248488,"331":-0.0324588665932503,"332":0.012665294616473229,"333":0.0016333480983803115,"334":0.0027836008147438837,"335":-0.0055673578318334044,"336":-0.01018548827460203,"337":-0.0038859000054141165,"338":-0.03011572465136016,"339":-0.055462274401061676,"340":-0.04323487689959239,"341":-0.017026499571251845,"342":-0.03639673027458814,"343":-0.03446647783871995,"344":0.013274679210754875,"345":-0.02827783274147727,"346":0.011319618362236617,"347":0.015898992155334538,"348":0.017310485232842773,"349":0.003033656871378131,"350":0.023025132399963105,"351":-0.0000027873012685770665,"352":0.011195661464231857,"353":0.009239191062077073,"354":-0.05692460359836453,"355":-0.045132477141275246,"356":-0.0027320931288001057,"357":0.05456660073290017,"358":-0.01018999297346329,"359":0.019564003834029547,"360":0.001128300694763442,"361":-0.0023842321447328225,"362":-0.041735733406279785,"363":0.030907259404421242,"364":0.0035072836065866515,"365":0.008894248726444417,"366":0.0053144930126000495,"367":-0.04009039466132793,"368":0.020752832634625133,"369":0.021715782175255056,"370":0.03363068939598416,"371":-0.00003274329240304025,"372":-0.03519139258769604,"373":-0.04594530683985273,"374":-0.009631273068990722,"375":0.004705055662769371,"376":0.010884992929620866,"377":0.0053393591552035186,"378":0.015870002710692804,"379":-0.03806457900684311,"380":0.03374537602561109,"381":-0.04910989715836731,"382":-0.012570125578222457,"383":-0.03362395436635498,"384":0.007967069009801927,"385":-0.020764593679855156,"386":-0.04909485768901787,"387":0.024684653167226206,"388":-0.06747243011218605,"389":0.016451061818459782,"390":0.020196744302599674,"391":-0.05670001208112825,"392":-0.023010542195055755,"393":0.016209724325503636,"394":0.013768403795792679,"395":-0.02369156042681986,"396":-0.01529797102106428,"397":-0.013416141400908093,"398":0.028605400870336726,"399":-0.004133008350986627,"400":-0.023702402200145422,"401":-0.011849170865739283,"402":0.0330402645891866,"403":0.01427619948563453,"404":0.021009650747008505,"405":0.023435056850553852,"406":-0.055947472396972425,"407":0.01896079994749509,"408":-0.008112624371349393,"409":0.033821184857762074,"410":-0.011360806282932288,"411":0.03776500405123078,"412":0.03207244469202341,"413":0.030295577663739068,"414":0.033501838171585065,"415":-0.004956385823181449,"416":0.007353106338688802,"417":-0.024206675492218718,"418":-0.033460717322509485,"419":-0.03351632591410246}},{"sx":1,"sy":1,"depth":420,"w":{"0":-0.12882494979253167,"1":-0.3217232592104446,"2":-0.18137733678422555,"3":0.23326779006201456,"4":-0.03795553101824557,"5":-0.17291981677854418,"6":0.04122209477834512,"7":-0.03299112844822592,"8":-0.10189414507424889,"9":0.10002438098926504,"10":-0.1941053132416631,"11":0.06712872173447405,"12":-0.07400003819075474,"13":-0.02890340417096319,"14":-0.06509339632288515,"15":-0.014356159819287976,"16":-0.028499980367082216,"17":-0.10918016311375761,"18":-0.06752299599449633,"19":0.05355578885430442,"20":0.07190354461030113,"21":-0.06795661047222824,"22":0.23014501966220371,"23":-0.15955760654480647,"24":0.16998734860653147,"25":0.011390055352640233,"26":-0.0950996684545597,"27":0.144264330247272,"28":-0.014209879416138249,"29":0.18499573956815865,"30":-0.011404658375799702,"31":-0.050593448634971235,"32":-0.029972680755582917,"33":0.13242404356089058,"34":-0.05156635867977814,"35":-0.19488147171183012,"36":-0.19495103065088115,"37":-0.08337647435355641,"38":-0.12388395071047634,"39":-0.0352055389489496,"40":0.02041030052815511,"41":0.02339908042621602,"42":-0.042420587058959985,"43":-0.260036160146583,"44":0.09626535540142016,"45":-0.1699656093561464,"46":0.046648423902276866,"47":-0.013265914193534479,"48":0.04733314434831917,"49":0.13239205467357915,"50":-0.04806916451816463,"51":0.04229549510478529,"52":-0.08195169028677261,"53":0.0633509331581717,"54":0.048562578093523046,"55":-0.013730921986905696,"56":-0.08988492344334278,"57":-0.05611816657976669,"58":0.15220586207761527,"59":-0.06243223724731526,"60":0.05120411856179419,"61":-0.055912588236365565,"62":0.11451442434011262,"63":-0.0918839791183589,"64":0.001521612852552332,"65":0.19997399036054397,"66":0.10442663426029831,"67":0.16504510077693496,"68":-0.07492218123452477,"69":0.017087332698436382,"70":0.0802567393250799,"71":0.18005247089564316,"72":0.13785418330753396,"73":0.14150908361601874,"74":-0.19908871753825477,"75":-0.0832786701501347,"76":0.057881591766976916,"77":-0.1107990980870244,"78":0.24049861577133838,"79":0.07399454065222963,"80":0.03391622952570394,"81":-0.12294817977214403,"82":-0.06597022928712938,"83":-0.002664354373471065,"84":-0.04802603635063598,"85":-0.007848612794668355,"86":-0.034229578492442646,"87":-0.019738500606496276,"88":-0.11010439726446304,"89":-0.07132665957691396,"90":-0.09886383311572713,"91":0.27708657031132183,"92":-0.09815836297867254,"93":0.00920100812123809,"94":-0.05542980185465665,"95":-0.18812229453644205,"96":-0.1371819305584664,"97":-0.02458306172921373,"98":0.06418989806999112,"99":-0.1021416901341363,"100":0.1205421219939323,"101":-0.02917977384850645,"102":0.08603267379198827,"103":0.03313746607467997,"104":0.121812009546472,"105":0.09193002291312637,"106":-0.1805624099032041,"107":0.17553972933724618,"108":0.08038782758237453,"109":-0.13320965933846488,"110":-0.15613207399246937,"111":0.16184321692968845,"112":0.21487736579200611,"113":0.18875341966755918,"114":0.3790625471726514,"115":0.013106097559285098,"116":-0.12271924604810822,"117":-0.029384927681148903,"118":0.06966245956016945,"119":-0.0447157666669724,"120":0.1237969891839116,"121":0.21971612912917535,"122":0.10355288822301931,"123":-0.0837388244177149,"124":0.11397802432238079,"125":0.004028268491172937,"126":-0.01827002819329468,"127":0.17477932964959045,"128":0.16397681096061345,"129":0.017931454178451475,"130":-0.05657833744060616,"131":-0.03990330466956475,"132":-0.20510237904778875,"133":-0.004960108111168281,"134":-0.06201921381057064,"135":0.1257682513085492,"136":-0.12162353500682818,"137":0.018135904968495375,"138":0.08022545452676212,"139":-0.2666032592401016,"140":-0.0995010803120913,"141":-0.06733405018935831,"142":-0.29661953349532216,"143":-0.04475720591915422,"144":0.0022921270251351805,"145":0.057487871217751015,"146":-0.01853205770185808,"147":-0.08114856443173836,"148":0.12829407148869287,"149":0.031986407926130854,"150":0.07658794205078638,"151":-0.09327377948759726,"152":-0.08672536956344751,"153":0.00257964381042207,"154":-0.06513649761743154,"155":0.07028745069126652,"156":0.1990376032416531,"157":0.12558238259858734,"158":-0.07696554059108801,"159":-0.15028910879972368,"160":0.03328777588654675,"161":-0.14893939775249246,"162":0.01620255637661227,"163":0.13838191665260138,"164":0.18294360061818318,"165":-0.14773168044050672,"166":-0.1122090155212742,"167":0.14265087177519978,"168":-0.08764820600617536,"169":-0.0986740930340984,"170":0.11509473750244749,"171":0.038004479425418056,"172":-0.03715439698098765,"173":-0.14183022765985662,"174":0.019553458954826783,"175":0.0551250154717488,"176":0.1686523928102053,"177":-0.16146254006647592,"178":0.058019262407006576,"179":0.0612992190780869,"180":-0.14587194317035132,"181":0.012808803505090924,"182":0.11649166500219,"183":-0.03176230731542939,"184":-0.07430644287714916,"185":-0.08441310752308505,"186":0.14029654061822944,"187":-0.21057015887686995,"188":-0.027678961570738726,"189":-0.08718792361324051,"190":0.1856447318676215,"191":0.026701577303898875,"192":0.0068870535934882834,"193":0.17920896285393978,"194":0.017267909011825296,"195":-0.08512010401024107,"196":0.24536904506214072,"197":-0.01460637452875573,"198":0.044168167182227165,"199":0.04301358901840904,"200":-0.06843841372318257,"201":-0.06610767190952051,"202":-0.045243341337184266,"203":-0.03010858599374946,"204":-0.07893122078720384,"205":0.019711658728193884,"206":0.007020892269066954,"207":-0.06804714548296122,"208":-0.0024263672498341915,"209":-0.007690420642091757,"210":0.010050840837537427,"211":0.10328018617636316,"212":0.07785305932356146,"213":-0.019642692798041823,"214":0.05343075862612451,"215":-0.05904156705272595,"216":0.045277051261599095,"217":0.17492379265739286,"218":-0.048980925657195196,"219":0.3900012887790551,"220":-0.2497071675865343,"221":0.12589255446421768,"222":-0.05951514731413431,"223":0.08029713784034538,"224":0.033752847215209804,"225":0.4943228063433921,"226":0.19014296564156324,"227":-0.19986063377960714,"228":0.30408715829963406,"229":-0.10645900755299241,"230":0.0032623866993776837,"231":-0.04990089449150358,"232":0.14163106816617715,"233":0.14425606770271954,"234":-0.31193030573733044,"235":-0.0381256338676566,"236":0.013632495678244795,"237":-0.08546112803197517,"238":-0.06077700471798962,"239":0.28147353640529926,"240":0.0042167318815307395,"241":-0.2777469387146372,"242":-0.15750284069372913,"243":0.1905168535586854,"244":-0.06390660196876888,"245":0.0670242879101951,"246":0.13552503158651308,"247":-0.007540414784613089,"248":-0.2479558807511273,"249":-0.14949918085300268,"250":0.13740957145277513,"251":-0.10591763609052551,"252":-0.022125229271831456,"253":-0.2616071637250285,"254":0.07235856740381492,"255":-0.31963752391056416,"256":-0.3463123746455682,"257":0.10629049292979792,"258":-0.09759282076069736,"259":0.027069812563295038,"260":0.17773366801388127,"261":0.051692405681634385,"262":0.015240355274506678,"263":0.08615144144270621,"264":-0.014182956120768062,"265":0.03609116975238684,"266":-0.08072466193459527,"267":-0.04944459822901427,"268":0.31032823829322737,"269":-0.2370063870697655,"270":0.04808828164083418,"271":-0.11193390509304907,"272":-0.2176493460387875,"273":-0.18426043235636694,"274":-0.002788113511240472,"275":0.0947560748272319,"276":-0.2586433354531426,"277":0.29870875390855284,"278":-0.10377122012665961,"279":-0.17609903558657516,"280":-0.09332906794112589,"281":0.08293326980869387,"282":0.0012038716549482517,"283":-0.30194982424179795,"284":0.1058546196083217,"285":-0.14888401287031544,"286":-0.19038734589218,"287":-0.14599517356317288,"288":-0.02782563957774247,"289":0.06816136198649779,"290":-0.107583352642018,"291":-0.2728994911064031,"292":0.07613143958692163,"293":-0.25744751932628773,"294":-0.24855423418411898,"295":0.12467806138469757,"296":0.032183152697954284,"297":0.03533362164321102,"298":-0.33238278869637455,"299":0.07851667984011124,"300":-0.029010060682052165,"301":-0.08316227660927172,"302":0.0183501027579231,"303":0.07535392709255237,"304":0.05689257244663903,"305":-0.4580880430670791,"306":0.17462175646888983,"307":0.11859619335400035,"308":-0.10017781732059212,"309":0.05578110064406464,"310":0.060418492988865535,"311":0.12628619135130195,"312":-0.19711580289779948,"313":0.26271061827304215,"314":0.20767336331903122,"315":-0.21663204456709256,"316":-0.15936876595478963,"317":-0.15577303103632598,"318":-0.016155812249546993,"319":0.23981827083463841,"320":0.09830554834054574,"321":0.1725522880237195,"322":-0.06092747491061709,"323":-0.16831138415927802,"324":-0.028675643577955212,"325":-0.06837376966408906,"326":0.3694492791098851,"327":0.07288403941928381,"328":0.15644089151947113,"329":-0.2741160787094945,"330":-0.18529172014894124,"331":-0.1100733221252055,"332":0.14468477932751475,"333":0.23835025020146483,"334":-0.18564865890800616,"335":-0.12815761904682765,"336":-0.34165105188170664,"337":-0.16615578528290706,"338":-0.19381072033603627,"339":0.16668794038051296,"340":0.14288878069228414,"341":-0.1595242413309851,"342":-0.18129878467239527,"343":-0.07349500047477252,"344":0.2253714868112518,"345":-0.16411817080968788,"346":-0.12604327118042913,"347":-0.1630062785140722,"348":-0.047936802647105765,"349":-0.21511225232538014,"350":0.02700668334249727,"351":-0.005454125598211658,"352":-0.16430547900465484,"353":-0.20664946807135243,"354":0.014861437550730452,"355":-0.09873883742130916,"356":-0.22032858698847202,"357":-0.14213412877230597,"358":0.1061228924506526,"359":0.08047893440091324,"360":-0.16570691313470617,"361":0.012041577869961123,"362":0.009832739077597335,"363":-0.060807294400395576,"364":-0.3266858929242342,"365":-0.1760350527859324,"366":-0.010413855970160266,"367":-0.09965769243215691,"368":0.1365764333159156,"369":-0.04050100907809685,"370":-0.047998188818122935,"371":-0.12684312497466405,"372":-0.3774558660181159,"373":0.19908660552020727,"374":-0.11546778291445332,"375":0.1888176803120415,"376":-0.017814702220936805,"377":-0.23280295045970512,"378":-0.07785215215850042,"379":-0.06839302081209837,"380":0.2048334531121373,"381":-0.07622493373490086,"382":-0.08250023600641879,"383":0.009828281292721145,"384":-0.16944747505255162,"385":0.12349036513309718,"386":-0.1766690554403736,"387":-0.03346882107529248,"388":0.06150177772690794,"389":-0.10152501866823073,"390":0.073594940749395,"391":-0.1876582857001128,"392":0.15033776324353382,"393":-0.1566638981980322,"394":0.341925215646318,"395":-0.001690943915778104,"396":-0.1737311499045547,"397":0.01301479914047678,"398":-0.0617556985111953,"399":0.10680040917974064,"400":0.08054525426113207,"401":0.0004940443109548346,"402":0.10174435246132393,"403":-0.007678911637416173,"404":-0.0017632535394688366,"405":0.04633250874836374,"406":0.12989219670804858,"407":-0.04005005984117614,"408":-0.04312486199161118,"409":0.3021913397453746,"410":0.08330039266953763,"411":0.10712874027450674,"412":0.026586181841312912,"413":0.21596607539503326,"414":-0.06454778107085186,"415":0.10193214389389806,"416":0.23187033971128035,"417":0.062334362296533316,"418":0.06630178423390538,"419":0.03485349159017396}},{"sx":1,"sy":1,"depth":420,"w":{"0":0.19875339665220096,"1":0.047456253827453346,"2":0.45935061525446813,"3":0.08619434574033052,"4":-0.4013562189155576,"5":-0.19184999899257618,"6":-0.08142126500140627,"7":-0.20337943616870688,"8":-0.5579856486848596,"9":-0.5426017140810185,"10":0.1582217555036956,"11":-0.2645712835609812,"12":-0.1212378988670591,"13":0.003820383962476045,"14":0.31749073959042,"15":0.19336609935494753,"16":0.42758607377736396,"17":0.019325341153736797,"18":-0.27444216717687364,"19":0.0021938923210565613,"20":-0.021397014644745763,"21":-0.02224115452080845,"22":0.022042648018030662,"23":0.062117570301893694,"24":-0.365728433089756,"25":-0.26146167914639085,"26":-0.08513333559738483,"27":-0.019302536431425238,"28":-0.02784749157575055,"29":-0.04349180167409006,"30":0.12388572241063632,"31":-0.4096212375862887,"32":-0.17644592567145428,"33":-0.07819004121319814,"34":-0.03565518678999877,"35":-0.06860071997424122,"36":-0.021019644669062046,"37":-0.07277870110657136,"38":0.2142372987778236,"39":-0.1680619245856663,"40":-0.07859661147369687,"41":0.015942899539503126,"42":0.41363957102053817,"43":-0.1927638497225606,"44":0.16150951921861315,"45":-0.4820796374699304,"46":-0.39878485620425363,"47":-0.03393813661416665,"48":0.009489363194002254,"49":-0.7328797736315386,"50":0.41067791823183497,"51":-0.04309828255302015,"52":0.29746611433679254,"53":-0.35663946276179176,"54":-0.042224376215339254,"55":-0.03557497544207562,"56":0.28961204689660425,"57":-0.005616507545841341,"58":-0.08094313214225203,"59":0.09775993105476524,"60":-0.38623928025548987,"61":-0.04055340730503499,"62":-0.007767655494433606,"63":-0.5358304299870771,"64":0.08865004809806372,"65":-0.3394622947272346,"66":-0.21601342179275015,"67":-0.28711040215257044,"68":-0.06657135602450424,"69":-0.04279095981548211,"70":0.1188363587446053,"71":-0.049271348696332,"72":0.3278769518525596,"73":-0.01621366300284469,"74":-0.09578590420305157,"75":-0.05814831807466791,"76":-0.026706352124030386,"77":-0.09378897703316859,"78":0.032190192024575785,"79":-0.4526642063126854,"80":-0.2720874915014974,"81":-0.13258088958637948,"82":-0.02440203378243567,"83":-0.02851049209672688,"84":0.2905285384812466,"85":-0.06375439711513045,"86":0.053579057952558275,"87":0.3140867480750401,"88":-0.03783971645889731,"89":-0.016181417687663277,"90":0.010462846175967667,"91":-0.05835911213127456,"92":0.19326052525585144,"93":0.12714990797847578,"94":-0.07868374828438539,"95":-0.30592497895920695,"96":-0.0175707975526455,"97":-0.04673064725116259,"98":-0.24901416459760406,"99":0.17806844478817438,"100":-0.5164638869394541,"101":-0.42512309348226757,"102":-0.49949129700481887,"103":-0.05864900498282976,"104":-0.02806312620360488,"105":0.42915033516074796,"106":-0.12660054165458884,"107":-0.11467600936997525,"108":-0.19974963105303786,"109":-0.2163391186083179,"110":-0.02378367835697817,"111":-0.02605569268457832,"112":0.09826287635170541,"113":-0.16101122444698557,"114":0.28097178632294256,"115":-0.135479553933791,"116":-0.3736744080129783,"117":-0.0777167845872843,"118":-0.035613395683063646,"119":0.1302903220863661,"120":-0.011191619701477274,"121":-0.10504581961848379,"122":-0.45889410174836276,"123":-0.3420821831553421,"124":-0.08287068083024611,"125":0.014089769830211303,"126":0.3491963362697989,"127":0.05973222630199748,"128":-0.2652102961142867,"129":-0.12830929334138785,"130":-0.17502755919084417,"131":-0.04746547856100233,"132":0.011110249715900003,"133":-0.24064216262109597,"134":0.0993800145230872,"135":0.2726207609472946,"136":0.1242806985486315,"137":-0.43415478284703873,"138":-0.1149257938523258,"139":-0.017704722304478258,"140":0.04475119176935966,"141":-0.08352866411667437,"142":-0.2489097788778742,"143":-0.2932868625888648,"144":-0.35331952009607975,"145":-0.12990488774940612,"146":-0.004953505896164009,"147":0.4411136827120539,"148":0.028545997740208433,"149":0.056957910942205134,"150":-0.03317874925600521,"151":-0.12795934052056868,"152":-0.05852409158223181,"153":0.038805302264954655,"154":0.03787587422622282,"155":-0.45930127208320315,"156":-0.36279176404887964,"157":-0.0197755129438423,"158":-0.2216255307263176,"159":-0.03924031368737386,"160":-0.013578177238795043,"161":0.05777060305262705,"162":0.4227648677020381,"163":0.12586237478661688,"164":-0.09580035059574851,"165":-0.24146385905680554,"166":-0.09491313149101956,"167":-0.008766705044682868,"168":-0.2368126857407895,"169":-0.0513005837444022,"170":-0.6023995705086124,"171":-0.008280264934820461,"172":-0.33995325256664166,"173":-0.05326810541777561,"174":-0.008831407264237407,"175":-0.21651670691799238,"176":-0.019785609478054147,"177":0.220508875254094,"178":-0.02002079033981942,"179":-0.4367309717099595,"180":-0.049764905611705997,"181":0.05500710597557239,"182":0.3104067621643563,"183":-0.06259072618634098,"184":0.2848492006033429,"185":0.050694845547810286,"186":-0.41503525397954905,"187":-0.02264476749124343,"188":-0.023510290453580707,"189":0.06030497250170132,"190":-0.15415890433982823,"191":-0.38688552780834395,"192":-0.1372971754496715,"193":-0.3590494651475353,"194":-0.033551827435548076,"195":0.004240538865869964,"196":-0.3878992019470989,"197":-0.19695295513623495,"198":0.2837040920426988,"199":-0.07088072929563063,"200":-0.11737965483766781,"201":-0.07729672888656908,"202":0.0019925262989340027,"203":0.3498193749832757,"204":-0.32735245398956525,"205":0.4818645855321701,"206":-0.18783668062115516,"207":-0.30807667504650976,"208":-0.13962914206437907,"209":-0.0022909339265569342,"210":0.28646438592863027,"211":-0.20340965058759564,"212":-0.3312984782812433,"213":0.5074686226104078,"214":-0.37290123129382435,"215":-0.14286285473392119,"216":0.040611028060829876,"217":0.003760672598521812,"218":0.1490971141007012,"219":-0.2989420059799324,"220":0.25700361788198006,"221":-0.5451315493714871,"222":-0.031859699633442165,"223":-0.011050484846813324,"224":0.1619416284714523,"225":0.19064572076781686,"226":0.22841981978455667,"227":0.12858900735706874,"228":-0.5275994422321636,"229":-0.054680965179273545,"230":0.00984598494297496,"231":-0.18391444369434193,"232":0.20774036289175868,"233":0.3971690557729793,"234":0.388522039177019,"235":-0.33248694908884247,"236":-0.04429891626998403,"237":0.019906994276197208,"238":-0.03426862877003625,"239":-0.07370968073106654,"240":-0.03680092046157019,"241":-0.10941505061862272,"242":-0.19090492339166806,"243":-0.04067684417930962,"244":0.04966764763689991,"245":0.01717458839383831,"246":0.19143674998417762,"247":0.030183775970964815,"248":0.5570087742619241,"249":-0.17470326652015883,"250":-0.08545825304853712,"251":-0.029303387448557712,"252":-0.04763874670738372,"253":0.9364972799883269,"254":0.16151553889513018,"255":0.3357120038533913,"256":-0.3198940554742742,"257":-0.07285453054898638,"258":-0.02059992958294012,"259":0.017620096314208928,"260":0.10207272718458874,"261":0.3377671564286897,"262":0.4142119512712465,"263":-0.3953308395592604,"264":-0.007208570492825632,"265":-0.01124006338060848,"266":-0.0021571244996542224,"267":0.45031301622542463,"268":0.20571752457566947,"269":0.28190710483989406,"270":-0.44412749784738065,"271":0.007401728179052497,"272":0.008781544686565688,"273":0.003120770730657427,"274":0.22076848438060695,"275":0.0011950242988757593,"276":0.5666629041770267,"277":-0.5089295070555222,"278":-0.07936309139363462,"279":0.01382942648434921,"280":0.20807274947286908,"281":0.177649991373964,"282":0.5481151933277009,"283":0.5971811116530271,"284":-0.42645851640916266,"285":-0.082426469992878,"286":0.012778307954533344,"287":0.08844777962840392,"288":-0.02097262544650683,"289":0.7564924121346762,"290":1.115255700924097,"291":-0.2298992173582869,"292":-0.0020990570984623235,"293":-0.03322098837580222,"294":-0.1511864703889231,"295":0.5371762441598235,"296":-0.19294761915225075,"297":0.4931146793549071,"298":-0.2846931416764543,"299":-0.06619572703202083,"300":-0.00860158478841657,"301":0.3844215924231993,"302":0.39145072228049366,"303":0.35593820068117477,"304":0.8818422058450949,"305":-0.23695475823115394,"306":-0.023189646689406897,"307":0.05270548570389939,"308":-0.44894140513518904,"309":-0.1875011386752011,"310":0.29794078564204407,"311":1.3485979739644272,"312":-0.06521783595399727,"313":-0.029986401407767538,"314":0.02802408120065965,"315":0.42427182093799715,"316":-0.11042303332420907,"317":0.10464025292644213,"318":0.7182082801948794,"319":-0.07697299050705114,"320":-0.08966659531722858,"321":-0.025685848212403484,"322":0.04462299725120651,"323":0.20346776331356728,"324":0.4422365896916744,"325":2.4180548347162194,"326":-0.1044030766932223,"327":-0.027167623894030893,"328":0.038467140004854176,"329":0.261425696658838,"330":0.26669127471687043,"331":0.5304649937641217,"332":-0.18479731883713263,"333":-0.14811767550778726,"334":-0.0876433708156991,"335":-0.012680710674321324,"336":-0.43871722488023,"337":-0.21253637806689238,"338":-0.2850818442715972,"339":-0.06031259877825567,"340":-0.25976459596351653,"341":-0.06463416476597646,"342":-0.03256074196366111,"343":-0.12069508451463286,"344":-0.3741414443886559,"345":0.24388059846183513,"346":-0.29176640073755444,"347":-0.1598989113075157,"348":-0.023729561419047175,"349":-0.02137092196206144,"350":0.48372687012314897,"351":-0.2842165302955968,"352":0.09715216221812034,"353":0.6284519466791407,"354":0.13141309438385224,"355":-0.054318329061064805,"356":-0.023842495759909873,"357":0.11284946362134322,"358":0.07601945458633783,"359":-0.03146954888423624,"360":0.5736810182739533,"361":0.14355166684256124,"362":-0.0375734211281834,"363":-0.060881200471257016,"364":-0.2484749149435725,"365":-0.11991992205400333,"366":0.0036049713637559162,"367":0.6162323692041409,"368":0.1514138494611836,"369":-0.0707343609536852,"370":-0.03390872461809189,"371":-0.13355184163874692,"372":0.1441457544648276,"373":-0.36396466833523344,"374":0.7214881954145506,"375":0.11035637071232098,"376":-0.02116781547253713,"377":-0.07432235925583924,"378":0.06304552929642153,"379":-0.20767521836756686,"380":-0.12344493184632106,"381":-0.6964063388851681,"382":-0.3114726358514912,"383":-0.06799989616792304,"384":-0.00363569276628446,"385":-0.04366610082644222,"386":-0.3570647988073801,"387":-0.20591221322430095,"388":-1.1713477384736097,"389":-0.3784346016934779,"390":-0.08960548572580646,"391":-0.01641445157526704,"392":0.24151668489315986,"393":0.3902428506537419,"394":-0.19092528224386163,"395":-0.41039259681179846,"396":-0.22438517605983857,"397":-0.0447381385183863,"398":-0.005207359152935742,"399":-0.36128304177365483,"400":-0.3491931609391489,"401":-0.16815692366532797,"402":0.4103025861277623,"403":-0.1844747035944439,"404":-0.06714033315009717,"405":-0.008275685499029338,"406":-0.03740377223258958,"407":0.20972617536168905,"408":0.24085256609622593,"409":-0.184076429882154,"410":-0.1455509622990623,"411":0.027837823537278865,"412":-0.001845009150425027,"413":-0.013755644457062373,"414":-0.23985759923378613,"415":-0.06697260618088186,"416":0.19490198161177383,"417":-0.17151227144280898,"418":-0.09128500846803021,"419":0.0008193706720662515}},{"sx":1,"sy":1,"depth":420,"w":{"0":0.021468411989546254,"1":0.15624757866571481,"2":0.19036736758548617,"3":0.1754134317468415,"4":-0.1944808649162073,"5":-0.2223383208816538,"6":-0.2850382009708153,"7":0.1629975676757245,"8":0.24411001132688892,"9":0.06372006561152893,"10":-0.2225729176179703,"11":-0.038892231100693946,"12":0.1549823128962275,"13":0.1768538221790008,"14":-0.34609123119625823,"15":-0.08910578939339926,"16":-0.07314442986680793,"17":-0.20305104315278918,"18":-0.2715552099865686,"19":-0.07574959914146091,"20":-0.059673256328129566,"21":0.11810102985257484,"22":-0.020622391029675044,"23":-0.17770660176480302,"24":0.22701168078034087,"25":-0.09919605990055667,"26":0.24883765341945766,"27":-0.25067855448829857,"28":0.20022794309369127,"29":-0.20854487274871808,"30":0.4964082832478812,"31":0.2910644137439208,"32":-0.03820968303900423,"33":-0.0869242939873294,"34":0.08217492783462847,"35":-0.14295514699728695,"36":0.0038365185432506156,"37":-0.04085255177261684,"38":-0.09048057280668383,"39":-0.1656551604567467,"40":0.1302471385081701,"41":-0.025064562950784713,"42":-0.01216324279159637,"43":0.1349298155380651,"44":0.5537527721392005,"45":0.09608131735837523,"46":0.013335720619435096,"47":-0.07796010190608503,"48":-0.1689668983100051,"49":-0.059203629527939214,"50":-0.13857645991613832,"51":-0.12065299331582664,"52":-0.05105765676685243,"53":-0.04098712464401464,"54":-0.271410080247244,"55":0.26860920627387275,"56":0.10096782021337189,"57":-0.1652201217272074,"58":-0.08565094533506216,"59":0.2452146998121634,"60":0.06503157347454272,"61":-0.10955910960375076,"62":-0.04451209891930985,"63":0.09923649738097416,"64":0.12881361820074974,"65":0.0026017798245803777,"66":0.05289992759840839,"67":0.10036575668403595,"68":0.2121877273611073,"69":-0.014437931637555803,"70":-0.0534098169804155,"71":0.05026391606807971,"72":0.06610885670611182,"73":0.22106869424370526,"74":0.26238353483573645,"75":-0.06490820297465458,"76":-0.11423964705022224,"77":-0.11665663681274403,"78":-0.035737469858906495,"79":0.23083068508164356,"80":-0.17666723717288177,"81":-0.06900162605744127,"82":-0.13671520998167436,"83":-0.022258761140860502,"84":0.04086983455226198,"85":-0.12954988983959684,"86":0.016790745783849502,"87":0.21416916704378255,"88":0.07271542935421589,"89":-0.33673352505088394,"90":-0.364868117528601,"91":-0.08793605734733093,"92":-0.44740926541034126,"93":-0.11782291995150893,"94":0.04304650775546821,"95":0.08763821601896561,"96":-0.36071439572544833,"97":0.19620751870961284,"98":0.02329301727705954,"99":0.12278383516558745,"100":-0.07445549158408353,"101":0.05584120735486518,"102":0.17935541969646637,"103":-0.2620115187399391,"104":0.06400029022011759,"105":0.22083536117594066,"106":0.21308948600193073,"107":0.23536605577526082,"108":-0.17736878063492714,"109":-0.19813127157420563,"110":0.1936469178131875,"111":-0.02869953849331251,"112":0.2972165589056347,"113":-0.11495805711989,"114":-0.1814187615682779,"115":-0.17979620873616334,"116":0.10421879974068322,"117":-0.3318936950137468,"118":0.1593997956115447,"119":-0.08127678034746115,"120":0.006539518505006958,"121":0.3417587446599365,"122":0.18345893029490629,"123":0.04282157803005658,"124":0.16034553238694793,"125":-0.2868736064767167,"126":0.13262951067864795,"127":-0.03808631640718347,"128":-0.27084180658081924,"129":0.21342752395683318,"130":0.03402632514966871,"131":-0.230019805114784,"132":0.14621340315069753,"133":-0.192421137197638,"134":-0.2308622951018594,"135":0.021270753883342708,"136":-0.1142266298856952,"137":-0.054171524981224246,"138":-0.17933128012336616,"139":0.1902821791755716,"140":0.26614881371665733,"141":0.031179146170566805,"142":-0.06121563449375659,"143":0.07874261154869162,"144":0.027532908367274983,"145":0.06893702665702159,"146":-0.12034440164862974,"147":0.0962424494702146,"148":0.09361305586435355,"149":0.5143693171407755,"150":-0.1495101574921384,"151":0.487316855565312,"152":-0.17948798995960755,"153":-0.02141273995749268,"154":0.12509160542391784,"155":-0.14253142343386885,"156":0.004678350556222969,"157":-0.19609221024670356,"158":0.15050722523976395,"159":0.04153394499512818,"160":0.3233996680589964,"161":0.11464208239674237,"162":0.4068707535640799,"163":-0.1383376552505723,"164":0.11924962068033718,"165":-0.14934582164994442,"166":0.18001408583738698,"167":-0.39605458398601867,"168":-0.23511119022329924,"169":0.5337191730537967,"170":-0.15003571427570714,"171":-0.12170176572534284,"172":0.2983282943884348,"173":-0.17315921631045592,"174":0.3763567165184246,"175":0.27842953333972903,"176":0.21520718675039824,"177":0.33568821952901884,"178":0.13918119767029974,"179":0.1166840828692463,"180":0.09774611234502477,"181":-0.2521779480098038,"182":0.04446309366089939,"183":0.20604448409377324,"184":0.23867355873130774,"185":-0.07763892579109546,"186":0.173557069671054,"187":0.09320812918563944,"188":0.1487106726967015,"189":0.21245921039223611,"190":0.12105782153578133,"191":-0.03563325231771562,"192":-0.11362133588614282,"193":0.07640535828810367,"194":-0.0024724806268852525,"195":-0.26949513416842263,"196":-0.06757206016513788,"197":0.16587088773048594,"198":0.094945834823834,"199":-0.09705106324447882,"200":-0.21890569766167167,"201":0.25085566880360793,"202":0.5125749163074909,"203":0.023612793145066667,"204":-0.0410719318984576,"205":-0.190077000285291,"206":0.6586646474021532,"207":0.2015971055043264,"208":0.062352727226227776,"209":-0.0500016924242907,"210":-0.5017677704578585,"211":0.08677630251403519,"212":-0.11737446785368169,"213":-0.21909334375775397,"214":0.2648008661497477,"215":0.11793420516528483,"216":0.031921011314897024,"217":0.45534216743240535,"218":0.2282894625121003,"219":0.3941220660584518,"220":-0.07355041732608646,"221":-0.05391325661012592,"222":0.051743296254985506,"223":0.09435638576077718,"224":0.19695684484195838,"225":-0.17841265589217187,"226":0.23539765688991093,"227":-0.25063826046978377,"228":0.21825865635746144,"229":-0.0874791894180658,"230":0.06286901937864214,"231":0.05311868639193542,"232":0.2504688189551283,"233":-0.11799115655178516,"234":0.29194058651702876,"235":0.6107630784212479,"236":0.3537199724192041,"237":0.22207859218341572,"238":-0.04299440668038187,"239":0.18483857335602819,"240":0.23287011079094014,"241":0.2830552861453502,"242":-0.04337911486902959,"243":-0.142795301670957,"244":-0.24212202078130007,"245":-0.20099796813913134,"246":0.2756913336358576,"247":-0.2633005373180033,"248":0.07979371241590844,"249":-0.09553120975236028,"250":0.1499513157405441,"251":0.2775486979886291,"252":-0.02542317077479952,"253":-0.43589269477224823,"254":0.023860203230245534,"255":0.18536734892266854,"256":0.21600791058122595,"257":0.1519632441710252,"258":-0.4312625046694714,"259":0.048579749506867775,"260":0.43499100640639177,"261":0.6021665611173321,"262":0.6017586157186652,"263":0.6715502456966117,"264":0.09640924878868333,"265":-0.48272440912582215,"266":0.1477259501119428,"267":-0.2998411002501138,"268":0.6494637454305147,"269":0.212215228428529,"270":0.4971767767519638,"271":0.10421732906075111,"272":0.3357594093716743,"273":0.06342278480008343,"274":-0.0031252309538245954,"275":0.06636834929072061,"276":0.22724134524990827,"277":-0.03605492284100202,"278":0.31347575583602794,"279":-0.01860020694107139,"280":-0.11339073067461569,"281":0.026100076576845523,"282":-0.11739687563267344,"283":0.9265658469979693,"284":0.2627764257825552,"285":0.20021735127857956,"286":0.051993518284183755,"287":-0.17007112636729532,"288":0.220361944886527,"289":-0.08128809133170092,"290":1.4273255492071575,"291":0.6016453361826847,"292":0.29714171700214176,"293":-0.1277950093789036,"294":-0.22928963648269868,"295":-0.023858987741683612,"296":0.4451178249592238,"297":0.6074223224584576,"298":1.0657592135437415,"299":0.007569681354825936,"300":0.4297984012217206,"301":-0.20001475202933322,"302":-0.057636022102531465,"303":-0.047935141158773356,"304":0.8008851153951451,"305":0.11027868660725425,"306":0.10950539823711429,"307":-0.0805995193497471,"308":0.2506945829152396,"309":-0.1732973059554346,"310":0.16907642891197572,"311":0.7884475232068099,"312":0.012456878813400712,"313":-0.23696732398333925,"314":0.18875409927854944,"315":-0.482108697794235,"316":-0.05193903757542998,"317":0.4780354517147745,"318":1.0215040464023908,"319":-0.0285435949657716,"320":0.462338616317132,"321":0.20427014753441572,"322":-0.08314567765158858,"323":0.28245554973934395,"324":-0.6164268171876203,"325":3.5192173511971365,"326":0.21123300159142366,"327":0.26803460020668496,"328":-0.2746940968917081,"329":-0.14546173014287592,"330":-0.14282435824091191,"331":0.673785607533371,"332":1.2601026414527345,"333":0.2662147086510463,"334":-0.14791380269049975,"335":0.02124527295462148,"336":-0.2189704846627597,"337":0.1480456555059041,"338":0.6789063917598323,"339":1.080062128547842,"340":-0.23108792356184713,"341":-0.2056884925695924,"342":-0.036028672146108005,"343":0.18162431344057148,"344":0.251213459401557,"345":0.32655276402376593,"346":1.977669223673444,"347":-0.6003687254643352,"348":-0.1924473045575049,"349":0.010984327775071615,"350":-0.313449429318141,"351":-0.05450960104102533,"352":-0.7579174988532438,"353":-0.01769488324003285,"354":-0.08533914547495239,"355":-0.07344978880278764,"356":-0.15506685206824591,"357":-0.22589051712362782,"358":-0.19983514901243962,"359":0.5548382707351799,"360":-0.05122852319371853,"361":-0.12868091970591417,"362":0.21623600238976248,"363":0.26925510468726005,"364":0.3923580992735408,"365":-0.23633902082534156,"366":0.1885102296569981,"367":0.04008150703877304,"368":-0.17649090995287797,"369":-0.2540768769859548,"370":-0.396938667366766,"371":-0.35996354477842624,"372":-0.29462799461424916,"373":-0.19693322429070703,"374":0.42182356066035187,"375":0.06320079816162416,"376":0.03034292320105839,"377":0.28101792563893613,"378":0.005092863492119113,"379":0.09132649436622174,"380":-0.46757976341019425,"381":0.627793121411343,"382":-0.32733736259331897,"383":-0.30187349743993225,"384":-0.00022324393151321962,"385":0.10347241935718197,"386":0.06487476899463056,"387":-0.2343551748229218,"388":0.09524927756403942,"389":-0.6732918740509531,"390":-0.000056411849551964136,"391":-0.23680193042024028,"392":0.09488032131431638,"393":-0.12155479913857838,"394":-0.09460256479979468,"395":-0.2786267160613024,"396":0.1512597600280119,"397":0.03753211740949279,"398":-0.22498162288382453,"399":0.03421190227332339,"400":-0.10617571364668558,"401":0.017868203651634364,"402":0.15329496476510515,"403":0.3906675315103266,"404":-0.33061004506282315,"405":0.03875396079514521,"406":-0.23647413784136556,"407":-0.11730571107380677,"408":-0.3540227572319282,"409":0.4181151615782327,"410":-0.2330730251489191,"411":-0.4104003272667048,"412":0.4767604316945825,"413":0.19429865788130993,"414":0.032623672407253154,"415":-0.282475600677967,"416":-0.023064067352161693,"417":-0.10715508894854237,"418":0.09784426880917893,"419":0.01378620179826555}},{"sx":1,"sy":1,"depth":420,"w":{"0":0.0691440556213972,"1":0.28797960953900925,"2":-0.04129794596158557,"3":-0.4280867038041607,"4":0.3984788380301823,"5":-0.2953852804155571,"6":-0.8049338558552096,"7":-0.1595011189044461,"8":-0.39901634726838875,"9":0.16011150796824347,"10":0.7099418496663601,"11":0.017127272393206504,"12":-0.4202224181963508,"13":-0.05981189510433389,"14":-0.3189093917011976,"15":-0.5470747969929883,"16":-0.27788181121958433,"17":-0.08808045807439388,"18":0.19753862109533085,"19":-0.26282682089800846,"20":-0.2743184315932438,"21":-0.5404021230929289,"22":-0.13049033622906936,"23":-0.6122399400410024,"24":-0.06929855628490302,"25":0.6205598673936251,"26":0.13633802765501687,"27":0.20602681399117304,"28":0.24374787129600362,"29":0.08273932466085113,"30":0.48421953050326266,"31":-0.423932883545742,"32":0.0941710776838512,"33":-0.06924840112591776,"34":0.495572452216024,"35":-0.27094642697036797,"36":0.281416444146925,"37":-0.2455680894384727,"38":-0.07253596001303114,"39":-0.12842430863701282,"40":-0.063290211723137,"41":-0.6496544503609901,"42":-0.4224636582090903,"43":0.5578180236728277,"44":0.026243843127476293,"45":-0.22932062882976614,"46":0.2795982663796442,"47":0.2869028253533598,"48":-0.26861458467712024,"49":0.3088702910586269,"50":-0.23152463982593918,"51":0.32213222414291964,"52":-0.22147924309314973,"53":0.2544120092509566,"54":-0.22072718088892335,"55":-0.10957464507062091,"56":-0.08363548834758405,"57":0.33216141116284537,"58":0.5075612895948675,"59":0.293172166548024,"60":-0.26520341474028913,"61":-0.55445629874488,"62":-0.5075913266519304,"63":0.1874821409814042,"64":-0.68025752117163,"65":0.11290581150847834,"66":-0.18530299690270172,"67":0.386470911551675,"68":-0.13397403153312376,"69":0.1400595983059512,"70":-0.2979474254228178,"71":-0.3437778068553416,"72":-0.04343755206557118,"73":0.016450651917073063,"74":-0.09964010159247175,"75":-0.35287963443204257,"76":0.25030225534214834,"77":-0.009263987282692532,"78":0.3365773109333758,"79":-0.11431220804072129,"80":0.2674568766513983,"81":-0.5698044624710349,"82":-0.10782601715214442,"83":0.16997012509802545,"84":-0.17711281032461582,"85":-0.7194214665528844,"86":-0.08481163552108982,"87":0.1920353646705672,"88":0.1352864927141044,"89":-0.12198461281896852,"90":0.17771119712623631,"91":0.19361718774909595,"92":0.48302684060944767,"93":0.08394200835781523,"94":-0.5817731256559474,"95":-0.06978919861688361,"96":0.20191046369204269,"97":0.5409089739746433,"98":0.5078746458227229,"99":0.0761715255107262,"100":-0.11746480082568396,"101":-0.04060697555115947,"102":-0.5098744618592079,"103":0.5269718908856041,"104":0.24646188108858524,"105":-0.16039435297705934,"106":0.32252146786377484,"107":0.2591651296681399,"108":-0.1326418654947704,"109":-0.25455351783742897,"110":0.26214887723515246,"111":-0.22781661712445647,"112":0.13134269502944568,"113":0.5203703516999411,"114":-0.019924079901716834,"115":0.5535995584967921,"116":0.2438851940634532,"117":-0.37374501320728193,"118":0.35105520403499646,"119":0.39140163622516005,"120":0.32739515167387795,"121":0.5082348748817727,"122":-0.21631691855647012,"123":-0.12959421044409966,"124":-0.5342896694531407,"125":-0.42666033752080945,"126":0.2540546601022054,"127":-0.5542519149391801,"128":-0.2468474469838348,"129":-0.11180469887651168,"130":0.2858800866295828,"131":-0.18000423593030793,"132":0.5066034347352159,"133":-0.2703984276460648,"134":-0.4996126916018797,"135":0.15572076103493987,"136":0.08023167477819741,"137":-0.44431555085555946,"138":-0.645632319558159,"139":0.09924557427666668,"140":-0.004337644411589177,"141":-0.22494874533517525,"142":0.062130031714256385,"143":-0.2530961419237214,"144":-0.7142740321392131,"145":0.49935815616621265,"146":-0.2637089913758145,"147":0.20945114913756951,"148":0.4118875223062941,"149":-0.4027113420015718,"150":0.2754176077953662,"151":-0.47224578174609283,"152":0.5075219250293485,"153":0.2938662148745951,"154":0.05326807630722876,"155":0.1900298205827915,"156":-0.09335924152418215,"157":0.06009978226227116,"158":-0.5045604167452933,"159":-0.08742679788271734,"160":-0.07049682340607362,"161":0.012086152651088082,"162":-0.40964155526760604,"163":-0.25037012477880854,"164":0.054210542867536335,"165":-0.11028882854689921,"166":-0.22899039828318984,"167":-0.3626344885027302,"168":-0.31906796362112627,"169":-0.026709562598268437,"170":-0.14335805104156155,"171":0.05074086627338928,"172":0.11573225117203681,"173":0.21963351362788663,"174":-0.3433116197385265,"175":-0.33060203169931357,"176":-0.22100356498791662,"177":-0.20685469275817947,"178":-0.24436756269942012,"179":-0.14682657422876128,"180":-0.11338396908190591,"181":-0.12933342705071196,"182":-0.0459682025749075,"183":0.1400020903057607,"184":-0.41002916929888705,"185":-0.20323817369860242,"186":-0.9989747539832446,"187":-0.3651950831711633,"188":-0.08553355749274226,"189":0.3350432125790868,"190":0.7370106051284511,"191":-0.6613826530250565,"192":-0.02351795896609885,"193":0.5495617659057743,"194":0.051139917231745664,"195":0.06814871855765697,"196":0.014279142741893673,"197":0.3913613406316655,"198":-0.6491754109751593,"199":-0.05743439601140216,"200":-0.4850226879650175,"201":0.08540091974481147,"202":0.3448701061111442,"203":-0.2297049015205549,"204":0.032340751677533926,"205":-0.2024779449009637,"206":0.12331469206166197,"207":-0.2620732767964838,"208":0.04944341189607033,"209":0.5879167002900958,"210":0.06208713833402919,"211":0.25693108491940614,"212":-0.1220718068686813,"213":-0.57297665864637,"214":0.7445497343012971,"215":0.8233515993956364,"216":0.08856411949892556,"217":0.04421866201027222,"218":0.640370105999741,"219":0.4114715028471903,"220":-0.20835921358037124,"221":0.18358707041316044,"222":0.1974543609606297,"223":-0.02615626495117967,"224":0.15201842268409838,"225":0.01484989344814149,"226":-0.2537156724771505,"227":-0.5083806283187464,"228":-0.142087393040033,"229":-0.11563129422415386,"230":0.033376595520321024,"231":0.2897785194125791,"232":-0.8115365201825009,"233":-0.3030444805688976,"234":0.293672505512421,"235":-0.05762346321400805,"236":-0.5151148237027318,"237":-0.3707316544199992,"238":0.17362666997601733,"239":-0.3112749743791743,"240":0.7828315034521875,"241":-0.04149724369794288,"242":0.3243325728625114,"243":0.23492344596379014,"244":0.10973903475357606,"245":-0.11400302224861394,"246":-0.05743627469722565,"247":0.42193213851731126,"248":-0.10946257078536986,"249":0.5176838049874624,"250":0.4766021789934861,"251":-0.007252970625421578,"252":0.27609642531446305,"253":-0.4987172343321729,"254":0.17637108489235553,"255":-0.6251653514400856,"256":0.5675276107821285,"257":-0.21143758199013593,"258":-1.0082842334275468,"259":-0.08345225838953227,"260":0.42695533878577663,"261":0.037637614177971276,"262":0.06759535514653425,"263":0.7337834452659864,"264":0.05921235020990582,"265":-0.2837907523374644,"266":-0.34183686949916986,"267":0.08112952402995482,"268":0.17797356857749627,"269":0.2531170883447707,"270":0.3962836390812986,"271":-0.042901977968052014,"272":0.3408477994016748,"273":0.1281248436637072,"274":-0.2700100400047632,"275":0.5719077422632148,"276":-0.09223681546574496,"277":0.22152868142766893,"278":0.21572119762958306,"279":-0.05915249671518256,"280":-0.27496796099568066,"281":-0.3900429309146903,"282":0.8169796903171498,"283":0.33172180891628644,"284":-0.07245614772604494,"285":0.4111265808719605,"286":0.27680587181821176,"287":-0.17527666421678167,"288":0.5812251853251458,"289":0.7711228198923945,"290":-0.25195632028232345,"291":0.31403555143489975,"292":0.01654557511102237,"293":-0.2417528735056693,"294":-0.3730840591046581,"295":-0.23574419339088493,"296":0.49863262748435827,"297":0.5801656496096027,"298":0.08340086436458993,"299":0.025049409014286823,"300":-0.5773968456063869,"301":-0.6232269180773748,"302":-0.006291891681984016,"303":-0.6476128508283076,"304":0.4693675945376061,"305":0.18814594048806696,"306":0.03161673069851988,"307":0.04987350752743918,"308":0.2210659660283697,"309":0.8504058177315211,"310":-0.09032716880458407,"311":0.050962303832912094,"312":0.13237213078410104,"313":0.12189634614792498,"314":0.3869641414746809,"315":0.2734095473166087,"316":-0.6312983586024423,"317":0.0693663974580247,"318":-0.1200518005680503,"319":-0.3825243934870396,"320":0.8387328677408333,"321":0.12129770453467695,"322":0.7441947684128417,"323":-0.07871587243927369,"324":-0.4066923012240693,"325":-0.19952065712587658,"326":0.6634672396229856,"327":-0.6371591457068878,"328":-0.3366187588096958,"329":1.0065918974205175,"330":0.6447844839172265,"331":-0.01342877574719485,"332":-0.2554941630431808,"333":0.04706269694132661,"334":-0.057582714333736025,"335":-0.18702144454087608,"336":-0.10516557435000393,"337":-0.11801117301104296,"338":-0.03890906669760103,"339":-0.5725735163713556,"340":-0.050945169960488354,"341":0.752099020809039,"342":-0.16634981529652568,"343":0.26328330749364104,"344":-0.26438256585216957,"345":0.1314033728915625,"346":-1.4977032528327958,"347":0.1881143590169273,"348":-0.4819049024521874,"349":0.24910262725098753,"350":-0.1812562593091291,"351":0.5149107683843717,"352":0.06520023719778864,"353":0.19949645041268346,"354":-0.11677000611968887,"355":0.5369512423583013,"356":1.0007794375174932,"357":0.1178496567283485,"358":-0.517208824183796,"359":-1.2304687467478608,"360":0.20123583683841803,"361":-0.5547009753364717,"362":-0.4417684527687867,"363":0.018499695187845885,"364":0.033894516317493684,"365":-0.4959087153537306,"366":-0.31605294478418827,"367":0.034170205318079,"368":-0.09970836142288377,"369":-0.5954362746541169,"370":-0.05724361474588909,"371":-0.28611713144192985,"372":0.04307479811175387,"373":-0.7274287127704195,"374":0.23269721287400305,"375":0.09527552881668273,"376":0.13567601749216843,"377":0.1449043459682033,"378":-0.4219558329309834,"379":-0.0662040602329352,"380":0.5317523297116086,"381":0.3493422855644884,"382":0.37390879693098766,"383":0.3649026382182431,"384":-0.2899878263239065,"385":-0.5572670601048746,"386":-0.10531768672147368,"387":0.17307123625961573,"388":-0.21389782776707053,"389":-0.11442425986610565,"390":0.20666185766123737,"391":-0.010201823297544434,"392":-0.40098147715882093,"393":-0.5247736883419315,"394":-0.4991354640283434,"395":0.6798321715817307,"396":-0.5896024855933704,"397":-0.6774766975736223,"398":0.41747242365905496,"399":-0.43049223542639353,"400":-0.1440082968448084,"401":-1.7775653505578413,"402":-0.03978060878039672,"403":0.4357939775265147,"404":-0.009315235677019248,"405":0.4720485649622036,"406":-0.15970092154571816,"407":0.23140028986713676,"408":0.02895994627974008,"409":-0.38482240774620724,"410":0.11627607024861654,"411":0.44050605249943037,"412":-0.28814830788411283,"413":0.011147317716775414,"414":-0.02263485453899511,"415":0.8126434752012455,"416":0.07492561648767904,"417":-0.5133196324426369,"418":0.12157255940612263,"419":-0.21572638602918476}},{"sx":1,"sy":1,"depth":420,"w":{"0":-0.17094419991428964,"1":-0.21400863935179895,"2":-0.4538781552734641,"3":-0.22924957736549342,"4":-0.4467651769550577,"5":0.20776752473541168,"6":0.08249388973007388,"7":-0.007917575579054537,"8":0.1504885593161449,"9":0.02685089908079711,"10":0.08533760007369158,"11":0.34678333254889415,"12":-0.6234857088090792,"13":0.06969380972241274,"14":0.07919854106220799,"15":0.4443185821678705,"16":-0.057155722654647835,"17":-0.10109611091936324,"18":-0.2478649819106345,"19":0.250263611380685,"20":-0.1745741923361028,"21":-0.08602108923314698,"22":-0.2169519469980915,"23":0.18848952863678392,"24":-0.20218394231093767,"25":-0.5480316089025251,"26":-0.13809194968854924,"27":-0.6265525904464536,"28":0.1804141867949815,"29":0.5646197557889013,"30":-0.7982478354474646,"31":-0.3608980045405557,"32":0.02545515760237872,"33":0.05076801796702931,"34":0.028200553297847476,"35":0.6292041193513679,"36":0.2619590703523413,"37":-0.09443445824983233,"38":0.00600581024923912,"39":-0.4899819378528387,"40":0.5978945013102112,"41":0.1876101923622589,"42":0.27362912234400083,"43":0.3621103083771635,"44":-0.46524266510298756,"45":-0.10015987839824873,"46":-0.3446789809945371,"47":-0.13914180385117075,"48":-0.37605900988725977,"49":0.30420816782984317,"50":-0.31815172965924476,"51":0.3445730349929882,"52":0.06753261578677544,"53":0.359322436459827,"54":0.1834303477665588,"55":0.1588452853110404,"56":0.025382494925759027,"57":-0.22331062655499892,"58":0.3182770226299408,"59":0.16535437837158712,"60":0.006159366194312505,"61":0.01708305819385868,"62":-0.01941598272041067,"63":-0.5327655852301902,"64":0.1521553019371145,"65":-0.39429092126596643,"66":-0.21348815669872503,"67":-0.44241494553547933,"68":0.8960308520747184,"69":0.10261055027601859,"70":0.07238727755986576,"71":0.5786160852817155,"72":0.06442053669111578,"73":-0.03518147402829125,"74":-0.02223248641117279,"75":-0.3441876426068528,"76":0.5721736684626576,"77":0.7476988787589165,"78":0.05717889601603009,"79":-0.2840882958599336,"80":0.1131767788031167,"81":0.08615710741215729,"82":0.2254207821812737,"83":-0.28444137313817897,"84":-0.06083289118297093,"85":0.3017868927814314,"86":0.23271550034642075,"87":-0.05223032900771931,"88":-0.18409893666665475,"89":0.4497249824246086,"90":-0.2676298834032859,"91":0.2463682977543972,"92":0.05892661487402857,"93":-0.01835956620071991,"94":0.4545976484529968,"95":-0.21110937537762767,"96":-0.5359055242524774,"97":-0.04898885108927255,"98":0.2694058430400222,"99":-0.5809747634802165,"100":-0.0025670611618767783,"101":-0.01620403887765451,"102":-0.011314351678670198,"103":0.015521768874690377,"104":-0.14864334901893728,"105":-0.595308303400796,"106":0.4788525164435827,"107":0.09185036416159516,"108":-0.02302485583809307,"109":0.4081843526346789,"110":0.3485620652288948,"111":0.2892720686919781,"112":0.13259875728901566,"113":-0.06622916153905412,"114":-0.21188401523469488,"115":-0.0696718081863504,"116":-0.35451830290953207,"117":0.31628682197037716,"118":-0.07747372010728296,"119":0.0020820208008911862,"120":-0.13116379683946414,"121":0.24077309470352878,"122":-0.09375483476647584,"123":-0.33222447540243333,"124":0.2521845621555966,"125":-0.3314396399570119,"126":-0.5984272290656473,"127":0.11389562359422124,"128":0.1641059909106253,"129":-0.11888723371635561,"130":-0.1910787875857781,"131":-0.2763869382890802,"132":-0.31312609787944345,"133":0.03613817925705934,"134":-0.11981324732993302,"135":0.22714021892785793,"136":0.22592838557137654,"137":0.0445932907538059,"138":-0.2024314676968141,"139":-0.3257954348178213,"140":-0.028981124112599222,"141":0.1939391650005284,"142":0.15296085631692516,"143":-0.18046843084871686,"144":0.5268935460128443,"145":0.3799818509125743,"146":-0.3164119188413107,"147":-0.24281591413711295,"148":0.1911867793849875,"149":-0.2748644860225793,"150":-0.1074513433781968,"151":0.7101134608409038,"152":-0.07890925709248237,"153":0.02348326144299983,"154":-0.3160744340329778,"155":-0.1554009362490373,"156":0.12279552840244941,"157":0.044624464539482614,"158":-0.21964005045489646,"159":0.3768470715235706,"160":0.14747863706150655,"161":0.18277523426918324,"162":0.21406967297725726,"163":-0.06325091578154593,"164":0.23675002083642543,"165":-0.1995617187537509,"166":-0.6576807721599611,"167":-0.49325105585549245,"168":-0.46506179914867185,"169":-0.005964881050004929,"170":0.15476939419708477,"171":0.2581357681067968,"172":0.18463628305780236,"173":0.11054369939378085,"174":-0.21113052126156376,"175":0.0797844537437352,"176":-0.5994587239739197,"177":-0.08211724820740164,"178":-0.3445079565467416,"179":-0.4610117897406071,"180":0.482677444644715,"181":-0.2418896777538728,"182":0.19743935551696676,"183":0.14901911976379972,"184":-0.16409251065925734,"185":0.022545236141105644,"186":0.6045146997680051,"187":0.1771434761549283,"188":0.260124027288827,"189":-0.6074785187544368,"190":-0.08068658619606377,"191":0.2840679264908723,"192":-0.18359496988541685,"193":0.1252145320054504,"194":0.881855622257077,"195":0.39320817146809545,"196":-0.164373325235799,"197":-0.3322873725229061,"198":-0.36957559874102097,"199":-0.5312669824898463,"200":-0.014138296290430997,"201":-0.5996963183821803,"202":0.28499822605382386,"203":-0.03791267759687236,"204":-0.04861290524893733,"205":-0.06270626737734278,"206":-0.03830950707568967,"207":0.42021028754806145,"208":0.12397880629638473,"209":-0.06865767952321822,"210":0.17790193837371635,"211":-0.4120849395019269,"212":-0.0006429450855562182,"213":-0.0974798121299262,"214":0.7002688396553886,"215":0.008747614328282857,"216":-0.3436939732522751,"217":-0.176556376972633,"218":-0.2607315573270709,"219":-0.3544671233644976,"220":0.04786340812114528,"221":0.47438381819815456,"222":-0.22363526193924185,"223":-0.25192539892996496,"224":-0.14496887463488353,"225":-0.02874292461691483,"226":-0.7060696757084135,"227":0.0417555795892677,"228":-0.37843725919855686,"229":0.39643358442329546,"230":0.14600585101548383,"231":0.1573969575912191,"232":-0.1857366011215871,"233":0.004444094122678256,"234":-0.4225432861572377,"235":0.725648389379873,"236":0.06981870650024377,"237":0.6704298506174501,"238":-0.2222710993064597,"239":-0.17651274716646784,"240":0.2378769424466767,"241":-0.3657083815171713,"242":0.15177903083136363,"243":0.151921374200395,"244":0.5083086618346591,"245":-0.08719817338751139,"246":-0.5554512110073967,"247":-0.47475678327701143,"248":-0.022057233956618412,"249":0.20764542978117198,"250":-0.3440301324218914,"251":0.36787087020416925,"252":-0.13169087920513467,"253":-0.21621560602858025,"254":0.2822062508539837,"255":-0.5627017349480332,"256":0.4045195029534103,"257":0.08727957638715657,"258":-0.09181604606810806,"259":-0.17909659800508612,"260":-0.19468388164931177,"261":-0.5953845321998762,"262":-0.5450522874276208,"263":0.38714540526236124,"264":-0.14905664108110792,"265":0.2387303902216045,"266":-0.026934949138878474,"267":-0.4516002803813731,"268":-0.07006715903412832,"269":-0.25003469571191594,"270":0.1652958713990188,"271":-0.3466132140162051,"272":0.058082125586032436,"273":0.0150956462457284,"274":0.04476512271056667,"275":0.19036043708918218,"276":0.06397936347850208,"277":0.17885428288634148,"278":-0.32738926852875594,"279":0.7518285225802452,"280":-0.0579010700924343,"281":-0.24666481277221408,"282":0.024210862859825814,"283":-0.8754594886198791,"284":0.7258661976352291,"285":-0.36043920250287803,"286":0.5367303677764975,"287":0.1360922831016975,"288":-0.014004361300511095,"289":0.014007159093833025,"290":-1.122703770120508,"291":0.5234482218729021,"292":-0.4282620221273383,"293":-0.06832029991378169,"294":0.08318930529472417,"295":0.27248140867601234,"296":0.2500056306985002,"297":-0.2674140172987996,"298":0.0008494455704112137,"299":-0.17638786618763352,"300":0.16299861603568333,"301":-0.04922127564998914,"302":-0.15277184252889833,"303":0.20458776459800937,"304":-0.2550306651698295,"305":0.31464937739987525,"306":0.4447340054779487,"307":-0.4750260959806125,"308":0.4456890248399574,"309":-0.07633286480102718,"310":0.11356561158944585,"311":0.23293592687375306,"312":-0.09761879107345707,"313":-0.503242396849857,"314":0.08322545194637841,"315":-0.48290622971057157,"316":-0.01245120107120344,"317":1.1997633304154973,"318":-1.0742577075179958,"319":0.4305188507608796,"320":-0.3641298802181694,"321":0.07401117928785256,"322":-0.14382210981630167,"323":0.4571037712726933,"324":0.4488272127383452,"325":-0.011256361921754082,"326":-0.04263235948446254,"327":0.10515141005411655,"328":0.07419523363124211,"329":-0.08434352658332836,"330":0.1780015850907581,"331":0.6587807692731885,"332":-1.43953876313925,"333":0.34003075704301844,"334":-0.23289957621327245,"335":-0.02131617745375128,"336":-0.39882931156664714,"337":-0.7423397962143345,"338":1.0488688569312896,"339":-1.311000294584576,"340":-0.16933005625063374,"341":0.295035893228389,"342":-0.007907474499171598,"343":-0.4572014334398184,"344":0.13780239427702945,"345":0.03820242933786499,"346":-0.4651950513583076,"347":-0.6624273329213799,"348":-0.1202229516290306,"349":-0.058373860328443355,"350":-0.10545869808196764,"351":-0.45021717850647547,"352":0.9583623620910489,"353":0.08765599016488354,"354":0.4947884290206938,"355":-0.6272203434130373,"356":-0.06828095441895378,"357":0.17880597407506718,"358":0.22145328828239366,"359":0.6917228485310069,"360":-0.25587733075916425,"361":0.23935673861047324,"362":-0.07570514579787883,"363":0.47572131973331805,"364":0.04461003975581424,"365":0.459170001260347,"366":0.022071034743665945,"367":0.018985542063867177,"368":0.4146953210145954,"369":0.31744026077739973,"370":0.3261959201323297,"371":0.45822453241838573,"372":0.07510805992532439,"373":0.37193834844594287,"374":-0.05153330090587644,"375":0.007702491616759706,"376":-0.6103790092101623,"377":0.05030981588522433,"378":-0.22777441466055995,"379":-0.13567991229255033,"380":0.024432022934303643,"381":-0.5002466980181121,"382":0.330891125095435,"383":-0.1209966467273702,"384":-0.20608743792490605,