
//<![CDATA[

// a few things don't have var in front of them - they update already existing variables the game needs
lanesSide = 3;
patchesAhead = 50;
patchesBehind = 10;
trainIterations = 250000;

// the number of other autonomous vehicles controlled by your network
otherAgents = 9; // max of 9

var num_inputs = (lanesSide * 2 + 1) * (patchesAhead + patchesBehind);
var num_actions = 5;
var temporal_window = 0;
var network_size = num_inputs * temporal_window + num_actions * temporal_window + num_inputs;

var layer_defs = [];
    layer_defs.push({
    type: 'input',
    out_sx: 1,
    out_sy: 1,
    out_depth: network_size
});
layer_defs.push({
    type: 'fc',
    num_neurons: 32,
    activation: 'relu'
});
layer_defs.push({
    type: 'fc',
    num_neurons: 32,
    activation: 'tanh'
});
layer_defs.push({
    type: 'regression',
    num_neurons: num_actions
});

var tdtrainer_options = {
    learning_rate: 0.0015,
    momentum: 0.9,
    batch_size: 128,
    l2_decay: 0.009
};

var opt = {};
opt.temporal_window = temporal_window;
opt.experience_size = 100000;
opt.start_learn_threshold = 5000;
opt.gamma = 0.98;
opt.learning_steps_total = 10000;
opt.learning_steps_burnin = 1000;
opt.epsilon_min = 0.0;
opt.epsilon_test_time = 0.0;
opt.layer_defs = layer_defs;
opt.tdtrainer_options = tdtrainer_options;

brain = new deepqlearn.Brain(num_inputs, num_actions, opt);

learn = function (state, lastReward) {
brain.backward(lastReward);
var action = brain.forward(state);

draw_net();
draw_stats();

return action;
}

//]]>

/*###########*/
if (brain) {
brain.value_net.fromJSON({"layers":[{"out_depth":420,"out_sx":1,"out_sy":1,"layer_type":"input"},{"out_depth":32,"out_sx":1,"out_sy":1,"layer_type":"fc","num_inputs":420,"l1_decay_mul":0,"l2_decay_mul":1,"filters":[{"sx":1,"sy":1,"depth":420,"w":{"0":-0.39896582156115357,"1":0.173482301161343,"2":0.5857816239360568,"3":0.0678664958129778,"4":0.11707040757450288,"5":0.256239732623387,"6":-0.09850598371582442,"7":-0.12813756637871956,"8":-0.05229128502159064,"9":-0.38466173431112527,"10":0.01720933103434096,"11":-0.06935399465210611,"12":-0.04982424853518982,"13":-0.020553964570360673,"14":-0.016380445697900238,"15":0.053322057941550746,"16":-0.3261230283668723,"17":-0.0940790128030618,"18":0.1672128069528225,"19":0.04250734949735907,"20":0.43499534401285395,"21":-0.077302642940854,"22":-0.06668841335690356,"23":-0.07764401952227584,"24":-0.038208808634691005,"25":0.0981633783150342,"26":0.18883322067533093,"27":-0.0901177473421088,"28":-0.16630153647706486,"29":-0.2840590065616453,"30":0.23716546023909996,"31":0.1621547701730271,"32":-0.06270462658427728,"33":-0.01872655804727863,"34":-0.2521618776311952,"35":0.11753487291277076,"36":0.02992200326125865,"37":-0.03869606505675042,"38":-0.03542139423470613,"39":0.0045744970145806686,"40":0.25406132754566996,"41":0.2970624140655226,"42":0.4050494828527959,"43":0.15833395232516081,"44":-0.1846988871971678,"45":-0.17368534480495387,"46":-0.26138643305284237,"47":-0.29879166373297833,"48":0.25066478495911293,"49":-0.3200989137887619,"50":-0.06660147489625579,"51":-0.3549398022911476,"52":-0.26773293169603957,"53":0.17760389499321316,"54":0.03539205446305617,"55":-0.3961622381425851,"56":-0.006478448176239052,"57":-0.5077248565591456,"58":0.22277659423013474,"59":0.10342460430264425,"60":-0.190153402913757,"61":0.18271032558330869,"62":0.07692470246697654,"63":-0.12014931218391965,"64":-0.20660771479953108,"65":0.37062187065654667,"66":0.011720226017621103,"67":0.18584212459013028,"68":-0.18179910169632799,"69":-0.1111897047792547,"70":-0.21957905468272856,"71":-0.03525792688444764,"72":0.15777522921809728,"73":-0.33485767966440677,"74":-0.0642920800630105,"75":-0.04708420497601637,"76":-0.025029955503389358,"77":-0.29964127191701445,"78":-0.13391823769472955,"79":0.11757955937157409,"80":-0.2950086781089987,"81":0.0571348583031053,"82":-0.09974500050245462,"83":0.04149241222369245,"84":0.020580668927304323,"85":-0.13638661274030384,"86":-0.3006092967471711,"87":0.006253380910455439,"88":0.09040912180614613,"89":0.22361727058829808,"90":-0.06085252815585602,"91":-0.3836596040998801,"92":0.07432513347130668,"93":-0.04313233482495729,"94":0.47270442161171294,"95":0.3887604128291311,"96":-0.29903077083804697,"97":0.11302507107059286,"98":0.3340301945087669,"99":0.023401122550231565,"100":0.512096488446061,"101":-0.26838177238724126,"102":-0.07232011324139223,"103":-0.2717502839812867,"104":0.041945369353067745,"105":-0.22135121676266115,"106":-0.3396674398363473,"107":0.23785620365604693,"108":0.0022998894120497483,"109":-0.31890894534653647,"110":0.493239977721857,"111":-0.12469905750292752,"112":-0.5901153646624894,"113":-0.2760319102742005,"114":-0.24058645790904715,"115":-0.1432285675099343,"116":-0.022210792467325408,"117":0.13228618492717958,"118":0.08381435003523773,"119":0.1792796495290286,"120":0.010000353456483726,"121":0.1563381804300228,"122":0.3242681764382406,"123":0.0455506084114684,"124":-0.22985889075128205,"125":-0.07982467169462354,"126":0.031158490670677937,"127":0.13179049432447995,"128":0.0016368538343949411,"129":0.2207833635550016,"130":0.18683115972303077,"131":-0.2120407224536547,"132":0.13146633877280775,"133":-0.22280155736301774,"134":-0.6749280577060219,"135":-0.004897777345877468,"136":-0.29398387915579455,"137":-0.29856375995584766,"138":0.09711482321129147,"139":-0.3629197394797174,"140":0.1405099684827098,"141":0.2463462635407803,"142":0.22416007708712435,"143":-0.0636555828686707,"144":0.3798074024527353,"145":0.012247205219163547,"146":-0.18274541944161532,"147":-0.12280935907859468,"148":-0.09282646695491084,"149":0.2581111927337225,"150":-0.019045566986612774,"151":0.12182926358572813,"152":0.1770336906545175,"153":-0.2598848390669511,"154":0.12657250792843308,"155":-0.2996959013228404,"156":0.2584659742548466,"157":-0.12220424814455319,"158":-0.31850679252191555,"159":0.5903948566985859,"160":-0.06203684707868899,"161":0.21143957474843947,"162":0.0808764221266772,"163":0.22988921856770583,"164":-0.17264519805094655,"165":-0.14526001420716975,"166":-0.25781348277995775,"167":0.22535462696593947,"168":-0.26423553654708654,"169":0.3107626589785703,"170":0.2555282287987829,"171":-0.039500104454867326,"172":0.008391282434124249,"173":-0.18080369121462722,"174":-0.06570649925573023,"175":0.19559357836015123,"176":-0.08226401846289007,"177":-0.2809501224196225,"178":0.03939817284252625,"179":-0.5041116393213749,"180":-0.04832906448580808,"181":-0.15701229776972003,"182":-0.03760658957654098,"183":0.21019005050072403,"184":-0.10415814106752515,"185":-0.21839480615674692,"186":0.13771118285853268,"187":-0.07611851440640725,"188":0.38120160229571187,"189":-0.07414092276971021,"190":-0.24503293449412944,"191":-0.11103620910072234,"192":-0.0631844424363444,"193":0.023634834905002986,"194":0.20652894672568342,"195":-0.1550636087447071,"196":-0.13308085216999796,"197":0.2683271069483161,"198":0.055640914233545655,"199":-0.6201900760457995,"200":-0.43581447428061515,"201":-0.8338895689327832,"202":-0.24134426145304524,"203":0.0804078788202111,"204":0.26707660786590726,"205":0.27706682616455813,"206":-0.1560071690919884,"207":0.10947320433445301,"208":-0.04536251274328511,"209":-0.022863048642425714,"210":-0.025658338745865667,"211":-0.4678432509595806,"212":0.05087095996168395,"213":0.06980227875273907,"214":0.017808978840997202,"215":0.14160298614405645,"216":0.16893315357579483,"217":-0.06447032068442649,"218":0.2316709437437717,"219":-0.3716443847386971,"220":-0.48561041581980335,"221":-0.001363470304136101,"222":-0.2369152310246131,"223":0.1339354763863765,"224":-0.17689007868880147,"225":0.20840982461841118,"226":-0.08105583088424219,"227":-0.3880521450462242,"228":-0.6053143776490565,"229":0.3018195818324829,"230":-0.08996825334598041,"231":0.08670017705660865,"232":-0.6241362074338568,"233":-0.03791129251614181,"234":-0.01623024769309343,"235":-0.25173527929041445,"236":0.0485758988169281,"237":-0.030993662925504165,"238":0.28571632141986963,"239":0.027012234934410094,"240":-0.014936632611178904,"241":-0.2540383673980466,"242":-0.19777523934062272,"243":0.3045699920764091,"244":-0.0701596994585662,"245":-0.03189666032858878,"246":0.5289628177533954,"247":0.08458032272810347,"248":-0.2026493928078378,"249":-0.33418236628541376,"250":-0.2518073718303805,"251":-0.07875424276718243,"252":0.39784220054452857,"253":-0.16341438042668266,"254":-0.8765506042362252,"255":-0.04712658682544971,"256":0.08397504468897049,"257":-0.0068435165807567006,"258":0.427725392974482,"259":0.16034418074814197,"260":0.1913538430549641,"261":-0.47318831544210016,"262":0.6107947165771618,"263":0.15891488034527831,"264":-0.005959265379558223,"265":-0.06352261935357373,"266":0.06727385918095403,"267":0.1337807130392351,"268":0.09943497434397823,"269":-0.4637207832512788,"270":-0.26239415083638873,"271":0.0661005652211861,"272":-0.18035377396913818,"273":0.17240341822011587,"274":0.07164757580772785,"275":0.360913722564269,"276":-0.22372018136497188,"277":-0.1397236489664697,"278":-0.07007799356728812,"279":0.20164916328116114,"280":0.20803528273164215,"281":-0.5248069837148978,"282":-0.24900190930149513,"283":0.16544915910369737,"284":-0.5352018554034428,"285":0.13836481645697207,"286":0.035252406107600685,"287":-0.19563356761040712,"288":0.3151705917228158,"289":-0.3887951995583675,"290":0.28523184641411503,"291":0.10923330703986134,"292":0.2203499457637211,"293":-0.006029037286303029,"294":-0.09267833855535816,"295":0.5139256227059792,"296":-0.020964741388049955,"297":0.09960274068227318,"298":0.2035793345430195,"299":-0.2724141894554744,"300":0.21972892549250556,"301":0.27098137835313235,"302":0.4715289570702694,"303":-0.06290825013708969,"304":-0.2570472575290344,"305":-0.19787385192401014,"306":-0.20896117748958176,"307":-0.10331953100216743,"308":0.12487361462942369,"309":-0.13837346243454693,"310":0.34898129746686346,"311":0.19002632274979683,"312":-0.24242778632409617,"313":-0.037009144823263444,"314":0.1870644547805084,"315":0.350927885381079,"316":0.33856850114368203,"317":-0.08562520105231268,"318":1.2744825481426598,"319":0.03503076450736905,"320":0.24130860387650774,"321":0.09717688160407872,"322":0.1840276555702747,"323":0.03846053673387247,"324":0.8259835532517374,"325":0.04912251891626671,"326":0.24528413248275835,"327":0.17344207666290515,"328":0.17678358114695517,"329":-0.15664931703100082,"330":0.583446755619672,"331":-0.29569510208853367,"332":0.21174300624101783,"333":0.16431894025472693,"334":-0.274698672052364,"335":-0.07947511489573232,"336":0.12075719279745724,"337":0.6776344070165249,"338":-0.08231239030145371,"339":1.7864133240906317,"340":0.4011452370275676,"341":-0.02566104324552919,"342":0.03373869629998498,"343":0.044572134463742925,"344":-0.16408114113546088,"345":0.525376064173253,"346":2.244771276331484,"347":0.45477608982667606,"348":0.16777393063541415,"349":0.1811326064249506,"350":0.3279519671353265,"351":0.2173270277813412,"352":1.0640218886845558,"353":-0.06181019993708827,"354":-0.16906295852950512,"355":0.2622086210965251,"356":-0.14195534228547327,"357":-0.014343586114801386,"358":-0.18679298831736837,"359":-0.011644700837438174,"360":-0.08068696358769126,"361":0.7870038112396216,"362":0.22490208564088476,"363":-0.10524575327973483,"364":0.10549670931181232,"365":0.472448653579823,"366":-0.5261221399074429,"367":-0.18870922713943303,"368":-0.0545910155221794,"369":-0.1273971173178087,"370":0.12864970346650803,"371":0.21724322422818576,"372":-0.09404072166158953,"373":0.4931816825599345,"374":0.7776398197342623,"375":0.2684195429127652,"376":0.48019758542751095,"377":0.11329756947027558,"378":-0.31245365765690236,"379":0.2423867581945079,"380":-0.7514117345266268,"381":0.8368184876002993,"382":-0.3393127315747655,"383":-0.17148627026074933,"384":0.20829695862514913,"385":-0.012641022000031445,"386":-0.21019696403184515,"387":0.4638098819946337,"388":0.7365222139664895,"389":0.013060192571058865,"390":-0.10721910656623661,"391":0.026150998350843696,"392":-0.10075816125791263,"393":0.22748448172317198,"394":0.4157885649336058,"395":0.47031185107166806,"396":0.09294352815074747,"397":0.1731404492701989,"398":0.04311529395904067,"399":-0.21319369308237365,"400":0.12495435460781204,"401":0.664490806344103,"402":-0.5429638549527491,"403":0.11818350980575265,"404":-0.3862566889007272,"405":-0.05508178367636162,"406":-0.3058299386241218,"407":0.03135002740516298,"408":-0.29671929538103486,"409":0.33776301868654235,"410":0.1787857174292388,"411":0.10528489953132152,"412":-0.17217658004105155,"413":-0.05174573474023805,"414":-0.18136235764647585,"415":0.33822330812703844,"416":-0.015555630218764332,"417":-0.33706831297400675,"418":-0.26974361893404974,"419":0.18152127846544178}},{"sx":1,"sy":1,"depth":420,"w":{"0":0.09389675275590306,"1":0.11713199365612342,"2":0.5509894214100639,"3":0.4657478656865011,"4":0.7176996183585086,"5":0.03876582793314953,"6":0.11448667492177225,"7":-0.1655766599103287,"8":0.21676769062061715,"9":0.3014638268973815,"10":0.013161436883690902,"11":0.08592664068748151,"12":0.4899758237486955,"13":-0.04427930359176574,"14":0.3940500491752781,"15":-0.3559266776824251,"16":0.2171152859713093,"17":-0.09699237396325207,"18":0.2950800583634006,"19":-0.15337019227220028,"20":0.09496021997209339,"21":0.13306575194703518,"22":0.26734553914535353,"23":0.7279508431577332,"24":0.09977605501228329,"25":0.24745708745753758,"26":0.26412618714711533,"27":-0.21073713687646048,"28":0.10854245199525388,"29":0.17542487478833138,"30":0.3877182375760505,"31":-0.10003698931655745,"32":0.21497700992869673,"33":0.4278469017213864,"34":0.05395097489616164,"35":0.008360891439845202,"36":-0.2244521924043255,"37":0.12349298701185375,"38":0.446563021774237,"39":0.012880665702674949,"40":0.11185245314756015,"41":0.3076659089260691,"42":-0.16638687410105799,"43":0.04054036697401966,"44":0.035020783297479034,"45":0.04134171129400847,"46":0.36517884175893345,"47":-0.022734777701267216,"48":0.1284965427550789,"49":0.012137086555434565,"50":0.40486701024217664,"51":-0.1541310076525413,"52":0.19932384458016247,"53":0.42778991445151904,"54":0.13053896616182384,"55":-0.5209001733453958,"56":0.2030336455639868,"57":0.051807322736548436,"58":0.19092185211053628,"59":0.2079237877495715,"60":0.3401091618332441,"61":0.2535475435735053,"62":0.603473230926059,"63":0.16175887238594153,"64":-0.04130159483240844,"65":0.3857657544694778,"66":-0.21575041259182032,"67":-0.09247248024582791,"68":0.05022501611646968,"69":-0.2941776582449683,"70":-0.024557229746848715,"71":-0.21578984201934992,"72":-0.014720243405176418,"73":0.43659652774194513,"74":-0.12899412248486308,"75":-0.20080764146510943,"76":-0.21791478561913133,"77":0.05518543706526174,"78":-0.005801450488336483,"79":-0.27325797308947347,"80":-0.440199317612188,"81":0.2672005658579586,"82":-0.232224658756706,"83":0.20034406922008233,"84":-0.09661699852072962,"85":0.2609062331326073,"86":-0.03665087047612237,"87":-0.08517867671574027,"88":0.3838245079769772,"89":0.3306655741835804,"90":0.08840977858549184,"91":0.21075771126762144,"92":-0.282042063968424,"93":0.014181721695133934,"94":0.36066973351971265,"95":0.28962921923832224,"96":-0.7792007979018916,"97":0.014507027156699092,"98":0.2651175644096544,"99":-0.2357779938596159,"100":0.11289149332718572,"101":-0.29632976162075625,"102":-0.08719984596457127,"103":0.13422136444151037,"104":-0.08830786947819919,"105":0.47930568649581556,"106":0.13411175336966916,"107":0.05933935091554902,"108":-0.12581412581457851,"109":-0.03485879002701653,"110":0.08231624800706654,"111":0.1435564357668277,"112":-0.29293342961828894,"113":-0.20703603475154167,"114":-0.4753419961697661,"115":-0.19934649815636626,"116":0.13551437408684486,"117":-0.07985885497147716,"118":-0.22609778573322972,"119":-0.15124902828293324,"120":0.06269228827057013,"121":0.0010512309463960997,"122":-0.33089259823411615,"123":-0.3690697061320532,"124":0.0625060724832923,"125":-0.02404118122620296,"126":-0.0026076505889555323,"127":0.160390874674223,"128":0.3220290165679076,"129":-0.2605346189898622,"130":0.038600995275182376,"131":-0.14183140961954477,"132":0.10325334461270125,"133":-0.3381282986987798,"134":-0.2535393528491948,"135":-0.4182993117189752,"136":-0.06911945953517652,"137":-0.2806849912071951,"138":-0.18017449692313567,"139":0.1034079729583913,"140":-0.08889300763577297,"141":-0.2449226561850657,"142":-0.18859392082993834,"143":-0.19943265922620224,"144":-0.21660468768385097,"145":0.0773121731980876,"146":-0.33576760237458253,"147":-0.08264025736432239,"148":0.14027012184537305,"149":0.0009298098281172297,"150":-0.2724645072885952,"151":0.3797856994556145,"152":0.007838284010673083,"153":-0.06478901925687798,"154":-0.25822619627113536,"155":0.010140337753072123,"156":-0.14729670602859835,"157":-0.3091737474544058,"158":-0.30725138566313454,"159":-0.011211153183917457,"160":-0.2505334050313069,"161":-0.19203567620679077,"162":-0.20638946496977031,"163":-0.3539424515216127,"164":-0.0061822994800912155,"165":-0.2798116610476482,"166":-0.16264915671263175,"167":-0.06005079627148573,"168":0.059214603552379286,"169":-0.043610146230337134,"170":-0.03667014562776982,"171":-0.34877864443683604,"172":-0.3108236012431268,"173":-0.14437609924488057,"174":0.1341273517864492,"175":-0.1438847858923914,"176":0.012341025880246978,"177":-0.2256349128693813,"178":-0.3766484635112744,"179":0.03862607777119566,"180":0.18457739050539063,"181":0.20372187286950091,"182":-0.1979056256291408,"183":-0.11203425360340145,"184":-0.4697367412276206,"185":0.03193671845398693,"186":0.08202852628337047,"187":-0.493413094498639,"188":-0.34398460815986165,"189":-0.15239952569357962,"190":0.09278415323617366,"191":-0.0908666215604754,"192":-0.1799623267015329,"193":-0.451062099522794,"194":0.11744994215338803,"195":-0.18584942924064635,"196":0.13576226145114084,"197":0.1676626567002224,"198":-0.08535648852816562,"199":-0.07945347680410521,"200":-0.35999477667767216,"201":-0.25205206957888876,"202":0.28083717980049644,"203":-0.14556127898776616,"204":-0.07203007098414048,"205":-0.5661205281528587,"206":-0.35407078312948836,"207":-0.3664031482299102,"208":-0.19772046356392958,"209":-0.272536208654717,"210":-0.0768232600903829,"211":-0.0563813102157112,"212":-0.4915893094255956,"213":0.06032751328119366,"214":0.476709879749824,"215":-0.04570090145037947,"216":0.17853815655274077,"217":0.06834076157072731,"218":0.24043739040998505,"219":-0.05100782287770212,"220":0.0551409015481487,"221":0.2793930893121246,"222":-0.08459847649790639,"223":-0.2527173906535566,"224":0.25246781014993624,"225":-0.44354949761351115,"226":-0.19385280686747275,"227":-0.301208817747956,"228":-0.23523973503751835,"229":0.1408695004586703,"230":-0.20500950444138225,"231":0.09584930685093794,"232":-0.07634685673054702,"233":-0.07361642611570339,"234":-0.7788230546470436,"235":-0.1638916458449477,"236":-0.549401557215699,"237":0.2026154991748341,"238":-0.33543714918990813,"239":0.1173525926402081,"240":0.022257095035976573,"241":0.056611210433592025,"242":-0.10789380645213532,"243":0.2924955424535035,"244":-0.15178042447548665,"245":-0.10632384783108652,"246":-0.2767658079269843,"247":0.25365225113449,"248":-0.22112023734178488,"249":0.15764317996533248,"250":-0.007075410987241179,"251":0.023588948367468797,"252":-0.08355491417477325,"253":0.250949450027666,"254":-0.5181055805842437,"255":0.15301297782354104,"256":-0.42634360739271765,"257":-0.5137753679588479,"258":-0.23676939728441287,"259":0.20856552416710378,"260":-0.2562231834783307,"261":-0.3762923860547035,"262":-0.18072128565011364,"263":-0.3161597927861581,"264":-0.020216351095124745,"265":-0.0640334488494398,"266":-0.18028288322946578,"267":-0.030712005159515596,"268":0.06907139424966326,"269":0.3284522671289619,"270":-0.11741650941533181,"271":-0.20246640959596032,"272":-0.21431422786295323,"273":0.40703810473502905,"274":0.06933306394404602,"275":-0.8280211053803452,"276":0.3052626163603843,"277":-0.43529968969285626,"278":-0.152742076536585,"279":-0.3056415876479158,"280":-0.17169541502466878,"281":-0.18060579646088928,"282":-0.364895681491753,"283":0.4834551567304669,"284":-0.4068790576880646,"285":0.5110621344874516,"286":-0.3004831233454701,"287":-0.15016021224177561,"288":0.07090047786055013,"289":0.07755484506305803,"290":0.47737771480164043,"291":-0.881947298778595,"292":-0.17162004110022355,"293":0.10991908897785059,"294":0.38889688424163193,"295":-0.2321896069632619,"296":-0.06921631759505846,"297":0.4291277221999223,"298":-0.36895583378662633,"299":-0.2134833516370367,"300":0.29856423607797933,"301":-0.37645184205611176,"302":0.10305831380825438,"303":-0.8273861103054592,"304":1.2251958558408762,"305":-1.1766623715321314,"306":0.4119670891155179,"307":0.16614251133308994,"308":0.22770813912911472,"309":-0.16109129903029376,"310":0.3318045773648646,"311":0.942487056448578,"312":-0.10832704786225623,"313":0.044697876984663334,"314":0.11193757026047035,"315":0.11986132958930591,"316":-0.058753870164759005,"317":-0.08606313680516456,"318":0.2656215996456495,"319":-0.3259215288778039,"320":0.3166801221919935,"321":-0.33727944101361956,"322":-0.23728634139823676,"323":-0.18327843155514267,"324":0.7018309289309596,"325":-0.14700694655508642,"326":-0.21040168665685444,"327":0.10139869459478065,"328":0.10607716099444599,"329":-0.016008615156504983,"330":-0.24842952156281145,"331":1.3107186687210288,"332":-1.5481380874326134,"333":0.5610502755258329,"334":-0.34291681225571197,"335":-0.05670363837456829,"336":-0.24240473389933273,"337":0.3204441270438264,"338":1.0988021845215594,"339":-0.3010063428709761,"340":0.3737756052845688,"341":-0.15703372263237353,"342":0.10912829763377585,"343":0.2782475330090947,"344":-0.16287109928387894,"345":-0.20623061574132623,"346":0.2869721534780159,"347":0.1959451762428577,"348":0.4630713755070612,"349":0.47513644895141516,"350":-0.08482235895606456,"351":0.044466029524098165,"352":-0.3203952664001938,"353":-0.36527753812132513,"354":-0.2992661621471305,"355":-0.39831038137697206,"356":0.13896883998486612,"357":-0.014742141029810713,"358":-0.6806124600336189,"359":0.3107770886247837,"360":-0.33859197821575776,"361":0.04020924428511642,"362":0.07103660740959221,"363":0.15437282872251298,"364":-0.3963913357868761,"365":0.5121803655829703,"366":0.6759809649419419,"367":-0.28408702407393005,"368":0.5353340434059165,"369":-0.3116848994256654,"370":-0.19710390067183614,"371":-0.1484984219808184,"372":-0.022181332335334664,"373":0.6880256583760826,"374":-0.2618871363016409,"375":0.21016018136131362,"376":-0.020306504787965786,"377":0.24001479242708332,"378":0.27343750115236587,"379":-0.10437334663817475,"380":-0.25683861965755705,"381":0.6104917364400954,"382":-0.34765764637817576,"383":0.2770145810851004,"384":0.30150441956565954,"385":-0.2790025338321688,"386":0.18079525774590846,"387":-0.3786799503820715,"388":0.827245073165457,"389":0.14339531036294453,"390":-0.34904629072829496,"391":0.002701474576297047,"392":-0.4842319609583688,"393":-0.4168862701595861,"394":-0.026858885333133818,"395":0.5822098743959732,"396":0.19265737935900512,"397":-0.22918523328165583,"398":0.07017644917137908,"399":-0.053622425302839324,"400":0.24465243249776072,"401":-0.016158089671850537,"402":-0.519119337145461,"403":-0.8564490758542621,"404":0.2186427077367957,"405":-0.07017500902918097,"406":0.0871729524771422,"407":-0.09207483238890174,"408":0.10586519005292563,"409":0.47031244317299686,"410":0.07703373792025177,"411":0.08342108025481289,"412":0.07566439378112705,"413":0.07487012586705646,"414":0.48835748827990605,"415":0.08847635568002821,"416":-0.2743565091358596,"417":-0.3779475303813341,"418":0.29798963356588726,"419":-0.3861749460003926}},{"sx":1,"sy":1,"depth":420,"w":{"0":-0.11597138029096579,"1":-0.3437770920032333,"2":-0.08567425149368393,"3":-0.18766140005133086,"4":0.09433440744386651,"5":0.44649831566646536,"6":0.4325621762102738,"7":0.26860426174992547,"8":0.18647256477181962,"9":0.14722562075069942,"10":-0.2926312022699799,"11":-0.31114530832863907,"12":-0.7093150218055787,"13":-0.34338501283979955,"14":-0.2867587678114133,"15":0.03700744383524445,"16":-0.61791718487411,"17":-0.016111049347698164,"18":-0.424616616055422,"19":-0.24662990466858595,"20":0.24106790893015903,"21":0.17310412888124319,"22":0.1763488000967917,"23":-0.5639617066073117,"24":0.12178163593890061,"25":-0.047330943699326014,"26":0.2847409177485113,"27":-0.15870272050758913,"28":0.09693169284562028,"29":0.24891262534073064,"30":0.4495433335237005,"31":0.05251753440855698,"32":0.17919638424934986,"33":0.28560850260181203,"34":0.2448215958966824,"35":-0.4630117632861651,"36":-0.22496112650021208,"37":-0.34773700058679197,"38":-0.05414946785500787,"39":-0.22593107915080274,"40":-0.1363440139318859,"41":0.4230388034706823,"42":0.14318577863088303,"43":-0.27472668802227834,"44":-0.1357775331514437,"45":-0.034405409477606806,"46":-0.3753902507804212,"47":0.6552027616271302,"48":-0.3448115053295601,"49":0.27274541141386627,"50":-0.05705512233312007,"51":-0.7505027013296275,"52":-0.36326669518828886,"53":0.21844364773497377,"54":0.15385799280028714,"55":0.11681746048935474,"56":-0.05295126175169504,"57":0.000507172112004855,"58":0.07239793991898268,"59":-0.11835851462894528,"60":-0.3266157354913322,"61":0.28894250319477605,"62":0.4481014862261012,"63":0.009535592262759457,"64":-0.30038494981809327,"65":-0.15080994143685336,"66":-0.1781055021719617,"67":-0.3383558204357761,"68":-0.23519104677216737,"69":-0.35739524145492957,"70":-0.11665653020554753,"71":-0.23612828259069188,"72":0.15195067210858704,"73":0.044734089823573145,"74":0.10347963563268903,"75":0.014561215738773866,"76":0.5475427844831328,"77":-0.14531070399166143,"78":0.020375764719476618,"79":-0.3151010932124807,"80":0.23715735777963518,"81":-0.6548657909125294,"82":-0.4054555374312925,"83":-0.04580151659471369,"84":0.06402068099507797,"85":0.13255334940612856,"86":-0.389336207455694,"87":-0.3685984718287059,"88":0.19101649380756058,"89":0.2650679773354262,"90":-0.1131626700647042,"91":0.20308988809011966,"92":0.040972600682837354,"93":-0.39571716573737264,"94":0.18237332649312343,"95":-0.11482703530655655,"96":0.21749516654292728,"97":0.10953540368780552,"98":0.04720241419662252,"99":0.43905144603493484,"100":0.08657678059324107,"101":-0.05945100507432029,"102":-0.36174290640982154,"103":0.030376711947186254,"104":-0.07395906472179055,"105":0.2214613237567776,"106":0.19590915034312353,"107":0.20469866414741072,"108":-0.06864933398057751,"109":-0.22334868582348236,"110":-0.2689153140094121,"111":0.3779610824051003,"112":0.29992676884265057,"113":0.47223919613530435,"114":-0.6611911002813426,"115":0.8256500360812947,"116":-0.2949934731976253,"117":-0.18212392556882068,"118":-0.36553790422767124,"119":-0.10893998157752563,"120":0.41342292053670493,"121":0.07936015591573227,"122":-0.2604969505087936,"123":-0.04714188475967124,"124":0.06704104262545256,"125":0.26646004843648546,"126":-0.2251613557003811,"127":0.26670397358388165,"128":0.002719735789981216,"129":0.03650517009059062,"130":-0.01549343931344898,"131":0.01917814187779607,"132":-0.03411950961735292,"133":-0.39940834785439205,"134":-0.6493772762812151,"135":-0.49950455977955727,"136":0.016390940895207363,"137":0.128467439661702,"138":0.05581778659414518,"139":-0.00020192250042515216,"140":0.11114934312815176,"141":0.11925301763789646,"142":0.29417363043974687,"143":-0.13892797348956776,"144":-0.4961153043721924,"145":-0.23969686032618273,"146":0.3036417895047972,"147":0.19428541765984841,"148":0.5348344232273957,"149":-0.06138313548944718,"150":0.2757090699373629,"151":-0.05264413694886361,"152":-0.09168965526087657,"153":0.03079324477602307,"154":0.17700502182675779,"155":0.04538388934269661,"156":-0.34404839909610296,"157":-0.09869372159816994,"158":0.2714318950684613,"159":-0.22353199276499933,"160":0.017379880026998983,"161":0.17420636871838122,"162":0.6434484563873486,"163":0.15379978614355616,"164":-0.056954973235786736,"165":0.09964741632177464,"166":0.08759803861597625,"167":-0.24102968022853102,"168":0.2511537250720578,"169":0.40108806965024796,"170":0.34707346973349945,"171":-0.04944694377721616,"172":-0.011426816057377035,"173":0.37776297991647556,"174":0.18411345330871864,"175":-0.19998277252015673,"176":0.059966289567506784,"177":-0.3958846044531181,"178":0.15543640571119155,"179":-0.09060539274795415,"180":0.08783879949124765,"181":-0.3720973829796393,"182":-0.05498118888604379,"183":-0.27094266073934914,"184":0.08443702729669082,"185":-0.24284683543742416,"186":0.004535117728152014,"187":0.4212598994641956,"188":-0.4155575912915447,"189":0.23610512931263097,"190":0.1495750194717661,"191":0.6541292114165409,"192":0.435844338831177,"193":-0.15256091169836586,"194":0.46197886064549376,"195":-0.09987066808650004,"196":0.1567338410963346,"197":-0.04534921682056633,"198":0.1358355018333221,"199":0.23228713870459045,"200":0.04268733388531072,"201":-0.2791113972492651,"202":-0.22098151658152312,"203":-0.011989901954225758,"204":0.1994816897879368,"205":0.5083236750014498,"206":-0.06055020742059457,"207":0.25860534130535784,"208":-0.11546365578919511,"209":-0.10664932082753632,"210":-0.502032727317112,"211":-0.03525906226869481,"212":-0.28003584544392035,"213":0.37857134256845415,"214":-0.4943289878912415,"215":0.04787762737130641,"216":0.07332264534294827,"217":-0.166934202956953,"218":-0.16764142826359646,"219":-0.28457931063635045,"220":0.07300261047710388,"221":-0.2497761519404753,"222":0.05015627023067543,"223":-0.11352202686678871,"224":0.262814157836079,"225":0.1334162079068294,"226":0.33235604736056534,"227":-0.4345739837710098,"228":0.08521234038016558,"229":-0.3143963119285427,"230":-0.31670383020342563,"231":-0.3555856728269533,"232":-0.3268953815129497,"233":0.14485680732288808,"234":0.2749809413706931,"235":0.4797330818012445,"236":0.09132914475327981,"237":0.5039361986767047,"238":0.07520840853748362,"239":0.26471855633655345,"240":0.16672750701090705,"241":0.2958784804122905,"242":0.8556769278881724,"243":-0.3441838424328231,"244":-0.5776413515869278,"245":0.1757462359260241,"246":0.32861614654771043,"247":0.3326107984370665,"248":-0.39007367713263486,"249":-0.18246053474637475,"250":-0.08277715437588608,"251":0.0877528567039445,"252":0.08448779597816918,"253":-0.30957617391784154,"254":-0.44844160820236234,"255":0.19742462443702372,"256":-0.06790903621518436,"257":-0.12809148153713976,"258":0.34698551964181557,"259":-0.32396238208985445,"260":0.0020233931783144006,"261":-0.040718913436404464,"262":0.20449691547503168,"263":-0.09457475007209944,"264":-0.24517299718337626,"265":-0.0680453041477208,"266":0.21005526093155044,"267":0.3054777686236707,"268":-0.06953158935319209,"269":0.7811232536726286,"270":0.18236792789321807,"271":0.5578952809101254,"272":0.42432647194316,"273":-0.44686811250845715,"274":0.3439205823348825,"275":-0.054927951653715695,"276":0.42976911190992495,"277":0.9005998761976521,"278":-0.24096285928027847,"279":-0.006626591516404367,"280":-0.6660605408883626,"281":0.0697165877179706,"282":0.1739639432637068,"283":-0.12120855045289675,"284":-0.6826969772629022,"285":-0.045643272914771243,"286":-0.08315911554190196,"287":0.3773953101147269,"288":-0.5332477733296843,"289":-0.043656114002906324,"290":0.19744855649638648,"291":0.11955208626211883,"292":-0.06463282510858837,"293":-0.199399992587869,"294":0.07732643837059995,"295":-0.10797260320289327,"296":-0.3359879459506599,"297":-0.20238721674398666,"298":-0.2688788729197744,"299":-0.08955112130849154,"300":0.017305842724658186,"301":-0.2531117390632343,"302":-0.45151505599717146,"303":0.4545435579817109,"304":0.2444271959897853,"305":0.4348625853775991,"306":-0.36941107309884347,"307":-0.19761891046990696,"308":-0.5495056685909413,"309":-0.04415894015393648,"310":0.7976236362862705,"311":0.2117032982860975,"312":0.9094683318063577,"313":-0.2992727564123176,"314":0.3774341509865447,"315":0.15149489844047678,"316":-0.05354375618405021,"317":0.429366966591719,"318":-0.14194931865081808,"319":-0.21166802835843973,"320":0.08181569697672272,"321":-0.056263529726882464,"322":-0.15331283538827667,"323":-0.47720641129060487,"324":0.9244751804612766,"325":0.8503937299254443,"326":-0.08659363518883356,"327":-0.5364159639795186,"328":-0.29510711179921123,"329":0.38013503201762805,"330":-0.6898690478349973,"331":0.2737210697030644,"332":0.9270038249638907,"333":0.7719984633266379,"334":-0.29148970572000904,"335":0.10940162002381437,"336":0.07552624536154975,"337":-0.03493985199594278,"338":0.16668303289631092,"339":-0.4289504081653125,"340":0.5723349946370092,"341":-0.07970858170491227,"342":-0.14362071277650487,"343":0.35737681103615193,"344":-0.30213197111289875,"345":0.07897220631253057,"346":-3.1984129133818264,"347":-0.5811073642693104,"348":0.6845291376326677,"349":0.48308021359489817,"350":-0.2931618013680736,"351":-0.017711596973577187,"352":0.21553386465656424,"353":-1.83817909287582,"354":0.5457543055125775,"355":-0.3337812796045265,"356":0.3673904378604363,"357":-0.3689726727621492,"358":0.4624301460028636,"359":-0.2012019622575525,"360":-1.8142154202856118,"361":-0.5307783837964973,"362":0.35699146178615687,"363":0.09082834418559257,"364":0.7940745529608675,"365":-0.5622969046545424,"366":0.06151892857052757,"367":-1.87027214878713,"368":0.375974405749812,"369":0.08158518518405157,"370":0.002400941755201654,"371":0.08472724546897865,"372":0.1611910784011921,"373":-0.05710727115713467,"374":-1.9437473804673948,"375":-0.07268599813831966,"376":-0.21356350549333905,"377":-0.49418952603069966,"378":-0.3088035951274671,"379":0.10150701450078424,"380":-0.1617193763858253,"381":0.5519975544700959,"382":0.2250163748096373,"383":0.3800378039680822,"384":0.06009174761758895,"385":-0.48168772802831467,"386":-0.020625164210594325,"387":-0.5281336350772537,"388":-0.2893160376702356,"389":0.09641674821206778,"390":-0.01428010309397234,"391":-0.42140840857395806,"392":-0.08880563596877601,"393":-0.26260564551899596,"394":0.030419215041109237,"395":-0.35851304913513404,"396":-0.5958800159362329,"397":0.27471954933202125,"398":0.11078291157270696,"399":0.2895594502831811,"400":0.2788184342639302,"401":-0.33622368827985416,"402":-0.6834882673271775,"403":-0.11330188008081124,"404":-0.6446256856708047,"405":-0.20130996984604085,"406":0.2184392974061924,"407":-0.5550059449255742,"408":-0.15705851661072778,"409":-0.7024878087501667,"410":-0.1145431510436725,"411":0.46473179219875865,"412":-0.2967143626679874,"413":0.0174255067442223,"414":-0.1779934648779027,"415":-0.5666921609734694,"416":0.2419983176806763,"417":-0.3038523845869424,"418":0.21243540129275598,"419":0.1660910232025286}},{"sx":1,"sy":1,"depth":420,"w":{"0":0.18687258935551881,"1":-0.15054955738447234,"2":-0.06831900300757213,"3":-0.3680341257970597,"4":0.614307128495949,"5":-0.11811656166473987,"6":0.0010974565154740032,"7":-0.13224610325112687,"8":0.12301262120929152,"9":0.2600864367725629,"10":0.24082916295964832,"11":-0.1251667952136589,"12":0.352340430277271,"13":0.2323688466747029,"14":-0.14025583338883166,"15":-0.37553949220073307,"16":-0.2967930778823083,"17":-0.09760622816413798,"18":0.1828341446218378,"19":0.3417237340063508,"20":0.20356895830554464,"21":0.11343575651198759,"22":0.06582271334696083,"23":-0.09808151350448671,"24":-0.06078503490528237,"25":-0.18481638587495708,"26":-0.098519580560884,"27":-0.4482189539311364,"28":-0.0699138923505359,"29":0.05573117267677484,"30":0.5858588178884738,"31":-0.18671933402073979,"32":0.13466430436599283,"33":0.34848931365939106,"34":-0.24896389301048327,"35":0.09208721341380548,"36":-0.090204173050548,"37":0.016165579356662883,"38":-0.06499245240050701,"39":-0.052321145339724894,"40":0.19876011608717759,"41":0.22619278668537626,"42":0.37884856832262803,"43":0.0670653733200879,"44":0.13293049070134194,"45":-0.3670722237255011,"46":-0.29902379769743065,"47":-0.010596832595535025,"48":0.21360053389118247,"49":0.2628291401694597,"50":0.4367130889362157,"51":-0.5224854472241105,"52":0.14828202232111506,"53":-0.3677377366527042,"54":-0.18156056422115874,"55":0.4203024567472533,"56":-0.027854064010442953,"57":-0.05839854803245455,"58":0.00233493621866305,"59":-0.16275286274245448,"60":0.3522217932359408,"61":-0.4078026558291424,"62":0.362326649251341,"63":0.04427272406496938,"64":-0.0394604413647724,"65":-0.022969664037694994,"66":-0.011245098065404035,"67":0.3547940343779914,"68":-0.2631623551158875,"69":0.06042824694618613,"70":-0.07991193040585297,"71":-0.20496087189980414,"72":-0.03725952339421747,"73":0.09941357311901658,"74":0.13869900878306538,"75":0.1425214494866866,"76":0.10694149211589543,"77":-0.1821140996777976,"78":-0.12135121629381806,"79":0.40759388059284446,"80":-0.5507186945004865,"81":0.1356215635433552,"82":0.1476107970064635,"83":-0.06746954436365847,"84":0.07017293988377517,"85":-0.20266733345749197,"86":-0.05316810118275455,"87":0.21434542452952687,"88":-0.3265261911198354,"89":0.5011409944113626,"90":0.2767552255228633,"91":-0.14140808159872734,"92":0.13777194805627885,"93":-0.0917464821589171,"94":-0.27710112630312067,"95":0.01664456344192481,"96":0.5277535763323208,"97":-0.17687517580615467,"98":-0.5625966060703345,"99":0.18013609295250857,"100":-0.3218751334150602,"101":-0.6052526180364348,"102":-0.22250494680521907,"103":0.09208501787692297,"104":0.30197475301536475,"105":0.010202470044732676,"106":-0.511428239891573,"107":0.32481235436279843,"108":-0.007965049163024407,"109":-0.011988605210650536,"110":0.5401034681188727,"111":-0.20290237180785328,"112":-0.1306077268373975,"113":-0.06698663984296144,"114":0.33410530540497674,"115":-0.32190146359784794,"116":-0.13015399995431903,"117":0.07004526087835959,"118":-0.6407338921585551,"119":0.03770680395579098,"120":-0.16786627994810785,"121":0.15019143563137852,"122":0.03582722430020781,"123":-0.3849670026924618,"124":-0.2323293829803899,"125":-0.16875920390639693,"126":-0.19528470302492196,"127":0.25627644064866867,"128":0.7303423958701163,"129":-0.11247146444851715,"130":-0.29165631069122555,"131":0.07814647016002667,"132":-0.25492577909802017,"133":-0.36345893379953564,"134":-0.25625717826051364,"135":0.27462790616784444,"136":-0.6366445347253055,"137":-0.20075031548068123,"138":-0.08493415886232325,"139":0.00167121363156624,"140":0.0183824743685878,"141":-0.12603234395419347,"142":0.2188382183341838,"143":-0.4729563050779302,"144":0.16576990315876633,"145":-0.23760428469634368,"146":-0.3490966847290971,"147":-0.1530488844627047,"148":0.2755896224899893,"149":-0.0890500748936491,"150":-0.19293740627375688,"151":-0.05408258634480685,"152":-0.374490181986414,"153":-0.46497330084663946,"154":0.4303869890256581,"155":0.17104237382625886,"156":0.07142416610671297,"157":0.04577140010302175,"158":-0.2213885130095408,"159":0.05044893923213117,"160":-0.437466513250219,"161":-0.1023877069120535,"162":-0.18591266108532903,"163":0.2813412270094814,"164":-0.37121955230083,"165":-0.07313406758322208,"166":-0.6285619960869492,"167":-0.60781147155508,"168":-0.2580859507131018,"169":0.43216693673188994,"170":0.06078745654923549,"171":-0.11295133874821378,"172":-0.3999181872504959,"173":0.17927483623793336,"174":-0.20928217876546953,"175":-0.4667624181170778,"176":-0.06184690944716411,"177":0.20264267972947073,"178":-0.14153018167222323,"179":-0.6276633693820272,"180":-0.030142367482145386,"181":0.4254526122556456,"182":0.1666759751253131,"183":-0.036083766534108115,"184":-0.1431578997980251,"185":-0.28653165512661,"186":0.18817770449501073,"187":-0.3301997818932575,"188":-0.510643990611508,"189":-0.10805458033785745,"190":0.34440747699460666,"191":-0.2677877278168074,"192":0.47287339425721053,"193":0.09388492008009536,"194":-0.03611546608352065,"195":-0.5093215457466286,"196":-0.09393866401847775,"197":0.07517612628482762,"198":0.05779146237085949,"199":-0.05532716211246901,"200":-0.24919280998758775,"201":-1.0204356251096216,"202":-0.11188986732851383,"203":0.057429306415816284,"204":0.20007122821654588,"205":0.3915343341356511,"206":-0.18236797644896707,"207":-0.4166024949544463,"208":-0.03489986402910165,"209":-0.37700800415437746,"210":-0.48799157363499857,"211":-0.2855106640027713,"212":-0.3532878956574448,"213":0.11748076490790392,"214":0.1197972428293624,"215":-0.09604144654608869,"216":0.003051722733654655,"217":-0.08735238471113646,"218":0.3613766121569916,"219":0.22297611304732382,"220":-0.3041075943619391,"221":0.07210396241501046,"222":-0.341472252266244,"223":0.1485746672736938,"224":-0.22680436655283345,"225":-0.04643001845280413,"226":0.05899485355437814,"227":0.1982392770240315,"228":-0.1283458185524308,"229":-0.14128566586782365,"230":-0.0498994093828128,"231":0.2029825598459613,"232":0.5350398375128814,"233":0.660721624553635,"234":-0.3760414914301142,"235":0.4233684393079154,"236":0.16854023393659556,"237":-0.23987186759723866,"238":0.007520169569606912,"239":0.34309118924931503,"240":0.5778222021537786,"241":-0.22463618443050157,"242":-0.668967316705638,"243":-0.7292143278236843,"244":-0.0002109391521032809,"245":-0.05777037899095292,"246":-0.022662208307231316,"247":-0.2523011475003309,"248":0.025006418287524177,"249":-0.42996431980478633,"250":0.08939354385505788,"251":0.387170271253245,"252":0.3873529089817014,"253":0.3392981928042602,"254":0.009848078439234145,"255":-0.07340257480874054,"256":0.23521728129388644,"257":-0.08857726227656922,"258":0.04591088321028889,"259":-0.1831438440538294,"260":-0.0860519518436314,"261":-0.0594576358521784,"262":0.4368227747957698,"263":-0.11858652349251925,"264":-0.39993523143109405,"265":0.06928470009793379,"266":-0.02313107433485801,"267":-0.09367726591225764,"268":0.3673305887777706,"269":0.09859128508702822,"270":0.39843831996516293,"271":0.4383255962433691,"272":0.09555373454911627,"273":0.5030611160887195,"274":-0.19029077847646297,"275":0.836358063737886,"276":-0.40694712132422,"277":0.10318050006378675,"278":-0.4010348661808145,"279":-0.3659635759235297,"280":-0.0691071647282312,"281":-0.17192469398704693,"282":0.4248957587849844,"283":-0.017368696953797263,"284":-0.27848781841220677,"285":0.5089147919746414,"286":0.0622294932747205,"287":-0.0124610499236288,"288":0.20851990782594035,"289":-0.12028828629644094,"290":-0.11228946335143862,"291":-0.06553661830942727,"292":0.0852167791675874,"293":0.263976544602506,"294":0.3595289959151721,"295":-0.11981039418108386,"296":0.033356768673369785,"297":0.06259208519882539,"298":0.30799488722308255,"299":-0.5316634513627535,"300":0.05287375261567163,"301":0.41198032423179226,"302":-0.3488325364221712,"303":0.3566920170081779,"304":-0.045801433851774195,"305":-0.0995975404698027,"306":-0.17659875714464562,"307":0.07349489402165174,"308":-0.12719643440667885,"309":-0.535652875418031,"310":0.43573783719871717,"311":-0.6432270102906912,"312":0.6905232793503762,"313":0.48787663867993003,"314":0.10125245350008531,"315":-0.08590072348801248,"316":0.02200606624304108,"317":-0.0567532213091328,"318":-0.5670445839325254,"319":0.08470813767286803,"320":-0.19423549374236324,"321":0.34499290979225544,"322":0.11838005827615859,"323":0.11017616462102466,"324":0.5078951804801647,"325":0.08615746898947256,"326":0.3083610928860306,"327":0.205739709335604,"328":0.04993336045418009,"329":0.007018839986707283,"330":0.3157830742445244,"331":-0.13741465138996825,"332":1.1818406189698292,"333":0.4701685488393744,"334":-0.33966453588116025,"335":0.42963115769869803,"336":0.5513901999829889,"337":-0.06139356486173176,"338":0.2011430387862215,"339":0.33729764120306444,"340":0.2030141857006042,"341":-0.8901160781378975,"342":-0.6164924150226648,"343":-0.23429217362463384,"344":0.08976195382251079,"345":-0.27360515390430834,"346":-0.22862558641296582,"347":0.5396860148316918,"348":-0.14459369388007917,"349":-0.44841653586383434,"350":0.09529153757176065,"351":-0.21123355509226527,"352":-0.09182692060699105,"353":-1.4242503563017301,"354":0.23254550128208543,"355":0.3100405089272352,"356":-0.17744727396002133,"357":0.1786644890651952,"358":0.01610876315221051,"359":-0.3439937978863768,"360":-1.4625428004830592,"361":0.41694964151853303,"362":0.4288785930027439,"363":-0.1745297434627794,"364":-0.5378753671633317,"365":-0.000738681069078634,"366":-0.3681501170475902,"367":-1.4226845805584514,"368":0.057723302227445435,"369":-0.08167134082612598,"370":0.051367499739038786,"371":0.5769717287710582,"372":-0.05257917321618105,"373":0.6513134799533106,"374":-1.490077176717587,"375":0.38092891678858404,"376":-0.35956650091703757,"377":0.07125197754789417,"378":0.22988430052977638,"379":0.4819795862659533,"380":-0.3428923760707015,"381":-0.9314896586611728,"382":0.08860003982016368,"383":0.011607910543617157,"384":0.10890033595681378,"385":-0.4686263151851004,"386":0.030401476550859348,"387":-0.48629499551529554,"388":-0.20421072739365886,"389":0.6093011434020098,"390":0.29646622682936724,"391":-0.2965306807473509,"392":0.6363565543912891,"393":0.10424422753195961,"394":0.026857990042060385,"395":-0.8143566002505586,"396":-0.37009013901569254,"397":-0.21664710291174266,"398":0.3215720067842605,"399":-0.32537681506476357,"400":-0.04318001751393854,"401":-0.23246780638173295,"402":0.5108408332529378,"403":-0.12071182695880808,"404":0.48749254786394464,"405":0.4781119088656475,"406":0.1101469984616334,"407":-0.2340263045030602,"408":-0.8512375530095522,"409":-0.22872149227637031,"410":0.6509800951291868,"411":-0.1160356144448426,"412":0.32159985041314804,"413":-0.6097894043994001,"414":0.33710157399148355,"415":0.10607023219358068,"416":-0.41458267232460266,"417":-0.6529850995258308,"418":-0.07930515585957054,"419":0.146786766757726}},{"sx":1,"sy":1,"depth":420,"w":{"0":-0.4434560385891395,"1":0.5269207772261003,"2":-0.2280943338118913,"3":-0.27766263924084106,"4":-0.48837701123517335,"5":-0.21527203635289263,"6":-0.120270931130266,"7":-0.24762022473678413,"8":-0.23428052348768677,"9":-0.2980132310681736,"10":0.09814958396356703,"11":-0.010199186166336036,"12":-0.9362629372653957,"13":0.06783108200077219,"14":-0.44432770232639457,"15":-0.5058779971952404,"16":-0.3381847120948259,"17":0.2876190544271604,"18":0.1823103073910354,"19":0.6584981914342802,"20":0.2063578949374394,"21":-0.43256570386666954,"22":-0.10959605613675309,"23":0.2672131316714764,"24":-0.045923941504001184,"25":-0.5491425637150643,"26":-0.013983299494401028,"27":0.3477557681982732,"28":-0.11175491963469904,"29":-0.04943473299291661,"30":0.2649335645377815,"31":-0.30478791925734505,"32":-0.2252875318068993,"33":0.13892329466341363,"34":-0.205467207817314,"35":-0.12614556969886753,"36":0.4306074978500011,"37":0.30132703662656257,"38":0.22900260293898475,"39":0.12286331614630965,"40":0.6812443859230953,"41":-0.3796618185215726,"42":-0.16282680742401395,"43":0.17366905130432966,"44":-0.12567061956658052,"45":0.44235606340444933,"46":0.08343252810015316,"47":-0.5275724474650213,"48":-0.39450239764182415,"49":0.04691543750014069,"50":-0.2626589269655816,"51":-0.01620000443730534,"52":-0.6121157945735156,"53":0.09697101519238013,"54":0.6625780231330161,"55":-0.05305907304949805,"56":0.07781886652913694,"57":-0.438083615127209,"58":-0.4266626557424528,"59":0.21977128952278985,"60":-0.605241630415061,"61":0.757202992475977,"62":-0.35789057803707985,"63":0.06565013581330736,"64":-0.05620487638588676,"65":0.1084066964901816,"66":0.11716987536302415,"67":0.4426772539392584,"68":-0.3265551271258637,"69":-0.03109318529075871,"70":0.0847429251728922,"71":-0.065496159568463,"72":0.35085868648717733,"73":-0.5481207250324619,"74":-0.5471481968339078,"75":0.16317184711544008,"76":-0.10825555456177106,"77":0.3469596443723364,"78":-0.015499779168414404,"79":0.12636210409776746,"80":0.2597498961323848,"81":0.2808357890866876,"82":-0.07875301857109028,"83":-0.43688873929138233,"84":0.025840789676302704,"85":0.14215207200046776,"86":0.42293711004414986,"87":-0.10836312746096219,"88":0.6010780452905304,"89":0.01564005926168501,"90":0.1809748215666415,"91":-0.11952567546801028,"92":-0.08530534994551461,"93":-0.02761365596224794,"94":-0.07339987915440813,"95":0.20464271325546812,"96":-0.21556216045671545,"97":0.2977078072827762,"98":-0.0328643203338567,"99":-0.08076369755368676,"100":-0.19744800169000976,"101":0.39693514483133796,"102":0.0020189282415449465,"103":0.40713219768230857,"104":0.16378591157318032,"105":0.044697065709954256,"106":-0.3740319175399101,"107":0.016267945088209522,"108":-0.16047067570218795,"109":0.06309052084764295,"110":-0.4391212841211771,"111":0.1381447531012666,"112":0.26699653710636106,"113":-0.016081350759708336,"114":0.1054511131094856,"115":-0.004038095097669336,"116":0.41843435192431333,"117":0.0605355570868714,"118":0.049689569765719185,"119":0.1787275321802809,"120":-0.25558610491432265,"121":-0.5814485180826825,"122":-0.43353928052460144,"123":-0.7066009119722413,"124":0.5464866381251842,"125":0.15469116382728493,"126":-0.16995507480981997,"127":-0.24542125961157119,"128":0.22155344699580776,"129":0.23404720388645098,"130":0.3300784210309317,"131":0.1498192999629352,"132":0.1321553165364403,"133":0.12363401085219829,"134":0.24556908269735062,"135":-0.19421775188500345,"136":0.06474964995907558,"137":0.16649134296696158,"138":0.502868219390668,"139":0.25998735791318306,"140":-0.1560346895689927,"141":-0.11063583970898225,"142":0.6369501484674549,"143":-0.09689242606773872,"144":-0.24361133799780132,"145":-0.6508514856469881,"146":-0.05465776014177619,"147":-0.464928542235391,"148":-0.003678167022832422,"149":0.5958497098397646,"150":-0.468453745974795,"151":0.0588237595366784,"152":0.06386162282632085,"153":0.08978166302610581,"154":-0.26468027410054396,"155":0.05726573650384462,"156":-0.04764198013718862,"157":-0.37384033959935786,"158":-0.2503745878293167,"159":0.1099368001968532,"160":-0.25540739975116145,"161":-0.3119455687462206,"162":0.1757475341390278,"163":0.05965795988624867,"164":0.9965973902346307,"165":0.1904944931213407,"166":0.19636464248373617,"167":-0.7630043931627155,"168":-0.5419056052571992,"169":0.32220310646202766,"170":-0.44342598489934715,"171":-0.6359967913543366,"172":-0.06931988247691195,"173":0.0335923093172763,"174":-0.0935593105920553,"175":-0.05905327945854803,"176":0.20176037005200664,"177":-0.04708291112313175,"178":-0.08709546952348036,"179":-0.5122625606855652,"180":-0.318186230552961,"181":-0.1017232362947633,"182":-0.2546617006410171,"183":0.31508982720864764,"184":0.07496849773861022,"185":-0.31741937212025484,"186":-0.40549558820440595,"187":-0.14315014381630792,"188":0.12139209612877348,"189":-0.5345669116060565,"190":0.04671722499829694,"191":0.42415357911366125,"192":-0.47406805592146123,"193":0.15206297009145964,"194":-0.24181927666656192,"195":-0.16006242516938785,"196":0.18534885602134962,"197":0.0471046857685138,"198":0.34584318152626775,"199":0.426671198280317,"200":-0.27590827054098405,"201":0.3430156397327042,"202":-0.1371917315828771,"203":0.15142141298382109,"204":0.23079340456553057,"205":-0.09799241030629949,"206":-0.4382092729611075,"207":0.2603328079791256,"208":-0.1040636184717287,"209":-0.289195876439783,"210":0.21051678107105523,"211":0.08945800797202179,"212":0.3701364898490885,"213":-0.2390340169391096,"214":0.02586469146624894,"215":0.5179114390193248,"216":0.16788269688884289,"217":0.43955964804483366,"218":0.18163971087422592,"219":-0.057390437356731126,"220":-0.3261098566256096,"221":-0.16978849556825024,"222":-0.06355230331494033,"223":0.7703319730639918,"224":0.41590881945818947,"225":0.10688104591727147,"226":-0.13907447911812362,"227":-0.6784862483085186,"228":-0.13715085700075502,"229":-0.019188179681505477,"230":-0.0035419590082821873,"231":0.134248010066567,"232":0.2944416129206657,"233":0.16555444825344776,"234":-0.023274837189557772,"235":-0.011032329145123016,"236":0.2674074110153907,"237":0.09687342642316107,"238":0.13058817484872945,"239":-0.599252342315237,"240":-0.16324674134434308,"241":0.1242951175210767,"242":0.061464694303653096,"243":-0.1100686733073559,"244":-0.3251389017976422,"245":-0.20996433124138683,"246":-0.5405116268235296,"247":0.012690019679473368,"248":0.08842293856001195,"249":-0.02099954253361491,"250":0.3397964884864509,"251":0.004803740906826869,"252":0.16712876992388423,"253":0.18204987710839896,"254":-0.12501871645112952,"255":0.5068147599545033,"256":0.9428387802486733,"257":0.6844175315940295,"258":0.214327065769726,"259":0.08224764690940678,"260":0.19486018662496943,"261":-0.4863609425793949,"262":0.4143551302908046,"263":0.7682643813426895,"264":0.2372185583131226,"265":-0.4558597912531352,"266":0.1180862572996431,"267":0.32212547938082187,"268":-0.6538735834995517,"269":0.19778924423254673,"270":0.6249950477984524,"271":0.19195560826203809,"272":0.3584849717087714,"273":0.03413795395038281,"274":-0.07099855897576576,"275":-0.37896615838696596,"276":0.3199121490480789,"277":-0.29027751491163734,"278":0.27016789103494865,"279":0.061502798711839994,"280":-0.7321457013552668,"281":-0.3957429397982909,"282":0.18015301078477908,"283":0.24608537127843313,"284":-1.0044282690203565,"285":-0.35175162654203346,"286":0.12181214298129063,"287":-0.31362963894055584,"288":-0.6696521102065495,"289":0.553385870938082,"290":0.2779350866894316,"291":-0.6592596459832336,"292":0.3157956684368297,"293":0.2764356738048199,"294":-0.07687702320700998,"295":-0.7488489135229502,"296":0.4269204590547512,"297":0.49363830325160185,"298":-0.012936183928989785,"299":0.03938636013287618,"300":-0.25156615048192604,"301":0.1969895759973378,"302":-0.16935282120954245,"303":0.31499807859185763,"304":-0.36951580982249566,"305":0.5636221030793563,"306":-0.4217947022894472,"307":0.01911473408389882,"308":0.48917349221323203,"309":-0.3599233902680069,"310":-0.49686862298388834,"311":-0.6580712351731217,"312":-0.2249786363728919,"313":0.7059690240716593,"314":0.3461023566845894,"315":0.16623473692172108,"316":-0.676044538460954,"317":-0.49397248197049454,"318":-0.26567871633721213,"319":-1.1422019669266719,"320":0.07499471281491965,"321":-0.15166748670849958,"322":0.3149257504362481,"323":0.09937995882829594,"324":-0.08299852864366074,"325":-0.30210592898979577,"326":-0.562946772802121,"327":0.47685134532179985,"328":0.08226077548232422,"329":0.2501854886466113,"330":0.45609356587373007,"331":-0.3176690496265157,"332":-0.20487188824004315,"333":-0.7514612344396123,"334":0.2834424904549539,"335":0.42883569998275245,"336":-0.43982048272319,"337":0.08417273161076677,"338":-0.08486238817074682,"339":0.12398795701948238,"340":0.12617184051735997,"341":-0.09748095694502881,"342":0.00015102637993720975,"343":0.028484416294392526,"344":0.5711505053379414,"345":0.06900915371829819,"346":-0.1270547099246239,"347":0.21996089427909007,"348":0.30854246393949625,"349":0.03324909051623612,"350":-0.11395131480252375,"351":0.18161105141104883,"352":-0.21951868735367058,"353":0.014607478042548618,"354":-0.4516378360513699,"355":-0.2106271727148284,"356":0.06707443418040238,"357":0.17274361527785306,"358":0.04026178047839466,"359":0.06557581513741387,"360":0.00957916748658006,"361":-0.5724768469347764,"362":0.9083360472640408,"363":0.07740058914434884,"364":0.9830221350578694,"365":-0.18341861021394698,"366":-0.1372791969405677,"367":-0.031113118934126053,"368":-0.5813870824953937,"369":0.36746463013333336,"370":-0.3694196329668947,"371":0.29871764613221036,"372":0.08887860785411683,"373":-0.04042118052721946,"374":0.03238004783844929,"375":0.10329054837761738,"376":-0.153615907787124,"377":0.2460843849052109,"378":0.32752960339793924,"379":0.27051916197548864,"380":0.16941021405294687,"381":-0.3382877980590485,"382":-0.305169497836512,"383":0.32213654540746633,"384":0.39005433614946416,"385":-0.07262018328612893,"386":0.3357352011709013,"387":0.3019414954152196,"388":0.013920483633452281,"389":0.08239270175951939,"390":-0.14319022001751894,"391":-0.09030413617368419,"392":0.02965357973103301,"393":0.2085353315990432,"394":0.04927312752480825,"395":-0.4148817852117443,"396":0.10333480126876504,"397":-0.2528730661384975,"398":0.0015801864009201334,"399":0.20956075998867704,"400":-0.27554626460141396,"401":0.29184101678435914,"402":-0.5999894339173183,"403":-0.24022120902850244,"404":-0.11896015402613522,"405":-0.690184339457706,"406":-0.2853054379354405,"407":0.08984385892196958,"408":-0.2731559270690726,"409":-0.3123713929738622,"410":0.07626345726891214,"411":0.2050616052647518,"412":0.05729131650625871,"413":-0.05282610907308495,"414":-0.6443853605921941,"415":-0.41035389063071076,"416":-0.7053276279423886,"417":-0.4681012453376993,"418":-0.04823940388067921,"419":-0.15799958055666485}},{"sx":1,"sy":1,"depth":420,"w":{"0":-0.5823403841268235,"1":-0.0504379640815177,"2":-0.015094179384261629,"3":0.0531287627627609,"4":0.2743360959643372,"5":0.5316084814698803,"6":0.4793493381354319,"7":-0.2829234255687258,"8":-0.2099298324900726,"9":0.18870705964047205,"10":0.03996565896430407,"11":0.3627415856023181,"12":0.03591403386493614,"13":-0.10315431667654018,"14":-0.21877420117973845,"15":-0.1481320873381852,"16":0.26446658929030953,"17":0.2833591117075357,"18":0.42361584638269906,"19":-0.1255626739922241,"20":-0.2557309907257763,"21":0.007981964149244613,"22":0.26871492818805226,"23":0.22991594550133415,"24":0.5443003681630881,"25":0.25134078608968113,"26":0.39003342068695956,"27":0.08814479929008931,"28":0.15021062019441384,"29":-0.08924539769454339,"30":0.007235959461038539,"31":-0.22229983074339804,"32":-0.4190178139863555,"33":0.05156624429285936,"34":-0.1079562547344004,"35":-0.10403148687931277,"36":-0.19645429013234184,"37":-0.09839258754900286,"38":0.018388130207914917,"39":-0.31145092893751486,"40":-0.07040277101384829,"41":-0.05554343036316335,"42":0.05630534402635155,"43":-0.29051545478468754,"44":-0.17142861630935446,"45":0.1053861321868626,"46":0.19202659691068777,"47":0.26508039879140677,"48":-0.5951762690845476,"49":0.12769427080003298,"50":-0.0821945326914611,"51":0.21871947861198665,"52":0.13630395037514076,"53":-0.14198112769064597,"54":-0.1376880470980612,"55":-0.2171388966658151,"56":0.43211192418515004,"57":0.16978404103839562,"58":0.2560198344725276,"59":0.4496975340298563,"60":0.7656327312791402,"61":0.0832469241067335,"62":0.17381907639808264,"63":-0.2927282503071036,"64":-0.14542041385716845,"65":0.38410458986131985,"66":-0.12386741086567035,"67":0.18802312936083976,"68":0.09188155328082763,"69":0.02401096167388243,"70":-0.16517411733188178,"71":-0.1585353340004381,"72":-0.09529519194371472,"73":0.15891487559451842,"74":0.18726769295762813,"75":0.256142485789879,"76":-0.20846005575114082,"77":0.12995273118030423,"78":-0.043885131649913506,"79":-0.363092279180104,"80":-0.3256048256906817,"81":-0.16883265265337333,"82":-0.40529371625289273,"83":-0.020189249916197076,"84":-0.16315342426831442,"85":-0.2012956992675021,"86":0.11851512101962432,"87":0.6176224874790922,"88":0.8153987357357212,"89":-0.07026723677599644,"90":0.030600402860077664,"91":-0.23690469722187435,"92":0.1362309066266227,"93":0.2895806628305357,"94":0.0652888670986558,"95":0.31714239319188753,"96":0.1032015154836243,"97":-0.6219525794976509,"98":0.06316532394192438,"99":-0.2613313778087816,"100":0.045357234713096564,"101":-0.01193572177118281,"102":0.21543478579756853,"103":-0.2317921713787456,"104":0.6334452498570918,"105":0.23555657806352154,"106":0.29008263679298013,"107":0.02848038638926393,"108":0.41874308992026266,"109":0.3948284585729912,"110":0.2455858970307514,"111":0.032028449832098176,"112":0.10441078415513262,"113":0.04271034606879838,"114":-0.26464640229713937,"115":0.059373295783355866,"116":0.07521723890287887,"117":-0.13216656822434478,"118":-0.15560749116677225,"119":0.11027054197687698,"120":0.25387361990584967,"121":0.4052438272135249,"122":0.2616973195991651,"123":0.3464679845132163,"124":0.1174363770598674,"125":0.24279012770642644,"126":-0.2858874369361205,"127":-0.0698673272536753,"128":0.4240230931471507,"129":0.45490117421900333,"130":0.40458604424923905,"131":-0.3722715287311628,"132":-0.1433361454366228,"133":0.1399955229608621,"134":-0.21242669213724905,"135":-0.27706386056019705,"136":0.3527786984687882,"137":0.006269772441452213,"138":0.023348033564949532,"139":-0.16448595862924975,"140":0.023936939579659162,"141":0.11130324832454078,"142":0.3299631106435279,"143":0.05384942290027934,"144":-0.039109124140450355,"145":0.27350281553851613,"146":0.07079962248748241,"147":-0.07148783569671832,"148":0.3555462650131881,"149":-0.25296115496772575,"150":-0.20313622819912852,"151":0.09036054258685375,"152":0.2563804210322726,"153":0.1289721573663681,"154":0.4557822420812808,"155":-0.00773120167410776,"156":0.7150133026275127,"157":0.7513233463213124,"158":0.11538862426500238,"159":0.4161556484562179,"160":0.09995785229488664,"161":-0.01235700097166878,"162":-0.08398150878393157,"163":0.20595260778141372,"164":0.025086794059770306,"165":0.01242815913009672,"166":-0.09332984366707808,"167":0.03367980557933851,"168":-0.1358991584421709,"169":0.22511262022733428,"170":0.38695715831583566,"171":0.20764010920905426,"172":0.438970168919262,"173":-0.04738922608449702,"174":-0.005537614331430099,"175":0.27398923206970116,"176":-0.41041956014446684,"177":-0.012357553864664148,"178":0.298509526127435,"179":-0.14106603903052836,"180":-0.14804535933525995,"181":-0.01886069808594038,"182":0.34317244885777637,"183":0.3785223422625852,"184":-0.38663756068008903,"185":0.2535802843231684,"186":0.39567433764449,"187":0.1423022309776145,"188":0.17824394175084798,"189":-0.02513499636194098,"190":-0.08449155818127546,"191":0.7424011898006235,"192":0.7304892153709139,"193":0.2374317414321334,"194":0.14506571009978483,"195":0.6855138674167081,"196":0.057769330494291844,"197":-0.1380683817151958,"198":-0.182941460683862,"199":0.21078307588667147,"200":-0.3788721784316462,"201":0.32464444314396174,"202":-0.09144657357117318,"203":-0.08008646614889448,"204":0.031767735157826375,"205":0.4931005568434104,"206":0.12872128162298563,"207":-0.37063696367906873,"208":-0.4892582293960605,"209":0.021951115599547003,"210":0.014436933237311688,"211":-0.1419427940774227,"212":0.0007633835714408499,"213":0.1580486099554929,"214":0.16854588715443428,"215":-0.07282114286210273,"216":0.19879024603593537,"217":0.06083305101037562,"218":0.06210761120640033,"219":-0.2970777871335308,"220":0.5191777310227086,"221":-0.09950350345626548,"222":0.6424087770495164,"223":-0.06802067773001218,"224":0.16927025202589377,"225":0.1617865901644699,"226":0.28498654915122185,"227":0.32887629872175334,"228":-0.04264760802065658,"229":0.10752543983340025,"230":-0.26928390399436275,"231":0.022062701007039637,"232":-0.5077170892556482,"233":-0.06044157498920896,"234":0.03971685450211162,"235":-0.2811509331097763,"236":0.0357923143720254,"237":0.27913749207255234,"238":-0.14248763507995746,"239":-0.141638024311704,"240":0.22795867736676065,"241":0.38745734147075006,"242":-0.4011058561482023,"243":0.050996640480809055,"244":-0.3183391424708191,"245":-0.06417093899627022,"246":0.23193098133954476,"247":0.01975129650324157,"248":0.22293288212055581,"249":-0.21626410011247593,"250":-0.03129761420989772,"251":0.016530491667790102,"252":0.2979914521690168,"253":-0.25411977602684566,"254":-0.15143118281231405,"255":0.5619894007973021,"256":-0.02083967966341743,"257":0.36793239692766816,"258":-0.20485405022914147,"259":0.3983625719650268,"260":0.1606908907341507,"261":-0.44922495945965346,"262":0.31225798549522604,"263":-0.5873897149208143,"264":-0.1962765059819236,"265":-0.04101376439091275,"266":0.14392169673777225,"267":-0.14686956366500725,"268":-0.23873789755749203,"269":0.18464394512391252,"270":-0.8919081627701038,"271":0.03845620841185099,"272":0.07974867940805967,"273":0.3118361709984226,"274":-0.32953678924257707,"275":0.609611553021178,"276":-0.28708464331651173,"277":0.13527709005949554,"278":-0.05459022645309284,"279":-0.11180491027738729,"280":-0.11483554643575748,"281":0.12316898668498755,"282":0.2135162401436157,"283":0.021236906762839024,"284":-0.17693559763783237,"285":-0.23687796244677398,"286":0.2469724231392576,"287":-0.2721290760756033,"288":0.03724879988771072,"289":0.13337134458148497,"290":-0.8271847030349923,"291":-0.5086852962512077,"292":0.25441389364229927,"293":-0.07725570492033328,"294":0.062001318569159594,"295":0.45062798793356196,"296":-1.520291831053343,"297":-0.219787243881399,"298":-0.6714795174410988,"299":-0.2860903972059573,"300":-0.17021630330191975,"301":-0.19013791035959166,"302":-0.06039165156986356,"303":0.19802197430039864,"304":-0.6943609180887669,"305":0.39258507803707665,"306":-0.17028675432236404,"307":0.15170652697996925,"308":-0.13056115963909315,"309":-0.4006046172058535,"310":0.686248164120948,"311":-1.3628531222912788,"312":0.25585434688645825,"313":-0.6079854222792134,"314":0.36943432835832823,"315":0.08372185994183558,"316":-0.055627766396461754,"317":-0.1927894466513467,"318":-0.9923392894955022,"319":-0.18138801352711076,"320":0.0268996858998619,"321":-0.39857769246615904,"322":0.14101690574631298,"323":-0.34777207993228804,"324":0.00582228898216192,"325":-1.7408379943401275,"326":-0.018682130315039576,"327":-0.3728336805068577,"328":-0.10526475502825272,"329":0.013575274069445555,"330":0.271735789149074,"331":-1.3776527377648047,"332":-0.9100326129963832,"333":-0.5119352031178183,"334":-0.2108707158238672,"335":0.02966486458558893,"336":-0.17962250106042918,"337":-0.09398439343642939,"338":-0.914267701490994,"339":-1.2061687654431588,"340":-0.8787468054873995,"341":0.40761859972207976,"342":-0.26276523160534293,"343":-0.16449712421016033,"344":0.5357815882275503,"345":-0.9308765024997495,"346":-1.0737006077403206,"347":-0.12872443805687878,"348":-0.3432916962108724,"349":-0.2589042575923286,"350":0.1429912814612574,"351":-0.07465231707857554,"352":0.2202778253083154,"353":-0.004139467399081323,"354":-0.2789037436962396,"355":0.22430857096099174,"356":0.4082175187546001,"357":0.08356787752011352,"358":0.24696300252680847,"359":-0.43968689850287934,"360":0.011277325665670126,"361":-0.5154045389745378,"362":-0.3455384675468185,"363":-0.240942800093515,"364":0.15625308317178238,"365":-0.24146139163267832,"366":-0.46005318816914587,"367":-0.09733534408611295,"368":-0.8090700606051984,"369":-0.36421587057234356,"370":-0.00017553906509611174,"371":-0.6361746666817559,"372":0.016816287097185873,"373":-0.5797717014877629,"374":-0.44850769282451447,"375":-0.15581508888470882,"376":0.15663380943121277,"377":0.40263213322034247,"378":0.05643902548536445,"379":0.15820906444404115,"380":-0.4598122539418274,"381":-0.9240336577544986,"382":0.21305567802872338,"383":0.07748152994900834,"384":-0.14966094099199476,"385":0.3227911860447262,"386":0.08559984241083468,"387":0.5895299928360169,"388":-0.3797700969104048,"389":-0.3202227946345474,"390":-0.4146742586019889,"391":0.13828702666422496,"392":-0.18516415241583772,"393":0.19271764081402443,"394":0.20234083880398,"395":0.36080145565865496,"396":-0.46925033701956503,"397":0.266871736534285,"398":-0.31706284049610595,"399":-0.40751856166794204,"400":-0.35992347699761407,"401":-0.40055502460960307,"402":-0.800743243540691,"403":-0.11666737829862044,"404":-0.3674793117299609,"405":0.09982235523681963,"406":0.14669647201848857,"407":-0.12119109836389837,"408":0.25403424893448445,"409":-0.42342126905046046,"410":0.4421694186934436,"411":0.24417028453942544,"412":-0.2011249332844385,"413":0.10435921822173534,"414":0.4503732438091224,"415":-0.26188359902117847,"416":-0.07001200817459781,"417":0.0857855631655145,"418":-0.07722793997552352,"419":-0.08472872473453068}},{"sx":1,"sy":1,"depth":420,"w":{"0":0.03564503885728982,"1":-0.11085658676084416,"2":-0.39795179759336274,"3":-0.7025073249524896,"4":-0.34682685553412185,"5":0.09955712157222002,"6":0.03322655829714648,"7":0.018991040897985312,"8":-0.36068627043149426,"9":-0.10452905250263274,"10":0.6374505304519328,"11":-0.14922196502058147,"12":0.18658633549932827,"13":-0.16614505417759015,"14":-0.05652254748687711,"15":-0.13280302549170864,"16":0.15241907488358422,"17":0.028122355861519288,"18":0.21080987144605717,"19":-0.3313697984888508,"20":0.2408096504683877,"21":-0.026373132633225334,"22":-0.013250517810407052,"23":-0.03856363634114237,"24":-0.06505998960433294,"25":-0.4420518438049896,"26":0.46197264182417014,"27":-0.18697431697065905,"28":-0.05298220996760478,"29":0.0027124877075332234,"30":-0.2622370342278791,"31":0.18539813891001877,"32":-0.1380674712528231,"33":-0.11440801464801151,"34":-0.41964537592328044,"35":-0.02724141414836484,"36":0.22845071018876545,"37":-0.33720691151928456,"38":-0.09618310246954681,"39":0.11932044000037541,"40":-0.23996874016807002,"41":-0.3045940208584339,"42":-0.13531853931392662,"43":0.026857255641148572,"44":-0.3005749208353827,"45":-0.06099224276983687,"46":-0.3939776112057041,"47":0.350636135740842,"48":-0.018869518287736912,"49":-0.049332545480452954,"50":-0.051126260477104404,"51":-0.31885118479059726,"52":0.340606531489322,"53":0.1877472790094472,"54":0.3236817552337224,"55":0.01437582441072051,"56":-0.07920445699586091,"57":-0.23883996574203498,"58":0.2630504746374322,"59":-0.32447328188032454,"60":0.08995869314839518,"61":0.08915640821524672,"62":-0.5427275300414981,"63":-0.00413835571364077,"64":-0.07764129050974039,"65":-0.565860517597252,"66":-0.16124734513369854,"67":-0.4529861961876006,"68":-0.070147972684684,"69":-0.04348107995916299,"70":-0.060399700397152555,"71":-0.038445743269190924,"72":-0.31321549589372766,"73":-0.3198343276902485,"74":-0.05217250720814329,"75":0.20529485366972997,"76":0.8133100048623574,"77":-0.11864665349235898,"78":-0.15279583068366626,"79":0.10183875007674688,"80":-0.3781750284357383,"81":0.4729710661538001,"82":0.1168422582775878,"83":-0.31294909693064277,"84":-0.06602325597823928,"85":0.15212309564871604,"86":-0.24528835127742046,"87":0.11119003968760312,"88":-0.42335897300267666,"89":0.11413920666579332,"90":0.10070822389945472,"91":-0.1280507037279145,"92":-0.10588551985746425,"93":-0.01933508250267071,"94":0.021657561939253785,"95":-0.1697586789936505,"96":0.24221343507677956,"97":0.22968290484282414,"98":-0.01192095098696426,"99":0.06724291450371975,"100":-0.0503381021079248,"101":-0.3108708283749534,"102":-0.3800942755021622,"103":0.2925754543564173,"104":-0.3874984750302177,"105":-0.07000064720660538,"106":-0.19960333155925739,"107":-0.6895977305150506,"108":-0.3543624884282641,"109":0.23335275446558607,"110":-0.41587706371531713,"111":-0.3182873137932416,"112":-0.07317339790788153,"113":-0.18502913568685772,"114":-0.3829867516990322,"115":0.25676294018789736,"116":0.5996251148864477,"117":-0.3463955242005722,"118":0.14009378820118526,"119":0.0032108843538017516,"120":-0.21048511944611575,"121":-0.09823446769741417,"122":-0.3683230417869534,"123":0.17335749254593383,"124":0.34333228947718264,"125":-0.10181865004983534,"126":-0.16566498559728332,"127":-0.15550223473052785,"128":-0.3742868774157543,"129":-0.07500974841206073,"130":-0.13875853382691258,"131":-0.2815583528361464,"132":0.45705333441544754,"133":-0.09759312777760062,"134":0.177253548273913,"135":-0.13895349153218528,"136":-0.32467542321380927,"137":0.011698517969876483,"138":0.4322607472429318,"139":0.11730431153912446,"140":0.004463842787112823,"141":0.03856829070268392,"142":-0.1503088312024974,"143":-0.5252878273288251,"144":0.2910753488007624,"145":0.23091663618912256,"146":-0.09483849391483981,"147":-0.0040600392647979905,"148":-0.012183301422624413,"149":0.03782472809557355,"150":-0.03525666993305232,"151":0.3676556469670657,"152":-0.11106757693825457,"153":-0.17572900049119888,"154":-0.04920205632479742,"155":-0.11377202969321434,"156":0.15832889081489931,"157":-0.30033194646934336,"158":0.4616063468865454,"159":-0.3364872295145861,"160":0.2513240326153929,"161":0.002223904529386304,"162":-0.27327511192968046,"163":-0.1589320099431056,"164":0.2066867630297702,"165":-0.29903825421121977,"166":-0.019416522605323033,"167":0.316955874457017,"168":-0.019785240301083248,"169":-0.3122229140293874,"170":0.17110662441488178,"171":-0.2976758409594989,"172":-0.31339356002750124,"173":0.20126884345193488,"174":0.17771141136910745,"175":-0.04459529183714055,"176":-0.253484430654456,"177":0.21170828335479883,"178":0.2586198008928031,"179":0.022366496152711517,"180":0.1928545144919727,"181":0.01324219569137725,"182":-0.06411617974816537,"183":0.022107950744704837,"184":0.20949053494281134,"185":-0.3510130317016926,"186":0.004371057888346835,"187":0.03824195943728812,"188":-0.6561897116560006,"189":-0.06785389118196565,"190":0.13195677088785338,"191":0.20876311336647826,"192":-0.5133536998623965,"193":0.5250098015643534,"194":-0.5433654055665295,"195":0.2944008208844074,"196":-0.03561156367152182,"197":-0.07407223124574765,"198":-0.08862676212687685,"199":-0.0584823743320138,"200":-0.08546501988143146,"201":0.2179805722454279,"202":0.0940616403783362,"203":-0.04183038417824974,"204":-0.037250669895810454,"205":0.15546512659880862,"206":-0.13627315102641918,"207":-0.37662902426521927,"208":-0.1729398189461873,"209":-0.15005893935195858,"210":0.0010881954289351278,"211":-0.15146333898505415,"212":-0.07049613259661641,"213":-0.01344964222561939,"214":0.5290673996216304,"215":0.1761691129338143,"216":0.39100030030358773,"217":-0.06771858124208652,"218":-0.131887089762443,"219":0.37081591045042833,"220":0.22416305833113154,"221":-0.04269548290233519,"222":-0.01884317164065939,"223":-0.22504071967565376,"224":-0.007728192163520514,"225":-0.11041960292353417,"226":0.016122378057907533,"227":0.16711282348405895,"228":0.2740228495708919,"229":-0.5595472385512403,"230":0.2858075004967383,"231":-0.1398645760062493,"232":-0.04438160108550342,"233":-0.20042259879903937,"234":0.6677334668917606,"235":0.7202515037425641,"236":0.4646539377305741,"237":0.2838624985342837,"238":-0.06804215208295343,"239":-0.2092001793479035,"240":0.19927234614566572,"241":0.38446289444879533,"242":-0.19846980734704633,"243":-0.13851860639630872,"244":-0.5613240498558086,"245":-0.0445030485265042,"246":-0.26363151683833724,"247":-0.3886161069041678,"248":-0.2544482332849233,"249":0.2449297383205597,"250":-0.03694647782231059,"251":0.0903206872689367,"252":-0.029580734890836673,"253":-0.26922059681190663,"254":0.025380730885130206,"255":0.11210339603228954,"256":0.0892816717744861,"257":0.37379771623932473,"258":0.13882445326617301,"259":-0.03328531448242229,"260":-0.2903183425980022,"261":0.2803559722854919,"262":-0.26783129207192,"263":0.3137691215288552,"264":0.4456787506814016,"265":0.05008354206936015,"266":-0.00863907193557855,"267":-0.19387894937187836,"268":0.09241997067580766,"269":0.3171216534202286,"270":-0.15203391822182757,"271":-0.08019749675275066,"272":-0.3027935478479333,"273":0.01089575302904375,"274":-0.07805268337614067,"275":0.03883169997024414,"276":0.68561595486533,"277":-0.37043182879825215,"278":0.03162340789502919,"279":-0.11232220435300741,"280":-0.08855626480726886,"281":-0.17907446049323406,"282":-0.03122251428771605,"283":1.0208217433886406,"284":0.46425508997130943,"285":0.3820787204102354,"286":-0.4355452092672313,"287":-0.051715183567011595,"288":-0.25323204054532117,"289":-0.1791140771243649,"290":-0.10972160531371015,"291":0.2810941923440093,"292":0.509099003927032,"293":-0.2717981915807217,"294":0.044436710709441815,"295":-0.06867596164708221,"296":-0.1162203262392143,"297":0.3131907728847384,"298":0.8766488419598449,"299":0.5630236022222264,"300":-0.18962365654435184,"301":-0.06639529300190873,"302":-0.20609339977594637,"303":0.12315376739194163,"304":0.45602892832139436,"305":0.3220659104260244,"306":0.4477435692339561,"307":-0.35922814947107423,"308":0.06474206710324668,"309":-0.26112248315274106,"310":-0.36454841210455163,"311":0.9847174979761254,"312":-0.1628698682559233,"313":-0.3067022172829773,"314":-0.10736489861147777,"315":-0.009355333126039535,"316":-0.06774661883967129,"317":-0.012397910448861918,"318":1.051269373318984,"319":0.10977830647533982,"320":-0.6115076493658018,"321":0.09953548935175484,"322":0.01479522599828348,"323":-0.14980798131303516,"324":-0.12479534707085391,"325":-0.06998134971563438,"326":0.0832309707219994,"327":0.3365824756864172,"328":-0.04485340178748042,"329":-0.014605671484121865,"330":-0.17466858435165852,"331":-0.1310863327126684,"332":-0.1402642256478934,"333":0.07940861982354468,"334":-0.17474894536136817,"335":0.4054385288745336,"336":0.009756128916907296,"337":-0.037391925571189276,"338":0.49521098927254675,"339":-1.0377797820329056,"340":0.20277676414365095,"341":0.2948255884773703,"342":-0.041540101359627934,"343":0.012040588140125529,"344":0.009541119399196201,"345":0.2508340649967892,"346":0.6637879944985811,"347":0.13549946392123885,"348":-0.2535278502479151,"349":0.15603497098368657,"350":0.03729132905990532,"351":0.04128953645945726,"352":0.06112613518572092,"353":-0.21612916271589605,"354":-0.35789997548720004,"355":0.4440724256215667,"356":0.2323106854621712,"357":0.026115249433450918,"358":-0.13467055387383337,"359":0.31741782599366686,"360":-0.17145519566895479,"361":0.3280560686843687,"362":-0.07558291493988525,"363":-0.18919926348136826,"364":-0.06204101792312075,"365":0.007532641334686341,"366":-0.41902600367217807,"367":-0.16219292627133364,"368":0.37444261234228415,"369":0.17537312350470136,"370":0.25265919723648583,"371":-0.0024591246736394793,"372":-0.04229218128350761,"373":0.2776415616484563,"374":-0.06376872151667187,"375":0.1824814000309483,"376":-0.054027819967511034,"377":-0.25719022870914876,"378":-0.06972842363730433,"379":0.010222577894483616,"380":0.3100064089703972,"381":-0.5907595398652223,"382":0.2003664892834647,"383":0.395781516511946,"384":-0.1995408813081251,"385":-0.06799181855577248,"386":0.05009649348928493,"387":-0.22564138660959565,"388":0.08567309463850295,"389":-0.5769950960962605,"390":-0.10219601757864098,"391":-0.40369739982219416,"392":-0.046043320598466574,"393":-0.061558279455352506,"394":-0.05175304443626517,"395":-0.09671786653008699,"396":-0.1359121079221923,"397":0.14597521417855722,"398":-0.14777797019853317,"399":-0.06771576977301597,"400":0.004604951209150787,"401":-0.17550704385865604,"402":0.08947966020367805,"403":-0.40116816454833515,"404":0.3595006214607096,"405":-0.2630039195101425,"406":0.010075522140433238,"407":0.0652835972709213,"408":0.02043538222015072,"409":-0.2765402685630964,"410":0.03828275592571254,"411":-0.3126060467177374,"412":0.15345260282949147,"413":-0.02806216051560174,"414":0.14325653840446526,"415":0.5433721194898736,"416":-0.4474435343395233,"417":-0.21499774203419877,"418":-0.1735001139351811,"419":-0.44687070717055055}},{"sx":1,"sy":1,"depth":420,"w":{"0":-0.2000915628954783,"1":-0.24209569945702375,"2":-0.20279447957861976,"3":-0.11009141123143183,"4":-0.010356112049804977,"5":0.019859950544694166,"6":-0.08590093050345746,"7":-0.36700286966338946,"8":0.2888112964878555,"9":-0.3456892024397448,"10":0.4321896692817277,"11":0.08930816562827668,"12":-0.05319273809193176,"13":-0.11879834155183203,"14":0.2538457946625169,"15":0.13198040823609583,"16":0.02865853439416146,"17":-0.4706325833113008,"18":0.10571823256641004,"19":-0.2668254652905913,"20":0.25097772767057525,"21":-0.2700435674490335,"22":-0.2437287236108055,"23":0.2825574403397538,"24":0.0867293027638207,"25":-0.0550280154809005,"26":0.14541973712757,"27":0.10185395902794861,"28":-0.03763994719991291,"29":-0.31579026180228487,"30":-0.2730565106631501,"31":-0.08693349937634484,"32":-0.20475119828007113,"33":-0.10756909631808652,"34":-0.5427017166665075,"35":-0.2451991395114875,"36":0.12926296417892277,"37":-0.47174612561095336,"38":0.26372173024127427,"39":-0.03081587373381113,"40":0.09337447298545382,"41":-0.02881784993574211,"42":0.028654803391991966,"43":-0.023349384845828294,"44":0.03247985224259014,"45":-0.037188309332789805,"46":-0.010697465959767031,"47":-0.03897305141892673,"48":-0.12009075012847811,"49":0.2828666618248888,"50":-0.12105210418188996,"51":-0.10663559523794007,"52":0.009484659673618988,"53":0.007821986264950249,"54":0.21636691533348287,"55":-0.2681378984718356,"56":-0.31926426456423207,"57":-0.6737158641285123,"58":0.27707830384720494,"59":0.27091152961242226,"60":-0.021116559414373088,"61":-0.3201989987527517,"62":0.056882973847100324,"63":-0.07211267906419698,"64":-0.1872020870161005,"65":-0.14796470346293944,"66":-0.30691530829643066,"67":0.4872638254488415,"68":0.04019663076840924,"69":-0.28060969421490206,"70":-0.05547240589512801,"71":0.03762717730141253,"72":-0.13715041081088192,"73":0.033286325563072997,"74":-0.04836862008546052,"75":0.0010994724407326134,"76":0.2649458816139942,"77":0.19005839884520054,"78":-0.27193080528546093,"79":0.2202004616632476,"80":0.008633348698998447,"81":0.012775915816935556,"82":-0.324405840039037,"83":-0.11721484312634606,"84":-0.32255200773237597,"85":0.18262545164073016,"86":-0.12654031896305967,"87":0.2965929090233492,"88":-0.014368436927898909,"89":-0.13688982096946015,"90":-0.049500687180864235,"91":0.05468493384530829,"92":-0.21852980857138488,"93":0.2769480969833347,"94":0.2731476853386923,"95":0.14623995802870665,"96":0.34950167158920104,"97":0.13912584421219362,"98":-0.054338234732118545,"99":0.3918190582844174,"100":-0.16618852506316606,"101":-0.2842390717578605,"102":-0.17309144423207137,"103":0.10759704108804317,"104":-0.21997517963469887,"105":0.07995444060074845,"106":-0.20713769021542183,"107":0.3140172777422713,"108":0.2302382337290473,"109":0.2508307468910654,"110":0.05437297395297676,"111":0.12237626619463157,"112":0.0944889091855804,"113":-0.11908685531580286,"114":-0.13098626252505774,"115":0.33766604310492226,"116":-0.007577552252531337,"117":-0.21540279772283105,"118":0.33619888075057097,"119":0.092099061639877,"120":-0.3435898596495297,"121":0.040690652906830126,"122":0.18221481656958627,"123":-0.13861446491703378,"124":0.07898094427439024,"125":0.10392282548621919,"126":0.19735520884299484,"127":-0.09023895875005492,"128":0.23864078206023215,"129":-0.5246349865974075,"130":-0.17012819613791866,"131":-0.050397691344871806,"132":-0.08714478118266338,"133":-0.30591899100042164,"134":0.034354137541780023,"135":-0.2105092680386196,"136":0.237214009437676,"137":0.3754041348658756,"138":0.07882125934134249,"139":0.09649732026933093,"140":-0.18048698496097415,"141":-0.012134780688303454,"142":0.03343335996531443,"143":0.17356964664655758,"144":0.14456883168226733,"145":0.02503614941833406,"146":0.1768934955445575,"147":0.2773258688015938,"148":0.013265489008801538,"149":0.03717008465801363,"150":-0.228215353125247,"151":0.20714013770685033,"152":0.47017292256384086,"153":-0.02717993236847183,"154":0.20795555709978822,"155":0.06661626476736003,"156":-0.0840748380550651,"157":-0.06467215008420962,"158":-0.2860230778064442,"159":0.06653065993682387,"160":0.05059162842404379,"161":-0.05375405184609212,"162":-0.09908033571540642,"163":0.08422878005803272,"164":0.1571803695997326,"165":0.06878637636335144,"166":0.10283962722008458,"167":-0.07185947241896116,"168":-0.10648063657594176,"169":0.2582338293439751,"170":0.21521039744909976,"171":-0.2676217450696576,"172":0.0009668305364101976,"173":0.06973818692534312,"174":-0.2889583323232635,"175":-0.19011625753326544,"176":0.18198307231526623,"177":-0.20941630112786547,"178":0.23500758630109211,"179":0.37187076058777424,"180":0.30599141224876986,"181":0.09182239520758842,"182":0.1119572227451358,"183":-0.025654548483752388,"184":-0.05592993186010326,"185":0.05352306851908837,"186":0.09348628992690608,"187":0.04088497416906363,"188":0.14894162331252198,"189":-0.07949983739726339,"190":-0.0006910287469969953,"191":-0.12326822202689408,"192":0.009699188291166673,"193":-0.24284527725224955,"194":-0.12510189318062367,"195":0.171322369353538,"196":0.17955319633776295,"197":-0.044444109043724415,"198":-0.23915435981000718,"199":0.08712416513597734,"200":0.10115358873111054,"201":0.11709015019312174,"202":0.2287861301204495,"203":0.03888124411889117,"204":0.15824559449751988,"205":0.46646087812506015,"206":0.4142365062617289,"207":0.0705357617048792,"208":0.21769378309906304,"209":-0.0521274583980528,"210":-0.38870946745576396,"211":-0.3587381924854741,"212":0.15610553089839385,"213":-0.21617631776811036,"214":0.15045815924392522,"215":-0.10808355677535073,"216":0.1680539087198301,"217":-0.12806889264638527,"218":0.3779179581190847,"219":-0.08333306006350351,"220":0.087917174843807,"221":0.3853152346521259,"222":-0.2279568577827944,"223":0.13032986580365322,"224":0.16120532106491228,"225":-0.046257583941126626,"226":0.07322795373955349,"227":-0.02320549452752837,"228":-0.016251084748490876,"229":0.25686625796176554,"230":-0.23404114874195442,"231":0.09977479711897247,"232":0.08360640921321419,"233":-0.13813688200692809,"234":0.5801263569526092,"235":0.0014754750243034984,"236":-0.08869025171675264,"237":0.19250566623033094,"238":-0.19730365499009467,"239":0.15767331827917871,"240":0.13407264608552424,"241":0.20067874475885222,"242":0.03563916303006462,"243":0.48015499733561595,"244":-0.08077309069224438,"245":-0.31386033732398555,"246":0.2916385926837237,"247":0.2772507124023583,"248":0.17211145108354214,"249":0.390705886935611,"250":0.15095384686768984,"251":-0.21486445799777576,"252":0.49969302357242945,"253":-0.1295893514167462,"254":0.46952522988201273,"255":0.44620118945649506,"256":0.6955512536858723,"257":0.04151771893229224,"258":0.19880853773161788,"259":0.29118046069645975,"260":-0.05120075652789201,"261":0.19858633946650475,"262":1.0242968420701326,"263":0.33114223165827256,"264":-0.22271730337476103,"265":0.15157792106437737,"266":-0.31263482770848233,"267":0.3108138201384146,"268":0.06748969164528501,"269":0.22246008922756919,"270":0.483625381026232,"271":0.1866342660128157,"272":-0.27132258992584196,"273":0.2842256325472101,"274":-0.17838874449260744,"275":0.26774328486901694,"276":0.18930388066833662,"277":0.1174662401025107,"278":0.38247180603281505,"279":-0.0689081997500693,"280":0.17900482611471683,"281":0.03557798916530236,"282":0.14036608293504796,"283":0.43950383256620223,"284":0.2135520114827159,"285":0.23247633236144943,"286":-0.15325827535051845,"287":0.19703671674603038,"288":-0.09610785843956374,"289":0.5380847460545031,"290":0.7694226286891841,"291":0.1922189958011207,"292":-0.39070693464690776,"293":-0.36330356113534407,"294":-0.10517438229981979,"295":0.10552273422178714,"296":0.17657468688705558,"297":0.7472432432938355,"298":0.41604813463945484,"299":0.48263547421900044,"300":0.17789411819467119,"301":0.06744130501684804,"302":-0.025828367437035624,"303":-0.4007241701002493,"304":0.797569820220183,"305":-0.15167403368067642,"306":-0.24263663696723664,"307":0.4911191181563147,"308":-0.016150636238010083,"309":0.15967162810797922,"310":0.4153208287522463,"311":1.2089390693394508,"312":-0.43671232641110674,"313":0.04018296368704004,"314":-0.19204727506172276,"315":0.15490236777310504,"316":0.041682324643514505,"317":0.3057611335395143,"318":0.3459092645115542,"319":-0.4217052572460921,"320":0.3015476781748708,"321":-0.21250068079182188,"322":-0.1814574348217192,"323":0.13753762848637724,"324":0.27636973926025604,"325":1.8793071800019199,"326":0.3908615267321864,"327":0.04328224727912758,"328":-0.08238319605650189,"329":0.2027978302740094,"330":-0.22940867965257064,"331":-0.1358206779617014,"332":0.07092479322801352,"333":-0.22527222677216074,"334":-0.1934686195682213,"335":-0.19648944346645805,"336":-0.22873326988942388,"337":0.08416387334951553,"338":-0.09101393689496322,"339":-0.41422426389021305,"340":-0.4184282190445568,"341":-0.28266496519822226,"342":0.37167708016534606,"343":0.19750010313621053,"344":0.3837709528296487,"345":0.23039505442108038,"346":-0.9751736121478074,"347":-0.6244191901990206,"348":-0.13691825168542351,"349":-0.18826746578500472,"350":0.15965531695735058,"351":-0.19990329512059934,"352":-0.0004511282977088577,"353":-0.5824257104339063,"354":-0.04577008951616331,"355":-0.06737196682938898,"356":0.06321298322957147,"357":0.2117831596111687,"358":0.08227272279138587,"359":-0.4229119452458926,"360":-0.5000232625617568,"361":-0.1587103624610231,"362":-0.13715609924369387,"363":0.06097277536297452,"364":-0.028442492407441892,"365":0.21575125349268637,"366":-0.057182744778649666,"367":-0.44666456579090336,"368":-0.18944523408172276,"369":-0.012019951077800987,"370":-0.3238193689905167,"371":0.11459075759037825,"372":-0.18507097984169799,"373":0.2243463806808566,"374":0.27767908246326783,"375":-0.01670649715814241,"376":-0.18012699824502043,"377":0.11964187612523361,"378":0.10042772850206112,"379":-0.36603497713337135,"380":-0.520259699019241,"381":-0.44439526254532163,"382":-0.36714133474788474,"383":0.10172083472822252,"384":-0.04160794179352971,"385":-0.350878406145434,"386":0.4638737810633451,"387":-0.4650929594931848,"388":-0.0680052326994528,"389":0.008541685307645052,"390":0.30881195598301897,"391":-0.08375298951228044,"392":-0.09044639846439248,"393":0.3301931780492046,"394":0.3119869138410089,"395":0.3216120622584442,"396":0.1080549818807934,"397":-0.17755519547341045,"398":-0.15750443863037425,"399":0.07314557237682058,"400":0.18677972022364536,"401":-0.17387571516164949,"402":0.21162606058212252,"403":0.33710687295151764,"404":-0.22110452972478217,"405":0.07836018471244537,"406":-0.3764686506797523,"407":0.2548178175194278,"408":0.26632442418354557,"409":-0.23274650251592316,"410":-0.06365262626356992,"411":0.07949259130710187,"412":0.26208913157576036,"413":0.06794511138222357,"414":0.14253344500157755,"415":-0.040439363368184926,"416":0.1164635905910355,"417":-0.020284208875632075,"418":-0.037985270196313314,"419":-0.04108306377827491}},{"sx":1,"sy":1,"depth":420,"w":{"0":0.06878960644705567,"1":0.5025469146653359,"2":0.3274636966369349,"3":0.16223082139267297,"4":-0.05377757602652852,"5":-0.2952401641804607,"6":0.16110669416056272,"7":0.056024401528353716,"8":0.2778737240149481,"9":-0.6324477619035516,"10":0.11564529246183185,"11":0.20523522077751008,"12":-0.037679450578438474,"13":0.24454350419258086,"14":0.3714307866461219,"15":0.04344598856276445,"16":0.18831931979207472,"17":-0.5503740593931999,"18":-0.40332758756296017,"19":-0.15958768754611674,"20":0.03966396055960438,"21":0.10568416698918758,"22":-0.17836428595140402,"23":-0.11232008254571861,"24":-0.010432595740953418,"25":-0.23198706325607932,"26":-0.43604143604027135,"27":0.2717879726865441,"28":0.12441944652557095,"29":0.12083667431598602,"30":0.0300395132556892,"31":0.11206288746305496,"32":0.20936453944988884,"33":-0.21858079363004781,"34":0.05920508725636181,"35":0.20640207759657592,"36":0.09463787750607597,"37":0.030065825692826766,"38":-0.0003120535028078312,"39":0.43676739464717934,"40":-0.10171486285576041,"41":0.07008065281897662,"42":0.0783125393931636,"43":0.06605266428880294,"44":-0.2715668979652701,"45":-0.034226135587860466,"46":0.47105981728289736,"47":-0.010444863163824087,"48":0.3466704679910603,"49":-0.0978779708669294,"50":-0.08974206052622395,"51":0.17861025075888004,"52":0.023329105436914858,"53":0.20596467755031378,"54":-0.010332857462516826,"55":0.17563906792373604,"56":0.20207563495310601,"57":-0.37028354794316015,"58":0.014162093007293862,"59":0.1666150826521543,"60":0.6477046372261589,"61":0.17561683700426053,"62":0.16351610293531652,"63":0.40569098773842277,"64":-0.10843015479268833,"65":-0.20460783107051028,"66":0.2287792192696323,"67":0.06514287309107933,"68":0.3294701670393185,"69":0.3221050219274857,"70":0.2179407588122248,"71":-0.05393089155739137,"72":0.13576705939351977,"73":0.17661875508756258,"74":0.014218373733482061,"75":-0.5634054035016689,"76":0.03101972187513197,"77":-0.0902673241180805,"78":0.10529301044040726,"79":-0.20221916943928978,"80":-0.08484878443400151,"81":0.23055922042914603,"82":-0.1670011301428641,"83":-0.09111836176607634,"84":0.447561460103313,"85":-0.0042581700881193455,"86":0.15644283585748464,"87":-0.09387931308215429,"88":0.21401808372850342,"89":0.2697272122481278,"90":-0.16212426143982128,"91":0.26161882091763455,"92":-0.18328235335057866,"93":-0.05232824698299502,"94":0.3600241933947595,"95":0.2718520388022559,"96":0.26151463905990624,"97":0.034816640897635094,"98":0.10854863187383428,"99":0.32086532752428293,"100":-0.10054018340263489,"101":0.4365659741972118,"102":0.4758941216487474,"103":0.3062621837266271,"104":-0.3526522660491106,"105":0.47738254146618664,"106":-0.026426453538256692,"107":-0.09325616783333952,"108":-0.20295747544004739,"109":0.008238893794723859,"110":0.10290648400073608,"111":0.24760698573537784,"112":0.10177150855894271,"113":0.18937490452754527,"114":-0.18024268133090485,"115":0.14406054850008365,"116":0.36394944715141125,"117":0.004486731478524966,"118":0.21056276966134427,"119":-0.07577400508056466,"120":-0.2215707060508788,"121":-0.020716310771332905,"122":-0.12772216833532,"123":0.03292879517964577,"124":-0.16659324552151147,"125":-0.5017850032373785,"126":0.019416021326149887,"127":0.07630522524081787,"128":-0.4046547910514141,"129":-0.17869674273763078,"130":0.4922303783266597,"131":0.5881796286956081,"132":-0.32451783984644905,"133":-0.07530237510996986,"134":-0.1872355053208238,"135":-0.21459937803956003,"136":0.39462987802369337,"137":0.2097766655598464,"138":0.1502335187667957,"139":-0.19509040035954084,"140":0.17067223758191222,"141":0.16043231363340482,"142":0.05846624401975124,"143":0.00659911992874994,"144":-0.027478441154685052,"145":-0.1919173600668225,"146":0.21506662757453443,"147":0.025261977952465348,"148":-0.22838160920538608,"149":0.05664185377110848,"150":-0.41870591323230005,"151":0.5331468358481862,"152":0.34908366726844275,"153":-0.5521649093396563,"154":0.2299383439290714,"155":-0.2342789275116476,"156":-0.44565918585357955,"157":0.19237188604528782,"158":-0.38716128373900965,"159":-0.2795097522635499,"160":-0.0633527991937168,"161":-0.03314940110337144,"162":-0.03909224384094648,"163":0.07892690039867556,"164":0.06827676410985788,"165":-0.09413582490489976,"166":0.004990331512615052,"167":-0.16679608375780067,"168":0.4495601967465897,"169":0.0684784093056412,"170":-0.2425162763752015,"171":0.053570010762792344,"172":0.13040091833731526,"173":0.3086222489558654,"174":-0.32690997830294216,"175":0.2872219752457103,"176":0.18770764314615948,"177":-0.11912897237531361,"178":-0.3539727314724467,"179":-0.08716021706908733,"180":-0.1566718401449569,"181":-0.02027715652343921,"182":-0.06218434413605654,"183":-0.12106641532565096,"184":-0.11075579070082915,"185":0.11176974550227924,"186":-0.1543065680086694,"187":-0.10452973999511465,"188":-0.18907132170844676,"189":0.31648027031469295,"190":-0.10532521586829995,"191":-0.4540884219279508,"192":-0.01444556261185052,"193":0.10914304651754717,"194":-0.2453581982109083,"195":-0.132867997947963,"196":-0.06573295523885435,"197":-0.17591123360651156,"198":-0.043900350093507005,"199":-0.07256351534438016,"200":-0.4871780703464682,"201":0.016482572136448905,"202":-0.809422426994929,"203":0.15217073662159702,"204":0.3008478956683352,"205":-0.3697166497703535,"206":-0.3757946419915422,"207":-0.06460669495619939,"208":-0.12390037194987408,"209":0.09103522935071834,"210":-0.013555041550275593,"211":-0.005617317888214844,"212":0.17473683754293456,"213":-0.06393480365720514,"214":0.3787639748117975,"215":-0.23800288288865495,"216":0.10571330229995331,"217":-0.262314610156399,"218":0.08753215754609418,"219":-0.12739744306551667,"220":-0.403345872997689,"221":0.11710258210307364,"222":-0.01691152965149896,"223":-0.26100053162212916,"224":0.06096961174216676,"225":-0.28563755983024675,"226":-0.2360949965323443,"227":-0.33832328354534585,"228":-0.13791548455135325,"229":0.18204128658982419,"230":-0.07116988820768405,"231":-0.13959167128996489,"232":-0.047913257037623724,"233":-0.4293509992515841,"234":-0.20027473003167257,"235":-0.31586147938926346,"236":-0.43341986487951184,"237":-0.3515884628769354,"238":-0.21941884764153619,"239":0.13980131655124037,"240":-0.06966252237993344,"241":-0.6530256009865606,"242":-0.041504507018368275,"243":-0.23119151254118836,"244":-0.2783291595346444,"245":0.46062549281909443,"246":0.060820799203003796,"247":0.2876517239098435,"248":-0.4131612205992238,"249":0.08957386760827742,"250":-0.053360707389443096,"251":0.2539039784389057,"252":0.2693011993222224,"253":-0.28646549296485224,"254":-0.045048812268583094,"255":-0.358208627871834,"256":0.377008632326518,"257":-0.077737436502518,"258":0.1902086275301786,"259":-0.25982075388492265,"260":0.2107388834592977,"261":-0.24918687245107268,"262":-0.8325204825549858,"263":-0.4815239487636309,"264":-0.268662079016643,"265":0.15020985268187384,"266":0.026365474228619266,"267":-0.11189372291667653,"268":-0.2449446756580126,"269":-0.6000321734877263,"270":0.24526734137431902,"271":-0.15049446775908185,"272":-0.16309754880723965,"273":0.07205235825413829,"274":0.13480639933636482,"275":-0.0016033920145928453,"276":-0.24405762427065872,"277":0.14340771482979825,"278":-0.3559862437945068,"279":-0.18745869642726856,"280":-0.2769198000920048,"281":-0.1524903098554521,"282":0.38413405235577375,"283":-0.8073884947238015,"284":-0.23320143962755013,"285":-0.06859467884216137,"286":0.10755926936977865,"287":0.2482254405002835,"288":-0.10815250342043821,"289":-0.1499342456521863,"290":-1.1212028952245214,"291":-0.1759799147956427,"292":-0.2701340300903587,"293":0.3016445874013842,"294":0.09709101650857153,"295":-0.4205737225919842,"296":-0.641850639720733,"297":-0.24508487814799068,"298":-0.7208044817522326,"299":0.11624279675615576,"300":0.2081215588322729,"301":0.05793756863626696,"302":-0.20847901824691614,"303":0.3936749356693333,"304":-0.6768262286006238,"305":0.002595883434165189,"306":0.14759379703558537,"307":-0.28319657045461116,"308":0.01174351530143924,"309":-0.05225089401285546,"310":-0.6220030479849122,"311":0.15450007932045207,"312":-0.42124064010156975,"313":0.24619444416774772,"314":-0.3167879681831067,"315":0.10471476117917673,"316":0.19321533557890938,"317":-0.4703412994136886,"318":0.15542209626739634,"319":-1.06586920898077,"320":0.3324404000182501,"321":-0.10821190739944593,"322":-0.01736243522335369,"323":-0.05187364968553574,"324":-0.0019354130043978748,"325":-0.7425444344522765,"326":-0.10811433846843613,"327":0.24630961340090016,"328":0.3469548935064039,"329":-0.2873747613215583,"330":0.30862687241575615,"331":-0.9252115278835744,"332":0.8821571116613786,"333":-0.704814622292506,"334":0.33514118009571203,"335":0.07574091496938765,"336":-0.05538016912520374,"337":-0.06297305162471027,"338":-0.8018252525807701,"339":0.1703177573423496,"340":-0.10504719090854862,"341":-0.1670112219038932,"342":0.16753363842586727,"343":0.1971571785852857,"344":-0.07827861954729763,"345":-0.6996226168592543,"346":0.581455694711472,"347":-0.3897320850236594,"348":-0.4396252153752863,"349":0.05757244581103333,"350":0.3619153661801434,"351":-0.29197435711471076,"352":-0.0034984215834066596,"353":-0.29408509213550427,"354":-0.15317740343974368,"355":0.14167381830463197,"356":-0.6872051306463686,"357":0.06647179981823824,"358":-0.2039117949980467,"359":-0.5309212645377871,"360":-0.20037879261256417,"361":-0.08186287054601987,"362":0.13633482007051745,"363":-0.442678030978031,"364":-0.22292386616279947,"365":0.11962146835257967,"366":0.004169392998151461,"367":-0.2007679353895418,"368":-0.32673751515810273,"369":0.12879736538326275,"370":0.06160066475447992,"371":0.19138550568946627,"372":-0.32663411986995855,"373":-0.057971688875482055,"374":-0.2911421146396249,"375":0.034704231245246846,"376":0.03955098305441529,"377":0.2734812894934036,"378":-0.014223899941163288,"379":0.507704440215982,"380":-0.7182464344908516,"381":1.366062152980068,"382":-0.12183100784257636,"383":-0.09579636111263654,"384":0.09296886826632585,"385":0.4038390159506321,"386":-0.050593848767080306,"387":-0.2579856253518823,"388":1.4186056115525782,"389":-0.317275871647329,"390":-0.0600940315013519,"391":0.14639771587432662,"392":0.10965704639339768,"393":0.030698626516821384,"394":-0.1978182128661805,"395":1.436854049446117,"396":0.246584892394347,"397":-0.13300409652775635,"398":-0.45578657187703947,"399":0.028542910397406245,"400":0.08199317066960725,"401":0.9603090542993257,"402":0.3169277687846874,"403":0.06519258444865225,"404":0.5488087914689974,"405":0.023102734270414402,"406":0.12623755614775817,"407":-0.05542641627431519,"408":0.409749814385343,"409":0.08145817707836904,"410":-0.14603217063142002,"411":0.2810036504646293,"412":0.18517555194645563,"413":-0.17747516239044234,