
//<![CDATA[

// a few things don't have var in front of them - they update already existing variables the game needs
lanesSide = 3;
patchesAhead = 50;
patchesBehind = 10;
trainIterations = 10000;

// the number of other autonomous vehicles controlled by your network
otherAgents = 9; // max of 9

var num_inputs = (lanesSide * 2 + 1) * (patchesAhead + patchesBehind);
var num_actions = 5;
var temporal_window = 0;
var network_size = num_inputs * temporal_window + num_actions * temporal_window + num_inputs;

var layer_defs = [];
    layer_defs.push({
    type: 'input',
    out_sx: 1,
    out_sy: 1,
    out_depth: network_size
});
layer_defs.push({
    type: 'fc',
    num_neurons: 32,
    activation: 'relu'
});
layer_defs.push({
    type: 'fc',
    num_neurons: 32,
    activation: 'tanh'
});
layer_defs.push({
    type: 'regression',
    num_neurons: num_actions
});

var tdtrainer_options = {
    learning_rate: 0.001,
    momentum: 0.0,
    batch_size: 128,
    l2_decay: 0.01
};

var opt = {};
opt.temporal_window = temporal_window;
opt.experience_size = 100000;
opt.start_learn_threshold = 5000;
opt.gamma = 0.98;
opt.learning_steps_total = 10000;
opt.learning_steps_burnin = 1000;
opt.epsilon_min = 0.0;
opt.epsilon_test_time = 0.0;
opt.layer_defs = layer_defs;
opt.tdtrainer_options = tdtrainer_options;

brain = new deepqlearn.Brain(num_inputs, num_actions, opt);

learn = function (state, lastReward) {
brain.backward(lastReward);
var action = brain.forward(state);

draw_net();
draw_stats();

return action;
}

//]]>

/*###########*/
if (brain) {
brain.value_net.fromJSON({"layers":[{"out_depth":385,"out_sx":1,"out_sy":1,"layer_type":"input"},{"out_depth":32,"out_sx":1,"out_sy":1,"layer_type":"fc","num_inputs":385,"l1_decay_mul":0,"l2_decay_mul":1,"filters":[{"sx":1,"sy":1,"depth":385,"w":{"0":-0.14474323613825135,"1":0.119514327283962,"2":-0.3352259518384408,"3":-0.2154409139605571,"4":-0.16531639329088998,"5":-0.0423952321392049,"6":0.020090121176475913,"7":-0.03363022892227003,"8":0.04712410556375417,"9":-0.24633982113004207,"10":-0.1136175642514415,"11":-0.09314771550929493,"12":0.13091481541253824,"13":0.04071674175698384,"14":-0.04355881692062376,"15":0.0064068165514054335,"16":-0.0075554867465986875,"17":-0.007086183434315218,"18":-0.015851005071003912,"19":0.11115846379515025,"20":0.0701946879971881,"21":-0.11310755028024921,"22":0.14200312347012745,"23":-0.024343947470165706,"24":-0.1184184843187169,"25":-0.16355943248045227,"26":0.18807337384405473,"27":0.03368991642740586,"28":0.025375785278487505,"29":0.034198119527906315,"30":-0.15572738553291393,"31":-0.0824077246790212,"32":-0.15516938871952468,"33":-0.20200276272196335,"34":0.0834234434201254,"35":-0.016573245956406593,"36":-0.03908653545469887,"37":-0.07570459860082705,"38":0.005961979641490209,"39":0.022895537176521152,"40":0.010337724907237158,"41":0.05220617071896706,"42":0.09743490346459353,"43":-0.04870085776315228,"44":0.0015870102692354502,"45":-0.1541707857498733,"46":-0.25064845406377195,"47":-0.0806487756300557,"48":-0.011025789125950857,"49":0.0594319596317898,"50":-0.13933254512209328,"51":-0.23215290832078667,"52":-0.12111679930868154,"53":-0.14472655202912277,"54":0.1089512795058665,"55":0.05618627185417502,"56":-0.0483694467691218,"57":-0.20924473242875583,"58":-0.147392433974693,"59":-0.10281900116406888,"60":-0.19372098777424943,"61":-0.01108379069793029,"62":-0.047715065018384524,"63":-0.1358173007348553,"64":-0.14683042495045198,"65":-0.2777153935536121,"66":-0.0470615350656829,"67":-0.2864814214708268,"68":-0.0007027431611934553,"69":0.01985510733836513,"70":0.024152072930120422,"71":-0.15179546549531828,"72":-0.03350029112183023,"73":-0.14150474775152178,"74":-0.1498536905054031,"75":-0.11376159607366841,"76":0.032053421159715975,"77":-0.1252601681064294,"78":-0.07299512401260633,"79":-0.0854797388382936,"80":-0.2053642624831254,"81":-0.19195013542211187,"82":-0.07571036567292305,"83":-0.033185620430891294,"84":0.03327699940445673,"85":0.03654432497511076,"86":-0.14821413305832687,"87":-0.2837191527217176,"88":-0.062004167642647365,"89":0.031869239902895787,"90":-0.0061743636832052315,"91":-0.057773428835189,"92":-0.0017650057963130748,"93":-0.1339307548994938,"94":-0.16436975505411636,"95":-0.11956559161594135,"96":-0.022582923600320295,"97":-0.07842826628900085,"98":-0.10766204656920979,"99":-0.14226352994660055,"100":-0.039807968324112465,"101":-0.1807153879683964,"102":-0.29358312121943203,"103":-0.05264201473121188,"104":-0.08992494486776932,"105":0.034227951168145275,"106":0.035436779535916896,"107":-0.23326525273063453,"108":-0.10146491254850291,"109":-0.2001801699611389,"110":-0.10474015435656878,"111":-0.05966713910675353,"112":-0.06298563039850742,"113":-0.037852756676201166,"114":-0.31279729319977995,"115":-0.31274905184464896,"116":-0.13643571364243778,"117":-0.19009882839524747,"118":0.04885123240567388,"119":-0.010410165894948687,"120":-0.014416843798067938,"121":0.05177212010804625,"122":-0.15964184708154922,"123":-0.10613186668806442,"124":-0.12810178681337284,"125":-0.033815657481693684,"126":-0.057331091387689576,"127":-0.2168490115116409,"128":-0.03713163708290645,"129":-0.17669701357090725,"130":-0.13254903692661055,"131":-0.08308302479507433,"132":-0.0992771913558071,"133":0.002051136673756431,"134":-0.09512220555827769,"135":-0.07148612920645916,"136":-0.16808438072331588,"137":-0.09992157904934114,"138":-0.1060830271302849,"139":-0.22361048118216492,"140":0.04007180212982511,"141":-0.12284096328537783,"142":-0.0734702151856013,"143":-0.16122740851684916,"144":-0.07924189744460147,"145":-0.04531598305276768,"146":-0.003324996983764117,"147":0.06821100488784498,"148":-0.0020870711062301105,"149":-0.07668656365537527,"150":-0.14193612319411394,"151":-0.01686430657968325,"152":-0.046417237202845345,"153":-0.1045657799915241,"154":0.11835558258712207,"155":-0.06930563692801503,"156":-0.12376841293404671,"157":0.03298055840038448,"158":-0.009030072509460056,"159":-0.13238622962084168,"160":-0.08946809504392736,"161":0.08667503298594748,"162":0.010462585169951697,"163":-0.14042309971764996,"164":-0.07721121434147205,"165":-0.11673207178823629,"166":0.03923765684918249,"167":0.0034697760273684664,"168":0.09949652894744256,"169":0.026733590744694818,"170":-0.12316898342262256,"171":-0.14568633066997685,"172":-0.10391668546150787,"173":0.05504852582986575,"174":0.014250411397400005,"175":0.08379955807324434,"176":0.06250597009835686,"177":-0.12320655428628606,"178":-0.1433324406171225,"179":-0.05564152919772469,"180":-0.08273550204167227,"181":0.14439591910272567,"182":-0.07813059169146347,"183":0.020584551812846737,"184":-0.06902485833893768,"185":0.0026775270734778873,"186":0.13022270948912743,"187":0.08690739210341904,"188":-0.026293735853970348,"189":0.08007784482206416,"190":0.04516376463987303,"191":0.07833039596509628,"192":-0.02125610794990793,"193":-0.010699095657928901,"194":-0.025284403102172667,"195":0.15222341193042602,"196":0.05504221542345771,"197":-0.06777358491529298,"198":0.04328790292861555,"199":0.112496669662685,"200":-0.07441550702161556,"201":0.07792900452527333,"202":-0.07979331561681924,"203":0.10554728054103796,"204":-0.02109464437598571,"205":0.0380018672195627,"206":0.0921549905901979,"207":0.04692245782679702,"208":0.09464742693068655,"209":0.0148124427603056,"210":-0.0016896007323970491,"211":0.03469972228149296,"212":-0.024757565363128706,"213":-0.00012158541454170887,"214":0.12459113156559473,"215":0.058237751717948,"216":0.04601601888830456,"217":0.029788669188882056,"218":0.095398604833351,"219":-0.09862532784502029,"220":0.1943538220386105,"221":0.020134147837925075,"222":0.09939775723154148,"223":0.038613408264913975,"224":0.006669486508499637,"225":0.1450503267330789,"226":0.17004522338219716,"227":0.29767040855501314,"228":-0.03630213147908903,"229":0.06160768212799549,"230":-0.11544515877399783,"231":0.011056901297732616,"232":0.14655577226017014,"233":0.1284564798145317,"234":-0.04737194955941823,"235":0.1791126285994588,"236":0.14738189693025422,"237":0.033248672482216204,"238":0.20580662327465835,"239":0.19588774336843434,"240":0.3161618507364745,"241":0.2651002026575335,"242":0.06980109701730984,"243":0.2426872055260723,"244":0.1343660102560336,"245":0.15751168840351215,"246":0.055078292077058257,"247":-0.027654846536208668,"248":0.3886188664167305,"249":-0.08507327598328976,"250":0.042870825424363185,"251":0.14164729298306142,"252":0.03246011457680354,"253":0.24517079264931438,"254":0.11298574833474342,"255":0.611320209652829,"256":0.05196925966474999,"257":0.20692196112289604,"258":0.0908672028102332,"259":0.13450140480873582,"260":0.1471374919152889,"261":0.23980890270064162,"262":0.5621994947923344,"263":0.2007684457311569,"264":0.12619142454795687,"265":0.15376250477937203,"266":0.08221639809158347,"267":0.12046178243603017,"268":0.4761912201072409,"269":0.44622878771189584,"270":0.30000734548693314,"271":0.15379297342352,"272":0.15302382030599343,"273":0.09262932115909374,"274":0.09233863693518421,"275":0.09607463829277478,"276":0.6640536591806785,"277":0.005188995529300644,"278":0.0023872545240745755,"279":0.012031653948668864,"280":0.016079778728865873,"281":0.030814852466627886,"282":0.23790398770004345,"283":0.5496775417684946,"284":0.14015943244677678,"285":-0.06741667474719841,"286":0.1397469269848644,"287":0.0510281035852924,"288":0.08902326551719199,"289":0.4924020036367231,"290":0.5985675681129453,"291":0.34989080239137355,"292":0.09244906827837669,"293":0.019830628063873857,"294":0.10354952720996573,"295":0.10431167414064174,"296":0.7445530208814245,"297":0.2562310710266659,"298":0.4258785641070235,"299":-0.09761034495247302,"300":-0.0057680301779318675,"301":0.0732619810713536,"302":0.06827747642266996,"303":-0.08248478645888316,"304":0.8256849019663377,"305":0.04321826167282973,"306":0.1255041939638032,"307":0.0038946507088054305,"308":-0.0381944041164747,"309":0.057730669409813196,"310":0.07767636111423548,"311":0.9995609556648498,"312":0.19673127121771444,"313":-0.05284599027548545,"314":0.03785773122579198,"315":0.021026922760898323,"316":0.15228851998731727,"317":-0.0448034831724749,"318":0.5842264665429762,"319":0.06888275111557626,"320":-0.014136449538642348,"321":0.023618669458122334,"322":0.14320564354219822,"323":0.046949420348057894,"324":-0.2628982391687513,"325":0.375363727632375,"326":0.06529203609189747,"327":0.08889707262891539,"328":-0.029832603210766223,"329":0.035777189704933564,"330":-0.026524456284120503,"331":0.10307027910998402,"332":-0.6191725766565519,"333":0.3914182866003926,"334":-0.0857996666121794,"335":-0.06579534887244334,"336":0.05003621591936168,"337":0.05774600118823881,"338":-0.08813268518981364,"339":-0.963685943465427,"340":0.23515641626467987,"341":-0.07798305897977156,"342":-0.18772758827371402,"343":-0.0522692616159069,"344":0.12023155555184438,"345":-0.34674185042139744,"346":-0.739407763897986,"347":0.3466221344246378,"348":-0.023589866516278514,"349":-0.030630235003713095,"350":0.0024094633398953876,"351":0.013201350018922241,"352":-0.4024685370993126,"353":-0.6205790914734659,"354":0.11119977203671293,"355":-0.09334502140349438,"356":0.08327419050042485,"357":-0.10484025119841431,"358":-0.09137430824062044,"359":0.09514684863910587,"360":-0.6588640491917644,"361":0.4115143381055123,"362":-0.06692328749479591,"363":-0.059736512392849335,"364":0.001465223555303551,"365":-0.07289900111158575,"366":0.00632818380694862,"367":-0.5406193852248671,"368":0.25810221125360205,"369":-0.12558994540922858,"370":0.0010110012260217242,"371":-0.04351889655337876,"372":0.06436822153100587,"373":0.043177886435304,"374":-0.5830047143566524,"375":0.3121499103354502,"376":-0.04971676821796351,"377":-0.03748018150771934,"378":-0.04612514480200434,"379":0.16589735154564825,"380":-0.00006162469656772321,"381":-0.22944934609427894,"382":0.16146453469795063,"383":-0.04915828798406314,"384":0.05761932480399631}},{"sx":1,"sy":1,"depth":385,"w":{"0":0.04072596004611139,"1":-0.32945829934767246,"2":-0.1075843697779676,"3":-0.19637273190552532,"4":-0.08707879160888574,"5":0.028875077022811124,"6":0.03548184543498951,"7":-0.16798641131767048,"8":-0.011805302669957437,"9":-0.12047770166146222,"10":-0.13158463694266975,"11":0.019120518609685465,"12":-0.07359298466111248,"13":0.04825008785307221,"14":-0.08145761077270731,"15":-0.05643790279659723,"16":0.11464564699969615,"17":-0.020046574386372973,"18":0.07751755226438377,"19":-0.08847442798057975,"20":0.06636190674488816,"21":0.03155700895442134,"22":-0.03329342799428131,"23":-0.05248427744848931,"24":-0.23899092566192068,"25":0.07058985128871806,"26":-0.05459679663797646,"27":0.012915654413475383,"28":0.06348896684919088,"29":-0.026661637305102123,"30":0.02834352487982902,"31":0.10429754299750207,"32":-0.0562409474239414,"33":-0.042455994028180885,"34":0.04531843640040896,"35":0.14909379170604717,"36":0.08040321659361267,"37":-0.1253940307499051,"38":0.009246759164081601,"39":-0.007382925320603716,"40":-0.0704463517955897,"41":0.012274723727469773,"42":0.21551261634123703,"43":0.11714792495801833,"44":-0.1637374661392751,"45":0.044333585945507854,"46":-0.1325390453654415,"47":-0.10846206846694734,"48":-0.0543255498047985,"49":-0.02313680558302508,"50":0.041181793400831695,"51":0.08195753214039755,"52":-0.024050177548180895,"53":-0.09896241784060825,"54":-0.08092858773998071,"55":-0.02686688005121447,"56":0.2509504250242019,"57":0.17990857442278113,"58":-0.038132578627163946,"59":0.1056662110228412,"60":-0.10899334422919314,"61":-0.10560080798578182,"62":0.04799928107414861,"63":0.11559227998488006,"64":-0.05200808791603126,"65":-0.10576888426632755,"66":0.17794558915988257,"67":0.010646488810043445,"68":-0.03977248795008939,"69":0.015857656711909675,"70":0.20130653186320244,"71":-0.1154825611790608,"72":-0.06417996555215254,"73":0.18075824799517995,"74":-0.01325578680208955,"75":-0.17480025931530466,"76":-0.017706851244348957,"77":0.07758984258190411,"78":0.10442769730395876,"79":-0.12501713521104194,"80":0.10749430215346344,"81":-0.040919809652083305,"82":-0.07029492176706632,"83":-0.02524291252683913,"84":-0.014123727602929417,"85":0.06376057233595055,"86":-0.1558810908073582,"87":0.11584153426879268,"88":-0.11420324724417372,"89":-0.02343018847477272,"90":-0.03385820865139604,"91":0.08546509551958742,"92":-0.11855927060442502,"93":-0.0990634555544239,"94":-0.01931333497152577,"95":-0.22268406147130299,"96":-0.02933533398205609,"97":-0.007743969583655468,"98":0.11584524133491964,"99":-0.06004621029187682,"100":-0.22570026110586286,"101":-0.07742593106490879,"102":-0.2709742884967763,"103":0.021972065945793186,"104":-0.054626300699372785,"105":0.38570747816317635,"106":0.08563108413601306,"107":-0.08279396754180848,"108":0.19877453746519894,"109":-0.11631666995207174,"110":-0.10200004399569082,"111":0.021830939055374494,"112":0.1852873861371105,"113":-0.1252773731895412,"114":0.16197465941729303,"115":0.06984898206625613,"116":0.04922144648901078,"117":0.02204590037112507,"118":-0.07863036171148392,"119":0.19881791457995154,"120":-0.05634727120555108,"121":-0.1432026637403258,"122":0.12427968095650431,"123":-0.02389884778433462,"124":-0.16136447681737623,"125":-0.10139778095041893,"126":0.16594804887300493,"127":-0.031782534156895505,"128":-0.042293625595898214,"129":-0.03962712535209409,"130":-0.03148230996987583,"131":-0.09207639705578406,"132":0.0251383842701258,"133":0.07435474616932947,"134":0.14417580328603027,"135":-0.0051120439370440736,"136":-0.03642608270714506,"137":0.036941970297706024,"138":-0.027478129353629227,"139":0.05975305522762881,"140":0.2110864126179979,"141":0.0646029451876792,"142":-0.02022570247408341,"143":0.017337596448361848,"144":-0.057688120968305674,"145":-0.030706133124609,"146":-0.0385992861463192,"147":0.09943526626230773,"148":0.05126536886764354,"149":-0.024458846529285493,"150":-0.14882447579295668,"151":-0.023941083726389742,"152":-0.04796258863670654,"153":-0.010072895250362358,"154":0.14951166438295396,"155":0.10668029013106504,"156":-0.03316737817203147,"157":0.05322585039315283,"158":0.025149501765931448,"159":-0.06116577655334432,"160":-0.028943396668692917,"161":0.08773573556586202,"162":-0.07802051829015635,"163":-0.14330553719309796,"164":0.05345074587313024,"165":-0.033298523485737086,"166":-0.03028062087781888,"167":-0.06284233974082927,"168":0.23300232202933133,"169":0.05136524038985193,"170":-0.18459906955415412,"171":0.1376729727144841,"172":0.010929381296390534,"173":0.040439008499082656,"174":0.05964733215867264,"175":0.4281777887932768,"176":0.12204132239045974,"177":-0.1534955145069076,"178":0.13594972202352706,"179":-0.10374539556424685,"180":0.027824985364088235,"181":0.01646229573395462,"182":0.13147496263985808,"183":0.030733162920359214,"184":-0.10988571634638214,"185":-0.14747496682158348,"186":0.03529814335923919,"187":-0.0542918451725014,"188":-0.026294445150941616,"189":0.226294247136212,"190":-0.005917088544317257,"191":-0.04582458511943213,"192":-0.13039637433873247,"193":0.009675121845457942,"194":-0.058734429066408696,"195":0.014909010074306192,"196":0.13312128142205398,"197":-0.07519679938165082,"198":0.10029863106496648,"199":-0.07514985521162346,"200":-0.0036073768183888808,"201":-0.08664810087204854,"202":-0.09998564047663908,"203":0.06632579548886482,"204":-0.2533358927410437,"205":-0.09971951722724401,"206":-0.018948343356477403,"207":0.0005737662466942732,"208":-0.0834164462616028,"209":0.054599842655982965,"210":0.07862372890156961,"211":-0.061234462936081875,"212":0.08616295936228739,"213":0.16672313224416238,"214":0.03926002898537859,"215":-0.06232532285157408,"216":0.00683105010001838,"217":0.18499277855837065,"218":-0.21007566279334414,"219":0.1620530959368002,"220":-0.09999926175045198,"221":-0.06318189449095905,"222":-0.02924284293163381,"223":0.024115571417589878,"224":0.19467357329638132,"225":-0.1335564217585172,"226":-0.005033813585705878,"227":0.013336864747287297,"228":0.0031931714576599597,"229":0.028976340438429244,"230":0.10294614014123829,"231":0.07099700940985401,"232":-0.1450293923562383,"233":0.2270283088757271,"234":0.062184015078410065,"235":0.0780555580992923,"236":-0.055898612406632145,"237":0.030163792259164653,"238":0.34848774614489664,"239":-0.2895363101165836,"240":0.23467760784532615,"241":0.009222339244600166,"242":-0.06666948764311509,"243":-0.00831413595531815,"244":-0.013410067740127882,"245":0.056203765370081246,"246":-0.29634718012126543,"247":0.19819967407826913,"248":-0.08775986551154659,"249":-0.0042855204765542354,"250":-0.034173901354061106,"251":-0.04279818037779589,"252":-0.0035361563877642894,"253":-0.14175044647178048,"254":0.07789250117277624,"255":-0.10583862075551402,"256":-0.059877920407258374,"257":-0.11426448302014157,"258":0.07755634392928135,"259":-0.012125940971273539,"260":-0.2032180156052091,"261":-0.020757215255877225,"262":0.015248054832727365,"263":-0.06994367641625712,"264":0.020431138721998286,"265":0.11905997310516729,"266":-0.21872794793275202,"267":-0.180768819776649,"268":-0.37013289159582796,"269":-0.009704338956510763,"270":-0.06246240209258153,"271":0.05867408728788235,"272":-0.08559909549460597,"273":-0.07264018746053921,"274":0.02310682608108986,"275":-0.2442206359768458,"276":0.15664179787314547,"277":0.006374271172933373,"278":0.008932572424605179,"279":-0.11036454363428151,"280":-0.18810628822510245,"281":-0.37858679690801106,"282":-0.2722555155586342,"283":-0.10788621921993867,"284":-0.13456649949771854,"285":-0.013284799600750739,"286":-0.04764945133689773,"287":-0.05818393189671823,"288":-0.19038140557741878,"289":-0.15123563277277383,"290":-0.06220078616108758,"291":-0.2034870017801082,"292":0.03077079812873181,"293":-0.10148670877202928,"294":-0.14032979574732699,"295":-0.1587618587292739,"296":-0.2980444968834947,"297":0.11926240531453565,"298":-0.17601111665711996,"299":-0.10067154521386687,"300":-0.02517488917318288,"301":0.1429797553961909,"302":-0.10224054834478642,"303":0.05884046914268653,"304":-0.09072734827503358,"305":-0.2974326861824888,"306":-0.13518390130637767,"307":-0.001716932901166076,"308":0.09005240983774161,"309":0.263253721472557,"310":0.014467012376938891,"311":-0.0321540951402129,"312":-0.2128080394339999,"313":-0.06613688650451283,"314":0.03672470758137991,"315":0.18092194965468444,"316":0.10387914088985507,"317":-0.3242643131412815,"318":-0.028371959696777145,"319":-0.017949127766999275,"320":-0.08020439924041567,"321":0.0023887717502435795,"322":0.14205935359593647,"323":0.23259287338727339,"324":-0.3361821125463876,"325":-0.048433938420399836,"326":-0.19828651076740042,"327":-0.07868449363726597,"328":0.00873733013529058,"329":0.20153579139871397,"330":0.18476207071872153,"331":-0.3151083937444925,"332":0.351390196773314,"333":-0.09781595789183394,"334":-0.086329463231139,"335":0.17900003487259045,"336":0.08017630295868601,"337":0.07894789011099752,"338":-0.2500618403490141,"339":0.43465965398507284,"340":-0.034276964422894164,"341":0.006374296005137454,"342":-0.033579349019874354,"343":0.02692337681446979,"344":0.09698163941906054,"345":0.01274268797296052,"346":0.4616792347810402,"347":-0.2685039379845409,"348":-0.042434073246826416,"349":0.053487130308575756,"350":-0.0481968509023354,"351":0.12043104963196044,"352":-0.11034440777536646,"353":-0.0660920018842424,"354":-0.23589464459222914,"355":-0.04408781350121382,"356":0.03502953787281574,"357":0.006566890461878577,"358":-0.22641809251338366,"359":-0.14319178380264935,"360":0.05307681737442495,"361":-0.10557819815101545,"362":-0.033080719336977496,"363":-0.007754886341607668,"364":0.01389394053340043,"365":-0.06931917316063355,"366":0.11165858310413627,"367":-0.05593975436586651,"368":-0.1479463386981698,"369":-0.04819134439202111,"370":0.0008614959860081833,"371":0.09276318807609275,"372":-0.03969002921393958,"373":0.062342396664556564,"374":-0.09395194897584837,"375":-0.047478583288997546,"376":-0.06306541029118494,"377":0.12604528041083007,"378":0.259927877592978,"379":-0.20085951840717514,"380":0.08958697099656093,"381":0.41141569432086406,"382":-0.13126148996525058,"383":-0.06992672321060955,"384":-0.0703652841845802}},{"sx":1,"sy":1,"depth":385,"w":{"0":-0.010690816307566766,"1":0.14611137161749221,"2":0.024968909422126397,"3":-0.10644452788547504,"4":0.26085216395378297,"5":0.21702651170496343,"6":0.05623851277743619,"7":0.0023389719610258384,"8":0.0502099139733255,"9":0.04380872356256238,"10":0.03685104853902196,"11":0.21373862644639388,"12":0.2526690334889232,"13":-0.04465516190052634,"14":0.131371123984825,"15":0.0929024512555382,"16":0.06568535732316265,"17":-0.1456252772287198,"18":-0.00014248990946475566,"19":0.06996622061553089,"20":-0.013819931479094896,"21":-0.0737448415966745,"22":-0.006144848089435023,"23":0.029902656389148106,"24":-0.15868118998790415,"25":-0.08553782099537612,"26":0.015722639597935864,"27":0.24799420308366724,"28":0.02128088014955584,"29":0.23355643182676064,"30":0.17463615007148525,"31":-0.004776271976256539,"32":0.04274806555417909,"33":-0.009589786866846124,"34":0.1716102826930315,"35":-0.20866423994088967,"36":-0.008904855979199617,"37":0.07455632292960968,"38":-0.17687379350889826,"39":0.16300271099098912,"40":-0.20162954498096472,"41":0.052231632624484194,"42":-0.2448255275739857,"43":-0.04746674482573946,"44":0.01933980693201592,"45":-0.2596776928610096,"46":0.20455563372305263,"47":-0.014625936160315977,"48":0.05581167978511619,"49":0.06320943491208847,"50":-0.07569432625104236,"51":-0.1423032243603999,"52":-0.10446270735173044,"53":0.18968691957866365,"54":0.01936135423180583,"55":-0.045135871129697615,"56":-0.07241635940858845,"57":-0.16740526165965558,"58":0.1257624490157632,"59":-0.23227915653084588,"60":-0.027365201822548688,"61":-0.05319343995548744,"62":-0.04062710430495403,"63":-0.07331785191454084,"64":-0.12569556144257268,"65":0.2322850111306219,"66":0.1894900838586322,"67":0.03636456630482313,"68":0.05299401659632248,"69":0.06707268800456016,"70":-0.17977880556536874,"71":-0.11365645710311162,"72":0.10971877697145101,"73":-0.0590534699392599,"74":0.004981195452106936,"75":-0.09043609410273389,"76":0.029924232780490834,"77":-0.03504576768318239,"78":0.1110435119959911,"79":0.10474046375544474,"80":0.05724588711467323,"81":0.2905947258220395,"82":-0.09389528337988493,"83":0.21385688143432754,"84":-0.038490042509403966,"85":0.02512827317699443,"86":-0.0063416388362023185,"87":0.267979344345804,"88":0.19461794315785008,"89":0.03562909613080996,"90":0.08272387960845273,"91":0.11475035800834732,"92":-0.20063210052013336,"93":-0.10486676465238766,"94":0.21943689708622485,"95":0.027695554900876346,"96":-0.07577898449424594,"97":0.15568915836007635,"98":-0.10379114757344793,"99":-0.07630065845717601,"100":-0.08447305597213821,"101":0.25273577115582013,"102":0.12091414295540379,"103":-0.004043127575935713,"104":0.09399741356851236,"105":-0.0907136891396437,"106":0.25015706333706933,"107":-0.06413204291356925,"108":0.2598062833592212,"109":-0.060961252738092324,"110":0.01390755765120267,"111":0.1943735227323802,"112":0.13131807677497434,"113":0.1307008501783049,"114":0.04154147305128712,"115":0.16015287246100582,"116":0.09609228135566009,"117":0.0013364134419021252,"118":0.03203805078108929,"119":0.23534566950898503,"120":0.2549612589456378,"121":-0.02944235348519044,"122":0.0545611159999617,"123":0.11576257369373297,"124":-0.009982398148463049,"125":-0.01662929628935842,"126":0.19688880334449724,"127":-0.057858816907728955,"128":0.19978816271238586,"129":0.25642078931212675,"130":0.1977955811116785,"131":0.1861537851196283,"132":-0.02043181363443888,"133":0.050818395912152176,"134":0.023012693761525392,"135":0.13833166252288986,"136":0.019566523082536612,"137":0.17635351414406242,"138":0.21453432299701514,"139":-0.04346179996096387,"140":0.09699323331176767,"141":0.026337842762597628,"142":0.029330234574874856,"143":0.021001444965572547,"144":0.1538553367567885,"145":-0.05538703332375209,"146":0.050439168980296434,"147":0.004308263844722092,"148":0.14137756381951758,"149":0.03371202199334568,"150":0.19982135069923274,"151":0.09480072583394707,"152":0.17331512174500407,"153":-0.008880569066738902,"154":-0.09272590975640556,"155":0.023298401010836394,"156":0.18006688383934222,"157":0.09755394461382214,"158":0.1525754656723633,"159":0.08261655708189986,"160":-0.0029995964583824394,"161":-0.019678974365629123,"162":-0.08893314612259884,"163":0.3315581013945907,"164":0.01044592609435097,"165":0.1775989652836681,"166":0.06734884328062458,"167":-0.061989446014490024,"168":0.02667886501147852,"169":0.06613845696640881,"170":-0.06164391667167544,"171":0.16461319546109576,"172":0.29064975457928444,"173":0.21188525473430875,"174":0.129166206613379,"175":-0.08830646939849364,"176":0.012776403905921625,"177":0.12577352406159997,"178":0.11997200496214272,"179":0.39722703458427744,"180":0.11333578871008888,"181":0.12459594595291656,"182":0.02905777082660505,"183":-0.03615243722378011,"184":0.07116378696004012,"185":0.11274932973894462,"186":0.14109286070383076,"187":0.07262435365675655,"188":-0.1884902151306404,"189":-0.07700245711500762,"190":0.05038924531764495,"191":0.1204366193198696,"192":0.11264700187026329,"193":0.28134009726224746,"194":0.19684718774867926,"195":-0.10426838014460055,"196":0.03607487469645097,"197":-0.14496360130618205,"198":0.11711783696353005,"199":0.03553205812879957,"200":0.19434686651712593,"201":0.10590523947555915,"202":0.013033498143455294,"203":0.0050401116568453315,"204":-0.022394894906996313,"205":0.011553242510843853,"206":-0.002007786560814206,"207":0.20345127091044335,"208":0.1340080021302566,"209":0.013063071148469382,"210":0.10201245058755692,"211":-0.14444542777255215,"212":-0.029933433552154384,"213":0.11586600114451419,"214":-0.033044759068360074,"215":0.17088001784238313,"216":0.11212122015996294,"217":0.15532058286456424,"218":-0.1336415964738893,"219":-0.07723420592596217,"220":-0.22592582361050959,"221":0.15333764678056422,"222":-0.056265395960987535,"223":0.08583938360979189,"224":0.3220102028372292,"225":0.03811890160186982,"226":-0.04215780295476804,"227":-0.16448911696800075,"228":0.1740378472364985,"229":0.08749374192480691,"230":-0.09368878481320614,"231":0.12083476630604907,"232":0.05803910021469674,"233":-0.15156684739566223,"234":-0.3362514747684886,"235":0.07507646506706227,"236":-0.06310627892372436,"237":-0.05672170828950112,"238":-0.022001060175000902,"239":-0.20100269912140684,"240":-0.10029877728725782,"241":-0.4085105868401538,"242":0.13572403255792004,"243":-0.1316371816963064,"244":0.09829681872096008,"245":-0.17047634530938788,"246":0.02015261471099675,"247":-0.05820868702685224,"248":-0.19337035448312698,"249":-0.0825012109497244,"250":-0.10691110888197607,"251":0.18786852737048562,"252":-0.07703477310108958,"253":-0.09630599138383393,"254":-0.3081454396051553,"255":-0.4726690282786008,"256":-0.012906273918247798,"257":0.0723364463594018,"258":0.2564908290335075,"259":0.051114517889675325,"260":-0.13037598502617964,"261":-0.3187249408802201,"262":-0.19433637078669672,"263":-0.28348816238979074,"264":-0.04573149606513762,"265":0.013272706023539272,"266":0.11955160058131512,"267":0.10562621815015102,"268":-0.35418516788085547,"269":-0.4406444578515683,"270":-0.37325004781427756,"271":-0.0067823746072731275,"272":0.044905389518268106,"273":-0.052006302362591295,"274":0.011050205142396305,"275":-0.3660692870955492,"276":-0.4387334822541096,"277":-0.11995342029751635,"278":0.06454595100327337,"279":-0.12034041731699845,"280":-0.09791820425591208,"281":-0.19451826827125024,"282":-0.3114253624572885,"283":-0.593205081230995,"284":-0.13282871959386183,"285":-0.1279491460490564,"286":-0.22049497539924068,"287":-0.09706111196166516,"288":-0.06049205704386476,"289":-0.3097740258638061,"290":-0.7037715724645692,"291":-0.3421623481372825,"292":-0.006825839854268405,"293":0.02986691913259403,"294":-0.08947531657386273,"295":0.05422014991638649,"296":-0.27043070426048876,"297":-0.819518770862244,"298":-0.3746270441998344,"299":-0.027430012178044173,"300":-0.1346253837950414,"301":-0.027900621556400003,"302":-0.1443609804438184,"303":-0.34752142399381564,"304":-0.8076138442195215,"305":0.030839529944775016,"306":-0.1299440554414433,"307":0.05342163986359098,"308":-0.002657974697842161,"309":-0.07757646127164528,"310":-0.39699433171878856,"311":-0.5719533098390367,"312":-0.4031185758748391,"313":-0.022471182984309997,"314":-0.024609506931823906,"315":-0.040316100296162914,"316":0.05114366877852901,"317":-0.16918883033181975,"318":-0.8638525076196482,"319":-0.551235733886515,"320":-0.02523779354813157,"321":-0.13647482452246532,"322":-0.0005577601994342302,"323":-0.08995606244736733,"324":-0.2018780023639884,"325":-0.8666316217340962,"326":-0.09524459450218395,"327":0.1062303553154669,"328":-0.07384927947503324,"329":0.041546678693075594,"330":0.3333124004824452,"331":-0.24498341680146338,"332":-0.39318775914560117,"333":-0.5890343444736428,"334":0.26328992402831725,"335":-0.1271672982356523,"336":0.17939442219298865,"337":0.1545435291507154,"338":-0.06668733950410217,"339":0.2943649966517554,"340":-0.44826692223251163,"341":0.07936260788024706,"342":0.06882118742144791,"343":0.08922336966834349,"344":0.13554833644771722,"345":0.12318623576993644,"346":0.5151645133335185,"347":-0.3497971683809262,"348":0.17169551858156779,"349":-0.07728911773221636,"350":0.016609298019319797,"351":0.3268335334786972,"352":0.5955670116926147,"353":-0.2614710280851411,"354":0.11524628844985016,"355":0.15507027032643134,"356":-0.12432091438617997,"357":0.04062842862506207,"358":0.1578047921522943,"359":0.10743796952829421,"360":-0.36977359101009355,"361":-0.38645907405920926,"362":0.05350013012653671,"363":-0.2432452968367468,"364":-0.015391652237342863,"365":0.24981227068860556,"366":0.182646354063019,"367":-0.24056691256776483,"368":-0.28314540312655867,"369":0.13190999198538556,"370":-0.004306716909090811,"371":0.17612226976287051,"372":0.30533235990029656,"373":0.05421010842484711,"374":-0.290399451714827,"375":-0.31039557001911694,"376":0.026502644654140838,"377":-0.08613026567796275,"378":0.20446962025275636,"379":0.017477628830346734,"380":0.7790017275379185,"381":0.5455440678416289,"382":0.25686684445658703,"383":0.11923453214344132,"384":0.007280020808687775}},{"sx":1,"sy":1,"depth":385,"w":{"0":0.17655088052942777,"1":0.16037533116916053,"2":0.07168643470725529,"3":-0.127491834699883,"4":-0.3767226529575844,"5":-0.04378103581526729,"6":-0.0989323247787651,"7":0.09008419162460343,"8":0.012890086460876811,"9":0.10482243658214015,"10":0.024272284465274227,"11":-0.08245553344969538,"12":-0.16122306097223582,"13":0.17765865702126835,"14":0.07345278228982152,"15":0.07879276357804642,"16":-0.019820534408114727,"17":-0.08915861593535641,"18":-0.17099366317054937,"19":0.02478230411605994,"20":-0.058360529252878594,"21":-0.009300795511170017,"22":0.00619762037296309,"23":-0.21080389174576636,"24":0.011016065042898314,"25":-0.2383533307863255,"26":-0.13990967534727283,"27":0.0024504458442003584,"28":-0.19851950101151633,"29":-0.001635204444466984,"30":0.1116425532508143,"31":-0.13349610998265637,"32":-0.036831050417053146,"33":0.012492931850838617,"34":-0.01801042428602124,"35":-0.032062291758885704,"36":0.11763038810846276,"37":0.05918424696202457,"38":-0.1258404021420828,"39":-0.05840443206201246,"40":0.07923563576996026,"41":0.13612522063008933,"42":-0.22862301132823237,"43":-0.07896062352708234,"44":-0.12412743064823194,"45":-0.13625018737942815,"46":-0.15100482483645122,"47":-0.025302141166772645,"48":-0.03263935718099626,"49":-0.15503701511945267,"50":-0.03585014499771822,"51":-0.06525158961632004,"52":0.18401874953465885,"53":-0.17329224795220322,"54":-0.0203046780998748,"55":-0.15060037531589496,"56":0.0932858525239329,"57":0.041092487935555866,"58":-0.14096789616882327,"59":-0.029774432636809376,"60":0.08876098039998408,"61":-0.09498942941354432,"62":0.020388927177187516,"63":-0.07196106622022054,"64":0.10566549913580912,"65":0.05599287439333425,"66":-0.011743247789066913,"67":-0.056329097712131765,"68":0.11082194866783507,"69":-0.04943611727594133,"70":0.026626319000198972,"71":0.019264262081029004,"72":0.11059226252517186,"73":0.17008497540936665,"74":-0.1775811454017442,"75":-0.02513523279064822,"76":0.053809719215053724,"77":-0.05893379941438537,"78":0.028064898010952313,"79":0.07235627307594941,"80":0.0852397388336782,"81":-0.005753392064284879,"82":0.0894340888775419,"83":0.07942632891003375,"84":-0.1400181504829646,"85":-0.23578779475682263,"86":-0.14660935407537481,"87":0.029347929028712753,"88":-0.09690421415415526,"89":0.14362201504697739,"90":-0.08160771882710738,"91":-0.08572831451217917,"92":0.01967491079522604,"93":0.04202316343636984,"94":0.20401721941839526,"95":-0.08791470438881727,"96":0.15246618185708719,"97":-0.13425627577527985,"98":-0.1551554891712046,"99":-0.0021619733368720227,"100":-0.10332520741766686,"101":0.06621711767992276,"102":-0.03201592415705073,"103":0.11462484732235638,"104":-0.031305925942801356,"105":0.12874089582139656,"106":-0.10904882979564894,"107":-0.07164528247979995,"108":0.07032235332321149,"109":-0.0802990028222156,"110":0.15942438792877184,"111":0.05413443152872476,"112":-0.11151337391151601,"113":-0.09944765087076815,"114":0.002634020690798635,"115":0.0888482240508575,"116":0.07148962015211778,"117":0.052667218020539,"118":0.013372513494324476,"119":0.12123799532480911,"120":0.016406040457196267,"121":-0.19174710632080288,"122":-0.061237108563853906,"123":0.02633944410369164,"124":-0.02173116434480537,"125":0.14795990799059655,"126":-0.013250006625883496,"127":0.10923256721285,"128":-0.03468381143632549,"129":0.358158785276037,"130":-0.012237067965549065,"131":0.17454332700768604,"132":-0.007632688790922442,"133":-0.054375417943397786,"134":-0.025242757387663416,"135":-0.1002658609337224,"136":0.1600754393083113,"137":-0.07331390909490716,"138":0.033503472788597194,"139":0.03770007476134113,"140":0.12148788544674487,"141":0.1421677442064329,"142":0.027647596838883633,"143":0.10523558171420794,"144":-0.11993319209342619,"145":0.0856075167354253,"146":0.030824918333340903,"147":0.042596299714458705,"148":-0.10140880745720833,"149":-0.05323277831985656,"150":0.09711787820000914,"151":-0.04108582457760865,"152":0.09029240712773626,"153":0.08665526217493785,"154":0.11227219587959048,"155":-0.2695496761037034,"156":-0.0032828598423594035,"157":0.07294148065200395,"158":0.24413276669017944,"159":0.10596004031503961,"160":0.06276980425345283,"161":-0.1590208460279339,"162":-0.1128860886543438,"163":-0.19416968768820494,"164":-0.06128374913836669,"165":-0.019448236873376937,"166":0.013946161056547116,"167":0.020492585412053208,"168":0.004394217613563842,"169":0.010239065266385284,"170":-0.11164182555061115,"171":0.023229209299774966,"172":-0.07015497596943913,"173":-0.015584097168598548,"174":0.02656567151944143,"175":0.006279521584768643,"176":0.17921019455682266,"177":-0.08160326204531433,"178":0.13516622695007743,"179":0.11047913079728455,"180":-0.08116237742562211,"181":0.18342414775624763,"182":0.25202541223425395,"183":-0.07747022497513632,"184":-0.18084102452910122,"185":-0.02393603291269512,"186":-0.07237405937613407,"187":-0.0233117057574402,"188":0.09413429639118369,"189":0.03343183705898918,"190":-0.1506662707998674,"191":-0.4054549901742371,"192":-0.19746197930962128,"193":-0.02661870555771465,"194":-0.031193538989853258,"195":0.3053289784459389,"196":0.16359997122772008,"197":0.02839171000377889,"198":-0.30019609579299306,"199":-0.12613866283022426,"200":-0.21669018475910898,"201":0.23119828983673665,"202":0.1702798897863202,"203":0.10242674894805963,"204":-0.06243810127044163,"205":-0.28791641278160757,"206":-0.1429297441074005,"207":-0.03550311276212214,"208":-0.00974634256153989,"209":0.026463011515129784,"210":0.011423310816419235,"211":-0.13155173315893615,"212":-0.09702974653911975,"213":0.022959465281465082,"214":0.06677449139865839,"215":-0.10220465816891411,"216":0.0986880375640626,"217":-0.021503143510486534,"218":-0.10142236479031477,"219":0.06622583687435527,"220":-0.08741028165053248,"221":-0.012660507050082731,"222":-0.02032771587589404,"223":0.09102585028656464,"224":0.07725309031017001,"225":0.014647810070142936,"226":-0.30546545969969807,"227":0.019412270049320498,"228":0.014168029237719301,"229":0.027174922936620396,"230":0.008868175880253933,"231":0.004431966004516948,"232":-0.12078558954031433,"233":-0.14086432638357194,"234":-0.05108488201025705,"235":0.19017128761701177,"236":0.080474361703313,"237":0.14562868087942055,"238":0.1844915339766141,"239":0.010648983338161847,"240":0.0419905940619537,"241":-0.03950525665125674,"242":0.018172547286086766,"243":-0.030512767444366772,"244":-0.055169990267610526,"245":0.05624843825428415,"246":-0.02390909778971415,"247":-0.06480793754446008,"248":0.07996867645170563,"249":0.0978401027329302,"250":0.09496148958433691,"251":-0.11703809203133428,"252":-0.08176196189111021,"253":0.02729076409793044,"254":-0.06663981389264796,"255":0.2665609342902258,"256":0.045829933215589716,"257":-0.008034312145951985,"258":-0.16732588759084802,"259":0.1238415987031724,"260":-0.08809566925183573,"261":0.0026884659722412915,"262":0.40070224712897345,"263":0.04173761155348839,"264":-0.17645851967106743,"265":0.01953739958028519,"266":0.0006215126539294198,"267":-0.04076608789092354,"268":-0.04589090340947659,"269":0.28509001231521536,"270":0.10709252478478204,"271":0.02786075075571764,"272":0.021213740474198578,"273":-0.043688567412930195,"274":-0.07626457692719724,"275":-0.03144923157635387,"276":0.4767519140742718,"277":0.15564333665049201,"278":0.09177686334572939,"279":-0.16088097319185116,"280":0.03293576570599297,"281":-0.05595198011867396,"282":0.11911406671087808,"283":0.27607400762070716,"284":0.23972467151602597,"285":-0.08910143416180485,"286":-0.1031023515472577,"287":0.037096004978687425,"288":0.09289269244523106,"289":0.0691074286310452,"290":0.4524029652612219,"291":0.11683492666964995,"292":-0.05081566375408153,"293":0.07397913232393984,"294":-0.035818981467127656,"295":0.008717129174777334,"296":0.17243103342267171,"297":0.4020542930083075,"298":0.03902735295172,"299":0.19493380561285564,"300":-0.0777723861833666,"301":0.08946597685656485,"302":-0.11718489898030003,"303":0.5345331992200236,"304":0.8786195870242319,"305":0.3148704727456586,"306":-0.30180466305972675,"307":-0.0584607530648499,"308":0.04827100159114274,"309":-0.30003393804378664,"310":0.8253134684229841,"311":0.8683611551821083,"312":0.3952100431761434,"313":0.00034916615999873457,"314":0.08901292507984654,"315":0.07166773126516678,"316":-0.1776461821131937,"317":1.0686513236050228,"318":0.6479256705620494,"319":0.19496245183162278,"320":-0.23175355302731157,"321":-0.27230723600178586,"322":0.13194576444899717,"323":0.04695944936228018,"324":1.1979290869043424,"325":0.6420822603645157,"326":0.46789461741242405,"327":0.03934443354158159,"328":-0.026002602767885637,"329":0.06294546070288515,"330":0.11288009621988199,"331":0.7987882136216895,"332":-0.36171685550439625,"333":0.08298365697606849,"334":0.029238712984701883,"335":-0.18529961719217675,"336":-0.011478273577890054,"337":-0.03216621239704235,"338":1.0473050195806397,"339":-0.6019913063810337,"340":0.2486930394985054,"341":-0.12557602110083407,"342":0.03244219858831836,"343":0.0013694832622012246,"344":-0.06364320664599742,"345":1.2778790295536466,"346":-0.8731589864906443,"347":0.14473003980512633,"348":-0.1347191069883322,"349":0.01038581017312687,"350":-0.017353950025438287,"351":-0.2141900060236851,"352":0.8531212148947422,"353":0.24704064496153977,"354":0.11439496320737222,"355":-0.3740480390610059,"356":0.00506516219320505,"357":0.027543452612082294,"358":-0.12021283106429789,"359":0.17576822179067342,"360":0.20304876968145572,"361":0.12313367449471127,"362":-0.21924619378157337,"363":0.05191142263276698,"364":0.045809098339951844,"365":-0.07028570276692843,"366":0.2742663515811406,"367":0.22061390034298675,"368":-0.016751672598530314,"369":-0.03190493757345454,"370":-0.054894163734171005,"371":0.004078014877203986,"372":-0.07218087869941889,"373":0.21740258580172223,"374":0.2840617374669086,"375":-0.14852466707731363,"376":-0.3003272598146827,"377":-0.22330726847445226,"378":-0.09990960115234829,"379":-0.16190612043765865,"380":0.07784511764845016,"381":-0.9530155309945537,"382":-0.2887445862903244,"383":-0.023928534603006642,"384":-0.07957120913985107}},{"sx":1,"sy":1,"depth":385,"w":{"0":0.007615896297914121,"1":-0.07603336520406191,"2":-0.05211499669944506,"3":-0.11863483906076586,"4":-0.09277400529787226,"5":-0.14220146043727389,"6":-0.0003048189563725793,"7":-0.026662858548355997,"8":-0.06301932596478521,"9":0.08861184320635668,"10":-0.011946694772473204,"11":0.006723151474565852,"12":0.20178970506898727,"13":0.008763758695879736,"14":0.06337317861346183,"15":-0.04534015985299472,"16":0.0354077001758968,"17":0.02866915004637767,"18":0.018397712442598222,"19":0.0686268277639547,"20":-0.05273421156433187,"21":-0.051221860559158276,"22":-0.09580184565850523,"23":0.10793208952739922,"24":-0.004351078982995474,"25":0.0015619978380009224,"26":0.06662788916095369,"27":0.012980539630131361,"28":0.09350903667369342,"29":-0.01616147948451422,"30":-0.0540870666412831,"31":-0.0376214605594104,"32":-0.030274833133218413,"33":-0.062363117834967126,"34":-0.09215190129292013,"35":-0.03205517270302219,"36":-0.08528195333386716,"37":-0.15223409180851177,"38":0.05979878730713783,"39":-0.003639802704922275,"40":0.11743019799498067,"41":0.039977247605684406,"42":0.03976066553490734,"43":0.01538426127661821,"44":0.03626808857063956,"45":-0.03934280721358204,"46":0.060511991314245984,"47":0.23416602617706345,"48":-0.15193168190686526,"49":0.09203869623343218,"50":-0.20277442656476433,"51":-0.0838826946390486,"52":-0.09318225636841812,"53":-0.07623887275618711,"54":0.03816369774203213,"55":0.10406189358852329,"56":-0.017785189504061667,"57":0.016431966159074246,"58":-0.020648947209496785,"59":-0.15043743974597326,"60":0.06715117546319967,"61":0.023422058524535806,"62":-0.037471292174933155,"63":0.05840129020991775,"64":0.05192397641430791,"65":-0.121232021745518,"66":-0.03332416321120209,"67":0.02426459404344102,"68":-0.16271341989055288,"69":0.09281635616872093,"70":-0.015267518227776116,"71":-0.02170577494145599,"72":0.11194564119912725,"73":-0.09224756300978915,"74":-0.017010289050156245,"75":0.10042401612534739,"76":-0.186090479367521,"77":0.18114271816186053,"78":-0.08205237561462897,"79":0.10170482776812864,"80":0.06709419526216501,"81":-0.010492488517765748,"82":0.1830333258554633,"83":0.09691161623110214,"84":0.0451750690227063,"85":-0.07467557841853846,"86":-0.11369393487407917,"87":-0.06444641705404136,"88":0.002966950170949073,"89":0.0749804250553344,"90":0.006996866406649788,"91":-0.1779131254474108,"92":0.03505382078850778,"93":0.022126496639833498,"94":-0.06705986273548104,"95":0.02833342736961824,"96":-0.11381941177547561,"97":0.13466570453923665,"98":-0.12870135414686165,"99":-0.05302964663961656,"100":0.04386924973377474,"101":0.09351959650960781,"102":0.0006293711279088618,"103":0.0014729655901486673,"104":0.019709707163450423,"105":-0.09366094086788752,"106":0.12436704259788577,"107":0.04955698737034534,"108":0.04909933119044371,"109":0.15130218824204683,"110":0.08306587330939949,"111":0.16066360859708365,"112":0.017437184839553952,"113":0.14084231474423395,"114":-0.07861211243393708,"115":-0.13351328161781514,"116":-0.06293424946872231,"117":-0.11372007832586843,"118":0.14404276287578693,"119":-0.01195625042482672,"120":0.0075280461933969235,"121":0.024258275380146056,"122":-0.0944561320842534,"123":-0.057642661680982074,"124":0.22250353419550972,"125":-0.09733835488503571,"126":0.06282654263558364,"127":0.05393421744457154,"128":0.0007312118109130477,"129":-0.01367894725678349,"130":0.10245059945694109,"131":0.037946924756233284,"132":-0.01715247111297526,"133":0.05114522163037942,"134":-0.06811362199021873,"135":0.06680626555983085,"136":-0.02714046445379137,"137":-0.08287920562380495,"138":0.08264913230344272,"139":-0.060552100893830216,"140":-0.03243734391164229,"141":-0.1166544832544998,"142":0.0028339757261673067,"143":0.03178600371759179,"144":-0.09673861901215039,"145":0.005969863301919212,"146":0.0724887923349618,"147":-0.15933686028623414,"148":-0.060787897616041364,"149":0.056466298809818696,"150":-0.091318845277614,"151":-0.0170248172061362,"152":0.06188392962360673,"153":0.16796295056013122,"154":0.041443081540245605,"155":-0.0381233279677098,"156":-0.057513199411864994,"157":-0.0007751102284496822,"158":0.05958464711256337,"159":0.03785454684866722,"160":-0.006231411374364757,"161":-0.027234486326518727,"162":0.05112955578402361,"163":0.1196056961130396,"164":0.09725686481045188,"165":-0.023921293027207007,"166":0.037921375384732385,"167":-0.03957208886293424,"168":0.05173587432674297,"169":0.0006207554807292666,"170":0.04932312697910615,"171":0.17035459608089285,"172":0.036747736076899316,"173":0.20302944757205527,"174":-0.080900209095832,"175":0.022166795682612983,"176":-0.0810129766464706,"177":0.11219224454983767,"178":0.12053947753045997,"179":0.19837157732505425,"180":0.08734006712859303,"181":0.042676337539336855,"182":-0.030150702730829627,"183":0.08767835356958799,"184":0.07600637068715364,"185":0.095896996701792,"186":-0.016078197559450363,"187":0.03721124100546406,"188":0.09730022894182594,"189":-0.0767096216246735,"190":0.04404616529189164,"191":0.10535471961587012,"192":0.21594883875039123,"193":-0.09547940266729132,"194":-0.04607609957320005,"195":-0.019013374932671204,"196":-0.1005057286727148,"197":-0.03141745630519147,"198":0.00037993934371575305,"199":0.19744127063570752,"200":0.021104446659692088,"201":0.09487547340861963,"202":-0.22698205705494534,"203":0.039958422829163766,"204":0.07186426867976993,"205":0.050130929277771796,"206":0.27916496893985004,"207":-0.049081012410092606,"208":-0.029011175648047848,"209":-0.1445563031524833,"210":-0.0001587609920807088,"211":-0.001816119498266719,"212":-0.05738008944652745,"213":0.1983987648649441,"214":0.01811924941441958,"215":0.006628103117015699,"216":0.14139020789043744,"217":0.18878995755578667,"218":0.004804405745986878,"219":-0.10043229945794277,"220":0.4561984877456232,"221":-0.10824634949377426,"222":-0.007940794446386516,"223":0.12186106656788015,"224":-0.04366396858396942,"225":-0.09322020180217434,"226":0.023164851729706032,"227":0.4977038184994142,"228":-0.16515321652910178,"229":-0.024795400360419655,"230":-0.06709247050541219,"231":0.06131092773022647,"232":0.09153320698887882,"233":0.22634283516273113,"234":0.48137124525852154,"235":0.03387409458174076,"236":-0.03739609260026993,"237":-0.1927266430292523,"238":-0.019535148473964058,"239":-0.0710211947391346,"240":-0.11597771123434612,"241":0.5196736366652244,"242":-0.04790086831595191,"243":0.03414589072041979,"244":0.01405705156436235,"245":0.15633082908359794,"246":-0.06148234838134279,"247":0.01660012614736292,"248":0.735999793075126,"249":-0.0252438623229425,"250":-0.030687974772349885,"251":0.0962648264337521,"252":0.11941810217395474,"253":-0.04218164839881942,"254":0.1275098197075128,"255":0.8004364751061073,"256":-0.2345760204642761,"257":-0.037604613136078026,"258":0.06802719948352295,"259":-0.07407879668338631,"260":-0.05277113162568157,"261":0.10057823949743082,"262":0.8728416817546036,"263":-0.19000027389236301,"264":-0.15257401492369607,"265":-0.002353405017702078,"266":0.10302680096482304,"267":-0.014926872363300397,"268":0.19057151905425732,"269":1.2083759297329375,"270":0.1273844448548682,"271":-0.09664893898298213,"272":-0.04874689698278077,"273":0.04011274707825655,"274":-0.0930649835905693,"275":0.09024989149719559,"276":0.8400547104486029,"277":-0.3954132705274629,"278":-0.0967961531164104,"279":-0.005023618795080827,"280":-0.02866965101664999,"281":-0.0070466492590751,"282":-0.11429074809547132,"283":0.8945318058085218,"284":-0.3698495474361658,"285":-0.18818843173744398,"286":-0.05930925150297532,"287":0.1407681743824349,"288":0.06434842916251457,"289":0.09321213293682895,"290":1.1457722952714873,"291":-0.45055448911944296,"292":-0.16174105612484335,"293":-0.12058499771837708,"294":-0.05783421583797509,"295":0.015298190913446977,"296":0.1610024569188928,"297":0.8822571830952403,"298":-0.14315026188870186,"299":-0.09934951018329867,"300":0.02326778612049016,"301":-0.15493214029502106,"302":0.0889757448344014,"303":-0.1836605174122064,"304":0.9791754491866508,"305":-0.5657873869707999,"306":-0.18449964088473095,"307":-0.059069262231880436,"308":-0.06156407328358277,"309":0.03930498316483159,"310":-0.06260503725885731,"311":0.8523292708564083,"312":-0.5327761368322133,"313":-0.004293979464526642,"314":-0.14892763016943847,"315":-0.15117543328870453,"316":0.043092410836841843,"317":-0.06997833402674815,"318":1.0697362779281536,"319":-0.8670132684106212,"320":-0.08634529923884857,"321":-0.10927598276666997,"322":0.14904590503740373,"323":-0.05917382676014479,"324":-0.06450213179281011,"325":0.7406043619170983,"326":-0.6869859459504755,"327":-0.14057328866535643,"328":0.03229317149317106,"329":-0.09946799239631927,"330":0.06979596631418666,"331":0.1206361686020631,"332":-0.05278325061391167,"333":-0.42604041416181854,"334":-0.13052049773684987,"335":0.08775765970332564,"336":-0.09174573221235502,"337":0.1338572045880838,"338":0.1026996556451954,"339":-0.6261104162364625,"340":-0.5897868962046693,"341":-0.08516205512504943,"342":-0.09126958447755826,"343":0.06252922284543379,"344":-0.04955025963569943,"345":-0.1441359978170481,"346":-1.6074456629559326,"347":-0.7744835402365882,"348":-0.07876480475505872,"349":-0.035586486301341126,"350":0.15587164877524115,"351":-0.08411885009326511,"352":-0.08597640975149212,"353":0.8804246096305335,"354":-0.5051507484486317,"355":0.052913824083153926,"356":-0.017077135058532762,"357":-0.08407933106887455,"358":0.11341064673574751,"359":0.020512983440251487,"360":0.8852879631537552,"361":-0.0019100857898751713,"362":0.05370945057150105,"363":0.19296110105532072,"364":-0.06317456188478326,"365":0.17783217526348435,"366":0.04905185432268033,"367":0.6657220063043353,"368":-0.18646339818131058,"369":-0.15144866675687088,"370":-0.0524060529946736,"371":-0.02292557296944688,"372":0.046389259057384925,"373":-0.04196894167127824,"374":0.7999417869952571,"375":0.01046439874385384,"376":0.05950533670357419,"377":0.022914427937426,"378":0.026752800197448093,"379":0.0958010425486441,"380":-0.05492781062865993,"381":-1.7155451299682307,"382":0.009987917847346713,"383":0.09825322396146598,"384":0.056676378250335675}},{"sx":1,"sy":1,"depth":385,"w":{"0":0.03686466847901427,"1":-0.03098515008024625,"2":-0.007423313591051192,"3":-0.0076642978880815,"4":-0.013713390353247189,"5":0.00022619872646200968,"6":0.07156753325222362,"7":0.0836364944638253,"8":0.010165982209365099,"9":-0.06284289839796325,"10":-0.05316897450004511,"11":-0.07832989544373735,"12":-0.08984714837280051,"13":-0.1029810908441005,"14":0.0038451104069913617,"15":-0.011047524396848984,"16":-0.06476855668139862,"17":-0.028509372583033495,"18":-0.080083631446266,"19":-0.08696716479560114,"20":0.00825949331463488,"21":0.07604459073931502,"22":-0.059078014546006814,"23":-0.04042260857110983,"24":-0.038024607316544015,"25":0.060439951348445,"26":-0.060167520613768156,"27":0.06531895969841611,"28":-0.07845706670136418,"29":-0.10405680567083922,"30":0.005119065312579836,"31":0.01922734854520833,"32":-0.02047844810671164,"33":0.008970655621654831,"34":-0.03808107022474891,"35":-0.010429618745354936,"36":0.04342636134638503,"37":-0.07792474637441948,"38":-0.10327285964681403,"39":-0.040380533478656756,"40":-0.06635176284561341,"41":-0.0034865090305322972,"42":0.014456162678165407,"43":-0.12132359900869442,"44":-0.043641115439461024,"45":0.0625526226560568,"46":0.01744798869550955,"47":0.045596440403046695,"48":-0.026223578058018237,"49":0.006863616545143355,"50":-0.041846173709741134,"51":0.004442219407814782,"52":-0.03539097425391329,"53":-0.07271420646747712,"54":0.009540970691397727,"55":-0.06391375276602368,"56":0.04175122337950202,"57":0.013341392322431016,"58":-0.0282296071220491,"59":-0.006894953316306798,"60":-0.021859805531526784,"61":-0.008913262309185566,"62":-0.05462638589068893,"63":-0.00990717116085008,"64":0.02906753346472722,"65":-0.06581988960065209,"66":-0.03733602598765247,"67":0.01491974292922099,"68":0.04264994883936891,"69":0.04533300267966587,"70":-0.05141105711665734,"71":-0.013595082908736131,"72":-0.0026162792189523116,"73":-0.041171882480084916,"74":0.0864965586046023,"75":-0.022263357889540578,"76":0.06493451469627644,"77":0.08837684137923826,"78":-0.018681620303363664,"79":0.06024315157166718,"80":-0.036114277130490806,"81":-0.018280052683882338,"82":-0.06433750767804394,"83":0.042976846697529256,"84":0.002495635310262485,"85":0.04424546919641066,"86":-0.015121225554576765,"87":-0.06963842742605976,"88":0.041871838873039455,"89":0.0656697412530357,"90":-0.032399337693671065,"91":0.0749221398758816,"92":-0.06819377741542966,"93":-0.01826703356468449,"94":-0.03879281886485895,"95":0.009889164911284762,"96":-0.09788700553374163,"97":0.07154371513301383,"98":-0.07154277940995477,"99":0.021753148366210718,"100":-0.029645422403991414,"101":-0.010453235703013444,"102":0.036740520595581166,"103":-0.033401827843117404,"104":-0.023694982525174355,"105":-0.065336429643113,"106":-0.023886522885948995,"107":-0.03767289962701973,"108":-0.012579089172775771,"109":-0.008325767098794698,"110":0.06376355851159476,"111":0.09098244261810506,"112":0.044366308040131204,"113":0.05239620473515341,"114":0.048259111085324796,"115":-0.0024332082234017516,"116":-0.06654539322763305,"117":-0.10795651220089424,"118":-0.05689202454287484,"119":-0.07074043903541204,"120":-0.029911081190000022,"121":-0.01522345132796184,"122":-0.0068955981598034215,"123":0.01259940091784007,"124":0.022869791987471678,"125":-0.11027148673954536,"126":-0.025534670521928798,"127":0.10425747045198751,"128":0.019999566635386757,"129":-0.005323834486709237,"130":-0.03180979243013697,"131":0.06693836167230559,"132":-0.03317023692259218,"133":0.09013587094255313,"134":-0.03566619834034866,"135":-0.009117029647191096,"136":-0.0026944522113703166,"137":-0.0351935163978776,"138":0.03247151220446585,"139":0.004222280791517236,"140":0.009284254746407707,"141":0.035977345411339325,"142":-0.005178169920927753,"143":-0.03585583929215166,"144":0.0362314710810811,"145":0.07199387047094534,"146":0.09232738338409986,"147":0.017996370966028623,"148":-0.02963263683493521,"149":-0.0010920907729037672,"150":-0.03733118403227292,"151":-0.00769834297694392,"152":0.0727111884495331,"153":-0.03431161831680309,"154":-0.012795003784020844,"155":0.0021291618750743577,"156":-0.0024636201730288696,"157":-0.049373463849046346,"158":-0.005372038539497963,"159":-0.018973426421634906,"160":0.05335600317935204,"161":-0.036304312962054094,"162":-0.01679035138177639,"163":0.04671314560937304,"164":0.03735143106041915,"165":-0.012775140450295997,"166":-0.0130401506708432,"167":0.01181979108669739,"168":-0.047229964347531975,"169":0.026949144093095855,"170":-0.06655811239665392,"171":0.0178796426767102,"172":-0.03385032164771915,"173":0.10834429962892403,"174":0.02856215879375731,"175":-0.0802233832805585,"176":0.021814233671360154,"177":-0.02564052735532905,"178":-0.012270669668503804,"179":-0.042484449786159714,"180":-0.09575503568136567,"181":-0.049012946191139314,"182":-0.009554222172442443,"183":0.04372223476491591,"184":-0.11202264479195376,"185":-0.00023108857552992163,"186":0.034211009450391704,"187":0.013765983010700087,"188":0.002012942288528855,"189":0.013903026841631224,"190":0.0011255648522524953,"191":-0.07036605459644278,"192":0.008857017721659905,"193":0.010991116444809995,"194":-0.010685114264743127,"195":0.05351459228982616,"196":-0.00520137892007639,"197":-0.005193358533067694,"198":-0.07080060871915429,"199":-0.04386747500386364,"200":-0.035099913323065245,"201":-0.012788151557190356,"202":-0.018143634604793662,"203":-0.00907182610852858,"204":0.010955053559001166,"205":0.06934107511577538,"206":0.05101552099443559,"207":0.00273283666812316,"208":0.004338238269317576,"209":-0.05402018326798875,"210":0.029582034001461824,"211":-0.023730394706927872,"212":-0.019361906250098326,"213":-0.029992618604603595,"214":-0.009421299076655065,"215":-0.020435567828279894,"216":-0.035144008937918955,"217":-0.04086736805253792,"218":-0.030032244093926942,"219":-0.01527467144958849,"220":0.041679337446595376,"221":-0.04927791225256335,"222":-0.07069162382871239,"223":0.02962465649567479,"224":-0.0015286825591774027,"225":0.004034822653264255,"226":-0.08473992286033297,"227":0.002314546386057243,"228":0.006769746775940877,"229":-0.020407947265138317,"230":0.00833169063763438,"231":0.06374350329713212,"232":-0.015528274069403724,"233":0.023520220448749678,"234":-0.000024722867342721755,"235":-0.01411433512711857,"236":0.0026948923231940695,"237":0.010022627901399246,"238":-0.09116087793107393,"239":0.07488016684456947,"240":-0.028222858366036073,"241":-0.07736590032568581,"242":-0.009155691295664412,"243":-0.0441044451745426,"244":0.013421099960392495,"245":0.00038005058716036237,"246":-0.001965764638097656,"247":-0.018591138208739116,"248":0.012065808019296756,"249":0.07593621555435656,"250":-0.032456220050361265,"251":-0.004487443904015436,"252":0.007512960047195945,"253":-0.03562989356657866,"254":-0.0064873979111298875,"255":0.012297693604213676,"256":0.04681895510226631,"257":0.012755922740466955,"258":-0.07015525255886543,"259":0.0020803630362126245,"260":-0.015607251067073539,"261":0.03772977151224215,"262":-0.07400755334415736,"263":0.03006023475724796,"264":-0.03405533955496517,"265":-0.00859383232608329,"266":-0.11088884767560803,"267":0.0023365319369697173,"268":0.04828607031111166,"269":-0.013448327331874727,"270":0.010709039288216649,"271":0.01573454657099794,"272":0.008677521463543907,"273":-0.007876420771887464,"274":-0.002357871377990199,"275":0.04683867395769741,"276":0.030752987069759326,"277":-0.009544411679417096,"278":-0.005838265990039305,"279":0.053135303249023505,"280":-0.030009931523859848,"281":-0.06554946968172014,"282":0.04892435485703408,"283":0.0336542494556089,"284":-0.08248607799458679,"285":0.009264226891762033,"286":0.06465238364541838,"287":0.006929923657277131,"288":-0.08964834913994163,"289":-0.02984367181648273,"290":0.029870030953256126,"291":-0.05028436358328848,"292":-0.05973481749918911,"293":-0.036070201961467166,"294":0.06016348990723867,"295":0.016684861810755715,"296":0.021233736861756506,"297":0.012711662006489547,"298":0.002272123222142693,"299":-0.07900815952910757,"300":0.002507699686224711,"301":-0.014751694581903426,"302":-0.03658972011004918,"303":-0.006893874445028196,"304":-0.05789824880224332,"305":0.00821176888993353,"306":0.04357472163453896,"307":0.006122579417879188,"308":-0.06043516865707979,"309":0.0795859621164628,"310":-0.027757775459202397,"311":-0.05684162656176073,"312":-0.03863675851139215,"313":-0.0013798969597839759,"314":0.026964942298671263,"315":0.07045102549075369,"316":0.024643628554298868,"317":0.01531747795298609,"318":-0.014926959063252847,"319":0.015975206869872863,"320":-0.11658172303660634,"321":0.02978154828368018,"322":-0.06691418556743643,"323":0.023354133100670294,"324":-0.059636213929921036,"325":0.019365977351664985,"326":0.035128418659127754,"327":-0.02245753081132996,"328":0.07646405121293869,"329":-0.010127957690783104,"330":-0.010586018932827887,"331":-0.02797185196201585,"332":-0.05874066209717447,"333":0.009076916127876006,"334":0.01972642559417064,"335":0.0395279243414854,"336":-0.00470027045690427,"337":0.10072719317390501,"338":-0.09148562069283987,"339":0.0525339602749801,"340":0.03388951532855487,"341":0.07429723721934123,"342":-0.009191277481989713,"343":0.026272523461521646,"344":0.021883325133534734,"345":-0.02944295374020562,"346":-0.029827136089701476,"347":-0.04898386590733375,"348":0.025897677227135634,"349":0.013693913038960816,"350":0.030705155977827036,"351":0.04350184331844789,"352":0.055753664960498446,"353":0.020687915984953512,"354":0.07193530444457008,"355":-0.013227023311620841,"356":0.0746512098474061,"357":-0.09240279348895328,"358":-0.028445627782445793,"359":0.026603959024869298,"360":0.010010139572723587,"361":0.014240655497521026,"362":0.039551310713604945,"363":0.028309857875959545,"364":0.0019122670041399588,"365":-0.08336226922229552,"366":-0.05260872389594617,"367":0.00004813126317502094,"368":-0.03165696845423208,"369":-0.0521624700025096,"370":-0.03235297051411161,"371":-0.013439706920402405,"372":0.008794830797775544,"373":-0.0003618505953952698,"374":0.08698667274805452,"375":0.048832715229578626,"376":0.011351281600279008,"377":0.04672308221070776,"378":0.07450963146374873,"379":-0.037778357856474105,"380":0.034065593240970186,"381":-0.1154962735113407,"382":-0.020388720198908722,"383":-0.0329568686372848,"384":0.09025694619503727}},{"sx":1,"sy":1,"depth":385,"w":{"0":-0.035881319565400284,"1":0.05614616482760047,"2":-0.025457255140961525,"3":-0.20175457934339844,"4":0.00021418296535119665,"5":-0.1299118112010127,"6":-0.032407111289334246,"7":-0.06932200253204561,"8":-0.18858153716564596,"9":0.05004460638696694,"10":-0.06752089875490173,"11":0.00042510987049804204,"12":0.05477606677562452,"13":-0.07575900495664879,"14":0.03621724921823665,"15":0.01991955442316333,"16":0.005962445056842209,"17":-0.08861976062333575,"18":-0.058449482868017606,"19":0.03415938035884561,"20":-0.012453507096747697,"21":0.020105770185570433,"22":-0.014875929561302714,"23":-0.07632087664617215,"24":-0.04267995908556918,"25":-0.028259285802329014,"26":-0.01888724401000066,"27":-0.07477470990561716,"28":0.09038854336208896,"29":-0.010668668669718008,"30":-0.06285779119307712,"31":-0.04478621920413593,"32":-0.013716857867083126,"33":0.0070926952994309215,"34":-0.01411468673316862,"35":0.04510049455576055,"36":-0.11356768210094402,"37":0.11195355508165146,"38":-0.0942373852647574,"39":0.00019451151453255398,"40":0.008754318064950447,"41":0.05757551310770292,"42":-0.05000262454990017,"43":-0.09563906156626764,"44":0.06126089158862934,"45":-0.045479535741087596,"46":-0.06649985586486942,"47":-0.04173975643969697,"48":0.01907480025546511,"49":-0.03937438411192433,"50":0.001937123007372072,"51":-0.05205700885826609,"52":-0.060457882073747096,"53":-0.006532105900960682,"54":0.119042173304859,"55":0.03791185572018995,"56":-0.0018166043071938987,"57":-0.06726122882350784,"58":-0.011177328503686424,"59":-0.019859246006405575,"60":-0.1082950774355633,"61":0.08409976746444718,"62":-0.017170868102628398,"63":0.023277133616644297,"64":-0.11899587753381183,"65":-0.02826976423501682,"66":-0.042110693842616696,"67":-0.039900401322084895,"68":-0.05007423458756734,"69":-0.01191289104084108,"70":0.10865778031067681,"71":0.056442413243479546,"72":0.07718462304446186,"73":-0.07035016942889624,"74":-0.047400787380708374,"75":-0.025946747032525842,"76":0.09713959939499754,"77":-0.051512373328995505,"78":-0.08485284991674717,"79":0.026044782108077164,"80":-0.10986102902416642,"81":0.05946238547468936,"82":-0.02010129801484359,"83":0.07037161333058417,"84":-0.03644544528123768,"85":-0.016622527172087006,"86":0.04699713317406944,"87":-0.044792278670668505,"88":-0.018466313777217216,"89":0.017365619428069343,"90":-0.048906410680422244,"91":0.04207161613149292,"92":0.0265995387508326,"93":-0.023890192495277397,"94":-0.035733208279882245,"95":-0.07918718174644869,"96":-0.07335307362684841,"97":-0.002082992452112978,"98":-0.09371533144776743,"99":0.05902187272828513,"100":0.12579682040640083,"101":-0.12416765253238474,"102":-0.011820007412310707,"103":-0.05103534760836126,"104":-0.008211496367579011,"105":-0.015690486956850425,"106":-0.002274870499010753,"107":0.024063072341851132,"108":-0.09037567091269036,"109":-0.020177879939728683,"110":-0.04314930522394988,"111":0.06243077260794203,"112":-0.04551468790470172,"113":0.004480434708470149,"114":0.09494660273214323,"115":-0.05806048377816782,"116":-0.01870606814613136,"117":-0.12633441869190953,"118":-0.01773364791153271,"119":-0.1091842054362529,"120":-0.016461755417991757,"121":0.04688475636622062,"122":-0.043915617919272315,"123":-0.14571592195382319,"124":0.04568670516663804,"125":0.09631161150104084,"126":-0.05103543116541031,"127":0.038749987432771554,"128":0.027124242011287353,"129":-0.09850912305894853,"130":0.019063846937530198,"131":-0.10354921759130835,"132":0.048606405261712934,"133":0.060742290812871316,"134":0.06674872184952162,"135":0.07312434266162754,"136":-0.017045185706807697,"137":-0.10899085983776231,"138":-0.026763267537773604,"139":0.052629715458982956,"140":0.08671446323450896,"141":-0.01988761980156199,"142":0.055442626972219494,"143":-0.09693255396354938,"144":-0.16068401054431622,"145":-0.1391620708490138,"146":0.04155804076766452,"147":0.03627832207405696,"148":0.06588190536704168,"149":0.12146708941098594,"150":-0.1452101245333967,"151":-0.08362464873311189,"152":-0.12053709295484653,"153":-0.04560851831709822,"154":0.02822065468010861,"155":0.08002846172504155,"156":0.07390249948962001,"157":0.023902506133183392,"158":-0.04610937540059512,"159":-0.03249550350023549,"160":0.04999414689422918,"161":0.06760953845072762,"162":0.06924897119047593,"163":0.18159337462014527,"164":-0.033298076683739006,"165":-0.15054630016943227,"166":-0.022854556083846813,"167":-0.04381322140698367,"168":0.045773609231127915,"169":0.03583218498579781,"170":0.14063662785709224,"171":-0.11254545346716198,"172":-0.03317116464027835,"173":0.06574542651177713,"174":-0.010335880863732624,"175":0.03148234558409808,"176":0.10915495869471806,"177":0.1336301346114436,"178":-0.012208054606751373,"179":-0.12975640746635542,"180":-0.0849287313944574,"181":0.0472453355006661,"182":-0.030402383442232738,"183":0.18592078227882292,"184":0.210913149773096,"185":-0.1435582435733995,"186":-0.03150952039711829,"187":0.0338209921568072,"188":-0.03244985598508923,"189":0.069785253991232,"190":0.13024278501156675,"191":0.17599083739915422,"192":-0.09748879729374188,"193":-0.1662741831958503,"194":-0.022632542794204912,"195":0.009700910995194446,"196":-0.05335631621326574,"197":0.1333905019818692,"198":0.3033135478977688,"199":-0.09922891798702932,"200":-0.08252890956913893,"201":0.01905680538700008,"202":0.07131421889037272,"203":-0.02315438559836026,"204":0.12446207255940224,"205":0.20509924822634015,"206":-0.13659669447525727,"207":-0.05527533576359866,"208":-0.031278893871842676,"209":0.012916382682694563,"210":0.03447376247895999,"211":0.05360914594715126,"212":0.13628892927145153,"213":-0.2108305733153215,"214":-0.16875199969681048,"215":-0.009911472889717811,"216":-0.03351558062631168,"217":-0.009111951101715011,"218":0.0781280867647391,"219":0.2702118592361574,"220":-0.1515210866672432,"221":-0.08827641151431373,"222":0.05189326481570361,"223":-0.06356526494364888,"224":0.041847370620625005,"225":0.1181134471237837,"226":0.29758438986335656,"227":-0.21823483982523,"228":-0.15499172964983213,"229":-0.06254585358502932,"230":0.026553559144268154,"231":-0.14180015400575943,"232":0.14494620766498045,"233":0.14744960025441456,"234":-0.21418429056524815,"235":-0.02906794979960764,"236":0.09909208147956404,"237":-0.04377870621581101,"238":0.012259281322510926,"239":0.03926617381219976,"240":0.3587242288147482,"241":-0.31001314300078886,"242":-0.2092330603017932,"243":-0.056896986258597126,"244":-0.0035223467257269173,"245":0.06749634495952932,"246":0.07851656467112189,"247":0.24096232331711115,"248":-0.20232247485530727,"249":-0.12211759839364623,"250":0.014512218972652747,"251":-0.054334470708534754,"252":0.08302351117695757,"253":0.09670557074855932,"254":0.3069535294463528,"255":-0.1788385720685072,"256":-0.2606259367190633,"257":0.10677927973970261,"258":-0.05009097992641444,"259":-0.057687097205964474,"260":-0.04368380914798952,"261":0.368705295201085,"262":-0.26363635612260444,"263":-0.17953040382547653,"264":-0.04461036838790913,"265":-0.02467354080578039,"266":0.005777848455296966,"267":0.02230270252062816,"268":0.2455059333877078,"269":-0.21132113481398718,"270":-0.14825542790274088,"271":0.016589412020295787,"272":0.06775640550288115,"273":-0.021058516457598302,"274":0.039711553215448246,"275":0.3636712577606276,"276":-0.19084994338306469,"277":-0.20266104559191112,"278":-0.015565224229517756,"279":-0.1323336811109659,"280":-0.08758977025733367,"281":0.09168531569010116,"282":0.4666246781298712,"283":-0.10536775397379994,"284":-0.26053848556574716,"285":-0.019947008793107405,"286":0.004387813890884034,"287":0.007472374405829449,"288":0.05789157174362219,"289":0.6146904612111441,"290":0.0441320443371549,"291":-0.09686899140016088,"292":0.021190920139558273,"293":-0.04983986079203415,"294":-0.089384831090656,"295":0.006019775765920288,"296":0.654614156033078,"297":-0.09057445927636092,"298":-0.2416460588355392,"299":-0.036267441499758545,"300":-0.04332715554941593,"301":0.02269382914807346,"302":-0.09459327780300522,"303":0.3747146276094651,"304":0.5098597360639782,"305":-0.12207542017385897,"306":0.041034652644877025,"307":-0.03219458571196292,"308":-0.05052657348298379,"309":0.10578009121287779,"310":0.3687178992083854,"311":0.48293703552792555,"312":-0.0675154718507089,"313":0.037400295085861714,"314":0.04783945262098196,"315":-0.010368511953613945,"316":0.00808914774309346,"317":0.2675111024905409,"318":0.37439416792592767,"319":-0.2086447550413944,"320":-0.005975013655142154,"321":0.09678661705417922,"322":0.06916749403918866,"323":-0.05298092816017511,"324":0.11119275268972623,"325":0.5179185497995773,"326":-0.08242266708532316,"327":-0.02277111422726553,"328":-0.09467648947185764,"329":0.10834639798098415,"330":-0.026700228144130575,"331":0.14200684945844932,"332":-0.13964641089476576,"333":-0.17128430096952083,"334":0.006732706986234881,"335":0.0037617781779795945,"336":0.037537602113363,"337":-0.07491519295979714,"338":0.18472480115187193,"339":-0.17390283952974495,"340":-0.16803735282301052,"341":0.00034642028130221525,"342":-0.14001492192497458,"343":-0.0010093850620263827,"344":-0.08813133699277896,"345":-0.020173768659302753,"346":-0.22376123653242028,"347":-0.07736656582034097,"348":-0.028743706302304023,"349":-0.03365526313343296,"350":-0.010023984735330298,"351":-0.012050933185804951,"352":-0.06707866754449711,"353":0.10169698980645535,"354":-0.08653933279482688,"355":-0.024224955049042964,"356":-0.11490017830936992,"357":-0.10787307992525254,"358":-0.08706184313128608,"359":0.00882778535238299,"360":0.12233057294487472,"361":-0.06417756030665815,"362":0.0706092561144141,"363":-0.09215759268164124,"364":0.027109304140061095,"365":0.019712502624953998,"366":-0.06729083940733614,"367":0.024171089170945327,"368":-0.023648254466289837,"369":0.04310227813642623,"370":-0.0010708391645735784,"371":-0.0015489437859230308,"372":0.08030850672315584,"373":-0.08443862945487166,"374":0.06136638204385777,"375":-0.0364192925994897,"376":-0.04308094484366962,"377":0.07009777395042083,"378":0.0691375023757866,"379":0.012191523478010164,"380":-0.15318500382204397,"381":-0.28902010859211563,"382":-0.1016850156473476,"383":-0.0609695981356765,"384":0.01342888023181401}},{"sx":1,"sy":1,"depth":385,"w":{"0":-0.03406344846906441,"1":0.04002219861253445,"2":0.16662593626447408,"3":-0.08737355500487773,"4":0.03667872273182785,"5":0.09808969882350164,"6":0.11156369819022646,"7":0.2500061300094151,"8":-0.010909861570287251,"9":0.12137267272737873,"10":0.12581819603721003,"11":-0.15615010626076975,"12":0.08719438005475974,"13":-0.042279221407846755,"14":0.20868689030655696,"15":-0.13793775312687295,"16":0.08117040806305613,"17":-0.06454072054876508,"18":-0.1089800993191396,"19":0.19159103789143994,"20":-0.17460271289071072,"21":0.14034218083561625,"22":-0.15000699686938526,"23":0.09144580846907709,"24":-0.020874408141837584,"25":-0.06645693653859289,"26":0.12093852001129722,"27":-0.26402698632036653,"28":-0.025754198145615873,"29":0.03150170490620178,"30":-0.018022267870597714,"31":-0.17409567868405776,"32":0.08777430853145533,"33":0.06178304707221217,"34":0.0563940365166102,"35":-0.06765866538466715,"36":-0.05375786747560181,"37":-0.025379259062905824,"38":-0.21999444524166517,"39":0.046031422926380225,"40":0.2676995055063739,"41":0.01966767312512454,"42":-0.17667794442279008,"43":0.12315455497686316,"44":0.025172134348822497,"45":0.08193958229730226,"46":0.05354239466747682,"47":0.013485910750129108,"48":0.009962338005503647,"49":0.022191191118677796,"50":0.07150881773176805,"51":0.0393831515672937,"52":-0.20629507279441103,"53":-0.10948090789129576,"54":-0.05555996374711695,"55":0.390495599817268,"56":-0.045595310182872356,"57":0.01257312066290707,"58":0.16495501561613082,"59":0.023716203040932173,"60":-0.1524499591423519,"61":-0.00613875756673134,"62":0.2744289280293496,"63":0.06868870846794506,"64":-0.09719787488153035,"65":0.18850682134576155,"66":0.08817526521725529,"67":-0.08364177365404069,"68":-0.3050500759688631,"69":0.14460769963227865,"70":0.10460387570098012,"71":-0.02388884634957384,"72":0.09005906239504657,"73":0.017675750237362783,"74":-0.02657253651092655,"75":-0.07520999574743996,"76":0.04415378653866938,"77":-0.008072768677542226,"78":0.03847707063691584,"79":0.04867167651388101,"80":0.017460895546859874,"81":0.20627489302559732,"82":0.09950739265975792,"83":0.05608993820754186,"84":-0.02705629654268904,"85":-0.13507338100713379,"86":0.058164540682419406,"87":0.07942500199333677,"88":-0.06828846561154579,"89":-0.05176705296020249,"90":-0.04803009290885052,"91":-0.08257365472474351,"92":-0.11247103658550583,"93":0.03428555081966119,"94":0.143750697419422,"95":-0.09830680974306491,"96":-0.06409990665445034,"97":0.0721818437582734,"98":-0.01056477486779818,"99":0.04903518555261506,"100":0.07732387163261685,"101":-0.19992229194642158,"102":-0.13658283345581468,"103":-0.09629125316403596,"104":0.22647144750457787,"105":-0.10309868487915723,"106":0.1130945235105616,"107":-0.08226539189208994,"108":0.03332993086268385,"109":-0.2702196752435209,"110":0.05788826889456446,"111":0.060775114298513455,"112":0.048378155407133264,"113":0.13168772182581112,"114":-0.012712870239407115,"115":0.025206412571618906,"116":-0.056648710572091074,"117":-0.008469601578226963,"118":-0.028913300747567833,"119":-0.07659307823257,"120":0.15135550568417586,"121":-0.00806684100320604,"122":-0.01908148273838382,"123":-0.03655718379001525,"124":0.054364020607806436,"125":0.1582533786274961,"126":-0.06443535980992016,"127":0.02478292301281156,"128":0.13349199724476202,"129":-0.027802506137492015,"130":-0.315936668262749,"131":0.05846551568801871,"132":-0.03753067015168356,"133":-0.014572826157785613,"134":0.18043267954199443,"135":0.18378859789730198,"136":-0.05328843669570127,"137":-0.20636765225123244,"138":-0.1186488681642064,"139":-0.05080211730743837,"140":-0.00009094382128291838,"141":0.04141320046997494,"142":-0.040725097518462886,"143":-0.02820523397934205,"144":0.14761695327072444,"145":-0.15099093945950673,"146":-0.013108472000689335,"147":-0.01885900543606951,"148":0.07129702789966741,"149":0.0344880024488747,"150":-0.11038498136852429,"151":-0.05356249467308316,"152":-0.14950147691005794,"153":-0.07763538550370469,"154":-0.08618953410108968,"155":0.02281210397156896,"156":-0.1666276865826817,"157":0.035780931692920646,"158":0.03532743209143177,"159":0.11575310311837067,"160":0.09871141524129534,"161":0.05921342451671526,"162":-0.1422330410773131,"163":0.061694310081321924,"164":0.2639461973379293,"165":-0.07080817200873747,"166":-0.22521539230718687,"167":-0.08815652320049887,"168":0.00536838458574804,"169":-0.0125151173142617,"170":0.12161906896981611,"171":0.15545874237219723,"172":0.0019862684554579554,"173":0.026203200607640476,"174":-0.21688917932676557,"175":0.16514823051842073,"176":0.002605431051725682,"177":0.05820631140737325,"178":0.297150172267694,"179":-0.00914885494717489,"180":0.06947755205858776,"181":0.0015213773365113086,"182":-0.06091692898480653,"183":-0.14544546645935053,"184":0.01392446833977665,"185":0.19718421539769873,"186":0.1105378202028671,"187":-0.13556171901731218,"188":-0.20242007365125855,"189":-0.13123385421826855,"190":0.06331922012600584,"191":-0.021227384986014914,"192":0.057921677912917316,"193":0.004836775127994373,"194":0.06371840546552283,"195":-0.34412943176051175,"196":-0.011190447585075366,"197":0.19020860319899346,"198":0.19046149344447158,"199":0.2000451481629038,"200":0.1437737576660759,"201":-0.30587922244379573,"202":-0.027060132224871677,"203":-0.07347007471882328,"204":-0.09097199102330197,"205":-0.13067345101332747,"206":0.3127934795254033,"207":0.14339290962283405,"208":-0.3902963978831181,"209":-0.1822671360181002,"210":0.11996381814824808,"211":-0.036485327904383795,"212":0.03948558219817309,"213":0.22815970637913643,"214":0.18027154593521777,"215":-0.3319877772807708,"216":0.10681494833662232,"217":0.09891271797106191,"218":-0.06423014001426398,"219":-0.1279283952323622,"220":0.3709938168250251,"221":0.279012536311508,"222":-0.2091304084683552,"223":-0.04870030583642232,"224":0.23690148349173887,"225":-0.23203451888368745,"226":-0.11610340238317456,"227":0.327772533367939,"228":0.11141752371942104,"229":-0.11310207349150325,"230":-0.11982703251321042,"231":0.027910638122781804,"232":-0.08090327625083643,"233":-0.09189581141073587,"234":0.3302279418883635,"235":0.035594405558560284,"236":-0.28537022445745325,"237":-0.21146420183903122,"238":0.09470516190253903,"239":-0.0548396104869188,"240":0.0018980873513871547,"241":0.3703903347977421,"242":-0.2521351490042019,"243":-0.05171653042120616,"244":-0.33870921181339453,"245":0.041500862183490424,"246":-0.2293922066358212,"247":-0.09024074125417778,"248":0.5378274661628408,"249":-0.22387873751314818,"250":-0.4621100993293251,"251":0.02268580411680962,"252":0.14627406282263442,"253":-0.30825313353406897,"254":-0.04574336521790124,"255":0.41159475120533107,"256":0.23904650702064084,"257":-0.28873542249574485,"258":0.04286236911514224,"259":0.05458205415783918,"260":-0.36862645356258106,"261":-0.09673522976235037,"262":0.45344020441883126,"263":0.16692398691174856,"264":0.07101251220948428,"265":0.1383722290343812,"266":0.11120774756458891,"267":-0.19266179312883383,"268":-0.17443874114868574,"269":0.3822149460859805,"270":0.09105424818092658,"271":-0.20238513872979194,"272":0.06022217132911734,"273":0.07448053429241966,"274":-0.2847091632463309,"275":-0.4765619896947268,"276":0.5505114926428075,"277":0.0019254469026800903,"278":0.09977550424867254,"279":0.07520401103331772,"280":-0.16728510780586922,"281":-0.18658859091763502,"282":-0.4882951655764238,"283":0.579436185784619,"284":-0.24775625150978195,"285":0.06773332266102407,"286":-0.28122780510207157,"287":-0.02708049642567715,"288":-0.4458320521023152,"289":-0.31123250591829815,"290":0.30746308439346204,"291":0.022306623279517355,"292":0.09295720259834596,"293":-0.16134616247617353,"294":0.04641712199522971,"295":-0.39521812378955895,"296":-0.1611909462924346,"297":0.5040460133453206,"298":0.549694401941054,"299":-0.004316492507277786,"300":-0.040179223316584196,"301":0.08167203464071394,"302":-0.2728654682974968,"303":-0.6371970369727551,"304":0.5889118496976888,"305":-0.47459710443386394,"306":0.08661547957909048,"307":0.11541068923883005,"308":-0.09701681010194857,"309":-0.2203955128994798,"310":-0.6503903666130265,"311":0.11112029532085357,"312":-0.5871355893274518,"313":0.04738522331232464,"314":0.20018467229857104,"315":0.12070776949514693,"316":-0.12602409677239965,"317":-0.4637014141913836,"318":0.335101047114015,"319":-0.6692393614869342,"320":-0.07527897640975054,"321":-0.2953367052754147,"322":-0.04178195783272917,"323":-0.26971782988151527,"324":-0.2725856758011283,"325":0.10431048153705393,"326":-0.8457864699589664,"327":0.058066207251895,"328":-0.09471167298469636,"329":-0.15225186176198677,"330":-0.34174711050743745,"331":-0.2894980875509735,"332":-0.3814594594996163,"333":-0.13783950812811455,"334":-0.03881625745358412,"335":-0.2217545134783364,"336":0.029146843259932352,"337":-0.2966740488639874,"338":-0.44067214941147237,"339":-0.10559156937071204,"340":-0.2629038623941523,"341":0.0907058737201557,"342":-0.3850940507704903,"343":0.03579781154215621,"344":-0.1507483710049267,"345":-0.5068656611403491,"346":-0.18465520310004685,"347":-0.9169398112872092,"348":-0.22999811098739625,"349":-0.035299627398575596,"350":0.008059379000714637,"351":-0.08779446661856359,"352":-0.3204266430671967,"353":0.1949889258706132,"354":-0.9106476799650856,"355":-0.07982920262230377,"356":-0.052929346394424294,"357":-0.07576658040860265,"358":0.0237972358914709,"359":0.06642551110081574,"360":0.2149949671018913,"361":-0.26865682120702844,"362":-0.18868550365981274,"363":0.0393157081487204,"364":-0.06322355545841854,"365":0.03586680378264471,"366":-0.06344805942599474,"367":0.18653454032495856,"368":0.14413611169214907,"369":-0.003560276163127664,"370":-0.20204025132459583,"371":0.08098923830226265,"372":-0.042905529411755676,"373":-0.11096581814021969,"374":0.22501243579476657,"375":0.4736410223417145,"376":0.08392025759793147,"377":-0.015219127416257548,"378":0.05246102564153597,"379":-0.12675299434824414,"380":-0.05873480528542796,"381":-0.005892453120527464,"382":0.3000904209726148,"383":0.09722820273738558,"384":-0.3457408444941013}},{"sx":1,"sy":1,"depth":385,"w":{"0":0.16503491686834643,"1":-0.18996782151598365,"2":-0.17016551175964473,"3":0.10768472244413707,"4":-0.21760990184425466,"5":0.07104761564589646,"6":0.15633602041650954,"7":0.06423002434593265,"8":-0.004922563115172835,"9":0.09370356187917989,"10":0.009049073725677214,"11":0.0884959842645894,"12":0.27497995039897793,"13":-0.010280727298371935,"14":0.054982200050756214,"15":-0.04838475792865449,"16":-0.02013092971675019,"17":0.08103237683985144,"18":0.004342864089833754,"19":0.13694560896772398,"20":0.12967694626963688,"21":0.1805403964292698,"22":0.04414533338686382,"23":0.19566214149679778,"24":0.149300232250052,"25":-0.179313548308649,"26":0.25666580663758126,"27":0.1364494798978771,"28":0.11428343279109911,"29":0.03341667537633116,"30":0.05069288794775696,"31":0.03041454587478825,"32":-0.11643885785205993,"33":0.07631532568549736,"34":0.12055031707890704,"35":0.05023356335199576,"36":0.013835879892399094,"37":-0.10031713709788069,"38":0.06623187920597856,"39":0.0024543975056167946,"40":-0.020608580568373624,"41":0.004504466388753618,"42":-0.14040479360262573,"43":0.06296791491716398,"44":0.07669894347146611,"45":-0.09056686558852807,"46":-0.1405881162881502,"47":0.02844883067197486,"48":-0.2743079926426988,"49":0.061400351818696054,"50":-0.15097990912372822,"51":0.08351843177748582,"52":0.10136223909908855,"53":0.01284403604000368,"54":-0.10490279288930128,"55":-0.119265896648619,"56":0.049473456618264106,"57":0.06571188213421386,"58":0.017742084495557874,"59":-0.01160114815078677,"60":0.016855563157217555,"61":0.21798141683869723,"62":-0.08973338929172699,"63":0.11897301410888016,"64":-0.0997134195701127,"65":0.019565420082052205,"66":-0.058446212402989174,"67":-0.07093551511247644,"68":0.06385742104688749,"69":-0.0813318390238046,"70":0.14875985269921224,"71":-0.043133743669286566,"72":0.0544396092308984,"73":0.018209068958236974,"74":0.05501344879789461,"75":0.14534601948673728,"76":-0.08617159225177902,"77":0.10131458530920452,"78":-0.05239967009331645,"79":0.06937471446776668,"80":-0.04221110236879168,"81":0.1641059058133643,"82":0.04490092304507725,"83":-0.174261530542011,"84":0.1282181585498316,"85":-0.11059367693341628,"86":0.07983476551896711,"87":0.13292979570553728,"88":0.08951543457057766,"89":0.019980837949082796,"90":-0.27827568063267694,"91":-0.03784775486149846,"92":0.021435231365408175,"93":-0.0575667799582031,"94":-0.010350236755672865,"95":0.09227739460006867,"96":0.058943402769299075,"97":-0.07483881642626179,"98":-0.022956438914224147,"99":-0.039991666888366584,"100":-0.001524203390077655,"101":-0.05860681350896663,"102":0.1849443754256476,"103":0.12835189011004108,"104":0.024519889768888567,"105":0.1471405432131922,"106":-0.013890574777381072,"107":0.036670299191139476,"108":0.08668678677159179,"109":0.08557207870347833,"110":0.11095497935478088,"111":0.2717420702144534,"112":0.21265818880196083,"113":-0.10373399997857478,"114":0.020107843509289337,"115":-0.17748661361347967,"116":-0.11407331092950719,"117":-0.03430332126336189,"118":0.18989903555263954,"119":0.09843313211985105,"120":-0.16739418259301658,"121":0.013534210401285364,"122":-0.0034857598566720555,"123":-0.003031393082032186,"124":0.04511030256771342,"125":0.0668997204101527,"126":0.22425016638671788,"127":-0.12145089787624752,"128":-0.10791296519964731,"129":-0.02826652064546276,"130":0.22600080261762798,"131":0.020239586079197104,"132":-0.03900850484829566,"133":0.23169862773768674,"134":0.07093601169713609,"135":0.09053229771461811,"136":-0.09415871433797644,"137":-0.006282730486705808,"138":0.08257438125244435,"139":-0.09055944417624416,"140":0.04630891077606993,"141":0.057197491940267985,"142":0.03874917846734987,"143":-0.05501636586187507,"144":0.2810843339847164,"145":0.06316036437038203,"146":0.11180125397275162,"147":0.24732973265244868,"148":-0.04421943865524317,"149":0.18137633610751144,"150":-0.08334057566383737,"151":0.14788110367131438,"152":0.174390975891685,"153":0.09120759706561551,"154":0.11318756646636366,"155":-0.012286486888114515,"156":-0.0347465990706164,"157":-0.04655777717588061,"158":-0.013204865100140113,"159":0.06330466477223093,"160":-0.02440529507272116,"161":0.239898185912461,"162":-0.06202011807577661,"163":-0.046059012531257874,"164":0.015752094820719084,"165":0.12688992345555683,"166":0.01995623036380354,"167":-0.01906299847761566,"168":0.16840685812601935,"169":-0.07691028015846416,"170":0.12883073770639905,"171":0.15584783329968258,"172":-0.20285228948077993,"173":-0.06288223043385414,"174":0.048755275407532765,"175":0.06972745042867234,"176":-0.015984038975702834,"177":0.21787618523432367,"178":0.29350969921659026,"179":-0.13462938494206106,"180":-0.029803886919374575,"181":-0.03860565763955633,"182":0.021282630605496122,"183":0.021766039937999068,"184":0.3149561192753777,"185":0.037168761936311204,"186":-0.1030756572411458,"187":-0.10486842833027778,"188":0.18932619433464043,"189":-0.02037057503758453,"190":0.19234774485935674,"191":0.3615932674631516,"192":-0.22119075527832055,"193":-0.05540619398113928,"194":-0.05109100559867669,"195":0.09250413945405243,"196":0.08971309408504652,"197":0.3153865089290077,"198":0.16932440000328983,"199":-0.032780148292331696,"200":-0.10282929029697711,"201":-0.049349218605127275,"202":0.3008115991276383,"203":0.1262109532487052,"204":0.14786361027887757,"205":0.2487772943687625,"206":0.16085900745921813,"207":-0.1475385877569566,"208":-0.16837223863742054,"209":0.16849445737781826,"210":0.07392025247419903,"211":0.09234920784094415,"212":0.10175305606935603,"213":0.14941459895336098,"214":-0.15158156526173203,"215":-0.14926089602840573,"216":-0.0670451693105376,"217":-0.051262184474115846,"218":0.008038668604480643,"219":0.11103063174226652,"220":-0.04825667773626556,"221":-0.13507183419363583,"222":-0.09549501747318459,"223":0.023178913492333444,"224":0.0045009855422457916,"225":0.02133140404264445,"226":0.1812557418799621,"227":-0.016610413282972115,"228":-0.03903477192845866,"229":-0.18169584546075954,"230":0.10797418746532166,"231":0.012359288634753898,"232":0.06667328666522143,"233":0.1476598108362669,"234":-0.11469855791989553,"235":-0.24495959736716963,"236":-0.23345940765023657,"237":-0.1577457848409162,"238":0.10902248760902461,"239":0.13718972630682263,"240":0.1183128576154453,"241":-0.035865991601416534,"242":-0.1597833369139761,"243":-0.1586528512058484,"244":-0.030226853093019743,"245":0.022570353726864358,"246":-0.007564975395770034,"247":-0.022261274535314464,"248":0.10003459606740947,"249":-0.15524112113411886,"250":-0.30984005749044935,"251":-0.1297412468573625,"252":0.0337632929816887,"253":-0.10809539695143781,"254":-0.07659738694410238,"255":0.2566233314391241,"256":-0.1208835968941874,"257":0.03569565288046252,"258":-0.3278540130501426,"259":-0.01595940284126899,"260":0.04930386774447789,"261":-0.3578192537906087,"262":0.24802224858019287,"263":-0.11950024647042672,"264":-0.008858214924512777,"265":0.19955184744417864,"266":0.03278118690173379,"267":-0.07233514385875361,"268":-0.5521261083296122,"269":0.41581273165736027,"270":-0.14065790279998944,"271":-0.12555645018226635,"272":-0.0946069143293484,"273":0.06066645529991798,"274":0.1576749206680286,"275":-0.5157582735507906,"276":0.43952491964101736,"277":-0.0974610804502747,"278":0.08107006288055929,"279":-0.05318392527890486,"280":-0.010958862219476931,"281":0.17891611080236636,"282":-0.5557673753509013,"283":-0.20360704025718726,"284":-0.11279787567816632,"285":-0.27944792670287605,"286":-0.08506492528051698,"287":-0.012852637982384979,"288":-0.23361064974247983,"289":-0.5458104859289041,"290":-0.25957533687395773,"291":0.0559021471361398,"292":0.13551607709492475,"293":-0.12903432485427724,"294":0.08747472143854457,"295":-0.13972801845599173,"296":-0.44161895019502706,"297":-0.3254506390853326,"298":-0.11993235297485694,"299":0.0976293835719926,"300":-0.09245986155505014,"301":-0.12363885493448391,"302":-0.11764957967353273,"303":-0.598614055787243,"304":-0.7128600050546962,"305":0.08565296534531182,"306":-0.06471243817896331,"307":0.07646795719483986,"308":-0.10917145315867481,"309":-0.24203288294343894,"310":-0.46864454524636795,"311":-0.41775770510366794,"312":0.11076417171738272,"313":0.009162723672646566,"314":-0.09507516577777816,"315":-0.044568177106295806,"316":-0.5239957151541664,"317":-0.35327925516440606,"318":-0.3920101244407971,"319":-0.11194291978471763,"320":-0.20095575918426387,"321":-0.030355430832544637,"322":-0.04557448914664127,"323":-0.29114665875098905,"324":-0.22461988248038098,"325":-0.5367053240929456,"326":-0.13271972111365013,"327":0.1481776990183456,"328":0.018160401690738445,"329":0.22648751585726373,"330":-0.29723288551450755,"331":0.16076284248718356,"332":0.11028568781994524,"333":-0.23401890032866152,"334":0.11728286913854734,"335":0.048480128455581285,"336":0.1655400563565721,"337":-0.6036427785311105,"338":0.3525358386881227,"339":0.27792217841722416,"340":-0.4216210994525619,"341":-0.04169383191931173,"342":0.04914942958422531,"343":-0.03839546008784397,"344":-0.41655830281912765,"345":0.3563091093535517,"346":0.3496877269355687,"347":-0.3086276585235393,"348":0.013025762964068016,"349":-0.10141120580200405,"350":-0.046845039446604946,"351":-0.5789397170468741,"352":0.4981121536200248,"353":-0.014464924573812652,"354":-0.2290670364328808,"355":-0.052941754844937426,"356":0.0110597758199068,"357":0.02599211189663495,"358":-0.4151423246065705,"359":0.188468909948784,"360":0.0007120397000404214,"361":-0.2176980930603128,"362":-0.04047057982615726,"363":-0.14377092456532253,"364":0.03683840104888859,"365":-0.43676332096910464,"366":0.4827930693031054,"367":-0.0360708005286278,"368":-0.32590545767992657,"369":-0.1667106014606228,"370":-0.004173242806453572,"371":-0.24368062063980994,"372":-0.2865599820738847,"373":0.19338495748654125,"374":0.015219562809588884,"375":-0.0408648691105057,"376":-0.052800327989808174,"377":0.1669356604547445,"378":0.0472375176323432,"379":-0.3010107726014959,"380":0.07584016186553115,"381":0.465538375430136,"382":-0.09793352368870589,"383":-0.21461723651276365,"384":0.004835146464649253}},{"sx":1,"sy":1,"depth":385,"w":{"0":-0.11976976638588042,"1":0.07970035364950889,"2":0.21350927761977917,"3":0.09142874654667567,"4":-0.04767057069820781,"5":-0.1655610768358679,"6":0.019820495767308714,"7":-0.0984417259268839,"8":0.024887832284905733,"9":0.03251671439566856,"10":0.06913281365817901,"11":0.024170341778249935,"12":-0.19582991778032222,"13":-0.015639903961611835,"14":-0.006421359431983257,"15":0.0045531579313105325,"16":0.16928013933712927,"17":-0.04041364620035747,"18":0.04289653415452519,"19":-0.10184551660778757,"20":0.10597363064175337,"21":0.027689273914236034,"22":0.06772846861721026,"23":0.11046509891440735,"24":0.0557590654228903,"25":-0.11397811636049092,"26":0.06861299712348555,"27":-0.0777885967995191,"28":0.21404186977909231,"29":0.06552964104372691,"30":0.07046947150805709,"31":0.0021270936535159107,"32":-0.02772800981612575,"33":0.0905589956393963,"34":-0.023141089341508353,"35":0.1004326318475768,"36":-0.11039729920464302,"37":0.040725706063495404,"38":-0.1333990791183957,"39":0.005966074654002944,"40":0.0066294372569040295,"41":-0.0726820082620911,"42":0.04371986045879399,"43":0.0244665790793577,"44":0.06294140794694585,"45":-0.06041982081752395,"46":0.047878630946257564,"47":-0.01895861925318407,"48":-0.06667104288719214,"49":0.0896909428898258,"50":0.00577802422577905,"51":0.03244153494014507,"52":0.10963378606318697,"53":0.23290197310931418,"54":-0.17025717559015754,"55":-0.037213580116592065,"56":0.08055828789011377,"57":0.04536545906317387,"58":-0.01295777256393913,"59":-0.09455507761073177,"60":-0.03682572662176504,"61":-0.13379288891663393,"62":0.024749278387557493,"63":0.1989731061999518,"64":0.14969240402412662,"65":-0.1573528808785461,"66":-0.11956260774198117,"67":0.008535946720261105,"68":-0.16294759195752312,"69":-0.1009518202878192,"70":0.10981685349463417,"71":-0.05816958399531299,"72":-0.1974716650285072,"73":-0.004045841520485417,"74":-0.07195874152383691,"75":0.01199423661838388,"76":-0.1936649406040632,"77":0.0771431144962652,"78":0.003732743180457154,"79":0.016684550073718944,"80":-0.06133245629767504,"81":-0.00982476007502931,"82":0.10866510897015458,"83":-0.06898876229408248,"84":0.18744730100075235,"85":-0.03440661798975594,"86":0.007507342697528074,"87":-0.1639091171729474,"88":0.10886516919221371,"89":0.1051717823013789,"90":0.10454650520255565,"91":0.018358531416710854,"92":0.10458686017586019,"93":0.11078344127716498,"94":-0.025411155062770304,"95":0.033908674538991816,"96":-0.06186782526183787,"97":-0.06738959694555259,"98":0.06384154734959899,"99":-0.03336318296189599,"100":-0.0009172567401335048,"101":-0.05505399372625521,"102":0.0377377347978873,"103":-0.11146433303865781,"104":0.03155170115358759,"105":0.028498050151639504,"106":0.0793018209203014,"107":-0.13654693766968512,"108":-0.14834450592676876,"109":0.21963812693672052,"110":-0.1286595960199822,"111":0.0012791983608290904,"112":-0.061592567550768786,"113":-0.019247311278362673,"114":-0.08717473095384572,"115":-0.13813941941797026,"116":0.11867773750153386,"117":-0.07411648587924713,"118":0.11033534391622078,"119":0.09294398748667992,"120":0.04676837463704719,"121":-0.08845669672879672,"122":-0.045820315167431964,"123":-0.025396826558429782,"124":0.09424877585118006,"125":0.10208645521510233,"126":-0.07481748199183766,"127":-0.014878769622456245,"128":-0.08488548056937703,"129":-0.17251182431645373,"130":-0.11495855233902577,"131":-0.03107339241344981,"132":0.008724313064588771,"133":-0.11085709093563201,"134":0.040124423198104775,"135":-0.1290287899547944,"136":-0.031927490752095146,"137":-0.08346289822862894,"138":-0.06088333306924451,"139":-0.039964805302783624,"140":-0.1613666759175294,"141":0.03438110193967412,"142":-0.14132464935161287,"143":0.05838745617327002,"144":-0.14988025387229092,"145":0.06960492425067648,"146":0.13578487809797837,"147":-0.1374383192267568,"148":-0.15252290186500383,"149":-0.1636637590868443,"150":0.005780140483894435,"151":0.02598488585255099,"152":-0.042342694921277395,"153":0.026782706388867785,"154":-0.11948237247111787,"155":-0.113299437630515,"156":-0.1279049521386502,"157":-0.0464464266507312,"158":0.05422839223247844,"159":0.18905510762873728,"160":-0.0062364139540345385,"161":-0.08303546690628341,"162":-0.15738165661583126,"163":-0.029305730887909328,"164":-0.1426205131863298,"165":0.1756387852810051,"166":0.18920813484932777,"167":0.2683166035318176,"168":-0.1540804650465942,"169":-0.06343191141296163,"170":-0.1753430877637767,"171":0.09097491662931106,"172":0.1313718487281679,"173":0.1864688976818547,"174":0.24922822052733193,"175":-0.2093453461947642,"176":0.03128852758095038,"177":-0.2216697095989536,"178":0.18338628870406476,"179":0.20981766863098752,"180":0.12635442094568344,"181":0.23656137868456037,"182":-0.09039806960635313,"183":-0.11322334031637714,"184":-0.000686706530298923,"185":0.03646463023686589,"186":-0.001182397111307761,"187":0.12782534236992954,"188":0.20463609221101822,"189":-0.11231679235223871,"190":-0.09652070875910206,"191":-0.108451619512294,"192":-0.008978591500930406,"193":0.2556430329993474,"194":0.1950984443490379,"195":0.3596735032202545,"196":-0.12690925655397772,"197":-0.09579193073245908,"198":0.031913076346969424,"199":0.176802994574888,"200":0.27833314432827433,"201":0.24397463958470839,"202":0.3095987964198362,"203":-0.1346331800647126,"204":-0.07093050525355098,"205":-0.07398732904756176,"206":0.135123197644775,"207":0.03759492967314761,"208":0.2561720662626188,"209":0.13063641238748894,"210":-0.023404060660878457,"211":-0.0506594909588689,"212":-0.30142086412151203,"213":0.10244058506646049,"214":0.07825061242982599,"215":0.14293707648359255,"216":0.1828545022467606,"217":-0.20549164682252152,"218":0.010764054321618026,"219":-0.3441516504755808,"220":0.057921459507727535,"221":0.28081589478658325,"222":0.2528732040348661,"223":-0.031975215991866646,"224":-0.08224459880128615,"225":-0.0873019166642589,"226":-0.029523338651291448,"227":0.1973754129674769,"228":0.38629649689753276,"229":0.06499759086850945,"230":0.23219857554990145,"231":0.02423634340266334,"232":-0.1490374900719828,"233":-0.14812439883315198,"234":0.1714017681764246,"235":0.15293250491562538,"236":0.09011670085008591,"237":-0.053906608868880906,"238":0.04199312587595573,"239":-0.08636583882605854,"240":-0.20801588065954027,"241":0.3213634910596234,"242":0.16311384387980432,"243":0.15166466819235058,"244":0.08876006748108392,"245":0.024593459248923134,"246":-0.038192341132406125,"247":-0.038191934994175517,"248":0.18922072278210683,"249":0.044348625099602884,"250":0.09060081592062466,"251":0.14429548969894312,"252":0.014818573737177322,"253":0.042428316551883165,"254":-0.16516796770674835,"255":0.17319480662461256,"256":0.08732585170954768,"257":0.1767165016113994,