
//<![CDATA[

// a few things don't have var in front of them - they update already existing variables the game needs
lanesSide = 3;
patchesAhead = 50;
patchesBehind = 10;
trainIterations = 500000;

// the number of other autonomous vehicles controlled by your network
otherAgents = 9; // max of 9

var num_inputs = (lanesSide * 2 + 1) * (patchesAhead + patchesBehind);
var num_actions = 5;
var temporal_window = 0;
var network_size = num_inputs * temporal_window + num_actions * temporal_window + num_inputs;

var layer_defs = [];
    layer_defs.push({
    type: 'input',
    out_sx: 1,
    out_sy: 1,
    out_depth: network_size
});
layer_defs.push({
    type: 'fc',
    num_neurons: 32,
    activation: 'relu'
});
layer_defs.push({
    type: 'fc',
    num_neurons: 32,
    activation: 'tanh'
});
layer_defs.push({
    type: 'regression',
    num_neurons: num_actions
});

var tdtrainer_options = {
    learning_rate: 0.001,
    momentum: 0.9,
    batch_size: 128,
    l2_decay: 0.01
};

var opt = {};
opt.temporal_window = temporal_window;
opt.experience_size = 100000;
opt.start_learn_threshold = 5000;
opt.gamma = 0.98;
opt.learning_steps_total = 10000;
opt.learning_steps_burnin = 1000;
opt.epsilon_min = 0.0;
opt.epsilon_test_time = 0.0;
opt.layer_defs = layer_defs;
opt.tdtrainer_options = tdtrainer_options;

brain = new deepqlearn.Brain(num_inputs, num_actions, opt);

learn = function (state, lastReward) {
brain.backward(lastReward);
var action = brain.forward(state);

draw_net();
draw_stats();

return action;
}

//]]>

/*###########*/
if (brain) {
brain.value_net.fromJSON({"layers":[{"out_depth":420,"out_sx":1,"out_sy":1,"layer_type":"input"},{"out_depth":32,"out_sx":1,"out_sy":1,"layer_type":"fc","num_inputs":420,"l1_decay_mul":0,"l2_decay_mul":1,"filters":[{"sx":1,"sy":1,"depth":420,"w":{"0":-0.05082083905868045,"1":-0.10700804622183091,"2":-0.09908494580649548,"3":-0.3565826838730259,"4":-0.5732710419535808,"5":-0.2595765684739726,"6":0.02433859372047535,"7":-0.0651381811025984,"8":-0.017167660588077043,"9":0.10140463435071455,"10":-0.2879837168017446,"11":-0.14093041570380563,"12":-0.24959613934060998,"13":0.01298891100559649,"14":0.07788382884955132,"15":0.006315538162216036,"16":-0.034265754094074626,"17":0.23080124715513017,"18":0.002916640549077211,"19":-0.09028441067757352,"20":-0.06812937253329596,"21":0.0681759867560665,"22":0.07225471222979596,"23":0.08627043873988195,"24":-0.2656844476101466,"25":0.1018923601286358,"26":-0.0020599248652094283,"27":-0.11878903999170794,"28":0.19289781946048987,"29":-0.13791170180579154,"30":-0.15371792467047668,"31":0.06905500516986188,"32":-0.07081956988033729,"33":-0.017555024264141694,"34":-0.18629227876034207,"35":-0.09754287562678844,"36":0.202808254835182,"37":0.09229177542086504,"38":-0.029670245823930366,"39":0.09769715937844344,"40":0.07102687757406898,"41":-0.16193808648206848,"42":0.04726593425871513,"43":-0.1866963105682095,"44":0.07513871242098301,"45":-0.35759416138770583,"46":-0.3580346117643202,"47":-0.01392131798426459,"48":-0.09773743393419569,"49":-0.09000002279007376,"50":-0.023040769246512192,"51":0.21123957703873894,"52":-0.03745628609371056,"53":-0.09075033843903249,"54":-0.025952445148958704,"55":-0.09165309636751984,"56":0.19187051841091915,"57":-0.10236293530314848,"58":-0.1438269920455328,"59":0.22713560028812504,"60":0.23872269318698072,"61":-0.10286874388843438,"62":-0.013004598366964446,"63":0.21412563503076748,"64":0.014161673767611061,"65":0.15034485907003145,"66":-0.0977518067271522,"67":-0.226074144004143,"68":-0.06781618197987475,"69":-0.01580802889268543,"70":-0.025723968978078778,"71":0.13180653092238911,"72":-0.004448521682892833,"73":-0.13672483407005412,"74":0.1794830897606468,"75":-0.02248607477326815,"76":-0.006033262000317776,"77":0.0937627108711652,"78":0.21604164914583623,"79":0.1907229866246923,"80":0.0005285344140101905,"81":-0.13370844413279798,"82":-0.02827890430145696,"83":-0.08772309335550667,"84":-0.13142977541076017,"85":0.12883063670184378,"86":-0.001978794783637737,"87":-0.12514359886062487,"88":-0.13132448390719298,"89":-0.16887483755832602,"90":-0.005126070075822448,"91":0.15800905411612778,"92":-0.3617829748696904,"93":-0.14214354218558212,"94":0.32378600805362184,"95":-0.08067217589844249,"96":-0.14212311881396616,"97":-0.06450564320225305,"98":0.1132189248581837,"99":0.32554926776251164,"100":0.17341918271727746,"101":0.07534696952089578,"102":-0.12199872947286684,"103":-0.1753950723708309,"104":-0.044369836478582,"105":0.1842744797725693,"106":0.052022537357317725,"107":0.41998343035622454,"108":0.024199823839480047,"109":-0.09202483358793168,"110":-0.0649835443724163,"111":-0.07134621399608668,"112":-0.04167019879048886,"113":0.13873307676189647,"114":-0.037125018765260476,"115":0.0223992609549114,"116":-0.169230295800468,"117":-0.0033276401127545745,"118":-0.04730276950786926,"119":-0.015565328254458456,"120":0.12257247886865047,"121":-0.10236335169624589,"122":0.05773342226498665,"123":0.22242630501412491,"124":0.0017614086138808573,"125":0.03774801729835476,"126":0.030153897227963807,"127":0.02130918760559849,"128":0.32197538091979194,"129":-0.39888636067614525,"130":-0.15754286897133382,"131":-0.05787620336323624,"132":-0.05934479674775605,"133":0.0572088577822457,"134":0.03267796753637658,"135":-0.09797083566312306,"136":0.40778414232749643,"137":0.22980570682760934,"138":-0.05983238442331614,"139":-0.0063501857613246886,"140":-0.15315965041298782,"141":-0.14454969875763238,"142":0.18258773385825752,"143":-0.16450904712517347,"144":-0.2355435560594181,"145":-0.10020571933773718,"146":0.032477136408278436,"147":0.09299634013933342,"148":0.5325251685964056,"149":-0.1031148415576088,"150":-0.10349390533205373,"151":-0.23007928323215385,"152":-0.14460310693286507,"153":-0.12247413899941846,"154":-0.04964834878724915,"155":-0.09290620875532235,"156":0.25191056137527296,"157":-0.011416596404308536,"158":-0.007896077582298199,"159":-0.17940155706132893,"160":-0.10343906713604975,"161":-0.1890316138914194,"162":0.16196694418797122,"163":0.06285303638104701,"164":-0.005064046461882184,"165":0.3451134736118942,"166":-0.157627352106546,"167":-0.09800428542238447,"168":0.16343452281131132,"169":-0.2191281943941207,"170":0.05606881592414612,"171":0.012878921298197578,"172":0.07025869537839993,"173":-0.19428486422721128,"174":-0.11304325454336732,"175":-0.48621545687801143,"176":-0.13083295939881204,"177":-0.0051541889098243344,"178":0.07475428306581271,"179":-0.08837570333134756,"180":-0.0754869063357787,"181":-0.08398924956619938,"182":-0.05699761459066469,"183":0.2994701449659308,"184":0.07494059757802092,"185":0.054615604937769624,"186":0.01923569146222134,"187":0.0858521014933272,"188":-0.0034050211334381146,"189":-0.08050806311275512,"190":-0.10011222348485568,"191":-0.038284844525589216,"192":0.2144534039985469,"193":0.14527414259910498,"194":-0.0033077767735247496,"195":-0.13389127501667786,"196":0.12530412919421305,"197":-0.005965674297650935,"198":-0.10036832339504285,"199":0.02632972448326289,"200":0.05907113780237179,"201":-0.05766741919411198,"202":-0.06270994465241815,"203":-0.36425906515722756,"204":-0.09129300172408858,"205":0.17893863338774246,"206":0.17295542520903304,"207":-0.0926336282260867,"208":-0.03929289164799052,"209":-0.06000400709780184,"210":-0.08791189598682465,"211":0.32364987002944595,"212":-0.029476695953335838,"213":0.19204071949034177,"214":0.25806457756299855,"215":-0.17769758389118373,"216":-0.12368499350308379,"217":0.10588657126949128,"218":-0.03640944496804238,"219":0.47667386756199315,"220":-0.026126467539985973,"221":-0.003909918057257024,"222":-0.1981620440456732,"223":-0.006313429194371153,"224":-0.14719978472738918,"225":0.3686564388366014,"226":0.21740811679237518,"227":0.34108599779814364,"228":-0.4578775566485668,"229":-0.11325559471963222,"230":-0.08991397409215675,"231":0.20133131078268168,"232":-0.2743989037217399,"233":-0.031056255582552116,"234":0.20012039604676501,"235":0.08106726359778935,"236":-0.06788627933638365,"237":-0.021678175638535413,"238":-0.16678704353087442,"239":-0.047158833295056636,"240":-0.21489528343942343,"241":-0.038449249968925486,"242":-0.015610485574030135,"243":-0.06099489735304961,"244":-0.023945842314735368,"245":-0.25316489698370453,"246":0.21995308815474632,"247":0.2787801021325145,"248":0.042217613317442844,"249":-0.1071860648998723,"250":-0.04366847992163339,"251":-0.055715502129689336,"252":-0.18029938838932347,"253":0.30495339304027436,"254":0.4282714713037218,"255":0.3723903481899344,"256":0.3462710307110191,"257":0.04291294856232914,"258":-0.09666941668865825,"259":0.04452315790264076,"260":0.09255447340781933,"261":-0.029437736818063616,"262":0.18645238107532935,"263":-0.07589007304227019,"264":-0.019871347480070765,"265":-0.10248987880073318,"266":-0.2127546290540501,"267":-0.22835259259917118,"268":-0.07102812416083792,"269":0.49785327494062176,"270":0.14178293091997377,"271":-0.02192362734125325,"272":-0.14552938648331265,"273":0.17681508719610436,"274":-0.19068927676626227,"275":0.3395963132626166,"276":0.1726686825069861,"277":-0.1353448441484196,"278":0.019715546535584952,"279":-0.01679842952390156,"280":-0.21531463639753234,"281":0.11772812006073786,"282":0.018494238528142932,"283":0.35907063344378837,"284":0.13865257955486218,"285":-0.1497401345537987,"286":-0.1138473255145954,"287":-0.15301756187000104,"288":0.3109690233267154,"289":0.09565632474232806,"290":0.4105146188046594,"291":0.21159958047175,"292":-0.2938510724293851,"293":-0.07286196717621259,"294":-0.132412324163038,"295":0.21969668761993202,"296":-0.11533955944567487,"297":0.29062404702170325,"298":-0.14114525683439177,"299":-0.19517517879542376,"300":-0.05055818932790869,"301":-0.27927813034082644,"302":-0.22963361059823367,"303":0.4757053729933888,"304":0.40472414690483827,"305":-0.07685392001862629,"306":-0.3075197857855576,"307":-0.09485172794196725,"308":0.06249757666738379,"309":-0.25880390206456555,"310":0.7319349767414477,"311":-0.2022135582607837,"312":0.019027868746641394,"313":-0.07948758273692108,"314":-0.09104902112467503,"315":0.07869741882112537,"316":0.1161290892211364,"317":0.19515948076207218,"318":-0.039544812009935905,"319":0.023415225036138937,"320":0.08034286699990988,"321":-0.11682089161039394,"322":-0.22015256824209817,"323":0.13748060617768934,"324":0.5774296087222653,"325":0.025250175809818233,"326":0.11605290789704423,"327":0.025829877152365052,"328":-0.0825864025237536,"329":0.24699458267472865,"330":0.22017113534083996,"331":0.08216721747263427,"332":-0.25674527204969166,"333":0.04546924536818366,"334":-0.0857101430004802,"335":-0.01778745639147881,"336":-0.20139575829586556,"337":-0.030922792300354725,"338":-0.139233900809533,"339":-0.20963952771322603,"340":0.42355462061126364,"341":-0.10494254678098436,"342":-0.0611258930591743,"343":-0.04083938345305848,"344":0.21731942850837496,"345":0.37226450836946856,"346":-0.8848802455844123,"347":-0.36606267242696533,"348":-0.30469609295198263,"349":-0.0869754053114112,"350":0.23791682524217547,"351":-0.17957899523166346,"352":0.12712317166179143,"353":0.2052872898239888,"354":0.2455640127745677,"355":-0.30424219836209,"356":-0.0923277449600196,"357":-0.28330831818048896,"358":0.29375863955710946,"359":-0.025811101598252974,"360":0.23920371742778454,"361":0.01778661711739787,"362":-0.19659968132225644,"363":-0.04088102086321095,"364":-0.03708595590593173,"365":0.11748906532622176,"366":-0.22291227203048006,"367":0.20635292613917772,"368":-0.17045147746866982,"369":-0.1714413651991126,"370":-0.051570789361797,"371":-0.20427872521626417,"372":0.18313598527366093,"373":-0.30528977583523365,"374":0.423300747475197,"375":0.09004338046584637,"376":-0.09758226574448374,"377":-0.035161065398461123,"378":-0.13092660920075394,"379":-0.2701844548016777,"380":0.303135457911457,"381":-0.26039462132875557,"382":-0.1359622020721899,"383":-0.03874804021012859,"384":-0.053020326533840784,"385":-0.1435262240609325,"386":0.3157492829489131,"387":0.040252974010089794,"388":0.14972708869688997,"389":-0.09322458067011383,"390":-0.146180034688075,"391":0.017675943095269386,"392":0.12739066609746663,"393":0.3010754498945318,"394":-0.007435529710031251,"395":-0.06416475008253135,"396":-0.24694351318183694,"397":-0.07355047290708021,"398":-0.029246988592028775,"399":-0.012685364874349825,"400":-0.06262955748895252,"401":-0.030616825246511346,"402":-0.4198704607810335,"403":-0.08318225059077172,"404":-0.06985612254473016,"405":-0.05481458584145356,"406":0.010078161119044958,"407":-0.0009317741707087689,"408":-0.06744734681797475,"409":-0.35541312173520934,"410":0.0051876290301887205,"411":-0.0434533767428608,"412":-0.0138538817568621,"413":-0.18215210430888681,"414":0.21572129582372646,"415":0.21903610521375094,"416":0.044660114716016504,"417":-0.11089741803881163,"418":0.03154514934989893,"419":0.0029596453513626576}},{"sx":1,"sy":1,"depth":420,"w":{"0":-0.06962377615587566,"1":0.04806215031307906,"2":-0.06494800954065384,"3":-0.004678449237805039,"4":-0.013473534861025198,"5":0.007762530454642397,"6":-0.07781417989490377,"7":0.00336940639081177,"8":-0.12483601611978931,"9":-0.06324093668592194,"10":-0.061100949694921136,"11":-0.045661479827489956,"12":0.01600222005826312,"13":0.013651233144146228,"14":-0.050829056116477596,"15":0.035734720957447334,"16":0.03155818312676526,"17":-0.08403636912979037,"18":-0.07632382582484312,"19":-0.06799967365003044,"20":-0.07244787996013904,"21":-0.059593870652920225,"22":-0.007188731390928183,"23":-0.0031727311088717743,"24":-0.021918742373441005,"25":0.026427943693041897,"26":-0.03137747817195827,"27":0.04344644507942331,"28":0.10339564843972136,"29":-0.04515181755454259,"30":-0.021247251076521454,"31":0.06138638201122128,"32":-0.009350758326115864,"33":0.013653664047709322,"34":-0.04381670901979657,"35":-0.007355602276682342,"36":-0.022249929408410557,"37":-0.011291855383125039,"38":-0.08093036113757261,"39":0.0341582681371735,"40":0.023856538179990984,"41":-0.10124562291140173,"42":0.045193241571959294,"43":-0.00639601055627153,"44":-0.04026464318047194,"45":-0.002824401286655721,"46":-0.05367525813573899,"47":-0.07298987025247902,"48":0.012600710323981443,"49":-0.07731951412917705,"50":-0.019568451978274542,"51":-0.042186746718751736,"52":-0.02784055943798698,"53":-0.03295484297181677,"54":-0.06125868778044815,"55":-0.014859367285892705,"56":0.020937984363468002,"57":0.004290228952633359,"58":-0.028956289063813218,"59":0.046353514357010656,"60":0.008448983471309953,"61":-0.04059486663397541,"62":-0.048672562762073796,"63":-0.033728105161332615,"64":0.09496106722875029,"65":0.008488640975949147,"66":-0.060673309298103474,"67":-0.06574026804998351,"68":-0.0030930996723486795,"69":-0.07149043372621351,"70":0.11279272395342008,"71":-0.0839100206507796,"72":0.03529217765333579,"73":-0.009885111375297975,"74":-0.00699440038236065,"75":0.004988359505587355,"76":0.013390284266000313,"77":-0.030508689504975265,"78":-0.029669975923753776,"79":-0.06746777518491197,"80":-0.03550452386337309,"81":0.03986756075988573,"82":-0.03472003872231363,"83":-0.020314735243668988,"84":-0.045127154532748286,"85":0.08787235644779294,"86":-0.03248326356610804,"87":0.041502850860794936,"88":0.011852683051196399,"89":0.05180592302687277,"90":-0.10733556895822365,"91":-0.05908929775053749,"92":-0.02183914058632422,"93":-0.07631394196137935,"94":-0.045824786705215934,"95":-0.11411871964788219,"96":0.009695715150888407,"97":0.05608423265375376,"98":-0.028178867760707736,"99":-0.06492556983606368,"100":0.07045636912608647,"101":-0.07825809557978547,"102":-0.028668380140573824,"103":-0.048910325135893266,"104":-0.08377355561126158,"105":-0.011394250270057646,"106":0.06222328098264524,"107":-0.035165384085948326,"108":0.00645614069181506,"109":0.0352276716540638,"110":-0.05243569514655664,"111":-0.012671219478883446,"112":0.10364846601163152,"113":0.053476799488614626,"114":0.020735108396522744,"115":-0.015705223590622014,"116":-0.016829044342853684,"117":0.02625630630938692,"118":-0.010652534143368855,"119":0.08189667124010351,"120":-0.09034744132211942,"121":-0.08246566273334521,"122":-0.007937991983960882,"123":-0.09950925448058912,"124":0.019354816898318288,"125":-0.007022317586719615,"126":-0.037729671571312705,"127":0.032982260787802094,"128":-0.0009006035566605426,"129":-0.004138454446084402,"130":-0.09828240343479905,"131":0.02039253320198152,"132":-0.049255433641157156,"133":0.02488024313596901,"134":-0.03920107436263531,"135":0.049847216352159,"136":0.0005834709952508099,"137":0.06757862274198524,"138":-0.029885266557937665,"139":0.020899328266338862,"140":-0.05516947636235156,"141":0.005717192772531533,"142":-0.14547305875701175,"143":-0.01932106289090529,"144":-0.054271504410200046,"145":-0.09734623955056841,"146":0.02862182638577816,"147":0.1116996408727891,"148":0.08709973292509855,"149":0.04581638772451982,"150":-0.07826663340993072,"151":-0.06450316655715524,"152":0.005809188750886341,"153":-0.0317407637907127,"154":-0.027604496709121837,"155":-0.10642954061874971,"156":-0.08602270049076999,"157":0.03599985297359035,"158":-0.06658982696343438,"159":-0.03689153332934532,"160":-0.020102904248203355,"161":-0.163499912043862,"162":0.00017430297458106435,"163":0.08683817766672096,"164":-0.01340212168295906,"165":-0.0010842196043600093,"166":0.10306412289215602,"167":-0.0640979214686804,"168":0.10336895718156988,"169":-0.03078541873169557,"170":-0.0468950422456317,"171":-0.0016097213689205672,"172":-0.009546968528738499,"173":-0.09156513321746901,"174":0.023383265293638454,"175":0.002477482274298345,"176":-0.017362923102276186,"177":-0.16664636627240723,"178":-0.06110983886995576,"179":-0.07087972910089198,"180":-0.01941938186585202,"181":-0.02746077833771304,"182":-0.016300361001302343,"183":0.012250046667439743,"184":-0.12759442217106984,"185":-0.024461329517058567,"186":0.028595424615278548,"187":0.00044571695856122933,"188":-0.0025681639568046156,"189":-0.04245284876638002,"190":0.09895151396430084,"191":0.10491204197368154,"192":0.06692992464613479,"193":0.0008067321699805172,"194":0.062281623777553585,"195":-0.03477896349409062,"196":0.011963791037464944,"197":-0.19362769749004693,"198":-0.0978485150936509,"199":-0.10573172754341327,"200":-0.020172944260337475,"201":-0.0046525947748353004,"202":0.009310723732760678,"203":-0.015261734561355062,"204":-0.005558087190283186,"205":-0.13926711666491273,"206":-0.052847474706838315,"207":-0.08887576449649877,"208":-0.014479681208314983,"209":0.0025610390858716073,"210":0.058791719380784695,"211":0.006286601453429233,"212":-0.018540204769767588,"213":-0.04149291845511579,"214":-0.06360191281733783,"215":-0.027219322944696245,"216":0.03845111162512705,"217":0.012426871997092045,"218":0.03042502284512024,"219":0.005318895003437434,"220":0.03334665891450654,"221":0.037471911629045965,"222":0.022712378081099553,"223":0.007395047367134688,"224":-0.1129916920175501,"225":-0.1898511532159965,"226":-0.09761752522234698,"227":-0.052125348763514726,"228":-0.03116156411161041,"229":0.019203715040991186,"230":-0.02107742151864924,"231":-0.030385304302518942,"232":0.002012994319802375,"233":-0.00654960126644875,"234":-0.0510971943540847,"235":-0.025862220548722198,"236":-0.024165850360876515,"237":-0.003397316001081157,"238":-0.004008765012551336,"239":-0.008899567733243517,"240":-0.03027709027860348,"241":-0.09279109821343236,"242":-0.022790736428577082,"243":-0.03726193127325293,"244":0.09488009173078514,"245":-0.02728421744257878,"246":-0.06765489109016082,"247":-0.069554444667685,"248":-0.024046159230364267,"249":-0.0648116997353345,"250":0.0669229132391815,"251":-0.07002049673254175,"252":-0.010051327965408008,"253":-0.03174045544592265,"254":-0.08572181304462548,"255":0.0064482555209487286,"256":-0.012588872950770555,"257":-0.039108698948948924,"258":0.0187615604375799,"259":-0.009006709418603778,"260":-0.08360160442307549,"261":-0.0172775206447033,"262":-0.0659949566851051,"263":-0.03541450770167364,"264":-0.04295724323924424,"265":-0.002004739346660917,"266":0.007833104713322025,"267":0.03212657330128623,"268":0.05480224139512155,"269":0.004488653434639992,"270":-0.04001884355859552,"271":0.00794203110730586,"272":0.05496408633405933,"273":-0.12249239537801411,"274":-0.08155079452401895,"275":-0.10150866989040876,"276":-0.06701104171422213,"277":0.009079109451450771,"278":-0.04969982165109738,"279":-0.10527480504385532,"280":0.10876012608165755,"281":0.023979665509230214,"282":-0.10182943299082638,"283":-0.00984360771234868,"284":-0.06452085104785622,"285":0.044478283299106615,"286":-0.02098861159956941,"287":-0.027547907614694136,"288":-0.06758161653268563,"289":-0.005367536011139746,"290":0.03269181272582428,"291":-0.03661607084830894,"292":-0.038292070899059005,"293":0.03254283460132131,"294":-0.03085266877670632,"295":0.040300968421408484,"296":0.11997409286858536,"297":-0.05954322969063751,"298":0.07232434663890105,"299":-0.00890675292058453,"300":0.007904216462217105,"301":-0.052728922001411035,"302":0.027712095807496586,"303":-0.16268143434824417,"304":0.05680647795662457,"305":-0.0017975801357685303,"306":-0.004854565171267022,"307":0.023359363513755144,"308":0.013088806043010676,"309":0.02501212867743458,"310":-0.015000082623179123,"311":0.06160183778392375,"312":-0.07735490047757591,"313":-0.016033581572637762,"314":-0.057054883115548266,"315":0.004799665303909635,"316":-0.14245179084940826,"317":0.017008007743830787,"318":0.016325586296801108,"319":-0.06515459526816378,"320":0.0317087978401683,"321":-0.03767255263640934,"322":-0.058805006303386184,"323":0.06489598658113678,"324":0.16854646745518923,"325":0.0753814266501736,"326":0.10664690975538846,"327":0.04327351810741652,"328":-0.03606068762114426,"329":0.15857459361601844,"330":0.007446206673883413,"331":-0.03536310156986249,"332":0.18996054102191212,"333":0.049850460556706784,"334":-0.020050782064431075,"335":0.03993175045185413,"336":-0.02195230794998065,"337":-0.17832579609714613,"338":0.17990245645432468,"339":-0.05101717756540199,"340":0.06723902030936227,"341":-0.023745594532361896,"342":0.009923794252854728,"343":0.018763509629885225,"344":0.1287142951988081,"345":-0.06840746013892669,"346":0.10864081149949244,"347":-0.15341700223823673,"348":0.01647334669898804,"349":0.042876832925427696,"350":-0.03448234136906925,"351":0.003690469199539017,"352":0.17901885631501452,"353":-2.974763876027242,"354":0.17832331079833574,"355":-0.015618912811722908,"356":-0.05094312959866233,"357":0.0698014577630763,"358":-0.04159624722690568,"359":-0.019914982167054538,"360":-2.938338921955478,"361":-0.01912013896154621,"362":-0.025730267319428898,"363":-0.011483608316501448,"364":-0.041486611295969394,"365":-0.09200441167190665,"366":0.09238157234213167,"367":-3.029453994323319,"368":0.0008803894618539678,"369":-0.0038258246743967527,"370":0.03935088112864027,"371":0.01019828070253412,"372":0.05502373246488736,"373":0.04557935723049088,"374":-3.0446868291309266,"375":0.0018292265654948903,"376":-0.00013759455471207247,"377":0.006347762181414576,"378":0.005794840780081591,"379":-0.01934727489859597,"380":0.05904785537810828,"381":0.026720132413218925,"382":-0.013140002021013385,"383":-0.07611233174531037,"384":-0.03744766715180015,"385":-0.002213481060230916,"386":0.016285401434445602,"387":-0.08862186294320369,"388":-0.044450922279433536,"389":0.008326763141336088,"390":-0.009727816892547182,"391":0.027559939357599265,"392":0.01511747142540194,"393":-0.037970198035097665,"394":0.010874811332022201,"395":0.006205378339598908,"396":-0.01294397060287426,"397":0.033704623279452214,"398":-0.040792675636268795,"399":-0.10270634479413461,"400":0.03317470825102279,"401":0.08186700036611638,"402":-0.10888673642880917,"403":-0.019374993066573983,"404":-0.011895724185396628,"405":-0.03433717703685816,"406":0.043206430630684814,"407":-0.07158785586609806,"408":-0.06263921649827829,"409":0.0036938025026363557,"410":-0.10908680961111103,"411":0.005611777685862272,"412":0.018271454769737742,"413":-0.0422190819795113,"414":0.02070712749182517,"415":-0.03228767625290725,"416":0.014955947426365482,"417":0.03558068354454119,"418":-0.030150187985625826,"419":-0.003513038113964951}},{"sx":1,"sy":1,"depth":420,"w":{"0":0.7272125003550055,"1":-0.15634923513252008,"2":0.2837594678551504,"3":0.04360253182251499,"4":-0.40129442935439086,"5":0.1608591429694143,"6":0.49907256237369735,"7":0.5740043038120208,"8":0.3713120286939082,"9":0.14570293147882576,"10":-0.17738223949084225,"11":0.13572703931371122,"12":-0.6894772503212107,"13":-0.14526168292563438,"14":0.19056182122126405,"15":0.016297762413728017,"16":0.23024751818857148,"17":0.25073378387750206,"18":-0.2531385646194354,"19":0.02194916440067473,"20":-0.38852595951990654,"21":0.2958609859547296,"22":0.15531157687408542,"23":-0.2028128218293522,"24":-0.4211063131285634,"25":-0.1239255274003477,"26":-0.05505895854386784,"27":-0.10880554200103644,"28":0.08751767174511926,"29":0.3502050425994861,"30":-0.08808373833932623,"31":0.05492179161260382,"32":0.06017791646541142,"33":0.08754421186187765,"34":0.040614179860357036,"35":-0.09232377656936717,"36":0.09030671692233228,"37":-0.19291906800278644,"38":-1.0739211637733093,"39":-0.6052362687637892,"40":0.07111842614722354,"41":-0.07216293547201548,"42":0.25782275330660165,"43":-0.4601424169982577,"44":0.31038264501466367,"45":0.13018716566868113,"46":0.035577011817300046,"47":-0.42107154892659626,"48":-0.5114287515774509,"49":0.1429519345599088,"50":0.18014828140386482,"51":0.18821170704722573,"52":0.12539154887341836,"53":0.062409765153756736,"54":-0.17898656467362006,"55":-0.09409978006159445,"56":0.010629554205979668,"57":0.09969523883642349,"58":-0.26651228577243596,"59":-0.5244795180175559,"60":0.006085589576051144,"61":0.30654233281789367,"62":0.006727705649489326,"63":-0.3927817944217068,"64":-0.6519549038436108,"65":-0.23114683435217995,"66":-0.018708902727228267,"67":0.10103409270987342,"68":-0.2614867848174333,"69":0.15536707769670158,"70":-0.1356306247427575,"71":0.09384927218575735,"72":-0.42295458023594895,"73":-0.1972167000442446,"74":-0.247424052834548,"75":0.07096162575194234,"76":-0.2610836641089526,"77":-0.4018935994140941,"78":0.3638493993397323,"79":0.44274126642414835,"80":-0.2036024682736484,"81":0.13698294691221657,"82":0.14022217009801577,"83":0.01591981672810578,"84":0.3824617207830754,"85":0.2528627791660839,"86":-0.009523841802851015,"87":-0.40102120655290174,"88":-0.14388600986450403,"89":-0.3620682976740758,"90":0.06904411580320365,"91":0.08730165451438227,"92":0.20829908095077485,"93":0.3703640763246197,"94":0.01323197983012923,"95":-0.019670800163349295,"96":0.5582882723333523,"97":0.16483715374812502,"98":-0.2652915192792243,"99":0.025944815107324923,"100":-0.2638706942687772,"101":0.042651264307468094,"102":0.3956005391469713,"103":0.6660671890197446,"104":-0.09610220336433688,"105":0.44251838870064397,"106":-0.16430466689415887,"107":-0.27594493749207427,"108":-0.2759457541922832,"109":0.440285876803535,"110":0.004565208615425823,"111":0.16782902787379145,"112":-0.7437627231205342,"113":-0.004676636696456215,"114":0.83012477060571,"115":-0.02667472831101592,"116":-0.3910436003907148,"117":0.2264823993720752,"118":-0.164778662655923,"119":-0.3271585283066985,"120":0.4533728978869737,"121":-0.17286789903210972,"122":0.024604862795751872,"123":-0.30570720953003366,"124":0.6253044107464152,"125":0.6021911585147712,"126":0.0011932487851937252,"127":-0.12512976878570758,"128":-0.03981414239109492,"129":0.025023675851018175,"130":-0.20916234409420312,"131":-0.06812937377594526,"132":-0.21292498168923696,"133":-0.5105307690689603,"134":0.2104289629335635,"135":-0.011366885367576492,"136":0.12764587071557312,"137":-0.37397120072766826,"138":0.1468280163949457,"139":-0.5524645628678291,"140":0.019430710342733186,"141":0.030612111458443267,"142":0.014954699653527226,"143":-0.1369588092019807,"144":0.25947325275499294,"145":0.13199032647996722,"146":0.4938287095351202,"147":0.19674686806036434,"148":-0.33210300170956314,"149":-0.21339522744785702,"150":0.018323279000637425,"151":-0.18391706761198234,"152":0.048649890888830795,"153":-0.23373421344307876,"154":-0.3246640518249272,"155":0.0815221079407449,"156":0.5330815125218138,"157":-0.63570558024462,"158":-0.4869188654041841,"159":0.0498189066300801,"160":0.7255174570160089,"161":-0.08567419836641692,"162":-0.1251731204497442,"163":-0.34803654860394967,"164":-0.29123794038480816,"165":-0.06104710942325168,"166":0.5577639164673444,"167":0.5842656400027718,"168":0.023050064294183197,"169":-0.5123135656926672,"170":-0.7518784193515392,"171":0.5180959282850999,"172":0.07411392618157481,"173":-0.08630282383453983,"174":0.0509029410893825,"175":0.07450680892169265,"176":0.2379893852658027,"177":0.6808938171606942,"178":-0.2034192953159114,"179":0.29049825474768826,"180":-0.04346229285696587,"181":0.1044586085747947,"182":-0.2699628089375387,"183":-0.5051446030012784,"184":0.27876345708055583,"185":0.1372041358183589,"186":0.15456155398017446,"187":0.4173938889656028,"188":-0.11304636235513744,"189":-0.09045943093448316,"190":0.4378674403630482,"191":0.5409632145205947,"192":-0.016241678192614812,"193":-0.13671244450261213,"194":0.10035661407600797,"195":-0.04516529483062317,"196":-0.8933594243084765,"197":0.05708309855297443,"198":0.1826370283461449,"199":-0.2082988446175912,"200":0.04882016332766461,"201":-0.44203853094198503,"202":0.013305132909402452,"203":-0.24500019405967652,"204":-0.7522924946421438,"205":-0.5784621286659093,"206":0.32475090166097054,"207":0.07692839122115015,"208":0.017618469811189762,"209":0.04280700329650669,"210":0.31635813109059235,"211":0.2483136063295489,"212":-0.1191040925683157,"213":-0.33720757317166605,"214":0.4266869516039404,"215":-0.20159595595308658,"216":-0.19455448779795395,"217":0.08025572702065045,"218":-0.7297777441333028,"219":-0.19827985389094863,"220":0.17258325240045394,"221":0.38809815760562516,"222":-0.352085307686734,"223":0.2506708654095257,"224":0.1978239985329929,"225":0.46310026898693285,"226":-0.05940498129607597,"227":0.10387331992177531,"228":0.23433321927397563,"229":0.422593689881417,"230":0.12938683456200517,"231":-0.18134810756394584,"232":-0.199536954647079,"233":0.2574768297066774,"234":-0.07204693084001276,"235":0.5375162179103137,"236":-0.014710358413890115,"237":-0.47383839790509036,"238":-0.11551891680467621,"239":-0.05760135180662103,"240":-0.017666343138012876,"241":0.016282586665319728,"242":0.33117433081832287,"243":-0.3972942882886498,"244":0.4585226029113993,"245":-0.2531536051016746,"246":-0.12849336522644095,"247":0.24326010657875813,"248":-0.15047456400597986,"249":0.28651715230723773,"250":0.14466293244126124,"251":0.24573077961898887,"252":-0.023779054265563378,"253":-0.2798627348102932,"254":0.056917964594905626,"255":-0.2010571112504391,"256":0.1652115344044477,"257":-0.16683542587509442,"258":-0.5374549963070383,"259":0.07063778087785796,"260":0.5494358822150169,"261":-0.05486741335107881,"262":0.13625469078079241,"263":0.20912837707485274,"264":0.5554552248444883,"265":0.30354685632074035,"266":0.01709938802883444,"267":0.483414358003893,"268":-0.35929884100340237,"269":-0.17918297046638665,"270":0.07845179513554545,"271":0.27283197643303353,"272":-0.04937050712895701,"273":-0.768789990350406,"274":-0.040017694968407874,"275":0.33610064636773024,"276":-0.009308815557065808,"277":0.08597523589327298,"278":-0.14383563365266877,"279":-0.06162468671810046,"280":0.6977659808657725,"281":-0.0789937506933515,"282":0.2911606548047352,"283":0.3061736055568056,"284":0.12551495580509897,"285":-0.617321083683738,"286":-0.23857072762577167,"287":0.07246859840321386,"288":0.28116282372454515,"289":-0.24306920898400605,"290":-0.09306407870652005,"291":0.6549120687231478,"292":-0.4362334063237036,"293":0.19614063092553286,"294":-0.2507936204427333,"295":-0.21239147714258014,"296":-0.19436933889733293,"297":0.4796822608164056,"298":0.7212245508204314,"299":-0.297746735036044,"300":0.039522897179944824,"301":-0.07250791057926882,"302":0.1054793582805055,"303":0.045132371136198876,"304":0.4620334582019698,"305":-0.24715526346569597,"306":0.37638525794288424,"307":-0.5481290168524606,"308":-0.4607399329492095,"309":0.1912764267016112,"310":-0.2740588764633839,"311":-0.6477661226014432,"312":0.49394014354576476,"313":0.1695362969009915,"314":-0.1531393562542841,"315":-0.2639930139413837,"316":-0.0801865485489574,"317":-0.5663945154821871,"318":0.2132136524137217,"319":-0.4306193047509132,"320":-0.41442337325459727,"321":-0.20513581879476436,"322":0.06258299183889074,"323":0.33667217293921475,"324":-0.26397646533454483,"325":0.048117549333665216,"326":-0.4519610568409529,"327":-0.3609760152874763,"328":-0.3180773067287737,"329":0.26136595427776715,"330":0.08189842935302837,"331":0.11225336026628396,"332":-0.8153388881243989,"333":-0.13178356840166208,"334":-0.15645264134538286,"335":-0.11812817265019203,"336":0.3373544007068798,"337":-0.07256680827444946,"338":-0.3111085843601915,"339":-0.012958052259085225,"340":-0.3825798911986107,"341":0.29063094398310474,"342":-0.10604111404343952,"343":0.17319008498227104,"344":-0.5959772067085599,"345":0.5454739549313752,"346":-0.66642026153915,"347":1.0591025367555271,"348":-0.09440654817604073,"349":0.309324358187135,"350":0.35045614139324394,"351":-0.4151094866544523,"352":0.5183141196996145,"353":0.5909314833600959,"354":-0.5105704712667148,"355":0.19367024442334924,"356":-0.30749337744620225,"357":0.0732490146832137,"358":-0.2524207394769289,"359":-0.2693599318804323,"360":0.6310343690860634,"361":-0.11306284278012506,"362":0.00480828315547515,"363":0.3167424269953837,"364":0.21680801942189418,"365":0.3144304350847714,"366":-0.21536768827506836,"367":0.6787470637120688,"368":-0.24825351891413622,"369":-0.4309821837951,"370":0.0552617093944822,"371":-0.060206441866806945,"372":0.14794589502501568,"373":0.01600237064949959,"374":0.1566038859926023,"375":-1.2465297292317066,"376":0.18847330944564455,"377":-0.10751143225792109,"378":-0.47000723365618824,"379":-0.052709431675571634,"380":0.28809256460162685,"381":-0.1366371992726816,"382":0.0033331286773809594,"383":0.12078398168871098,"384":0.019524207875554794,"385":0.1786771523719929,"386":0.06461453124491968,"387":-0.11093252705183276,"388":-0.06215547238198781,"389":0.3664948204827746,"390":0.04442412051943733,"391":-0.08683232801164237,"392":0.05130372336259083,"393":-0.026162927551717636,"394":0.2659516216459713,"395":-0.337087632446731,"396":-0.5745949554909421,"397":-0.1980230295349118,"398":0.8122411647042412,"399":0.07065099251630966,"400":0.19832208596534498,"401":0.5948327231693333,"402":-0.3250327709884468,"403":-0.6266249386252086,"404":-0.07011562636922038,"405":-0.5117231958197904,"406":0.4494563542464509,"407":0.06935552101529481,"408":-0.17646211433938197,"409":-0.06265545512127554,"410":-0.3134400329786021,"411":0.02404127143909419,"412":-0.05213409060607084,"413":0.4026434273368224,"414":-0.008629588070471766,"415":0.22966586698567484,"416":-0.10148129330579422,"417":-0.2032670974372469,"418":-0.009333356150250908,"419":0.26944477060098265}},{"sx":1,"sy":1,"depth":420,"w":{"0":0.23409671454224235,"1":0.004770022986988399,"2":-0.6020630825763891,"3":-0.10653908776230454,"4":0.08276562279393983,"5":0.5151701821822301,"6":0.5301121668856404,"7":0.047140368707168874,"8":-0.4303368120166374,"9":0.16170617455166222,"10":0.3479551855165435,"11":-0.196564921591655,"12":-0.17636911946551628,"13":-0.29639526782677517,"14":-0.09596111170037762,"15":-0.22756300097324947,"16":-0.06295363414621243,"17":-0.07157568594011758,"18":-0.4802700977197474,"19":0.19473296899085157,"20":0.08563834092056784,"21":-0.2738644038258317,"22":-0.08407977583337377,"23":0.35667163312698014,"24":-0.027920687730075153,"25":0.3133756535357811,"26":0.373266025891386,"27":0.4520412563163771,"28":-0.19684247351026388,"29":0.39656702726318677,"30":-0.0009453936937965627,"31":-0.22798151081353143,"32":-0.05137184384911732,"33":-0.008855839233083616,"34":0.4355055591843735,"35":-0.03175828408630349,"36":-0.13435713147857462,"37":-0.2592000012821465,"38":-0.3853586335788899,"39":-0.08074072117446424,"40":-0.0004045277894077213,"41":0.3772683353070391,"42":0.10027719320408647,"43":0.17496137535940096,"44":0.10202823335553789,"45":-0.4321258969364595,"46":0.353229763335062,"47":-0.2096067661587096,"48":-0.18253186852386405,"49":0.1938279540775192,"50":0.3755562783625456,"51":0.5843412883626187,"52":-0.14652230652398,"53":-0.4857565966828428,"54":-0.7100786974370131,"55":-0.2852428910172006,"56":-0.15725822805391237,"57":-0.22390560983357408,"58":0.017648822810054168,"59":0.481994208042387,"60":-0.28903772586446924,"61":0.001393965865904248,"62":-0.5064975768376491,"63":0.2964523278502601,"64":0.4999401401780646,"65":-0.03184106111121029,"66":0.5777085514697957,"67":-0.3266113060591822,"68":-0.18737660852969276,"69":-0.2601722427976142,"70":0.040382775839065105,"71":-0.20633094991474976,"72":0.08349411398407745,"73":0.2093531556236002,"74":-0.1493021234648937,"75":-0.4333405116026516,"76":0.3460971594255094,"77":0.3010710407391217,"78":-0.005813403140883444,"79":-0.13242153612563254,"80":0.09872121953646042,"81":-0.28679504878313533,"82":0.14491313112256796,"83":-0.2544170560747198,"84":0.10472524834924477,"85":-0.10743502485350674,"86":0.00047856652216376176,"87":-0.1981735419921521,"88":-0.4516217139050017,"89":-0.12878551471151,"90":0.09146804450441459,"91":0.025184513339452628,"92":-0.16739129322281182,"93":-0.06583019455174305,"94":0.16779125071552867,"95":0.20956097907119098,"96":0.22427324689760703,"97":-0.40585612638458424,"98":-0.007094448965342002,"99":0.2766270608776895,"100":0.3145141314295451,"101":0.3144666214606626,"102":-0.42662206867640723,"103":0.37724313546826554,"104":-0.15777053422228954,"105":-0.22048924672343548,"106":-0.007903315735689127,"107":-0.4957295277958658,"108":0.2088148963631672,"109":-0.5949698520382904,"110":0.5947899279041581,"111":0.321518252909665,"112":0.38072782897345453,"113":0.13113946333126808,"114":0.17395261823619124,"115":0.1744891261052475,"116":0.39158255116217666,"117":0.4526004085191007,"118":0.026623259457446966,"119":-0.29757950631883784,"120":0.1475260556617469,"121":0.13601751634904055,"122":-0.5074702248213884,"123":-0.2031572581371347,"124":-0.04458615374914991,"125":-0.26564701034829735,"126":-0.09391221492337773,"127":-0.14691550797267727,"128":-0.08719044094186855,"129":-0.416268776574593,"130":-0.17027989801814505,"131":-0.22879487724217773,"132":0.09534019265490248,"133":-0.003183471249145287,"134":0.07359703226206907,"135":0.40853391257310384,"136":-0.39969928305734737,"137":-0.15251948351244457,"138":-0.1042363297300997,"139":-0.02143292942113964,"140":0.05726425353830865,"141":-0.2428317184251681,"142":-0.30342403080783475,"143":0.0827124271096176,"144":0.030199866038650772,"145":-0.14518979472083782,"146":-0.14147794042784392,"147":0.40642272773015853,"148":-0.1950331136439418,"149":0.08449047296063572,"150":-0.4822587956452879,"151":-0.2523196119057389,"152":-0.18362614234184635,"153":0.31113651474871434,"154":0.3059408208234472,"155":0.30048480784059645,"156":-0.30960779875557487,"157":-0.1641482802586153,"158":0.3618704893817934,"159":0.384259519238169,"160":0.02317165494229477,"161":0.29248697223695264,"162":-0.42397774844309905,"163":0.0737763367377899,"164":-0.15036660568316795,"165":0.5761379682946065,"166":0.039260954046066845,"167":-0.4397233754821394,"168":-0.14345526833956893,"169":-0.013735425342742455,"170":0.27594802205615515,"171":-0.7137242065643379,"172":-0.1281219048953653,"173":-0.01720425964378047,"174":-0.01664363672019937,"175":-0.07898021243598706,"176":-0.09801314401901677,"177":0.11748349618750653,"178":-0.272672340375345,"179":-0.09241060419813454,"180":0.28203505800803913,"181":-0.00840864343419697,"182":0.12329018906153041,"183":-0.4647736263284901,"184":0.24426913018021373,"185":-0.6488675249610327,"186":-0.09042792314471634,"187":-0.0863257287744536,"188":-0.1721038107799581,"189":-0.29906286215885286,"190":0.18843250801571101,"191":-0.2586576709445264,"192":0.13818219641285426,"193":-0.1632234382035486,"194":-0.5656340420644129,"195":0.18956124126216337,"196":0.10658564747869984,"197":-0.4797240251582099,"198":0.21874256918718527,"199":-0.04508881361573718,"200":-0.06599873396836754,"201":0.1576777152139951,"202":-0.4470153405263668,"203":0.03337562775621808,"204":-0.1707301830810972,"205":0.08083658357029092,"206":0.02277047501637378,"207":0.35100904615727513,"208":0.11831845838780931,"209":-0.04639227493350721,"210":-0.37875758957723116,"211":-0.2030464292721094,"212":-0.08104226142539703,"213":0.09564649622423889,"214":-0.18372904935625073,"215":-0.5815943638999332,"216":0.04411640925011804,"217":0.3218950790106131,"218":-0.34657148599540516,"219":-0.0929722932152096,"220":-0.38294720180955655,"221":0.21043504195185725,"222":0.13535794201087548,"223":-0.054930363442911925,"224":-0.0005425180585338693,"225":0.4219833266257238,"226":-0.5663476060234688,"227":0.07034591333518407,"228":0.4328162506656014,"229":0.09015198003716823,"230":0.8756921007585411,"231":-0.18178574948888424,"232":0.20702827404317417,"233":0.1993586034021783,"234":0.39649853346562586,"235":0.0891741425026943,"236":-0.0996851846556808,"237":0.2908471796670292,"238":0.1801759414503029,"239":0.15508141848038456,"240":-0.14154031849192075,"241":-0.002264611138256434,"242":0.24342990067316092,"243":-0.16820677051408375,"244":-0.1850089733683835,"245":0.12924380147893713,"246":0.022605273350299784,"247":0.09531183448337954,"248":-0.3390163894097716,"249":-0.10605315609622121,"250":-0.4546541364312554,"251":0.22696427706244465,"252":0.027941295283051205,"253":0.42842953852261756,"254":0.38122737256589245,"255":-0.12593756589784447,"256":-0.203448989868967,"257":-0.1981969609299468,"258":-0.35088803473480634,"259":-0.059508621639879314,"260":0.4355532394901297,"261":0.11034424647014006,"262":0.4533228049046869,"263":0.10394323478430312,"264":0.07261744433802092,"265":-0.06725414872796451,"266":0.19682865030313604,"267":0.11502092710515789,"268":0.3008249149302737,"269":0.32357534718232345,"270":0.14133234495267497,"271":0.9566132617108981,"272":0.23140523942589497,"273":0.03890385033698348,"274":0.15890331945468328,"275":0.09958721989430545,"276":0.5602998057727284,"277":-0.18156598029587886,"278":-0.2646101449977113,"279":0.22524770119009746,"280":-0.018027533635919378,"281":-0.11336310194857876,"282":0.2372887513205101,"283":-0.013796190090187866,"284":-0.2461336538106743,"285":0.19899700233710355,"286":-0.3002264565483634,"287":-0.40291572571004275,"288":-0.46778104335699694,"289":0.45501414393081097,"290":-0.2511465791769148,"291":0.2457730179378506,"292":-0.11699987329230722,"293":0.17680076955225857,"294":-0.09334194082483532,"295":-0.0457535769100301,"296":0.219902414569842,"297":-0.6059937584663813,"298":0.9932555630326282,"299":-1.1082180389998375,"300":0.043294264389659415,"301":0.20610241043976818,"302":0.36060759155184674,"303":-0.3898840400295408,"304":-0.3920208392391428,"305":-0.38728226503327534,"306":0.41916181190632357,"307":-0.3713355079227403,"308":0.08459658578833958,"309":0.0794460229450179,"310":-0.5821023258109519,"311":-0.21944896721624998,"312":0.11232058828495517,"313":-0.20370361010265162,"314":-0.10418211472461225,"315":0.712881054385857,"316":0.23424026141481807,"317":-0.44786233102877265,"318":-0.16582040547852647,"319":-0.32674160371969074,"320":-0.04955818426410883,"321":-0.16479737452022508,"322":0.09294791000445685,"323":0.2793553585054993,"324":-0.10559346013262946,"325":0.29997081319144214,"326":-0.6612277922953218,"327":0.625208753341517,"328":-0.35591480513118734,"329":0.22526600253319276,"330":-0.263456851769068,"331":-0.22615859072833117,"332":-0.07615486474912637,"333":0.5254654652758163,"334":-0.012163142554353046,"335":0.015101004841449996,"336":-0.1244689321720937,"337":0.1135273184162588,"338":-0.10391566964648619,"339":0.07904422147519657,"340":0.49101608864404206,"341":0.3122735433760308,"342":0.016246167757609637,"343":-0.16208890397310696,"344":-0.2379656445553788,"345":-0.0790939060520358,"346":0.4378874644000182,"347":0.18004908290099314,"348":-0.014540902793203615,"349":0.17005190682966428,"350":0.10327175017129196,"351":-0.2889027979291997,"352":-0.38707361838395676,"353":0.10193666838666442,"354":0.2626697211128248,"355":0.15677371424046546,"356":0.1799886424552396,"357":-0.38635076600096724,"358":0.14670005072953393,"359":0.27694533545834266,"360":0.10888703694553793,"361":-0.3407944858237746,"362":-0.3724505698604565,"363":-0.3144086162501699,"364":0.01514384917274692,"365":-0.023732523197272166,"366":0.0403272041041111,"367":0.11821663639941012,"368":-0.7634232598438312,"369":-0.48079054945644456,"370":0.07563446289049365,"371":-0.6459539198117911,"372":0.4613343614175026,"373":-0.46141426950690173,"374":0.3308548339416833,"375":0.1496932184504283,"376":0.06973026067859031,"377":-0.02999523351201731,"378":-0.416521118355572,"379":-0.04623554644204922,"380":-0.43846533372485835,"381":0.050666353406648997,"382":0.23372403702666908,"383":-0.15585514079383853,"384":-0.19462761197440034,"385":0.16270682280392096,"386":0.0582413401200259,"387":-0.5900828156798374,"388":0.2149446028116644,"389":0.8661451133284871,"390":0.3231654430369545,"391":0.4643620834889344,"392":0.04671570726855806,"393":0.08524053395917731,"394":0.23163760978511305,"395":1.003002304233371,"396":1.297387152783727,"397":0.03880599245568919,"398":-0.20077051653820535,"399":0.4443990443560525,"400":0.012725135897303178,"401":0.35295074638084634,"402":-0.7010330825110256,"403":0.7045955472390427,"404":0.21629485341980784,"405":0.0726106880983137,"406":-0.24502624760379715,"407":-0.09079318443959944,"408":-0.01962420984253142,"409":0.22606418127861966,"410":-0.3375811493330911,"411":0.01890417702369521,"412":0.0260872571111755,"413":-0.443538051545351,"414":-0.0767579680697186,"415":-0.20628707682648129,"416":-0.4039949684033037,"417":-0.10490098978890704,"418":0.17208913059655126,"419":-0.3803023554390203}},{"sx":1,"sy":1,"depth":420,"w":{"0":0.07927961085396738,"1":0.15913106780891886,"2":-0.10309552361141353,"3":0.2190527093280616,"4":-0.032754416795654016,"5":0.11422616121306431,"6":-0.014032321007735571,"7":0.16592766401903977,"8":0.13254474421758633,"9":0.05615393452850821,"10":-0.24028221544036502,"11":-0.06032927017644085,"12":-0.026703599043201923,"13":-0.001092451808089281,"14":-0.2603534892438854,"15":-0.4792808208470149,"16":-0.1615846509842351,"17":0.14726672984276862,"18":-0.23112603946768862,"19":-0.21705049746524555,"20":-0.15667519483141826,"21":-0.22046095315743355,"22":-0.10858319834821782,"23":-0.07950872549084222,"24":0.09524072744415936,"25":0.4578515198813441,"26":0.17833207985299376,"27":0.47294067814487845,"28":0.09802429479774614,"29":0.1157003597108325,"30":0.4287874768829577,"31":-0.13733508973829617,"32":-0.20355314980727776,"33":0.02503319489417351,"34":-0.11637546694875206,"35":-0.3869589912746196,"36":-0.20522275002916598,"37":-0.021913838710321425,"38":0.1275882784251554,"39":0.05706175471164382,"40":-0.17961542114856563,"41":0.039534146794239465,"42":0.1868332177051293,"43":-0.046071770699575874,"44":0.0958536638486273,"45":0.16102887789625892,"46":0.04630193133172947,"47":0.22781858804271793,"48":0.2659631617338818,"49":-0.1902782800328587,"50":0.2647212238883749,"51":-0.21195820074775865,"52":-0.04743338133292405,"53":0.143109776533044,"54":0.4775539805222585,"55":-0.042609170725910285,"56":-0.04238648109865081,"57":0.1606001122914865,"58":-0.6437039672369099,"59":0.10436687210274191,"60":0.1982665196600725,"61":0.034989705977066715,"62":0.5540112738086215,"63":0.1591663620661617,"64":-0.08732101751039961,"65":0.2262585392615586,"66":-0.180822868969157,"67":0.3117587564875292,"68":-0.4565105389833159,"69":-0.445094767576319,"70":0.1583231200709949,"71":0.3814020862526701,"72":0.23313453029617645,"73":0.05483658088266717,"74":0.08843721223641887,"75":-0.3460463474490878,"76":0.04629385533920487,"77":-0.0857209830433394,"78":0.09597987468415008,"79":0.012959908095555564,"80":0.27787837080353844,"81":-0.2324601956749396,"82":-0.0441245766829691,"83":-0.1013409067987508,"84":0.16691544508559922,"85":-0.46548877353707263,"86":-0.17481590553153095,"87":-0.19365538068817761,"88":0.18830014232767364,"89":0.06048356432409028,"90":0.3245079953441108,"91":0.238233932682012,"92":0.2092400596812382,"93":0.025818300388927642,"94":-0.09320294063305821,"95":-0.3114747859865478,"96":0.0256697188063549,"97":-0.08873647928190763,"98":-0.37465213690402205,"99":-0.055182479663451106,"100":-0.18922969400058753,"101":0.6705738087395642,"102":-0.0033794049945002134,"103":-0.2101043572906501,"104":-0.5003363318526012,"105":-0.21038874859083773,"106":-0.12922792778459996,"107":0.21808137728473304,"108":-0.06278712294629046,"109":-0.04519588460483997,"110":-0.2711208946814912,"111":0.18612717645437865,"112":-0.13845666672448154,"113":0.3479023624390374,"114":-0.018632827995178326,"115":0.09946645371041349,"116":-0.02989111786807938,"117":-0.5229038388131801,"118":-0.14293108790854078,"119":0.1003171837538702,"120":-0.025138193651475474,"121":-0.38308531721358796,"122":-0.33519928882586736,"123":0.25980023912834754,"124":0.1369915665580715,"125":0.2642974064100372,"126":0.07840636282965725,"127":-0.07424615509668,"128":0.04910844891718769,"129":-0.1717831907223396,"130":0.20045142417003334,"131":-0.05963463696649074,"132":0.11280983199129903,"133":0.030417595683535106,"134":0.08946688455910576,"135":-0.12758562188300032,"136":0.0009699523280363397,"137":0.06964429356463914,"138":0.2222184039234128,"139":0.08118981005216794,"140":0.13405043223605811,"141":-0.38795841325567876,"142":0.09807536762116734,"143":0.04517193626192831,"144":-0.5216187692788441,"145":-0.23806179950357528,"146":-0.22957242148182957,"147":0.20369376930102637,"148":0.19289501523594266,"149":-0.007801838615976586,"150":0.1516441635677307,"151":0.4174598093443869,"152":-0.5543138632956018,"153":-0.16136892864200497,"154":-0.11300034240931524,"155":0.04343144614916715,"156":-0.4328232133906897,"157":0.019266403850726633,"158":0.00006368056423459835,"159":0.3317820329682057,"160":0.118137455467206,"161":0.3071970903733378,"162":-0.11874869450384413,"163":0.02099911120598182,"164":0.11657022264536501,"165":0.3628915943973423,"166":-0.19520010108612557,"167":0.22832597733798313,"168":0.32857579984166974,"169":-0.058813363178408885,"170":0.25920366615919216,"171":-0.05935718837205596,"172":0.0874049609460009,"173":0.16859700245127943,"174":-0.2686322804212106,"175":0.26335654934947444,"176":-0.22298193099102154,"177":-0.4299427513868206,"178":0.2556404174752038,"179":0.03477657726503373,"180":0.2234701911779528,"181":0.004689203608654762,"182":0.30628948172776427,"183":-0.12181919032880506,"184":-0.03759199717202897,"185":-0.11848419454787151,"186":0.19554568839480801,"187":0.021650625555701603,"188":0.4006091676199418,"189":0.11997964211216987,"190":0.17232170928453303,"191":-0.08612330688191831,"192":0.2658155084246474,"193":-0.36485976606221054,"194":0.05838186991391921,"195":-0.245279548588281,"196":0.04475760935667479,"197":0.2684080072081755,"198":-0.2648267703341392,"199":0.03787366029342484,"200":0.7063836205885835,"201":0.0843463394450526,"202":0.25454780066584864,"203":-0.2669050511969787,"204":0.13279626791070298,"205":0.6690095871442459,"206":0.002228043876450845,"207":-0.2833781185786887,"208":0.07885949437251115,"209":0.11267507657769606,"210":0.18105884580639148,"211":-0.26669579208021854,"212":-0.46552035300974365,"213":-0.085337803523242,"214":-0.29160203529057066,"215":0.15973380468390902,"216":-0.2835578438827735,"217":0.11747799688750021,"218":-0.15491497532199733,"219":-0.14378239737319107,"220":0.034066961629374455,"221":0.5062525228238746,"222":-0.1395092439506989,"223":0.03447226560580906,"224":-0.20210799268328913,"225":-0.0808315620603064,"226":0.10765833557147865,"227":0.38902408898874297,"228":-0.24186072644416665,"229":0.10870256495059899,"230":-0.20825696728083062,"231":0.03029896403147589,"232":0.20304267400330925,"233":-0.012194097934789311,"234":0.030845342119461123,"235":-0.03875646465142467,"236":0.22736449901027522,"237":0.24750377533814985,"238":0.260526105692226,"239":-0.22155271707246962,"240":0.3505369941529766,"241":0.027660320881983315,"242":0.203720001294515,"243":-0.12250656184650481,"244":0.1830075180342473,"245":-0.14490837369194823,"246":0.02295592177107989,"247":0.19265566580275026,"248":0.3079926491248288,"249":0.00640745143446929,"250":0.07032738948215188,"251":-0.1666636658756752,"252":0.10196503496337456,"253":0.32346532673854045,"254":0.0739416416651097,"255":-0.1280565695818443,"256":0.4126010506678903,"257":-0.4392051201124562,"258":0.20354939123180635,"259":0.2592369341783733,"260":0.07599503897657989,"261":-0.28200999529786464,"262":0.5449413414277104,"263":0.12243134031221715,"264":0.18656376551548093,"265":-0.22345299461576384,"266":0.1291173541876079,"267":0.1816937990566119,"268":0.0008370152573332548,"269":0.1730343460668555,"270":0.11517244047964992,"271":0.1640163762272697,"272":-0.06796134481885145,"273":-0.3180460086408408,"274":-0.3462164083841601,"275":0.25454685015666284,"276":0.012049358176398567,"277":0.06608912405986253,"278":-0.08991558203393546,"279":-0.10498678248566151,"280":0.1449207355972915,"281":-0.049428834831360784,"282":0.2540102786966964,"283":0.7894368386865721,"284":-0.4286815180005788,"285":0.3484597834888914,"286":0.30898118567865757,"287":-0.023818588400192787,"288":-0.20843241563941797,"289":0.38941173148690317,"290":0.007730856706235433,"291":-0.1216630897428183,"292":-0.4000420581216438,"293":0.03587712785606802,"294":-0.19311215809481083,"295":0.21635400810442046,"296":-0.2934152621010101,"297":0.19208596695494026,"298":-0.3266122974375206,"299":0.2905392411259555,"300":0.01876039016129205,"301":0.04456890880985801,"302":-0.11430714144419704,"303":1.0837828015295425,"304":-2.01840753105602,"305":1.0296624640232381,"306":-0.4051950352459093,"307":0.20252262595733472,"308":0.11393215016413424,"309":0.06639153699735548,"310":-0.4338811910785405,"311":-0.4339982702382826,"312":0.14777091945188717,"313":-0.1439489438442652,"314":-0.3502035982096618,"315":0.08842532064338607,"316":-0.28352599712501164,"317":-0.4622566113212554,"318":-0.9358208318375922,"319":-0.2187306972195687,"320":0.4460999681089807,"321":0.28454516141730785,"322":0.05319744434599911,"323":-0.28978217324241057,"324":0.433883192229473,"325":-1.3602283566543474,"326":-1.5474449089016686,"327":0.5391691333017926,"328":0.0690345690784311,"329":0.25324076916605154,"330":0.21701461423356577,"331":-0.6926358571248764,"332":0.7878457128876396,"333":-2.0793829878172105,"334":0.3232122989786721,"335":-0.11495990040393682,"336":-0.25080254521794854,"337":0.02848586517831688,"338":-0.22548441238777747,"339":-1.7478273938610125,"340":0.37561138950316414,"341":0.15074527596584741,"342":-0.034685914984615415,"343":0.13119610475498594,"344":-0.10216011455180933,"345":-0.6250956574976342,"346":-1.3388723358135581,"347":2.099331198264477,"348":-0.7447471690451314,"349":-0.3277742173628667,"350":-0.009994458795241728,"351":-0.2844988649074021,"352":0.8554901534431935,"353":0.7688444691489541,"354":-1.3460259627425892,"355":0.29480520944168825,"356":0.011282662214683261,"357":-0.4165432067142026,"358":0.3745873044587142,"359":-0.07079346544121401,"360":0.7747814206870474,"361":-0.5249846656579245,"362":0.09881495989690589,"363":-0.16007047320279466,"364":0.09297254620129439,"365":-0.036482018903386905,"366":-0.03713239589999855,"367":0.7663528959180091,"368":0.13431157465098983,"369":-0.08984918212512231,"370":0.2186895128068752,"371":-0.30463603068426787,"372":-0.10255949405248771,"373":0.6290671466715786,"374":0.20783062806056263,"375":-1.616253554854722,"376":-0.12158670730032557,"377":-0.35728547794108834,"378":-0.184484009391481,"379":0.20789869121397045,"380":-0.5046096067609194,"381":-0.24350137619273532,"382":1.5803161327889863,"383":0.11698656196081382,"384":-0.0019977103701381916,"385":0.017271873176624746,"386":0.17780815067118513,"387":0.2398625641860099,"388":-0.4442896296958589,"389":0.05322464030636717,"390":-0.2913895592300072,"391":0.1273953820354639,"392":-0.003646924929914761,"393":0.11001384546129195,"394":0.022116362012061453,"395":0.17946709459762678,"396":-0.2855060177014609,"397":-0.44130008315878805,"398":-0.3816018367189525,"399":-0.34008627814375914,"400":-0.08312226196072288,"401":0.7854040028580591,"402":0.24181950525966497,"403":-1.5527473433763408,"404":0.2846927714343365,"405":-0.04203819284105352,"406":-0.07800383349507126,"407":0.16516183047409605,"408":-0.027320291587882843,"409":-0.19699189072368897,"410":-0.06511032194728665,"411":-0.2474827288301838,"412":-0.2877807544219844,"413":-0.11568005219864803,"414":0.29567282011706175,"415":-0.07821644146843482,"416":-0.230059766148911,"417":0.17323122506318012,"418":0.03969936004404679,"419":0.5734216633058076}},{"sx":1,"sy":1,"depth":420,"w":{"0":-0.026748061936966955,"1":0.03377587903095981,"2":-0.0918347940254686,"3":-0.06962575372140371,"4":-0.11414661190070573,"5":-0.08151883930181375,"6":0.023832286436221737,"7":0.042277010410908956,"8":-0.12132419458970643,"9":-0.039961501684831535,"10":-0.08888642264327827,"11":-0.031611985165701954,"12":-0.07396886696663253,"13":-0.14166061967188265,"14":-0.09226340363374606,"15":-0.05077489462153694,"16":-0.05580951646009288,"17":-0.07749018667926655,"18":-0.053765635916224255,"19":-0.06628606686250191,"20":0.0015173935014749906,"21":-0.006937489461781016,"22":-0.01615025069254941,"23":-0.04222816087643285,"24":0.05815633022525712,"25":-0.04689658946283202,"26":0.03227721667914141,"27":-0.051308217771146324,"28":0.045156511425545255,"29":0.0024003469525713393,"30":0.024760146798684272,"31":0.020798964343959513,"32":-0.009945811403381835,"33":0.009044338995239045,"34":0.07094923343417789,"35":-0.03448052190924667,"36":-0.07586472188570675,"37":-0.04457346790087385,"38":-0.11486124109337828,"39":0.01133019951923155,"40":-0.03611459385772113,"41":-0.07899642477458667,"42":-0.07711644202058478,"43":-0.047330221121785004,"44":-0.01819281248551292,"45":-0.06112725697878089,"46":-0.04001376699183587,"47":-0.04364541641989106,"48":-0.0006203222771293484,"49":0.016160368184144163,"50":0.010576804494401052,"51":0.0003684279642083958,"52":-0.028496423676311222,"53":0.0411101072125642,"54":0.12361597462487885,"55":-0.05717363912468649,"56":0.015247042821791441,"57":0.04009345448687926,"58":-0.061160555570217864,"59":0.077131189091729,"60":-0.09964600038533093,"61":-0.027296744602897504,"62":0.04303736263439,"63":-0.0527257958320988,"64":-0.042419812366644806,"65":-0.06739969059077201,"66":-0.04167446956880955,"67":-0.06104644851516586,"68":-0.18275706409474318,"69":-0.009597244127680437,"70":-0.023670422638370967,"71":-0.018155180440771232,"72":0.0032870553440971367,"73":-0.08329480549532951,"74":-0.06417237475054234,"75":0.03517498889837232,"76":-0.04495869214107575,"77":-0.0885249506008791,"78":0.034175214813350355,"79":-0.008762914044796517,"80":0.002816970480564422,"81":-0.06666177881019858,"82":0.03833707153615399,"83":-0.06728858865742679,"84":0.0006881097620923758,"85":-0.08300028862320234,"86":0.019530193909891615,"87":0.041755546164747664,"88":0.051845300000347906,"89":-0.04073446051926408,"90":0.0801551686608736,"91":-0.001294116545301679,"92":-0.04814291628236146,"93":-0.12309240171050827,"94":-0.01415827681687257,"95":-0.002563561602723133,"96":-0.16158521511653107,"97":-0.003955706637249147,"98":0.0020194578071885774,"99":-0.03945480163222756,"100":0.011799957841662451,"101":-0.11403338834282194,"102":-0.07285757804947329,"103":-0.034256115477876485,"104":-0.004033929984863636,"105":0.004352611398535664,"106":-0.05450756546104193,"107":0.022618016094434923,"108":-0.08358209309013721,"109":-0.021099014704783682,"110":0.030262995324260217,"111":0.009953496689284455,"112":-0.00023042747423187966,"113":-0.1073104914841625,"114":0.06475077467785888,"115":0.1242874457270951,"116":0.08302188703489062,"117":-0.03661538677578866,"118":-0.046676327273317865,"119":0.045775436286276505,"120":-0.016658651853358523,"121":-0.1353292897538708,"122":-0.12383103009373664,"123":0.0020049852555043186,"124":-0.0887906286214491,"125":0.026231410788508592,"126":0.026452004772258737,"127":-0.061011281790348426,"128":0.06806956011390089,"129":-0.14920868673892534,"130":-0.07721459054352317,"131":-0.03179520493472988,"132":-0.08002630924247074,"133":-0.05694322335653145,"134":0.0416813154915419,"135":-0.06547510341782811,"136":-0.07253690377179392,"137":-0.0239150304000813,"138":0.03479379965636097,"139":0.06063294717578423,"140":0.011026789506609206,"141":-0.09094661486224963,"142":-0.016499409303406605,"143":0.05326344901309504,"144":-0.028127715939760475,"145":0.037825333366089314,"146":-0.07560575372782354,"147":0.05326133448691308,"148":0.027172660978865205,"149":-0.06488624881399264,"150":-0.033825968804230826,"151":0.022296228766006607,"152":-0.038625883867988854,"153":0.06418728941727063,"154":0.005001188779803866,"155":-0.07706174909682265,"156":-0.04850459572034912,"157":-0.15595930377319228,"158":-0.08512148015275386,"159":-0.03384651506513559,"160":-0.06100306085495666,"161":-0.02425881686189448,"162":0.006568237815510567,"163":-0.0011889393988847746,"164":-0.026487709185273874,"165":-0.031393414473951414,"166":0.008158473026715414,"167":0.026081532303050093,"168":-0.015533025878527566,"169":-0.11350501878284491,"170":-0.00645996497112269,"171":0.014950886083307743,"172":0.029602255957016606,"173":0.07235554608691204,"174":-0.08853522093099496,"175":0.044314626189526946,"176":-0.009970170638949113,"177":-0.04370156592368285,"178":-0.04897949809803745,"179":0.001919644020176524,"180":-0.17013811191302047,"181":0.03850592800099076,"182":-0.07015113260771262,"183":-0.06873817128311298,"184":-0.02623150433899306,"185":-0.19518023958884084,"186":-0.08901186057067471,"187":-0.009701295845890802,"188":-0.06179452382435283,"189":0.01204877107584259,"190":0.06296294893900438,"191":-0.028569097147360088,"192":-0.10403094764141015,"193":0.03131876958690686,"194":0.05032909415040153,"195":-0.02690308610878419,"196":-0.06711650779323435,"197":-0.04076935483777525,"198":0.020620642336434684,"199":0.1189617065531642,"200":-0.04527266535926607,"201":0.021236428179815265,"202":0.015809600339126078,"203":0.07275853926373488,"204":-0.08653456058985635,"205":0.06241712485099163,"206":-0.050012253427208,"207":0.026500730361535014,"208":-0.01219736046054785,"209":-0.039041642217574946,"210":-0.07244285963368695,"211":0.02421769546616125,"212":-0.14302547720315972,"213":-0.20450064766614812,"214":-0.036364538598961556,"215":-0.14735732397018067,"216":-0.034882826232168304,"217":-0.029461649656069476,"218":0.016633055864527294,"219":0.020721226811372614,"220":-0.041740309260327554,"221":-0.05432002154889908,"222":0.007121790026712992,"223":0.07835250487286044,"224":-0.01920557996391179,"225":-0.07105517655213896,"226":-0.0660933721311661,"227":0.11721725270694543,"228":-0.006129772861804524,"229":0.00998452086175056,"230":-0.045677634997262385,"231":-0.06834069013721081,"232":-0.0037795982815750813,"233":0.07491503052434165,"234":-0.06215245761168838,"235":0.06275625346240359,"236":0.02336788871178097,"237":-0.06213460419266787,"238":0.02662908712412593,"239":-0.04278382696923224,"240":-0.03995951959763395,"241":-0.2641144180581934,"242":-0.12008939954425144,"243":-0.11056297782101587,"244":0.020874433234348674,"245":0.032589205182833245,"246":0.07901869784619638,"247":0.04390101260042779,"248":0.038208017571374264,"249":0.06350909673093533,"250":0.06466689012123036,"251":0.03229054680275574,"252":-0.04925781189591214,"253":-0.040232563965638804,"254":-0.03746103105637657,"255":0.024672701710109508,"256":0.00849815503624212,"257":-0.005671144477002155,"258":-0.02050572788830938,"259":0.0019100765693038384,"260":-0.04014590216152256,"261":-0.02291886133336971,"262":-0.016436572578625255,"263":-0.05569361104653678,"264":-0.04534634734206373,"265":-0.06332638199470673,"266":0.06503786687564263,"267":0.007028722173951947,"268":-0.06358595863245428,"269":-0.13473470930811388,"270":-0.08183321367774857,"271":-0.10051001193048577,"272":0.04465515115470269,"273":-0.09212603150339028,"274":-0.015684178028785824,"275":-0.023619350349682617,"276":0.03586310831899292,"277":0.10184191599996875,"278":0.00857122102514055,"279":0.0072569230376133545,"280":0.08076774584987884,"281":-0.05722629367533963,"282":0.009026543363890293,"283":0.055272499655930646,"284":0.093168063163601,"285":0.07688899257138321,"286":-0.03121742677259488,"287":0.01136189265361332,"288":0.05382056380972542,"289":0.0019032083252306967,"290":-0.045777849679212376,"291":-0.0708997850493309,"292":-0.031210192202258912,"293":-0.005950426508511106,"294":-0.003158934141087506,"295":-0.05137935598708762,"296":-0.08682521977108078,"297":-0.15402532468955565,"298":-0.20809389023526922,"299":-0.03421648199200433,"300":0.044303941753516846,"301":-0.11876412910326742,"302":0.03416574521386603,"303":0.061255066133344985,"304":-0.010022893752169281,"305":0.12980013124141224,"306":0.0015514218152392733,"307":0.038671190203997785,"308":0.09193611911435236,"309":0.037463457896485794,"310":0.07518888190972625,"311":0.07508036143762496,"312":0.05475003702474966,"313":-0.02255899415183964,"314":0.04772028844715226,"315":0.03507270639864748,"316":-0.00039535513174007513,"317":-0.0031971946992865267,"318":-0.11763002099140561,"319":0.05608988982759906,"320":-0.03881968306118183,"321":-0.04884908450981914,"322":-0.010360656790199882,"323":0.04589409775593836,"324":-0.017429846033846404,"325":0.0651679022568412,"326":-0.020209863908132744,"327":-0.010057032925389951,"328":0.021111556648354526,"329":0.012783968855359798,"330":-0.03327985054809431,"331":-0.021704762555507195,"332":0.20183502415703589,"333":0.03526714207813973,"334":-0.022727676325270736,"335":0.019048374418117846,"336":0.03808399769007371,"337":0.005126219660310767,"338":0.16186748499161038,"339":0.6661635833972429,"340":0.03827121656837363,"341":0.0875560574054606,"342":-0.10568411997009215,"343":-0.06188859938551162,"344":-0.027046932413886112,"345":-0.009814891667661049,"346":0.1978023425820055,"347":0.04803297241793004,"348":-0.04589265251742544,"349":0.02461457463404059,"350":0.008837441861541728,"351":-0.026003424377623187,"352":-0.11571284239233019,"353":-7.550718960096999,"354":-0.07963964733902576,"355":0.04245294575666815,"356":-0.10276260203193945,"357":0.04314194356152843,"358":0.00486548070700432,"359":0.005308150970024112,"360":-7.555340707886393,"361":-0.013300924135302837,"362":0.04044224176598261,"363":0.030334880782466416,"364":0.07295802245079051,"365":0.06345943191917114,"366":0.13406967608056225,"367":-7.560087393925448,"368":0.12314784902433426,"369":-0.03235458348747815,"370":-0.010399401368741608,"371":-0.02933335250436171,"372":-0.032216948500615114,"373":-0.06461582563153617,"374":-7.578683702438489,"375":0.0015623588490112543,"376":-0.04898783352420167,"377":-0.006965824806105478,"378":-0.04734084012274467,"379":0.019845420230369917,"380":-0.08571529033311595,"381":-0.09468519015924796,"382":-0.04337338760707421,"383":-0.04368826637404749,"384":0.004568920860896633,"385":0.09267064355459356,"386":0.09571526588270296,"387":0.014531309194606183,"388":0.02315915131007999,"389":0.03222659162902961,"390":-0.011705331759058232,"391":0.0455542633661723,"392":0.0028113705164220797,"393":0.03127751354711438,"394":0.021267783069237066,"395":-0.049528375939783244,"396":-0.04897840804189092,"397":-0.010196412121304092,"398":-0.04266777992004692,"399":-0.02479206188613012,"400":-0.09069240039988906,"401":0.0013624294716160325,"402":0.12694619449423386,"403":-0.08800757575243136,"404":0.03580784388680882,"405":0.013801249989907362,"406":0.008379530851885461,"407":-0.025274479873720907,"408":-0.09965501602976178,"409":-0.09639131442759775,"410":0.008081986851072462,"411":-0.01169914077478994,"412":-0.07006591032521645,"413":0.006527044396618907,"414":0.020736129297982724,"415":0.08893803408236683,"416":-0.012787237909699883,"417":-0.02855881136649737,"418":-0.03224028830832506,"419":-0.049126841234611036}},{"sx":1,"sy":1,"depth":420,"w":{"0":-0.09803690581165612,"1":0.8980472745437733,"2":-0.2359218325133992,"3":-0.6643155710986336,"4":0.005531022736178569,"5":0.015657412320755505,"6":-0.2970167835407619,"7":-0.10854724601987817,"8":0.40985132361028476,"9":-0.5913345405097915,"10":-0.06512519938960656,"11":0.010306220152736812,"12":0.3411860862248381,"13":0.3132416040050433,"14":-0.6587070738006492,"15":0.15633117144213288,"16":0.08009346036541719,"17":-0.2645034932487172,"18":-0.3704060402247743,"19":0.18938978075085633,"20":-0.012911352720293947,"21":0.19565062224357463,"22":-0.0334519918444366,"23":0.5494629060901586,"24":-0.11698240955148705,"25":0.14227271615590936,"26":-0.10567223923403106,"27":-0.0914584243227216,"28":-0.005337063853949472,"29":-0.2666294780622154,"30":0.02996224429289092,"31":0.43280247007533007,"32":-0.14414134899033418,"33":-0.11667531887782796,"34":0.20773219271692403,"35":0.34230406208674824,"36":-0.24832526007716077,"37":0.4617724758607874,"38":0.4495772703375697,"39":-0.3637579873903971,"40":-0.1521544055439991,"41":-0.35677986957730745,"42":-0.038654907264885574,"43":-0.585540645984818,"44":0.021550713050080713,"45":-0.1608597255399298,"46":0.4435377575279087,"47":-0.009913499701704557,"48":-0.09412233131723093,"49":-0.1259056790248348,"50":0.2650374206857432,"51":-0.3239943832398336,"52":-0.1898969040643551,"53":0.09280236993351199,"54":0.14970232545218926,"55":-0.23182480179830275,"56":0.14364738884531247,"57":0.30414461458971587,"58":-0.19464744708253917,"59":0.0003288026155664122,"60":0.054302130710573326,"61":-0.13331350073544393,"62":-0.5234726169967405,"63":-0.04209717796497716,"64":-0.27573374712215415,"65":0.1351202267410252,"66":0.09585654811894392,"67":-0.1368601092409251,"68":0.19556286127246528,"69":-0.30628020489481617,"70":0.17300226718272216,"71":0.39052287317021106,"72":-0.21741252554918114,"73":0.02377667833832868,"74":-0.6887065997900258,"75":-0.11722795667744178,"76":-0.2521379055617836,"77":0.5651668925665915,"78":-0.13256602272688695,"79":0.05869131043408408,"80":-0.24879678380228232,"81":0.08327751645134822,"82":0.16638445861203024,"83":0.3294937643266383,"84":-0.15968307685884203,"85":-0.38624638389579946,"86":0.10201014556002855,"87":-0.2495464481655364,"88":0.5141152714429699,"89":-0.2927372421254561,"90":-0.2521010472615968,"91":0.027913300203238987,"92":0.021435333282146828,"93":-0.24304321832691098,"94":-0.15150047822599091,"95":0.03846831201892779,"96":-0.22929376636291787,"97":-0.3386862578725589,"98":-0.13644803426617783,"99":-0.48592542059080823,"100":0.40030841557101177,"101":-0.027753048586492197,"102":0.27759682540572755,"103":-0.7019423166695102,"104":0.09639025765060846,"105":-0.08170136116591234,"106":0.04243598515483259,"107":-0.22452169867068617,"108":0.015461315799626415,"109":0.23337297944032762,"110":0.14366540782718895,"111":-0.3240431983917704,"112":0.3876035498436938,"113":-0.3006703624207623,"114":-0.344769100774363,"115":-0.018630813700632413,"116":-0.11874364673190677,"117":0.012499809022641563,"118":-0.061654607206174626,"119":-0.16546482283197528,"120":-0.3357263299208463,"121":-0.23229843444508164,"122":0.44601740130888207,"123":0.35177205820491286,"124":0.002074014247002869,"125":0.17983225631331948,"126":0.1370259757230193,"127":-0.4233447626707307,"128":-0.6145846264932909,"129":-0.246093644758205,"130":-0.34653579921599215,"131":-0.108579718975908,"132":0.33999209634008404,"133":0.2407625186987905,"134":-0.08523291155780241,"135":-0.2641932590435716,"136":-0.4660179078657592,"137":0.011202305134981357,"138":-0.11669935788077822,"139":-0.30541493486725685,"140":0.0072291495997215335,"141":-0.02141310597520185,"142":0.12701286440457324,"143":-0.5730045094156091,"144":-0.1268998348629065,"145":-0.0016958881540700107,"146":-0.16221773853885965,"147":-0.18114034584981895,"148":0.43546645251960137,"149":0.15339516813549275,"150":-0.23598109248820198,"151":-0.050247555464601606,"152":0.004371792614741858,"153":0.13223503470351208,"154":-0.11652387254540092,"155":0.05538415546593788,"156":-0.4435955152916626,"157":0.13615930415345684,"158":-0.30783912065100577,"159":0.3610617066004027,"160":-0.6451035470783419,"161":-0.4799969706017363,"162":-0.3240430050741961,"163":-0.09807344216665306,"164":0.11449898609589679,"165":-0.20992715684734142,"166":0.06912832316865566,"167":-0.11823237512618666,"168":-0.15549534441755328,"169":0.0894062278609512,"170":-0.23716824440975015,"171":0.20360270328117303,"172":-0.03184184150523587,"173":0.11576882027827354,"174":0.32631919459364456,"175":0.5635963479353205,"176":-0.36882819921047066,"177":-0.38678916624101367,"178":-0.031501672113972735,"179":0.15796490318098794,"180":-0.015299574113826549,"181":-0.04543528499214024,"182":0.4441787716342891,"183":0.23438475993405863,"184":0.3095351940091075,"185":-0.15119141163926195,"186":0.5748413863885579,"187":0.5590367305414814,"188":0.25433355222087217,"189":0.3430046822425082,"190":-0.3011194126416637,"191":0.13775782718532914,"192":0.025957695798427313,"193":-0.5353403034428735,"194":0.14344671181909635,"195":0.4180685114308124,"196":-0.06041523415097401,"197":0.12979279555858636,"198":0.5106888372902195,"199":0.11899387966612904,"200":-0.3225889011345259,"201":-0.10966370803749897,"202":-0.41501742085611054,"203":-0.29205890402811446,"204":-0.05209614446864861,"205":-0.18357344485150723,"206":-0.10616749000057764,"207":-0.3807947381788613,"208":0.18258488919459603,"209":-0.08587823421884096,"210":-0.27280633465369036,"211":0.11805575156781443,"212":-0.33365577022957027,"213":0.008259868217067123,"214":-0.2267329989495195,"215":-0.09284577445939766,"216":-0.09775235255523862,"217":-0.40896212087174055,"218":0.05040674992622751,"219":0.24323813950487858,"220":0.46023951502916616,"221":0.5278504885259406,"222":-0.30990360747713974,"223":-0.4132386814426916,"224":0.15811689408366952,"225":0.011985914044461447,"226":-0.12853837896088993,"227":0.05357201727128885,"228":-0.043945612030444045,"229":0.32861308240316667,"230":0.055393885380815924,"231":0.23282981310227577,"232":-0.287892940783757,"233":0.023501050521251104,"234":0.24873791802265713,"235":0.13934450174269292,"236":-0.800248149416231,"237":-0.05960347886938752,"238":-0.001062233436815821,"239":0.2757781782939147,"240":0.2558422172870741,"241":0.50175047224494,"242":0.4956417078675781,"243":-0.16006767847197842,"244":-0.25161828687937954,"245":0.43812542538234467,"246":0.33872405133510153,"247":-0.28269457318803937,"248":-0.38748795821779713,"249":-0.3068106587657881,"250":-0.13909741749983753,"251":-0.18107526015775402,"252":-0.09343974359212268,"253":-0.14126607401969757,"254":-0.11048429244264087,"255":0.4771258333458569,"256":0.36438184689792896,"257":0.08678600090473376,"258":0.476344263576412,"259":-0.028643722970162558,"260":-0.12260599524027098,"261":0.4166120397722928,"262":0.6227983564187957,"263":0.036379260187690776,"264":0.24759148318469115,"265":-0.15212324050500672,"266":0.13898871916488223,"267":0.15664142871778158,"268":0.09869985967733777,"269":-0.05199883700277457,"270":-0.5860482673161822,"271":-0.37089410066157397,"272":-0.21158214431731906,"273":0.41899218886863787,"274":-0.011217726579347685,"275":0.04761133190232176,"276":0.4557767103321426,"277":-0.21079223121583693,"278":0.07903466180554888,"279":0.35300477274703834,"280":0.10225205331425248,"281":-0.34562812330852377,"282":-0.22435934381524988,"283":0.2543268517467841,"284":0.3216356610453394,"285":0.0456038334846899,"286":0.047127421549636055,"287":0.16787561352786198,"288":0.10821781433839278,"289":-0.3381269930820503,"290":-0.0661726666240147,"291":0.11936750533241855,"292":-0.19531666932204034,"293":-0.3966677499570841,"294":0.051254596597715356,"295":-0.1738992972419563,"296":0.052129825092304106,"297":0.06641394135075128,"298":0.1290719053099738,"299":0.2976737046741139,"300":-0.12397334837849193,"301":0.19451688395553446,"302":-0.04081516305093109,"303":-0.036805204402982246,"304":0.2708562557832461,"305":0.4764014226862624,"306":0.0951696848992924,"307":-0.4164172820604971,"308":0.3338452623434657,"309":0.3265591326680925,"310":0.24459297529142646,"311":0.28132839474869503,"312":0.5257056176134343,"313":0.14139905519260285,"314":-0.17654299538112675,"315":0.320209229588023,"316":0.35403637830315593,"317":-0.0518857085962873,"318":0.6233288194747689,"319":-0.054972514035824094,"320":0.27841808823729214,"321":0.5161971810081484,"322":0.2484672813208542,"323":0.08035893735752302,"324":-0.28032926900755195,"325":-0.34974792094573676,"326":-0.2509137079208362,"327":-0.30824279583614533,"328":-0.18213444490360342,"329":0.1389308337682443,"330":0.20549555342181736,"331":-0.06399082621628219,"332":-0.8618252400231852,"333":-0.2068337240844279,"334":-0.010406054371432692,"335":0.01163748791337279,"336":0.11171793266902143,"337":0.2874323206480086,"338":0.4089878952763954,"339":0.5616836449502756,"340":-0.09775399014447803,"341":-0.2541636969140851,"342":-0.12548755788822621,"343":0.14660255554755625,"344":0.13350338114497556,"345":0.09436123932117364,"346":0.7687145119954565,"347":-0.4341357235617359,"348":-0.1909168056558023,"349":0.20908806585435555,"350":-0.07393138650834839,"351":-0.0704966470353146,"352":-0.3552857199900078,"353":0.1673484055560256,"354":0.027240915675782556,"355":0.23753770994070142,"356":0.5157025522550653,"357":-0.3906089875418193,"358":-0.183191435899464,"359":0.30910922594176693,"360":0.2501361301794447,"361":-0.611452625740988,"362":-0.23013615511341032,"363":0.21986222802662936,"364":-0.19221954144688536,"365":0.21966505487933083,"366":0.39343120478548155,"367":0.21715285657988143,"368":-0.30980656651509597,"369":-0.15154254384879146,"370":-0.4119474305489804,"371":-0.0662239938293774,"372":-0.6860499184126317,"373":0.5742378526299706,"374":0.6091295855549947,"375":0.5484934055705818,"376":0.19999649910212594,"377":-0.23113566898653123,"378":0.08000049254991055,"379":-0.1286835722199116,"380":-0.057998335741663055,"381":0.36761512166036203,"382":-0.177475996166158,"383":-0.41644673707353175,"384":0.21319490522667184,"385":0.24657958766907248,"386":0.2639228841388794,"387":0.03880379848253953,"388":0.6389171947853601,"389":0.4585096498566967,"390":0.32512707906869925,"391":0.2843882710356488,"392":-0.04225361418834682,"393":-0.06275167521603951,"394":-0.22362137392402237,"395":-0.00993801250203066,"396":-0.9236840351026157,"397":0.05773656902480636,"398":-0.1610771441462013,"399":-0.14809001508804506,"400":-0.5158177574373534,"401":-0.029146292696263773,"402":1.1950579092451832,"403":0.7003447980207171,"404":-0.22552071373718413,"405":0.23717634157456124,"406":0.4902758486170754,"407":-0.041919164712743706,"408":0.7585311446728163,"409":0.29129473714896165,"410":0.5920983537466639,"411":0.09137204263321688,"412":0.020590972027772013,"413":-0.5166934118350233,"414":-0.19692506291621242,"415":-0.6279619915503364,"416":-0.13108985414950222,"417":0.14566179925292358,"418":0.10007355437070448,"419":0.5774763882260326}},{"sx":1,"sy":1,"depth":420,"w":{"0":0.2524824712967161,"1":0.12342467844042229,"2":-0.15868588210422233,"3":-0.07021743763431103,"4":-0.37352633599804624,"5":-0.31192450828180734,"6":-0.3341666265903571,"7":-0.42287658615777074,"8":-0.2439341921053768,"9":0.08855061672287808,"10":-0.18362360445310635,"11":0.11903106873253108,"12":0.3135843018763079,"13":0.3265966069008317,"14":-0.02002676443883794,"15":0.01790361541299048,"16":-0.39800240813871407,"17":-0.5532103759057801,"18":-0.15337015200336293,"19":-0.7101642966600149,"20":-0.11997014023649558,"21":0.24020741715248,"22":0.2634535575426732,"23":-0.2299896395424025,"24":0.16775015606126134,"25":-0.2027393274307757,"26":-0.28978266287712456,"27":0.07184766713610616,"28":0.22319587019152745,"29":0.320308620004562,"30":0.20194491356457175,"31":-0.10763619483113694,"32":0.16963657570289148,"33":0.029628135883034274,"34":0.14417805076055537,"35":0.29132420802530856,"36":-0.1848509015984244,"37":0.4675474900594826,"38":0.5160564961578908,"39":-0.07214259192177938,"40":-0.2154652481635091,"41":-0.1872434309642331,"42":0.26360861972608446,"43":-0.3463585536600689,"44":-0.3222643621853699,"45":-0.33533133570729623,"46":-0.17721989610552655,"47":0.07446410208828348,"48":-0.41438706280239335,"49":0.14037511124049643,"50":0.5691435400656157,"51":0.21969645070218716,"52":0.18061722992645177,"53":0.17139932717699133,"54":-0.12904231260464716,"55":0.05315905604895491,"56":-0.3199015824068187,"57":-0.3785649616780234,"58":-0.209862836679459,"59":-0.12727815749366697,"60":-0.07921479241842957,"61":0.1330790342709975,"62":0.48825650765770756,"63":-0.22959866905753215,"64":-0.05169474811121724,"65":-0.0876982615196923,"66":-0.05401709303963634,"67":-0.020670310987355653,"68":-0.044096324170494694,"69":-0.34703980410499413,"70":-0.08177044919023024,"71":0.15970419785512668,"72":-0.13467791503151305,"73":0.07385485195725795,"74":-0.24295864243146892,"75":0.6132840631396368,"76":0.004033525424443012,"77":0.08550880285550297,"78":-0.5021547895314562,"79":0.03373441324348196,"80":0.05612260070953739,"81":-0.04709344887532586,"82":-0.43004287069496583,"83":0.2478472580733433,"84":0.06940135890253972,"85":0.47744370852255136,"86":0.48784841953704094,"87":-0.4745019202659129,"88":-0.39211356840199896,"89":0.09939132027953397,"90":-0.3069543462140787,"91":0.18635302311783572,"92":0.26944096036596626,"93":-0.4097944006486558,"94":-0.1975069130176788,"95":0.06910264915643029,"96":-0.04633010886092818,"97":-0.1992276764446274,"98":0.4638469006527318,"99":0.22205774742248283,"100":0.1454302156184802,"101":0.716353470065269,"102":-0.012493265870921777,"103":-0.25625817790629984,"104":0.43233083391179605,"105":0.05640752430836736,"106":-0.07904415160712894,"107":0.3231033053354155,"108":0.03215905997397273,"109":-0.44941081947614786,"110":0.46528636267980084,"111":-0.0646325513585232,"112":-0.3933484257471677,"113":-0.01157375779307447,"114":-0.5514044902080592,"115":-0.3080035363539151,"116":0.6969016637594174,"117":0.17960981589491254,"118":-0.428020038744422,"119":0.22106360835086564,"120":0.09484880266502808,"121":0.07472826189387581,"122":0.16528794728890892,"123":0.19831212792711544,"124":-0.18259858445696087,"125":-0.08935317089620146,"126":0.12775164229098027,"127":0.35286539028521985,"128":0.33343793227568325,"129":0.15721431118539703,"130":-0.01978861516107886,"131":0.27738946163473616,"132":-0.08401773290772727,"133":0.0680817498791333,"134":0.3082414561245712,"135":0.2859642529382704,"136":-0.06214475612999785,"137":0.05216322939243711,"138":0.41344563832882597,"139":-0.18426579464442414,"140":-0.2373257449771062,"141":0.7193718501556464,"142":0.5906023275062179,"143":-0.030706063981489458,"144":-0.30312351846234753,"145":-0.31541738476769643,"146":-0.6896123354114764,"147":-0.24005201044287514,"148":0.002438051598241468,"149":0.20366890104978042,"150":0.1452449621678398,"151":0.03128439165695621,"152":-0.22243112347050178,"153":0.2307591275902628,"154":-0.20980188014816784,"155":0.11639382770307895,"156":-0.10212870476387105,"157":-0.048073206788631674,"158":-0.13367324019806343,"159":-0.2777944176048836,"160":0.4014572083539111,"161":-0.024556354773810588,"162":0.04396944051366765,"163":-0.2158361779836008,"164":-0.13599387865528303,"165":0.06915932401682916,"166":-0.07696417660071624,"167":-0.3389918214101917,"168":0.3126364623083354,"169":-0.19686135145740727,"170":0.2157667055629929,"171":-0.06266851423020471,"172":0.014204486175609718,"173":-0.5068136207048142,"174":0.3564097418519346,"175":0.0493285894929875,"176":0.35659944578311875,"177":0.2092199350617939,"178":-0.03293943553183566,"179":-0.15090563933020446,"180":0.05809649042486188,"181":-0.18506374523779145,"182":-0.3311564784263812,"183":0.09979747378737187,"184":0.8477100410752725,"185":0.12520541894732334,"186":0.3197781959376311,"187":0.024313023005085067,"188":-0.45642437941404534,"189":-0.3010692463336649,"190":0.23656210677682038,"191":-0.025307272970675518,"192":0.41149434952485286,"193":0.17003010651587755,"194":-0.45140790571568845,"195":0.43571252534399507,"196":-0.0010554714894786313,"197":0.32196611632064454,"198":-0.17915369039249157,"199":0.09250920489850722,"200":-0.0055005798711224,"201":-0.07020406401324794,"202":0.39068210103295126,"203":-0.4018010502901704,"204":0.1952689343327088,"205":0.19892566061903938,"206":0.12446523266761701,"207":0.6411530188193335,"208":0.07119194098168327,"209":0.08399619316526512,"210":0.0356232570010906,"211":0.29005176687541645,"212":0.06148823312281926,"213":-0.22846166706388574,"214":-0.0957551322101729,"215":-0.05362217473925503,"216":0.45030417817538904,"217":0.24450272369045842,"218":0.14044909111981457,"219":0.15162577863527735,"220":0.37014280929494303,"221":0.27622569625672877,"222":-0.18666293821616448,"223":-0.10176642868999672,"224":0.004362022171438386,"225":-0.3894776529098806,"226":0.06574959595484978,"227":0.09738825931031492,"228":0.019052349337389727,"229":0.4533573264880612,"230":-0.227113977231151,"231":-0.09904976395982831,"232":0.1255310582137431,"233":0.08680253274721865,"234":0.152205413765247,"235":0.18740501709858887,"236":0.37093539781751383,"237":-0.14293623120361076,"238":-0.01848742726464474,"239":0.2802845138071673,"240":0.09478782050054894,"241":0.014690776290612214,"242":0.3863223661658677,"243":-0.26061824560736047,"244":-0.30712588800985385,"245":0.22057777669476078,"246":0.08079958966316855,"247":0.11667199834048174,"248":0.15110771122219033,"249":-0.8942364803458829,"250":0.49459191544191006,"251":-0.02018155934376138,"252":-0.005851817135681074,"253":-0.26452254459706603,"254":0.20309723016293357,"255":0.4549139221884983,"256":0.3060376940222955,"257":0.07665487758834483,"258":0.4730058628824237,"259":-0.004874585933246753,"260":-0.12402303742047596,"261":0.6048990345462348,"262":0.011460735907907393,"263":0.06945837947014094,"264":0.012708445609176978,"265":0.33206695987673035,"266":0.07689916628330772,"267":-0.07617709316103911,"268":0.4435039984131919,"269":0.10787807932568898,"270":0.15241585549427172,"271":0.17451193473487184,"272":-0.15257239907171904,"273":0.1505536657494874,"274":-0.1772953787879513,"275":0.4915605119093199,"276":-0.06771449007652636,"277":0.3330763752846112,"278":0.36925971273964536,"279":0.2624181484543339,"280":-0.24680235459249905,"281":0.11078891431964177,"282":0.25515342566982935,"283":-0.3493190402344439,"284":-0.010765133164496983,"285":0.09000029711593671,"286":-0.05357642001022354,"287":-0.11833427333764208,"288":-0.13163522725354665,"289":-0.06065669746925628,"290":-0.1248929446370423,"291":0.511292528331574,"292":-0.5010386071883376,"293":-0.17350886926238562,"294":-0.14862447754569916,"295":-0.2729982634145024,"296":-0.10825634454324613,"297":-0.1949957580708267,"298":-0.13419336013886776,"299":0.4051748651939983,"300":0.5377241318386546,"301":-0.35507740528813625,"302":-0.2085172448587593,"303":-0.05891290368220606,"304":0.6519972325786378,"305":-0.6425309400497383,"306":-0.0756152072645959,"307":0.15243106885537658,"308":0.3423224712206615,"309":0.15487196857594826,"310":0.6389092046575416,"311":-0.7255668381315924,"312":0.33867998033923236,"313":0.07517194590592578,"314":-0.08584631197978825,"315":0.0760139107071569,"316":-0.31644192382352915,"317":0.20185692481009307,"318":-1.0502300690085122,"319":0.8388867026049197,"320":0.5124392393816358,"321":0.10336809283713506,"322":-0.05551806162542859,"323":-0.2551180794166536,"324":-0.021230508094677757,"325":-0.35787102962518286,"326":-0.3726173052924211,"327":-0.15125138390678824,"328":0.3353830913543736,"329":-0.20465998424595785,"330":-0.10557235961415937,"331":0.09774727907149461,"332":-1.9494839193481663,"333":0.28373210264694365,"334":-0.09330306150759932,"335":-0.01963049067381729,"336":0.31817227243364066,"337":-0.12351939798440674,"338":-0.3115709838314855,"339":-0.6172115223786888,"340":-0.31427922390005664,"341":-0.19796096173123715,"342":0.04351955898385028,"343":-0.46771000529358575,"344":-0.13653953423313603,"345":0.5563736709483781,"346":-1.3997102257535345,"347":-0.595878023493867,"348":-0.09760501870527401,"349":0.07645633844781168,"350":-0.1777009889375718,"351":-0.32292771775155527,"352":-0.18798837576624292,"353":-0.7688673520084774,"354":0.0897438199573735,"355":0.0558014691483746,"356":-0.225866290119983,"357":0.16825110856368908,"358":0.004510890962999054,"359":0.5212881111611296,"360":-0.6183260687354529,"361":0.27291712470882357,"362":-0.00016818576561742688,"363":-0.01514772642855184,"364":-0.21299782623055705,"365":-0.6007304971870885,"366":0.4084290081244342,"367":-0.6145855522071425,"368":0.05766690027917638,"369":-0.3084944414286219,"370":0.3457574079484149,"371":0.4763493626998428,"372":0.20265454588341889,"373":-0.7811202643896494,"374":-1.0226900896424627,"375":-0.7152630808397565,"376":-0.08365979469394501,"377":0.14890956799809316,"378":-0.250310295373507,"379":-0.09193028193782661,"380":0.738489526371592,"381":-1.1208545632343478,"382":-0.042770440658575805,"383":0.04715682142144829,"384":-0.48501008174514565,"385":-0.1594081822515341,"386":-0.2816815221503173,"387":0.112096101128328,"388":-1.0533091962866097,"389":-0.45277528037387416,"390":0.30515964799841866,"391":0.2682731265400283,"392":0.10746578444717605,"393":0.524004693720892,"394":-0.035338090780419454,"395":-1.2251641527429291,"396":0.3155776351748937,"397":0.14973992009634104,"398":0.18658682317618105,"399":-0.14945037651762622,"400":-0.06167958217392613,"401":-0.9076221855079701,"402":0.7838358517149837,"403":-0.5109145750818673,"404":-0.07912359923749832,"405":-0.34552016281480064,"406":-0.08178186474620935,"407":0.12826782400279574,"408":-0.6737885907230894,"409":-0.14481578641227982,"410":-0.24704192097381594,"411":-0.30221930555826204,"412":-0.23600322000415067,"413":0.5225471820427666,"414":-0.16639649050279445,"415":-0.09122507533415142,"416":0.1570777178018011,"417":-0.15622762053558747,"418":0.5188463390595887,"419":-0.018411705966136616}},{"sx":1,"sy":1,"depth":420,"w":{"0":0.0004651137427189781,"1":-0.19245258335436144,"2":0.013817542432810843,"3":0.04823724308316634,"4":0.0218847692292131,"5":-0.21458805404209788,"6":-0.031592710662487214,"7":-0.08435346847636206,"8":-0.11495852575873623,"9":-0.2375576273369117,"10":-0.1568737186581067,"11":0.02866245120241036,"12":0.05156609010277271,"13":-0.08399522232087495,"14":-0.052537582062464276,"15":0.022165086696610426,"16":0.20702421302380705,"17":0.1631599578674661,"18":-0.03136709855093973,"19":0.021932988751673883,"20":-0.00010780367604759482,"21":0.04528411993739055,"22":0.08231027678770442,"23":-0.12526966429525482,"24":0.01617361324246415,"25":-0.06399129329736082,"26":0.04313396494338716,"27":-0.06278039918003851,"28":0.008605536185565869,"29":-0.06292924490660175,"30":-0.029745746455406112,"31":-0.24849050796280323,"32":0.047098755606057294,"33":-0.13949823903668865,"34":-0.0032623541024180084,"35":0.1207232034800646,"36":0.1356549601794647,"37":-0.09555785611178295,"38":0.06339780131143538,"39":-0.010947789798917673,"40":0.19786234361113958,"41":0.03272853393078224,"42":-0.1626736694236358,"43":-0.1785374231861958,"44":-0.04411078287914138,"45":-0.006411989120149462,"46":-0.16107968813929932,"47":-0.12033301108305137,"48":0.14058795719037034,"49":-0.11723063543432381,"50":-0.09863174209706703,"51":-0.049458840536071656,"52":0.06472410925376731,"53":-0.03771384943882485,"54":-0.14437031491025612,"55":-0.007239011997033432,"56":0.08596891305998719,"57":0.1111360587577803,"58":0.18298059067832137,"59":-0.14132092664744297,"60":-0.032973190496313066,"61":0.12272634560423486,"62":0.167181023781812,"63":-0.00336998615719291,"64":0.06704364340297878,"65":-0.09375748429105837,"66":-0.13568614594287035,"67":-0.11897990524382088,"68":0.037937707544545146,"69":-0.05882229600671018,"70":0.025355921551729645,"71":-0.08729901643789054,"72":0.053667598958209745,"73":-0.08067724834520244,"74":0.03752759992368168,"75":0.2670534222476557,"76":0.053654785439302716,"77":0.041386832632754125,"78":0.16825576939247497,"79":-0.08895510965316572,"80":0.029136781074425456,"81":0.029676634639070776,"82":-0.21534256830656281,"83":-0.01275749018548216,"84":0.15498267965224288,"85":-0.058762343443133136,"86":0.00814848613185033,"87":-0.10745453135530786,"88":-0.15753943892708835,"89":-0.07427474748529046,"90":-0.064760151853096,"91":-0.016659249528375858,"92":0.015117712007144542,"93":0.13066410409857576,"94":-0.014739782549611984,"95":0.07270867316553728,"96":0.030875245256100584,"97":0.08446043342577211,"98":0.11995357148306246,"99":0.05933994308033526,"100":-0.14399270734000136,"101":0.057930151060300715,"102":0.009681582723131505,"103":-0.13250095696339004,"104":-0.09171623031919478,"105":0.009665453503916822,"106":-0.13347714559085744,"107":-0.06192155047105771,"108":-0.16487689496673572,"109":-0.337654990096808,"110":0.03435154249305971,"111":-0.005926418882176246,"112":0.063514849975417,"113":0.012359821899940351,"114":-0.025052363484448874,"115":-0.02891200938753189,"116":0.15862273452442074,"117":-0.14776659628144204,"118":0.20263242641066473,"119":0.1879482219145919,"120":0.16611767653406742,"121":0.06309656965853895,"122":0.04601843521158422,"123":-0.053087414273942285,"124":-0.01923189512768698,"125":-0.04828317681222699,"126":-0.05965310103407491,"127":0.005029136193466405,"128":0.042678617394018674,"129":-0.0000017385142451303002,"130":0.17455117163174844,"131":-0.007067261283953321,"132":-0.02655845513507822,"133":0.11336533333546568,"134":0.15443696781521898,"135":-0.08878265356694626,"136":-0.06414403891754933,"137":-0.13048696904673135,"138":-0.018553088058039614,"139":0.17551957562967066,"140":-0.01518578489400643,"141":0.15805529904511698,"142":-0.1361551593547299,"143":0.0745868661169758,"144":-0.1271892781710056,"145":-0.049262352114018956,"146":0.054570892214500524,"147":-0.06581794063139185,"148":-0.08725997391029372,"149":0.04447507433357811,"150":0.03956546420303367,"151":-0.08993418004037831,"152":0.0999965275386069,"153":-0.10335667445321138,"154":-0.022033323543929718,"155":-0.1577299074648115,"156":-0.0012401003405447903,"157":0.051959360328464876,"158":0.1433327442836875,"159":0.06179733270372911,"160":0.058663200038307,"161":-0.027062984084034028,"162":0.18550384795529634,"163":0.11075090790378239,"164":0.000992441940694487,"165":0.1034587843998222,"166":-0.14498852405148446,"167":0.004828279907133077,"168":0.07428590653331066,"169":-0.060116889412176834,"170":-0.16068268122364332,"171":-0.04129943688794168,"172":0.1545703505388944,"173":0.11613362252342399,"174":-0.0005461828823652079,"175":-0.07945871276920698,"176":-0.18351207229208963,"177":0.07203214331067948,"178":-0.03085067047193837,"179":-0.08694357194615177,"180":-0.002692766393300295,"181":0.19095445514208453,"182":-0.01207494464204342,"183":0.07185758512522028,"184":0.0007848607552219307,"185":-0.012668088547608808,"186":0.11603697511279046,"187":0.022758147041204976,"188":-0.05475347810362157,"189":0.15303572540555516,"190":0.04773405631623628,"191":0.13482009334680645,"192":0.01838007149564429,"193":-0.017480016643905295,"194":0.005057875211999862,"195":0.027746135618761148,"196":-0.08771667039477384,"197":-0.15269944938501062,"198":-0.09302910235488972,"199":-0.09551568031022904,"200":0.08694993239766051,"201":0.010340506644206254,"202":0.10058207589576536,"203":0.04021931995106856,"204":0.03504352219312156,"205":-0.014483739513666218,"206":0.22587227552340305,"207":-0.11383403618924524,"208":-0.03998055683807779,"209":0.06738976593959736,"210":0.1166512137631658,"211":0.028272095136592575,"212":0.21041815732026778,"213":0.1629742563135446,"214":0.09180740483871815,"215":-0.06751848084075407,"216":0.0006052707568051473,"217":0.11423817343544547,"218":0.11092890513751223,"219":-0.07559653183727809,"220":-0.029913881963192734,"221":-0.05430779897552574,"222":0.16931793705760922,"223":0.15281829701068936,"224":-0.09860753871155871,"225":-0.11597183185099344,"226":0.06655373187235472,"227":0.06142256218860214,"228":-0.045697820974806125,"229":-0.0708634432967222,"230":-0.0838900720713056,"231":0.003307021905754953,"232":-0.1957234918441981,"233":0.12022556516190347,"234":-0.08962362093803145,"235":-0.07992251056790807,"236":0.04553442021460493,"237":-0.039292257952661766,"238":0.11117464345897039,"239":0.07994599601120793,"240":0.07599404051641767,"241":0.1686459737188207,"242":0.12344413281711077,"243":0.007131884226971883,"244":0.18218560531098074,"245":0.07506624885016719,"246":-0.1020985954058898,"247":-0.05849665420210581,"248":0.022589367854319316,"249":0.028166502682538536,"250":0.16067412958526903,"251":-0.0392761719461286,"252":-0.2438904531258685,"253":0.23914636010606893,"254":0.08625854316062904,"255":-0.20567504699050176,"256":-0.2095964883667762,"257":0.03439087827415644,"258":-0.05386830580255808,"259":-0.10108049572795594,"260":0.07854459127491169,"261":-0.11324183126720065,"262":0.002801431120912471,"263":-0.09554444070199693,"264":-0.15292843588071625,"265":0.06638968226463095,"266":0.059877442486161926,"267":-0.03354798942949741,"268":0.3187733036932436,"269":0.2558224179911889,"270":0.15546759986683686,"271":0.09004728346872178,"272":0.18825901537408146,"273":-0.016420962255649894,"274":-0.18223793160925028,"275":-0.14274637742345145,"276":-0.17843351104621108,"277":0.06713737795758956,"278":0.06173856624049056,"279":-0.06877843058003535,"280":0.06328625399653019,"281":0.00308905498800967,"282":0.006511570117220295,"283":-0.0977465445218699,"284":-0.06029204926611179,"285":0.1308867456943468,"286":0.044362545760497425,"287":-0.15657711563964377,"288":0.14223623026647703,"289":-0.12751533729533018,"290":0.2670635458916563,"291":-0.1719665100167004,"292":0.021406539295857917,"293":0.10775983523687137,"294":0.03249250664173333,"295":0.12234297704757775,"296":0.031604107441760974,"297":0.02038248490473267,"298":0.19909730596237415,"299":0.0832553791516504,"300":-0.16663978301638951,"301":0.006728533894578998,"302":-0.07960211391933979,"303":0.08957772870359879,"304":0.05768260127019162,"305":0.21787737728625065,"306":-0.12766009073829776,"307":0.07383942741353228,"308":0.057897156162601895,"309":0.053433731857467574,"310":0.12064229668326948,"311":-0.2154263858061907,"312":0.0855121243121715,"313":-0.04369673036910121,"314":-0.1326420323855578,"315":-0.009094941412553206,"316":-0.2120903452252004,"317":-0.17694853510388767,"318":0.17389365886028824,"319":0.11526236008870053,"320":0.11953894627077188,"321":0.07641562245953357,"322":0.14047836841076208,"323":0.03708064359334857,"324":0.01314157902990594,"325":-0.2588155034588491,"326":0.05541045951703522,"327":0.15145314935426393,"328":-0.036509250242231714,"329":-0.019550449836916638,"330":0.07630629033368015,"331":0.09559878957755744,"332":-0.06577774949812575,"333":0.04747608585486414,"334":-0.047733272318842154,"335":0.020058385102274763,"336":-0.23998142931188968,"337":0.0626780698856895,"338":0.35592636878656847,"339":-0.13293442172053996,"340":0.2566718230164091,"341":-0.09578371821149644,"342":-0.177708361713706,"343":0.16607162363007846,"344":0.06227414908661554,"345":0.1697274728129508,"346":-0.085156541613694,"347":0.14962797467252933,"348":0.18361051447169655,"349":0.004478020335050482,"350":-0.009660197197050172,"351":-0.09839486958481763,"352":0.018901449241416103,"353":12.278354204009874,"354":0.15107813867462777,"355":0.10542595898611411,"356":0.05202691503526327,"357":0.12405900585256066,"358":0.20791768385361278,"359":0.017468345271800943,"360":12.269402966529206,"361":0.006791225159068144,"362":-0.10665678505253072,"363":-0.09890038921314699,"364":-0.12401783191544502,"365":-0.04137995646495614,"366":0.10808959897072978,"367":12.129042551956077,"368":-0.007687583298469178,"369":0.07898136705186216,"370":0.051340326185238046,"371":-0.02850386871427961,"372":0.0160856436746921,"373":0.186115630549063,"374":12.153232555053938,"375":0.29521855606437514,"376":0.11652007716117517,"377":-0.07282662238657205,"378":-0.20073327626443793,"379":-0.03455468878121412,"380":-0.08244101835690751,