
//<![CDATA[

// a few things don't have var in front of them - they update already existing variables the game needs
lanesSide = 3;
patchesAhead = 50;
patchesBehind = 10;
trainIterations = 500000;

// the number of other autonomous vehicles controlled by your network
otherAgents = 9; // max of 9

var num_inputs = (lanesSide * 2 + 1) * (patchesAhead + patchesBehind);
var num_actions = 5;
var temporal_window = 0;
var network_size = num_inputs * temporal_window + num_actions * temporal_window + num_inputs;

var layer_defs = [];
    layer_defs.push({
    type: 'input',
    out_sx: 1,
    out_sy: 1,
    out_depth: network_size
});
layer_defs.push({
    type: 'fc',
    num_neurons: 32,
    activation: 'relu'
});
layer_defs.push({
    type: 'fc',
    num_neurons: 32,
    activation: 'tanh'
});
layer_defs.push({
    type: 'regression',
    num_neurons: num_actions
});

var tdtrainer_options = {
    learning_rate: 0.001,
    momentum: 0.92,
    batch_size: 128,
    l2_decay: 0.009
};

var opt = {};
opt.temporal_window = temporal_window;
opt.experience_size = 100000;
opt.start_learn_threshold = 5000;
opt.gamma = 0.98;
opt.learning_steps_total = 10000;
opt.learning_steps_burnin = 1000;
opt.epsilon_min = 0.0;
opt.epsilon_test_time = 0.0;
opt.layer_defs = layer_defs;
opt.tdtrainer_options = tdtrainer_options;

brain = new deepqlearn.Brain(num_inputs, num_actions, opt);

learn = function (state, lastReward) {
brain.backward(lastReward);
var action = brain.forward(state);

draw_net();
draw_stats();

return action;
}

//]]>

/*###########*/
if (brain) {
brain.value_net.fromJSON({"layers":[{"out_depth":420,"out_sx":1,"out_sy":1,"layer_type":"input"},{"out_depth":32,"out_sx":1,"out_sy":1,"layer_type":"fc","num_inputs":420,"l1_decay_mul":0,"l2_decay_mul":1,"filters":[{"sx":1,"sy":1,"depth":420,"w":{"0":0.10816503089880138,"1":-0.005675685747675764,"2":0.06445533926679865,"3":-0.017642723166347764,"4":0.0009179911163947467,"5":-0.016660261452793743,"6":0.0008381917223191106,"7":0.019836145980206363,"8":0.06787898690246454,"9":-0.007528950944143991,"10":0.0033215946170376855,"11":0.028326417913918295,"12":0.009450939321596403,"13":-0.03328989075970692,"14":0.06209564565603939,"15":-0.008444114012767234,"16":0.0005523422267179174,"17":-0.007707938551502233,"18":-0.0403893103338803,"19":-0.019105391596421342,"20":0.007645161836894905,"21":-0.0300597855660725,"22":0.030349391086207936,"23":-0.04007990234558081,"24":-0.00349812796970966,"25":-0.03714387953023537,"26":-0.01885234405749566,"27":-0.056201686555328215,"28":-0.018358518330439895,"29":0.01988724890588836,"30":0.037982663045774114,"31":-0.014365170326397602,"32":-0.03423186954948329,"33":0.0358975982168916,"34":-0.06630413704307324,"35":-0.003123932696308632,"36":0.03684641189677664,"37":0.030602041904437542,"38":-0.061377561853639295,"39":0.006514211786404003,"40":0.004654150697403185,"41":0.0008640885735261882,"42":0.08928939237042807,"43":-0.001347257630342077,"44":0.011871375119714594,"45":-0.0719230814340964,"46":0.018894963141519137,"47":0.026323409526821693,"48":-0.014881881981947757,"49":0.007281567933494594,"50":-0.011150645869152709,"51":-0.02799302726445076,"52":-0.023495290595308818,"53":-0.057823430985997015,"54":0.012346078227476645,"55":-0.000560763868181902,"56":0.009416728860394265,"57":0.01390167569855552,"58":-0.03423763045864742,"59":-0.009722682505434859,"60":-0.03262389144681405,"61":0.03668000482503529,"62":-0.023282583794502126,"63":-0.025491278929894487,"64":0.04162261060455909,"65":0.001847087100732753,"66":-0.023278082619891314,"67":0.02569204730122982,"68":0.0010095661892017052,"69":0.015442279634931978,"70":0.0011370281488610582,"71":-0.025903543403197202,"72":-0.002824547587866406,"73":0.027329635659311177,"74":0.02397655578566317,"75":-0.030378374878825463,"76":-0.06319656151157667,"77":-0.003335605756985116,"78":-0.0025296361657582843,"79":0.02412377835870734,"80":0.01164087489436774,"81":-0.07968452353093054,"82":-0.01481005753974311,"83":0.004541093930735361,"84":0.012958206291515128,"85":0.01786214092180684,"86":0.04353774252792026,"87":0.020295438744120986,"88":0.010742193268113107,"89":-0.02242686130170631,"90":-0.0006019177917201921,"91":-0.009918862001273208,"92":0.0007584824502596551,"93":-0.03854987592688314,"94":0.005370577884235492,"95":0.00981820041388884,"96":-0.021942141227903056,"97":-0.003168286614833433,"98":-0.05558362187889545,"99":-0.027409841956730147,"100":0.03167943538516543,"101":-0.05407010821733148,"102":-0.021942237095905533,"103":0.0060493559997665215,"104":0.08057612607133471,"105":-0.019193513093959738,"106":-0.036456716080624146,"107":0.0407392718235376,"108":-0.07001915579278756,"109":-0.04322110479557555,"110":-0.00870395649007238,"111":0.014167932725211285,"112":-0.06541583206973044,"113":-0.004274559030644198,"114":0.015868365755890887,"115":-0.054585419356217815,"116":-0.0279620826882547,"117":0.034952301942723134,"118":0.019677561913197472,"119":-0.08147426159752057,"120":0.012824852194387542,"121":0.020367157013626597,"122":-0.03090463260949327,"123":-0.007476810787996718,"124":0.004215713673782011,"125":0.04658810186452536,"126":0.025229863019839226,"127":0.02593469851853518,"128":0.0035211655237472753,"129":-0.022393414063823003,"130":0.0701348600732435,"131":-0.006278408077016727,"132":0.061667828052196644,"133":0.023589425946571988,"134":-0.041781774148492094,"135":-0.045638752734410044,"136":-0.10375513995207193,"137":-0.05965337361490571,"138":0.01654007279882985,"139":-0.029164846559522256,"140":-0.05035933540889758,"141":-0.03698857031028797,"142":-0.00962220079117461,"143":-0.03244809814686591,"144":-0.04922901958672025,"145":-0.047719386781001634,"146":-0.009069766561417603,"147":0.0009465044697061403,"148":-0.04711004730179975,"149":0.023087309012518546,"150":-0.014463181527867198,"151":0.03762785875907228,"152":-0.011830691693182037,"153":-0.028494492373829575,"154":-0.018248340572885442,"155":-0.020542885844390665,"156":-0.050372104973851556,"157":-0.06823723083442913,"158":0.021576897216202907,"159":0.03882018329249494,"160":-0.01685531788103494,"161":-0.032950139490609646,"162":-0.05169196438021948,"163":0.010827179099465832,"164":-0.05536889856539856,"165":-0.05025027861103589,"166":0.007813942327751329,"167":-0.02370687280505783,"168":0.006889680802876788,"169":-0.02219814720542776,"170":0.00027690323552359,"171":-0.044207676997287663,"172":-0.025280490326617302,"173":0.0185154729882976,"174":-0.0016648721153474713,"175":-0.012316237781724998,"176":-0.027001196987698765,"177":-0.09030091539930873,"178":-0.051901640593528434,"179":-0.007596966798790283,"180":-0.027388606899100963,"181":-0.05896867007385006,"182":-0.049154827219567786,"183":-0.023905927789837803,"184":-0.04440517662565347,"185":-0.013172318456511563,"186":0.037628540980630724,"187":-0.051470995680372285,"188":-0.010014727352271713,"189":-0.07446667847549192,"190":-0.0020179727949389665,"191":0.0015996084656927558,"192":-0.0393050510836486,"193":0.029523773193492635,"194":-0.013140075203568271,"195":-0.07514514311243643,"196":0.0209838392031328,"197":-0.10083556702736023,"198":-0.026119434163350476,"199":-0.06593298668915656,"200":-0.042657537753564546,"201":-0.04502121260841073,"202":0.010249040242523355,"203":-0.03905613383977755,"204":0.029109636870196458,"205":0.01655228602474795,"206":-0.06138209548731534,"207":0.03957300526063789,"208":-0.04324741380855316,"209":-0.021541991339797402,"210":-0.05933737799904314,"211":-0.040589677083169184,"212":0.017370012841993156,"213":-0.0520437582536561,"214":-0.016266472323991372,"215":-0.060598276175552336,"216":-0.06317466791159941,"217":0.019932195696487826,"218":0.024777328286565085,"219":-0.037840135555728516,"220":-0.051208857018575846,"221":-0.01116720793857018,"222":-0.017819978100209927,"223":0.03445853510877002,"224":-0.045682811234196055,"225":-0.040023414475223125,"226":-0.01659250935607645,"227":0.017433870284985786,"228":0.02005785710798991,"229":-0.07214953561184628,"230":-0.020973488999709338,"231":0.027517869330614994,"232":-0.04293558447257528,"233":-0.015244180630626217,"234":-0.0644783441829013,"235":-0.0014160879816277326,"236":-0.024439402475912145,"237":-0.06321101743009365,"238":-0.04015128157017692,"239":0.02059161039647845,"240":-0.016181684229858315,"241":-0.01719153327004518,"242":-0.06309170280276144,"243":-0.07442942113449756,"244":-0.05936470248796755,"245":-0.00490908412593387,"246":-0.03778200998225414,"247":-0.0992539864878275,"248":0.022002792033798096,"249":-0.001043781019854092,"250":-0.035813921638823576,"251":-0.02275335101289799,"252":-0.0044191258868369,"253":0.007033503793238096,"254":0.01107794969102538,"255":-0.06044284973103148,"256":-0.010041281869862077,"257":-0.031217586861273097,"258":-0.026774222200620947,"259":-0.026955043897713405,"260":-0.051088709593982415,"261":-0.006069277449908277,"262":-0.026034143508614396,"263":0.00973170998235112,"264":-0.09920487115308094,"265":-0.03486380024618797,"266":-0.022415017599872883,"267":-0.02884071726514523,"268":0.009824678737419913,"269":-0.06005985714295531,"270":0.025386773329255593,"271":-0.07739732485631551,"272":-0.05651410862950659,"273":0.03221023680383886,"274":-0.01308867283588987,"275":-0.023952508229486268,"276":-0.04201084037216136,"277":-0.011430679245199648,"278":0.007262931471255046,"279":-0.06498777747483733,"280":0.026704474935112892,"281":0.026974107149422645,"282":-0.003253731732260234,"283":0.03760367809074602,"284":-0.011481727464873075,"285":-0.013574387581220083,"286":-0.029603020017774467,"287":-0.040797220086043556,"288":0.05710860056449407,"289":0.0034603564976581035,"290":0.041887013003803965,"291":0.0008946720600725249,"292":-0.009784067993859112,"293":0.018207802822243786,"294":0.04480398772124163,"295":-0.00804182678336756,"296":0.0005327735478741335,"297":0.03470004376692117,"298":-0.026739791111040204,"299":0.030560004842392713,"300":0.002345738518765044,"301":-0.01353256906580546,"302":0.01694813557988405,"303":-0.018513252296964183,"304":-0.015958889078042913,"305":-0.08170600897742432,"306":0.016684319000855596,"307":0.0682074443249165,"308":-0.03582413742583401,"309":-0.01811784892462372,"310":-0.021909299693213063,"311":0.017271974955839584,"312":-0.02227123778973594,"313":-0.02763415118829135,"314":-0.013598178105855448,"315":-0.04967991546534437,"316":0.026926898172650614,"317":0.022983227299336544,"318":-0.07080694449158352,"319":-0.10689814905980755,"320":0.002500558268403781,"321":-0.045700818464582404,"322":-0.03897442513682659,"323":-0.027362791691921316,"324":-0.0002891725412492969,"325":-0.03976546271912456,"326":-0.07754258144319658,"327":0.028233706016281054,"328":0.036119202016038396,"329":0.01351759025694051,"330":-0.04585425264920817,"331":0.07339153628807737,"332":0.048542123923878695,"333":0.015243277675158835,"334":0.01450452549533067,"335":-0.024325719686389444,"336":-0.02801527754120439,"337":-0.031093341783688375,"338":-0.01368173578380828,"339":0.04297352534371669,"340":0.038304711998315165,"341":-0.0617585400330365,"342":-0.03264365507748999,"343":0.03751389278161827,"344":0.006973803839303038,"345":0.006447314856498118,"346":-0.0017351903776008661,"347":0.014353648381743134,"348":-0.012220549677350276,"349":-0.005930043079269891,"350":0.03483014602693615,"351":-0.0031332044329389036,"352":-0.003462405252880863,"353":-0.004503450711600862,"354":0.03693677434943993,"355":0.04442794072811024,"356":0.025973808994653787,"357":0.014332527986361051,"358":-0.031081247986080966,"359":-0.03188482175936183,"360":-0.029944793590970742,"361":-0.011820280148809101,"362":-0.030721902917484528,"363":0.0187458137569926,"364":0.04328931620972601,"365":0.0032267828283115093,"366":0.0371928135095126,"367":0.01691049912031837,"368":-0.015480902318669753,"369":-0.014509023596018598,"370":-0.016909938410224683,"371":-0.0071655901347378965,"372":-0.020237152442844526,"373":-0.01603266568799141,"374":0.005997582579031728,"375":0.07010836955638862,"376":-0.0250541474424504,"377":0.048937422574212276,"378":0.027179104757143645,"379":-0.0147966161962913,"380":0.01564876892785363,"381":0.029335672818346214,"382":0.011663250468728034,"383":-0.031205268784243834,"384":0.0035369419709295274,"385":0.04741899662628488,"386":-0.014354798165792949,"387":-0.005924616696671878,"388":0.03781398655519925,"389":-0.00032438052808242364,"390":-0.06952966245119095,"391":-0.0021123874205527574,"392":-0.016169173322637294,"393":-0.07114165397431733,"394":-0.05108347399450491,"395":0.03968457399841282,"396":0.049281893434492345,"397":-0.01761459075261899,"398":0.052082462554385464,"399":0.0035157626360557653,"400":0.010038980186533856,"401":-0.043669102562199136,"402":0.0319713510904016,"403":-0.08859505011148187,"404":-0.015677298307200674,"405":-0.021317732687594675,"406":-0.020823663021493112,"407":0.025576179923576383,"408":-0.02598004721811052,"409":-0.009801158684614883,"410":-0.017245291068288173,"411":-0.07398436681384343,"412":-0.004799534356860327,"413":-0.04878933113820667,"414":-0.059773672809421946,"415":-0.057329153757410684,"416":0.01434777133169113,"417":0.01863702872587816,"418":0.0293499460740424,"419":-0.07546386880944303}},{"sx":1,"sy":1,"depth":420,"w":{"0":-0.03073297777865797,"1":0.04208602808484049,"2":0.008552098584178106,"3":0.03070722955472941,"4":-0.02049741033348182,"5":0.027436144316976968,"6":-0.0395762567430564,"7":0.009051787300681118,"8":0.08707384354726931,"9":0.042349123683410886,"10":-0.02900707463774614,"11":-0.02667460057840081,"12":-0.0357285122404566,"13":-0.021638718497845898,"14":0.06679370408368952,"15":0.014042385620428803,"16":0.0838082267597666,"17":-0.030037260419967092,"18":-0.0019100263332800017,"19":-0.04933773642318782,"20":0.029576184085479535,"21":0.041999616919668456,"22":0.0047377262791162365,"23":-0.022825968999155614,"24":-0.06804715553042334,"25":-0.025512341197848863,"26":0.02608156653645149,"27":-0.013815697283619048,"28":-0.018225450441908073,"29":-0.023134981643749775,"30":-0.011508922642804998,"31":0.004780114445915132,"32":-0.06648757544772511,"33":0.00116588014172696,"34":-0.07515588280221447,"35":0.005687227526956007,"36":-0.015788514292964642,"37":0.013966969993580816,"38":-0.002482501697441482,"39":0.0012345559073441553,"40":-0.012353019256823656,"41":-0.07563745863747097,"42":-0.05224766233619584,"43":-0.032694155265150994,"44":-0.009294283144660572,"45":-0.003372379184765359,"46":-0.04313630748989081,"47":0.0033146501607030374,"48":0.04274809708444407,"49":-0.03566152761331037,"50":-0.02504403878912216,"51":-0.0006515442767879951,"52":0.046224793957462505,"53":0.012802148067346046,"54":0.005167206024995522,"55":0.018762794704063362,"56":-0.06766422424488065,"57":-0.016306379732731944,"58":-0.017934690272336237,"59":-0.02844071039809994,"60":0.002866192385246608,"61":0.005285511578450933,"62":-0.020914002379104953,"63":-0.08762308492919468,"64":-0.01326359671623952,"65":-0.03317826915846402,"66":0.024880196425567144,"67":-0.041148293185840575,"68":-0.0442033621588739,"69":-0.04123430136380386,"70":0.013726875010164116,"71":0.03809413126593383,"72":-0.012089961514259421,"73":-0.017501029401194905,"74":0.0507064672831909,"75":-0.004397377726112056,"76":-0.020522837045320565,"77":-0.06023872862976316,"78":0.04492352702580709,"79":0.009781802449378697,"80":-0.025306795813461427,"81":-0.019733266540952962,"82":0.02498595193919154,"83":-0.00549215630386574,"84":-0.008310387374193097,"85":0.03174788721692649,"86":0.05296071259317439,"87":-0.0033375324147897826,"88":-0.015135419612825073,"89":-0.03108863778775703,"90":0.06325107039629628,"91":0.028365123518308114,"92":0.032176730735416034,"93":0.04876023634218154,"94":0.014274510152983927,"95":0.07882588305450293,"96":0.014353252815120643,"97":0.005552341034699969,"98":0.042692418490186144,"99":0.023150110771556893,"100":0.03008804320010067,"101":0.04535988766147811,"102":-0.0005473724451228628,"103":0.014194169855697525,"104":-0.03608647546318217,"105":-0.05635618111234636,"106":0.02365918042687438,"107":0.024865602925317667,"108":-0.03426577429537393,"109":-0.035627191716501416,"110":0.011022251136145226,"111":-0.01733567712661655,"112":0.01938374636859178,"113":-0.03491545328078504,"114":0.060393250735516706,"115":-0.009898900304611942,"116":0.026187472093953904,"117":-0.019226143147802917,"118":0.05573221118262155,"119":0.05123763690830163,"120":-0.06481677171262078,"121":0.040224620766324035,"122":-0.006649004513417817,"123":-0.035805495823694855,"124":-0.03606581347742964,"125":-0.058569604492564854,"126":-0.030983511385271927,"127":-0.03546816347432444,"128":0.021114924161232285,"129":0.06406823684375153,"130":-0.04782595675392561,"131":-0.0744621688879353,"132":0.010362292845629673,"133":0.024482784826378723,"134":0.020930905733709104,"135":0.08949576887853618,"136":-0.014152571802397353,"137":-0.0011113752083852916,"138":0.0265474985290896,"139":-0.0025296966595520077,"140":0.016476871841546493,"141":0.035425886733149434,"142":-0.03165606182479238,"143":-0.023223904172510815,"144":0.021823877625149306,"145":0.06576977078932837,"146":-0.05298797419142595,"147":0.03252683190018216,"148":-0.0035404249091001137,"149":-0.01251990403763913,"150":-0.026535436778643447,"151":0.05476526901318835,"152":0.05292941133474113,"153":-0.01808600947270413,"154":-0.04335059093109993,"155":0.009383234219283923,"156":-0.02635525748988915,"157":-0.02819467752723747,"158":-0.03185924963853022,"159":0.011033229835474636,"160":-0.032660955524883496,"161":-0.08915213268347476,"162":-0.05719992323282948,"163":-0.030894646719239152,"164":-0.02484695656706273,"165":0.001756327325187109,"166":0.05104890982144533,"167":-0.04430000172922783,"168":-0.05162751825826335,"169":-0.033560669107496534,"170":0.017867774280534186,"171":0.012301907012584929,"172":0.0171714196743969,"173":0.03282946084995935,"174":0.010272631085083856,"175":-0.03659774586517492,"176":-0.028231194965780252,"177":0.018621968659014006,"178":0.004039120775284879,"179":0.03706886419493848,"180":-0.10460873185814756,"181":-0.034337815322465645,"182":-0.028371386630124208,"183":0.022265297636326096,"184":-0.004116333628844881,"185":-0.010219880781807132,"186":-0.017523523752516926,"187":0.04182381722267442,"188":0.0033346407815195715,"189":-0.0195713807354229,"190":0.022034823633466104,"191":-0.03312497714330034,"192":-0.03025204912082621,"193":0.007531669186100182,"194":-0.019395635782130043,"195":-0.018921247909489118,"196":-0.08016324670239992,"197":0.029656796242023845,"198":-0.06379481707648721,"199":-0.045198392768949734,"200":-0.06554033799553188,"201":-0.00887233051217774,"202":0.02056414660776812,"203":-0.039332624418239544,"204":-0.032701391837661714,"205":-0.06029531340777102,"206":-0.045213575756525244,"207":0.009970916937430888,"208":-0.05246960262391275,"209":-0.008176070985446563,"210":-0.050197823990539486,"211":-0.0010587682504780444,"212":-0.012975561498204561,"213":-0.08809036709275149,"214":-0.002827256454828978,"215":-0.034807890396381366,"216":0.01604255507039729,"217":-0.026866957784002485,"218":-0.025059007121230156,"219":-0.027132277388760388,"220":-0.03959907945395858,"221":0.07063182572404422,"222":-0.05060325550560802,"223":0.028491897725286503,"224":0.012515325673273313,"225":-0.07323086336751095,"226":-0.006239492048818227,"227":-0.0026411448411520597,"228":0.00775420147192518,"229":0.01934899057876653,"230":0.02310594034742106,"231":-0.013750748470284681,"232":-0.025055233304084205,"233":-0.02776823422781876,"234":0.011851491473298113,"235":-0.03055044537913799,"236":0.04993802105231782,"237":0.047985693269305706,"238":-0.04142827764211884,"239":-0.02075562526455754,"240":-0.0584800398845603,"241":-0.05432189057587723,"242":0.02288960222496078,"243":0.0336816156614528,"244":0.016579554922652135,"245":-0.024976036851670845,"246":-0.028498394601762827,"247":-0.012847966421056017,"248":0.030484675705428694,"249":0.006580052694920751,"250":-0.0475789767982025,"251":-0.012437055931828403,"252":-0.06701664401654835,"253":-0.017635878596721315,"254":-0.03808505480996728,"255":-0.0009765772578366047,"256":-0.027915977829765223,"257":-0.042125806411083884,"258":0.059089163064998056,"259":0.01230780343093405,"260":-0.09186426608667415,"261":-0.053364645416422565,"262":-0.00665194476697308,"263":0.06022967154040174,"264":-0.02940936930204442,"265":-0.021019288899590434,"266":0.002223809358480774,"267":0.021019228820711142,"268":-0.026949822196854337,"269":-0.03861523073957233,"270":-0.024951652251494327,"271":-0.06247337555540167,"272":-0.03134771080843375,"273":0.06298961584498274,"274":-0.0025702816527430738,"275":-0.018543042072488677,"276":-0.02146937868294645,"277":-0.04296877151906497,"278":-0.053918365091605504,"279":-0.02782720225147472,"280":0.053235110253127285,"281":-0.08603197175539705,"282":-0.07521931990636097,"283":0.0032548782336033364,"284":0.013994576483735923,"285":0.021557858029279696,"286":0.05107094344423629,"287":0.029779203223109264,"288":0.0035605205331661065,"289":-0.045790850483595005,"290":-0.07190907701471,"291":0.001996286329246628,"292":0.018640547174072854,"293":0.019384063500773548,"294":0.029329594966050875,"295":0.029647213675276625,"296":-0.02970187942780993,"297":-0.024550557519945365,"298":0.021992896514289297,"299":0.007613617749655827,"300":-0.008615899667305082,"301":0.01750469386059073,"302":-0.09127946720272252,"303":-0.03359878399729192,"304":-0.019977230181666198,"305":-0.006582631059426396,"306":-0.0033729736611877127,"307":-0.032856463332988334,"308":-0.016476673879669786,"309":0.01105458067403203,"310":-0.09957780819409122,"311":-0.013806501462373548,"312":0.03589452985081876,"313":-0.004924823108329546,"314":-0.030408988570466484,"315":0.023891651882232592,"316":0.07296923616222635,"317":-0.04986303810005171,"318":0.01140476301728584,"319":0.008244954542651365,"320":0.00006105548660329058,"321":0.04348767562266369,"322":-0.014362896608153434,"323":0.005732070307251115,"324":-0.02056370000752778,"325":-0.015118265519949102,"326":0.03153438145051609,"327":0.003970566830752338,"328":0.03333001969031958,"329":0.03830429592535643,"330":0.0006116794567767342,"331":-0.01768413351139752,"332":-0.014755333989295885,"333":0.001957346072924825,"334":-0.029583191036557675,"335":-0.040404946751414796,"336":-0.04551747489329543,"337":-0.027579463946089525,"338":-0.024735943780930233,"339":-0.027410420095532993,"340":-0.0019277200820660937,"341":-0.024356990409788896,"342":-0.005913213758777256,"343":0.015673665337036305,"344":-0.019794765591786723,"345":-0.03373836318952182,"346":-0.015960147901738428,"347":-0.021094269686303225,"348":-0.025963437471737162,"349":-0.043538266802945084,"350":0.02293162276593827,"351":0.00004520717372767182,"352":0.0832818516868409,"353":-0.00397022564320865,"354":0.04998908138055576,"355":-0.07595250611283265,"356":-0.051379480738337056,"357":-0.0267070005558541,"358":0.1152847314472313,"359":0.053067344311628066,"360":-0.07038174773249094,"361":-0.004753984778736278,"362":0.001849629361373057,"363":-0.03393664793561925,"364":-0.030570335010725962,"365":0.07849274788256656,"366":0.01112038773147608,"367":-0.025358173811709833,"368":0.02664541892478983,"369":-0.04314892516115403,"370":-0.061570978979562145,"371":0.00015891162302422837,"372":-0.008604048795616643,"373":0.015446235371616162,"374":-0.07759111753448288,"375":0.010954138626729228,"376":0.05910143445920105,"377":-0.01784706979259028,"378":0.01704205934251474,"379":0.03219844826058875,"380":-0.019218996550521585,"381":0.022346557305270014,"382":0.053900710222041535,"383":-0.013570270603602271,"384":0.0005538577231866876,"385":-0.0017640179015758176,"386":-0.016876256595669683,"387":-0.035697735705242935,"388":0.01213128405903453,"389":0.007926474682317436,"390":-0.03259351156916805,"391":-0.054682199273408685,"392":0.051376234225915494,"393":0.02065133608789771,"394":0.006484513498227128,"395":-0.07666898618499994,"396":-0.04585695321855213,"397":0.03021027432111388,"398":0.000703060663945005,"399":0.0019124646919268773,"400":-0.04739193243093358,"401":0.008706284383764548,"402":-0.1426704608574665,"403":-0.056642243543461854,"404":-0.030894375641938674,"405":0.01670285955162224,"406":0.013160551596285635,"407":-0.046524933109464935,"408":-0.004546481486918623,"409":-0.017387279589189335,"410":-0.10080048540395582,"411":-0.009118929066503315,"412":-0.026087672689616946,"413":0.03050648376046958,"414":-0.02462684266538527,"415":0.0619489023536671,"416":-0.05389169928353618,"417":-0.027398345986279014,"418":-0.06699805697837874,"419":0.06410409696080503}},{"sx":1,"sy":1,"depth":420,"w":{"0":-0.1330056562865646,"1":0.471127031771392,"2":0.19434057279566452,"3":0.04598599406911495,"4":0.0007972854587249519,"5":-0.24688098847925533,"6":-0.14232750254660603,"7":-0.29446744981801887,"8":-0.05021989792389902,"9":0.19191400037521839,"10":0.0913742604521236,"11":-0.038171646974002355,"12":0.15376916727959888,"13":-0.1514327630176162,"14":0.03791956976127281,"15":0.09311152369046703,"16":0.25348047813935376,"17":-0.40056432523961344,"18":0.3472045989552158,"19":-0.6358473094372538,"20":0.4624236309996072,"21":0.045745148990501215,"22":-0.06521691639240072,"23":-0.37292219508444374,"24":0.28559367835585514,"25":-0.44326834306173163,"26":-0.049267765423845825,"27":-0.06228835713429562,"28":0.2648446383498774,"29":-0.22137621397700474,"30":0.3568114840732079,"31":0.20850248653745934,"32":-0.11588174991583505,"33":0.5296394995627267,"34":-0.1478283345334873,"35":-0.19021790889854995,"36":-0.14203444352712352,"37":0.07740685594745628,"38":-0.36992387057109954,"39":0.4011674704813495,"40":0.194918894869659,"41":0.27568059198024364,"42":-0.30490969845470367,"43":0.2618150780955736,"44":-0.10021368463402622,"45":-0.2960971067854816,"46":0.12803389335218668,"47":-0.42102643810434154,"48":0.061978119718710804,"49":0.4637866972260327,"50":-0.25646454077628195,"51":0.3572157674871313,"52":0.031329764021996956,"53":-0.11012178439411739,"54":-0.24607685234907226,"55":-0.08327078886402878,"56":-0.28187661145627196,"57":0.2151391904186428,"58":-0.20193565693550877,"59":0.05716066729018606,"60":0.15944794887223718,"61":0.4163456532385959,"62":0.110196371996096,"63":-0.4098206441160335,"64":-0.5039475524226577,"65":-0.05644132732740452,"66":-0.1539984129436922,"67":0.13614068743873614,"68":-0.08728361762102907,"69":-0.39058112602521056,"70":0.31455279616402937,"71":-0.3288450101363435,"72":-0.007982074716579152,"73":0.05725962370428654,"74":-0.04022736214974372,"75":0.05160050087967682,"76":0.4391580563727995,"77":-0.004878290367794371,"78":0.4632739831144974,"79":-0.07574921371804028,"80":-0.137805068832743,"81":-0.15924149096973378,"82":-0.029609523633090076,"83":-0.24018306137329687,"84":0.08038494025257231,"85":-0.5932771779034635,"86":-0.24259186101921312,"87":-0.4887627533740926,"88":0.32515047785353546,"89":-0.3784048385347214,"90":0.8553474817275828,"91":-0.933518957107125,"92":-0.23550163740411603,"93":-0.1787330840214312,"94":-0.07961668942486531,"95":0.07709864451384044,"96":0.5133573996793258,"97":-0.4665928846639307,"98":0.5407456703230087,"99":0.210273057117634,"100":0.15779795865061644,"101":0.24171509008794584,"102":-0.24003216661113536,"103":-0.5105459161346718,"104":-0.5696732202045297,"105":-0.42533710304669275,"106":-0.03853623623107174,"107":0.39595530748510294,"108":0.021521077746162624,"109":0.09437390677819027,"110":0.3286753209775949,"111":0.10018432742981495,"112":0.3370216316330008,"113":-0.03131130685392668,"114":-0.3168369667773308,"115":-0.13317612719979466,"116":-0.5194715514339552,"117":-0.11907559879432907,"118":0.14892519638314672,"119":0.11072077213296647,"120":0.16589907229037948,"121":0.0846890255901439,"122":-0.17491783500847313,"123":0.35391551119183806,"124":0.0018838955568819412,"125":0.49321208159568036,"126":-0.18456891779262294,"127":0.21790867774664952,"128":0.3611490650150163,"129":-0.24582558469244206,"130":0.018511084993380732,"131":0.23782917734785206,"132":-0.30753163765752184,"133":-0.0903919045930121,"134":-0.31309806638286936,"135":-0.26014082568913444,"136":0.05889081745365204,"137":-0.42156368345229345,"138":0.04439931741685492,"139":-0.4520610618948128,"140":-0.08128049567750198,"141":-0.06477737354614338,"142":0.2568797860475433,"143":-0.3592342640447098,"144":0.43760128181009655,"145":-0.34668759779740754,"146":-0.23690121523646587,"147":-0.13034210351230438,"148":0.03751912342447255,"149":-0.07055581522696011,"150":0.172019717703721,"151":-0.3176625314776908,"152":0.10157315008871659,"153":0.9048274322184637,"154":0.12214331504663359,"155":0.3139278726873706,"156":-0.20540941612623118,"157":-0.349572903053267,"158":0.20294866386782023,"159":0.8519400763896615,"160":0.11212256471847705,"161":0.30549792244594526,"162":-0.48170058185360176,"163":0.18987087108526216,"164":0.06309452665218702,"165":0.0920030156386621,"166":-0.7825648236171805,"167":-0.14480008078479473,"168":-0.5919240621057437,"169":0.46584971691154187,"170":-0.3298081940376354,"171":0.49936661298790597,"172":-0.2275356290801906,"173":0.08482547769560739,"174":-0.3570866768146272,"175":0.41829674840515296,"176":-0.35268868687632493,"177":0.37001091784601825,"178":0.090080486492433,"179":0.04053675633635089,"180":-0.38918578087801814,"181":-0.11734989967731069,"182":0.17291226828999862,"183":-0.3771373568079053,"184":-0.15789913631453628,"185":-0.37678388926370876,"186":-0.14495596541640454,"187":0.44019585845185366,"188":0.5186063694363499,"189":-0.37956984009244166,"190":0.3195854385887804,"191":0.26884109917977606,"192":0.08964406467809181,"193":0.3561103867960269,"194":-0.549788369502096,"195":0.0613826111045339,"196":-0.3725714824151312,"197":-0.5184885568503628,"198":-0.21706963969881102,"199":0.2094142010483981,"200":-0.30829602157478414,"201":0.5668871080315827,"202":-0.051213142296201726,"203":0.5375746455667282,"204":0.21957908129520193,"205":0.19129284054500667,"206":-0.16157349167540838,"207":-0.1501705094662139,"208":-0.2902226940289617,"209":-0.02557508517734089,"210":-0.35980925520777063,"211":-0.2293596950600955,"212":-0.2594649364740621,"213":0.34822018911901836,"214":0.22124949636949545,"215":-0.13238704197138712,"216":-0.16642893399309444,"217":0.45230822231844586,"218":0.014108707081636057,"219":0.0781545509472435,"220":-0.33445327879464265,"221":0.12026448159629842,"222":0.5332790844528024,"223":-0.2348212930273061,"224":0.09713198541725247,"225":0.05046795347506126,"226":0.3004332282136539,"227":0.21167109481318824,"228":0.08862393635436436,"229":-0.5062821476817282,"230":0.5135739654925968,"231":0.24285043129346753,"232":0.12697210008273171,"233":-0.3305104376877335,"234":-0.18553260751078468,"235":-0.2041820592162744,"236":-0.08302049022736224,"237":-0.5572544718633944,"238":-0.5767920124858267,"239":-0.10751901342731991,"240":0.6968732454935576,"241":0.11573002124607168,"242":-0.1870906032262901,"243":-0.18669873490302566,"244":-0.13985425920640118,"245":-0.08828696337900217,"246":0.02784952670487897,"247":0.2631498322520157,"248":0.32090789855339436,"249":0.5709507307111855,"250":0.9260438359434344,"251":-0.011512631329534841,"252":0.4452807781786266,"253":0.15155070045118826,"254":-0.136364285635169,"255":0.03381047009120274,"256":-0.271078984443946,"257":-0.5960448151435095,"258":-0.5129822734875756,"259":-0.547075739450919,"260":0.4330275549336729,"261":0.9035871140939702,"262":0.421154889350825,"263":-0.028376921747280705,"264":0.11311078943373554,"265":-0.15388219500847392,"266":0.16192453258580145,"267":-0.034152958277941875,"268":-0.008734271656762226,"269":0.23737952425225534,"270":-0.4116832266970013,"271":-0.14465493588548467,"272":0.11406948063121074,"273":-0.23245432302465877,"274":-0.5138437315626065,"275":0.17094439919827006,"276":-0.14139995303235392,"277":-0.07162278814581405,"278":0.23565963659574604,"279":0.03453259020913319,"280":0.33357726567543905,"281":0.4712642379699813,"282":-0.45820699966289347,"283":0.5309623542597348,"284":0.19474196474340774,"285":-0.002150860248907519,"286":-0.08549406231762702,"287":-0.14812930710592542,"288":0.16547350231529812,"289":-0.025920640983089504,"290":0.7410527928706395,"291":0.02174316508043706,"292":0.07858463407134401,"293":-0.15032974912190977,"294":0.3602602046346921,"295":-1.0981098723903653,"296":0.9635028833214567,"297":1.4592150742848315,"298":-0.0785165876798181,"299":0.40010816722497006,"300":-0.09521504241917256,"301":0.017296768759726813,"302":0.2325992884859261,"303":-0.4922055699079844,"304":0.002662483746888472,"305":-0.11765197705272852,"306":-0.70578158288893,"307":0.2292468339698398,"308":-0.30389535217290875,"309":-0.04921899475014756,"310":-0.018416744032233683,"311":0.09721489484529194,"312":-0.3599888817920686,"313":0.6835874200398461,"314":-0.12382109628141878,"315":0.23896974341424987,"316":0.2114594889618587,"317":-1.0818445387757618,"318":-0.5172879225096334,"319":0.023693442975545882,"320":0.06042848133342985,"321":0.21001245577419458,"322":-0.2748596466837969,"323":0.30858345552420496,"324":-1.7778311522718748,"325":-1.3622978844137597,"326":0.033948235186677535,"327":-0.4316502955927915,"328":0.6478555049968723,"329":-0.0523679792770903,"330":0.614527969859671,"331":-1.7281860808034282,"332":-0.5587417148958995,"333":-0.15691469839698757,"334":0.35740694418261276,"335":-0.5460766907788105,"336":-0.009034543511359256,"337":-0.19143847591272334,"338":-0.30384038520461404,"339":-1.2540437852806405,"340":0.4880794194364585,"341":0.34931796692996436,"342":-0.16409849236074364,"343":-0.014006072379818737,"344":-0.3173687337107214,"345":0.7399369026529248,"346":-0.4813829365023129,"347":-0.32145628592080794,"348":-0.3112173147402012,"349":-0.22414214243926792,"350":0.27284469881168977,"351":0.5944071181858243,"352":-2.860727032578287,"353":0.9278604455944236,"354":0.2583883277636076,"355":0.2029614544932948,"356":0.30368035771571833,"357":-0.20402005829652847,"358":0.3691322397290141,"359":-2.290765217663995,"360":0.8535122707511142,"361":-0.42239069626163456,"362":-0.2585292254780661,"363":0.45914341524285185,"364":-0.19946079496100613,"365":-0.15789004068968163,"366":-1.9265773926525804,"367":0.6090598379112766,"368":0.5677989454541575,"369":0.32133923977024625,"370":-0.6673297261372949,"371":0.7336484567862234,"372":0.07717730203495686,"373":-2.719985934293354,"374":0.4199101241428063,"375":0.10646617470570822,"376":-0.006899191162938117,"377":0.4060658641521228,"378":-0.48254738044747664,"379":0.5410282712546736,"380":2.0093248562246897,"381":-0.029113155102859774,"382":0.19116355160381815,"383":-0.30275410418207643,"384":0.10081154749094594,"385":0.5854628885843445,"386":-0.351158089105671,"387":-0.1259541637429026,"388":-0.3123316850738035,"389":-0.014029074015878377,"390":-0.09902759397152502,"391":0.0621594484248684,"392":0.15862711167350008,"393":-0.2557417575564934,"394":-0.3801819589521179,"395":-0.4997347641540352,"396":-0.13046741701785566,"397":0.6572587855618586,"398":-0.3221554988822699,"399":-0.24082162115670933,"400":-0.04422561322459265,"401":-1.0930021707088684,"402":0.4314761550652931,"403":0.09706795862833793,"404":-0.4528964651850026,"405":0.3075483211030663,"406":-0.3003735995543661,"407":0.25066113038536186,"408":0.0023190716574933226,"409":-0.3934933284647283,"410":0.02784584286864234,"411":0.10008629416209217,"412":-0.2183394112874957,"413":0.18229442097054505,"414":0.0402947296837824,"415":0.21588946680026325,"416":-0.35028369287442546,"417":0.148627852996027,"418":-0.08842425122193727,"419":-0.010999103069538432}},{"sx":1,"sy":1,"depth":420,"w":{"0":-0.3923912692239162,"1":-0.020649535095019815,"2":0.2971007878070878,"3":0.038830179192740816,"4":0.13945596302201688,"5":-0.1632276249236402,"6":-0.08140283029821951,"7":0.24562632056042674,"8":0.03402493001261977,"9":0.12670209397544993,"10":-0.04043681259294618,"11":-0.26810774980519864,"12":-0.10420929757786648,"13":0.13033030078452815,"14":-0.04398225499496689,"15":0.13025394774285903,"16":-0.08360860534349016,"17":-0.1334422488982024,"18":-0.18321377769866254,"19":-0.09675591294598666,"20":0.1942842260873654,"21":-0.18960890315650036,"22":-0.02389977717896626,"23":-0.0950655231524809,"24":-0.06837348742492436,"25":0.08926652013834593,"26":0.2085969699524559,"27":-0.01876650899032992,"28":0.06657174357213372,"29":0.21140509337126873,"30":-0.22356249570153033,"31":-0.04047666757574052,"32":-0.20594931122396626,"33":-0.052443788916428286,"34":-0.38473431933493796,"35":0.1996870837364921,"36":0.16933076744153536,"37":0.14316343077806756,"38":0.04747450500080974,"39":0.17811791146661266,"40":0.02027037080210023,"41":0.1239980158048539,"42":0.24378953337401643,"43":0.3879235779760329,"44":0.25609459685494174,"45":0.1163374015447605,"46":-0.004276714281037915,"47":0.00299572290317158,"48":-0.14025083599009333,"49":0.18833639290749862,"50":0.45723846582895683,"51":0.16715541699964617,"52":-0.21242084246617907,"53":0.29038239677464045,"54":0.022155482778132028,"55":-0.043371683298156126,"56":0.20406612135378785,"57":0.19346607535468466,"58":-0.09788194087398767,"59":0.12206232679540295,"60":0.07253429042846218,"61":0.17942659683034454,"62":0.25702800935665926,"63":-0.01688336634221941,"64":-0.13487133211656355,"65":0.031645408610632565,"66":0.0795371565362924,"67":-0.07094188461293065,"68":-0.32414956536868217,"69":-0.16322717483307464,"70":-0.12992575883041094,"71":-0.18525448594854477,"72":-0.0013285804963459747,"73":-0.28694237671762857,"74":0.01634232357005225,"75":0.07772616901480818,"76":0.19973713820916,"77":0.04399867160970078,"78":0.11902715434532399,"79":-0.055773525675208574,"80":0.14201453863493868,"81":-0.30987838452453376,"82":-0.07506976031824475,"83":-0.07234116233192069,"84":-0.24416944381741193,"85":-0.006447244914922906,"86":0.035292303112385244,"87":0.13511111334297166,"88":-0.06541456659265434,"89":-0.24682753106775895,"90":-0.06630401617857061,"91":-0.07026682640051674,"92":-0.07100413691369567,"93":-0.18835441909066883,"94":-0.14849977944685946,"95":-0.21141055911582973,"96":0.18227187577229792,"97":-0.0017099395612012484,"98":-0.1547340896016064,"99":-0.10144343595768324,"100":-0.2594717532984496,"101":0.0653233442328571,"102":-0.10187839378214165,"103":-0.08576644118057856,"104":-0.31725358938114656,"105":0.020715377915669117,"106":-0.4405682781664589,"107":0.13156665511670876,"108":-0.05811720366942939,"109":0.028400342859070688,"110":-0.08370781048980497,"111":0.0036806519493809424,"112":0.07822342014486248,"113":-0.08743771406717975,"114":-0.12902286568732793,"115":-0.168993572491897,"116":0.06494884341920437,"117":-0.021498876521032377,"118":0.11735987925026325,"119":-0.07834233206039264,"120":0.1481319306427212,"121":0.05272207189250376,"122":0.07649546058494434,"123":-0.043980526886072166,"124":-0.027069758895344864,"125":-0.053041349431639,"126":0.3039791754783208,"127":0.23285551187052603,"128":0.18999471437486729,"129":-0.19756168669569737,"130":0.10585286286427822,"131":-0.11172112939738545,"132":-0.15081549490998317,"133":0.20972497299377088,"134":0.3990249762373994,"135":-0.17013260832326704,"136":-0.15153806571383685,"137":0.019365488793677582,"138":0.07647986550400523,"139":-0.07732944581449348,"140":0.282498144380243,"141":0.15410441553639764,"142":0.23745260718896086,"143":0.11091700575058365,"144":-0.03518119909009738,"145":-0.080575355376956,"146":0.07002230804320206,"147":0.20814759903013116,"148":0.05342816105276681,"149":0.038763305026080164,"150":-0.13534704612416537,"151":-0.12522878744259822,"152":0.04232536955371336,"153":-0.0027495932379971184,"154":-0.0015412359947197,"155":0.03639417100807014,"156":0.37354999778101283,"157":0.3990201277390286,"158":-0.20471104537435664,"159":-0.0762307846902227,"160":-0.0024425616866471313,"161":-0.2405427845650926,"162":-0.24798673254570136,"163":0.17492119318976967,"164":0.25522859871877573,"165":-0.3181150013585398,"166":-0.2975985269328336,"167":-0.175463822033987,"168":-0.3078605919253223,"169":-0.0634432490365502,"170":-0.21538961235687046,"171":-0.26615283226456415,"172":-0.20525317224261258,"173":0.1952941998194135,"174":-0.15247308629565434,"175":-0.338915573448801,"176":0.038568904066200255,"177":-0.06732478558710449,"178":-0.004143868761494924,"179":-0.027966607451216006,"180":-0.053755682162780274,"181":0.10713560867817726,"182":-0.09851247071779277,"183":0.029516762625176326,"184":-0.2152434785027942,"185":-0.32820095091811896,"186":-0.176639349887783,"187":0.2369364204687611,"188":0.11116459076892489,"189":-0.029677493413564914,"190":0.30024022898593905,"191":-0.10153615173391269,"192":-0.3273039265513504,"193":0.023316173801071774,"194":0.28256669821601427,"195":0.11321133108967227,"196":0.14313955291721267,"197":0.11035325184969592,"198":0.23585500145844462,"199":-0.20222221484856878,"200":-0.4482360821614354,"201":-0.14813444109076712,"202":-0.0896055479491651,"203":0.2235041127675584,"204":-0.262066512906115,"205":-0.11172979245566206,"206":-0.15529026412665548,"207":-0.12369121076197447,"208":0.021901764695586308,"209":0.10441037257783409,"210":0.17350840858842775,"211":-0.03862742944714563,"212":-0.06631649594837978,"213":-0.11232816144803838,"214":0.06552976005673862,"215":0.07897603125197092,"216":0.003736152143124951,"217":0.11129470887975433,"218":0.16188085991388468,"219":0.03706386074993922,"220":0.08133113518117827,"221":-0.0023488574592041935,"222":0.1229534603292849,"223":-0.0583548541534771,"224":-0.11601696937619817,"225":0.025993394673282887,"226":0.07885692472428331,"227":0.43137929624545135,"228":0.4465809072105089,"229":0.1252821230783455,"230":0.32794173892477585,"231":-0.09787128208077155,"232":0.005610861122319585,"233":0.3903641286621573,"234":0.4237580384690442,"235":0.30847638033364644,"236":-0.1270698553913754,"237":0.05274644537829351,"238":-0.3091480578452843,"239":0.11540069103414966,"240":0.24898981163950606,"241":0.17819492483462282,"242":0.1322450181617081,"243":0.3742922778783646,"244":0.2475674756939894,"245":-0.0788404441972153,"246":0.09458761973146032,"247":-0.017641237774525403,"248":-0.04171906539080414,"249":0.3160556794614912,"250":-0.2315418129189718,"251":0.06902545487751446,"252":0.24577728959811815,"253":-0.08471821177864333,"254":-0.3437011719970849,"255":-0.16274562798540165,"256":0.12238795945622553,"257":-0.03577800226976692,"258":-0.1310012616074081,"259":0.11552894486107622,"260":0.21990450684849164,"261":-0.3338636322301758,"262":-0.11083098282940394,"263":-0.26739236868681193,"264":-0.03644572164277949,"265":0.03521473331482541,"266":0.04038615624675839,"267":0.10974759560851081,"268":-0.6466339368543079,"269":0.153634286376093,"270":0.015127119727675858,"271":-0.11270874458537823,"272":0.1922936892048474,"273":0.023433713372996583,"274":-0.20571920351052497,"275":-0.26286285649456526,"276":-0.33938116150666797,"277":-0.3053437138442234,"278":0.007633994186098384,"279":0.14184353948942177,"280":-0.2264937368414409,"281":0.07612193092329274,"282":-0.3353547335961591,"283":-0.24286861800355916,"284":-0.047078108848303095,"285":0.058292510398360906,"286":0.0667191165235236,"287":-0.17624113049395704,"288":0.06106204160822773,"289":-0.16579593543421234,"290":-0.1355645762523007,"291":0.28221169050616685,"292":0.12052438074673678,"293":0.06814063680635914,"294":0.14084100318544765,"295":0.06952911381000734,"296":0.2474352732451869,"297":0.020932863196889567,"298":0.3624127018709464,"299":-0.009219671985874676,"300":0.02121877314207256,"301":-0.15824805375133674,"302":0.3269960934829226,"303":-0.4113054096365849,"304":0.25432533563412,"305":0.2684582360932682,"306":0.18542235289357975,"307":-0.18893663898226282,"308":-0.05839597848386758,"309":-0.2591355046123155,"310":-0.8581211487766224,"311":-0.045210107254431385,"312":0.5057347508927998,"313":0.4994747273655708,"314":0.13753657341878509,"315":-0.2798631948640895,"316":-0.08921551305126398,"317":-0.41778970918704533,"318":0.3347896369954009,"319":0.46188484287515585,"320":0.1982396312714851,"321":0.013966731916802486,"322":0.16729784374025894,"323":-0.04506278008812296,"324":-0.2960689017012245,"325":-0.039110815191496305,"326":0.703011884516946,"327":0.05776219770712741,"328":-0.21260186622754385,"329":-0.02330653050204984,"330":-0.12389306675203558,"331":-0.4241371990692099,"332":0.024347367846933313,"333":0.3572158584641788,"334":0.04550065609209533,"335":0.3806948294146668,"336":0.2498969065327459,"337":0.3135455145062101,"338":-0.2535565464158899,"339":-0.15294157819107515,"340":0.4616405892624237,"341":-0.12296429251754011,"342":0.11296582212225648,"343":-0.0483500192593118,"344":-0.019421618171953623,"345":-0.9346110226113037,"346":-0.8368140831158356,"347":0.7878990465399995,"348":0.262083662880145,"349":-0.01251041762637481,"350":-0.5080031651713218,"351":-0.5230896931601886,"352":-0.1433047956688284,"353":0.13399201325901974,"354":0.022031692527015017,"355":0.22009387666589572,"356":0.06788418067870314,"357":-0.2820362818260706,"358":-0.18354041575103394,"359":0.41895204162079197,"360":0.20625518168414866,"361":0.2588843949978846,"362":0.0686819238858136,"363":-0.13174137426698693,"364":-0.3553102689924892,"365":0.17832047088100214,"366":0.8203820786616576,"367":0.11940488726966424,"368":0.4313775827070415,"369":0.010936156129605556,"370":-0.028316353057826635,"371":-0.02602193898249762,"372":0.013508753067571044,"373":0.6739744149250891,"374":0.17664293031988154,"375":0.09646373311291483,"376":-0.05690227416527439,"377":-0.10879386428769254,"378":-0.08997808845947071,"379":0.09677598231133497,"380":-0.16717165108521062,"381":-0.3465469378924598,"382":-0.009665111695698269,"383":-0.3001588662680909,"384":-0.20216980375040886,"385":-0.11413640661730046,"386":-0.14089059223025843,"387":-0.3864586000916213,"388":-0.11492091370957251,"389":0.16186660256321614,"390":0.0989558914247816,"391":-0.15435188924147494,"392":-0.09311701209798104,"393":-0.4688157566347162,"394":-0.13275982398700387,"395":0.5436771056911784,"396":0.21803701606985296,"397":-0.23556999795192124,"398":-0.26613737879850746,"399":-0.12136391781676109,"400":0.2679443182903665,"401":0.10118383629951902,"402":0.14803391096044427,"403":-0.4455883115411636,"404":-0.22414919219998256,"405":0.18490503431999775,"406":0.020456954816132276,"407":-0.07151185928785013,"408":0.18458196264992144,"409":0.0043480016757553855,"410":-0.13837580934442242,"411":-0.03870707350491887,"412":0.08699809306446506,"413":0.1777474702427658,"414":0.10316868692257465,"415":-0.32353429448274196,"416":0.047076124262233135,"417":-0.20066900356587977,"418":-0.29665967581106384,"419":-0.07177532319057327}},{"sx":1,"sy":1,"depth":420,"w":{"0":0.050955070545486515,"1":0.025293517319330508,"2":-0.02420465873352067,"3":0.04888127947058969,"4":-0.025773760775289506,"5":0.008196490761475455,"6":-0.03330889875490173,"7":0.012440713217710469,"8":-0.020381596723318678,"9":-0.007339838969104834,"10":-0.01853671644658905,"11":-0.01797902318841583,"12":-0.0022824798729835175,"13":0.038684566021259845,"14":-0.009952011990183203,"15":0.004033149351776713,"16":0.038737257603354086,"17":-0.0006090052446041228,"18":0.019992451040988277,"19":-0.0027700509717883946,"20":0.03239570313087263,"21":-0.01182437981503352,"22":-0.043030926718569174,"23":0.04134116472477981,"24":-0.03547661461816152,"25":-0.037013783882883164,"26":0.028736514271742886,"27":-0.018429549222640697,"28":0.04343479642966982,"29":-0.024433796222384,"30":0.004060097316102006,"31":-0.000863479293844694,"32":-0.021025330374644137,"33":-0.005782152856855536,"34":-0.0177502676025444,"35":-0.0013477071802080898,"36":-0.012177188044255481,"37":-0.07953879053545883,"38":0.009346630354039022,"39":-0.013014697128836716,"40":-0.01930236933038444,"41":0.0027486225503034,"42":0.04833457243966407,"43":-0.008888102585324343,"44":-0.0077100017956223945,"45":-0.002087661803479833,"46":-0.03653712891483882,"47":-0.02516726515216116,"48":-0.04065145542531416,"49":0.027037895979545163,"50":-0.046335029361724664,"51":-0.022191312186140344,"52":0.04093294010846494,"53":-0.042044439678369065,"54":0.010941479288446928,"55":0.04683543609822118,"56":-0.014751425313477331,"57":-0.0011412195368600924,"58":-0.016770305030672394,"59":0.026996854800923217,"60":-0.05170206514267173,"61":-0.0642419564046166,"62":-0.03271392524429157,"63":-0.004026077737030974,"64":-0.004098834917908422,"65":0.027165112226058018,"66":0.03797723372076097,"67":0.01470524623719949,"68":0.0063491074781997165,"69":0.006657763933853631,"70":0.014856340118383249,"71":0.06115905506664444,"72":0.0384232986172356,"73":-0.029679739817989874,"74":-0.03575146247061041,"75":-0.008618872575878773,"76":0.03380531731758185,"77":0.017901898217244392,"78":0.006683771209438964,"79":-0.026712887858583476,"80":0.016067001077627135,"81":-0.01517154911532059,"82":0.004771339392807437,"83":-0.035061654823152565,"84":-0.03224328788617398,"85":-0.03495648164593456,"86":-0.08543480931539285,"87":0.026339580432613027,"88":-0.03438993086354172,"89":0.04578368899094315,"90":-0.01883474047480031,"91":-0.02050371914534945,"92":-0.003229061270177182,"93":-0.0059818098099182265,"94":0.03089339786178477,"95":0.0116640187261652,"96":0.016941963788068316,"97":0.038697021512071876,"98":-0.0030472379961665468,"99":-0.03551021685540175,"100":-0.024945587166774988,"101":-0.023033487349209097,"102":0.0077122344816321665,"103":-0.024257534524259668,"104":-0.009256630646202123,"105":-0.041587395330447995,"106":0.05785978649742535,"107":-0.026527201865583216,"108":-0.034101494659512906,"109":-0.04397453554978906,"110":0.024742093632557794,"111":-0.06732672946861977,"112":0.025341378016836374,"113":0.014514584839318286,"114":-0.0393233364204135,"115":-0.033879538466763,"116":0.02965935781239779,"117":-0.02803055956278024,"118":0.004205281578883608,"119":0.005428503698057431,"120":0.06989219023267208,"121":-0.04141627613706501,"122":-0.037625035910396655,"123":-0.04950132217622903,"124":0.00024784570326246444,"125":0.0010593982962617298,"126":-0.019423457594454935,"127":-0.019005745982481746,"128":-0.02696512097873081,"129":0.02501362175191166,"130":-0.018982383882329833,"131":-0.009096420811331518,"132":0.02808322106340163,"133":0.032658465986640586,"134":-0.04462961136037026,"135":0.02802212691237319,"136":-0.06678241743552854,"137":-0.003538061897186128,"138":0.03216920577673859,"139":-0.040223193857842336,"140":-0.04043988011316796,"141":0.005024199013313758,"142":0.0032884741870072972,"143":-0.045763726842347606,"144":-0.015312818073155151,"145":-0.030025213478611666,"146":-0.0030904358310727327,"147":-0.031910038784614445,"148":0.03180001527632728,"149":-0.012723668076192955,"150":-0.04001655154166422,"151":-0.027485449198277896,"152":0.0004287544438192846,"153":0.05462538239287422,"154":-0.016583214631575284,"155":-0.08000564334875891,"156":-0.0652538854602399,"157":-0.027787715766706352,"158":0.018504502692494377,"159":-0.03714208189931114,"160":-0.05095467921619684,"161":0.018765901544912183,"162":-0.007510222308860138,"163":-0.016278852216973793,"164":-0.059528044117432136,"165":-0.013867838425288636,"166":0.011841182226269465,"167":0.015282760798804376,"168":-0.0541420391269863,"169":0.019257671069955695,"170":-0.01123630029987151,"171":0.0047603267411511305,"172":0.012117864020689399,"173":-0.012613162070837814,"174":-0.0185515816375573,"175":0.02126923313138559,"176":-0.031470277410477435,"177":-0.03528979162758141,"178":0.0437994405564301,"179":-0.04782732505394277,"180":-0.05108029734274973,"181":0.025015791799509083,"182":-0.035237630338995844,"183":0.03912767862338224,"184":-0.0023453113567020235,"185":-0.007211979468174862,"186":0.0030270068832068575,"187":-0.0056625377612206035,"188":0.0322918310311534,"189":0.002665925300181892,"190":0.005279241533462401,"191":0.03246495549609796,"192":-0.040454438463321876,"193":-0.003349022806580911,"194":-0.039419959072886014,"195":-0.006404571380857034,"196":0.016222753660601986,"197":0.002516498702378704,"198":-0.029090377358622625,"199":-0.10569502417034604,"200":-0.008278596930828708,"201":-0.05112591655742482,"202":-0.04852981330992075,"203":0.03399196422112873,"204":0.009353506660564389,"205":0.006662227880369775,"206":-0.034566670783074016,"207":0.024003034572248325,"208":-0.005712482406318703,"209":-0.038248518952639,"210":0.033080515902297214,"211":0.03532110954760715,"212":0.015532612989897795,"213":0.0024797206388293878,"214":-0.022688633538402305,"215":0.05116910001999799,"216":0.024905653052588905,"217":0.0014063167074319398,"218":-0.001959665163466488,"219":-0.05796115520408495,"220":-0.07905983274954145,"221":0.0647785116317012,"222":-0.025831144192390233,"223":-0.00040395238818561035,"224":-0.015213185343100883,"225":-0.00999208656844524,"226":0.002847600746721657,"227":-0.01050211172328855,"228":0.00377452797535629,"229":-0.02037005230994914,"230":-0.0017740834228998728,"231":0.02614208633987133,"232":-0.03171508283490381,"233":0.04925751706475911,"234":0.00344286473843665,"235":-0.026071922283395714,"236":-0.03395611899326747,"237":0.006339476498456915,"238":-0.08897574719579508,"239":-0.03963951831908208,"240":0.04840109365144478,"241":-0.05727836574966788,"242":0.006785807164706466,"243":-0.023711692795751384,"244":0.027860239813258563,"245":-0.0089298696974182,"246":0.013306501257081165,"247":-0.016377716337882306,"248":-0.033119543315992955,"249":-0.0014875464341491393,"250":-0.009263924411776005,"251":-0.012150152634149591,"252":-0.026878575521508512,"253":-0.0131327784960817,"254":-0.0008026548065022249,"255":-0.03136412971966464,"256":0.0096550641006713,"257":-0.011742764894749187,"258":-0.015026694003817244,"259":-0.05954605547705001,"260":-0.033797677551233946,"261":0.005933348580556369,"262":-0.015281235469185778,"263":0.028072130012364433,"264":-0.021526040883229826,"265":-0.027370444254871815,"266":-0.059195498138747915,"267":-0.00825119092669145,"268":-0.04131827941684673,"269":0.0038848299175276084,"270":0.010468113576799165,"271":0.03394265178733121,"272":0.010223336349296966,"273":0.016823488303982614,"274":-0.016607686300991298,"275":-0.043723102394570945,"276":0.007149345246570056,"277":-0.007121619640762791,"278":0.01688018098331867,"279":0.024636214408843997,"280":0.008010534172430278,"281":0.00744880323415106,"282":-0.020602282448988964,"283":-0.001509200828495033,"284":-0.01711667802269539,"285":0.022375356038194166,"286":0.010615302719600078,"287":-0.020631468083841982,"288":0.03362350592152936,"289":-0.02315531822330087,"290":-0.047163478477090175,"291":-0.02156944649712735,"292":0.017964367699047298,"293":-0.002266678663920753,"294":0.04583298763580099,"295":0.011764075437179927,"296":0.038562305184772126,"297":0.020613335939635644,"298":-0.02255421017961905,"299":-0.02538104906674962,"300":0.03047720866595423,"301":-0.02819312497315727,"302":0.024857307968442863,"303":0.012584943797961346,"304":0.030740485659049823,"305":0.046082568203858656,"306":-0.06464151282263939,"307":-0.016131116340820505,"308":0.04043927160892264,"309":0.02498059905708669,"310":0.013319014600241236,"311":-0.014308485864966585,"312":-0.0037401730485534324,"313":-0.034710555034521265,"314":-0.03488008608058339,"315":0.01118597746904505,"316":-0.06009808820221861,"317":0.03947851850946916,"318":-0.019163736623492165,"319":-0.02293823726722457,"320":0.012321997363483635,"321":-0.01744690295130016,"322":0.004608920897787032,"323":0.040733548326409706,"324":0.027370581694156987,"325":-0.0027572864738060854,"326":-0.006516612458600515,"327":0.003325271796714944,"328":-0.05928623038006979,"329":0.022685658643541978,"330":-0.05291111994086818,"331":-0.0067773104951677305,"332":-0.02987465944525033,"333":-0.044103814121176185,"334":-0.05839799708343193,"335":-0.008266464539950958,"336":-0.0016549427669097518,"337":0.029533359554211172,"338":-0.009567571029480974,"339":-0.03338536314963649,"340":-0.0027002899565383947,"341":-0.023786422721595132,"342":0.030559998338658675,"343":-0.014078434319071732,"344":-0.011542013016344154,"345":0.036076400789237524,"346":-0.030578488028614476,"347":-0.02948657159869351,"348":-0.061429807435070344,"349":0.019459255639712156,"350":0.003126469273170147,"351":0.026100472141669058,"352":0.008666538852244825,"353":-0.025662586986681772,"354":-0.00426847198488226,"355":-0.04383021779663842,"356":0.01110673242285273,"357":0.005288634641536584,"358":0.03630586532813985,"359":-0.006977688051084671,"360":-0.019196148193096004,"361":0.0024821335895952186,"362":-0.022509264758525306,"363":-0.0371556225806013,"364":-0.021927564496785793,"365":0.0014583729837984393,"366":0.0146612160693949,"367":-0.015223973991764709,"368":-0.010343982788306661,"369":-0.012785666778695656,"370":0.028383009038017434,"371":0.0031658360480146465,"372":-0.01961775808533393,"373":-0.013657136683234861,"374":-0.030589279189076647,"375":0.010222243729303668,"376":-0.08411264529740868,"377":-0.04685848065719304,"378":0.021670104249414526,"379":-0.027576723240725295,"380":0.055520906439710346,"381":-0.04150427342823184,"382":-0.050705024289595446,"383":-0.008578579579002182,"384":-0.02978293502246279,"385":-0.0477086156456456,"386":0.023561404452387223,"387":-0.023395174939739256,"388":-0.05535852447630495,"389":-0.09445610398487363,"390":0.03909803236765157,"391":-0.013885093878764992,"392":0.042582516333110644,"393":0.04155676744674895,"394":0.007905522297752512,"395":0.05626166024008736,"396":-0.008766567861694267,"397":0.001411699766331505,"398":0.02658220488897135,"399":-0.05129606061282055,"400":-0.01768899233899194,"401":0.015178161483359955,"402":-0.005972644759132979,"403":-0.03896945639791522,"404":-0.0006560133228431536,"405":-0.027734279442830155,"406":0.011259475812114676,"407":-0.010030395404585305,"408":0.0077236684415873565,"409":-0.007414637597143905,"410":0.020138221928693283,"411":-0.001981621951813131,"412":0.04700219499536787,"413":0.004358351343201234,"414":0.0026845508736157097,"415":0.0058734552526277595,"416":0.014121698201560557,"417":-0.02409545580252082,"418":-0.027167268755298325,"419":0.022282526546264066}},{"sx":1,"sy":1,"depth":420,"w":{"0":-0.15057977161266417,"1":-0.2703127082757587,"2":0.1385705529709691,"3":0.1489277279104749,"4":0.10323545759950116,"5":0.040240255318360535,"6":-0.2527243686529443,"7":-0.2982563067131743,"8":-0.03121894900387268,"9":0.020604115125689396,"10":-0.004771336511632211,"11":0.0943906897287658,"12":0.05711193002858473,"13":-0.07412220283315114,"14":-0.14218500620459376,"15":-0.05374694284553114,"16":-0.12000669596846258,"17":0.02140136046623799,"18":-0.15258801935017827,"19":0.13758287695757404,"20":0.04853449998947854,"21":-0.04638579680503669,"22":-0.1560029990131486,"23":-0.10938889137890798,"24":-0.06129025747633953,"25":0.029117440379329618,"26":-0.05933878989440914,"27":0.07013740035763398,"28":-0.16218031616336348,"29":-0.1625773435509264,"30":-0.030439238469552224,"31":-0.033798311291654996,"32":-0.06845566812405202,"33":-0.030168055400699636,"34":0.2179062829061199,"35":-0.07980079987547554,"36":-0.0429141897768564,"37":-0.008636334998753232,"38":-0.024657904926929024,"39":-0.09215409500620095,"40":0.05111154982063623,"41":0.015192081059728097,"42":-0.06625523814395891,"43":0.05935633497629111,"44":0.14491787354656716,"45":-0.11323588555056498,"46":0.21159867554401368,"47":-0.158511264974678,"48":0.017484905752704717,"49":0.049557729757555846,"50":-0.09531733215938423,"51":0.007093583002017684,"52":-0.11866503511382617,"53":-0.004735619363681333,"54":-0.11121933633861822,"55":-0.025974157985988913,"56":0.11029970465007764,"57":-0.08241021588438535,"58":0.057726084580840505,"59":-0.07148732978258181,"60":0.17753306230562263,"61":-0.12241574707297727,"62":0.1034032546790974,"63":0.08945603057335308,"64":-0.07338739725238237,"65":0.026304945154715875,"66":-0.017674470718846137,"67":0.1505033076196971,"68":-0.00310541812518066,"69":-0.035421774424383094,"70":0.024208205331192167,"71":-0.1160056482600099,"72":0.11208219545888391,"73":0.04178471660004908,"74":0.06419492861137666,"75":0.005964413160924622,"76":0.028921665921785966,"77":0.0011024871331695462,"78":-0.2166385142077703,"79":0.1094453884880693,"80":0.09746261332325894,"81":0.12085224474201184,"82":-0.08871846421281365,"83":-0.22332303705821493,"84":0.061997238199081046,"85":-0.09141082921115824,"86":-0.052734591830263494,"87":0.07493518528483294,"88":0.02492706612883452,"89":-0.15684683822103246,"90":-0.02235953631297745,"91":0.02137094948423787,"92":0.0526053312270051,"93":0.08969839690391608,"94":0.15389632753447594,"95":0.04552054620033045,"96":-0.13883563671563373,"97":0.08011860073757408,"98":-0.0763676478572975,"99":-0.005576793367066855,"100":0.03652013450377872,"101":0.085796254420534,"102":-0.08408027733624705,"103":-0.12075562089986938,"104":0.07337781503586463,"105":-0.007986619693961505,"106":0.0737077607838954,"107":0.002130874257541202,"108":0.16836730439520345,"109":0.036086160297430316,"110":0.0019219834146868024,"111":-0.003672721891991894,"112":-0.1289181667472671,"113":0.11351101782111474,"114":0.15280926022141528,"115":0.15046321246886443,"116":-0.02609965551287729,"117":0.13804168071319717,"118":-0.06462457586928222,"119":-0.16016547193983113,"120":-0.13578112106606757,"121":0.03933969877283184,"122":-0.04692812532472944,"123":0.0582696364972857,"124":-0.04505900499374954,"125":0.0421582797333166,"126":0.05876102161143764,"127":0.1428906228555087,"128":-0.008139904970831328,"129":0.05814609816076808,"130":0.10016759699528832,"131":-0.06458679284091898,"132":-0.06404881997836796,"133":-0.06982966094348142,"134":0.18717999816579933,"135":0.11697301839344953,"136":0.054058735203963974,"137":0.048621269992108876,"138":-0.022790641129616467,"139":-0.012120548428497167,"140":0.03272068888290061,"141":0.042227824971181376,"142":0.15315067468444338,"143":0.17406313977218849,"144":0.02384947900577417,"145":-0.08341725295073801,"146":-0.0027142981727380287,"147":-0.12968862512134582,"148":-0.05603787407137989,"149":0.3328145324786706,"150":0.30693106985395985,"151":-0.0743972637152187,"152":-0.053806418258263364,"153":-0.07326258429940836,"154":0.07267068317854158,"155":-0.018158532559333897,"156":0.20529182430947748,"157":0.16388402830090582,"158":-0.07625501197283058,"159":0.05011548306737956,"160":-0.0457320565042898,"161":0.07881847026672728,"162":-0.09123929777872294,"163":0.17047982077590135,"164":-0.08539224447462036,"165":-0.040383495280737404,"166":-0.08758457271314134,"167":-0.020086713335304707,"168":0.09814105367730827,"169":0.04256876163055237,"170":-0.018781816745447294,"171":-0.08958319376282274,"172":0.09846967399823124,"173":0.030743043439401808,"174":0.13145261071697764,"175":0.023946225310167234,"176":0.1006758996385243,"177":-0.23029496079942902,"178":0.08568587277639343,"179":0.06712604321222564,"180":-0.09464012090859932,"181":0.040292366745618695,"182":0.014771890176684144,"183":-0.01008669231047814,"184":0.05373265384052674,"185":0.05973293833969343,"186":-0.018290049641527143,"187":-0.09573735828902054,"188":-0.08023137003575369,"189":0.05959141667348018,"190":0.24883879141700382,"191":-0.04602402773970678,"192":0.14567116518773449,"193":0.0100861525463409,"194":-0.019881335308509752,"195":0.012908134649501645,"196":-0.11453231022192815,"197":-0.029469005533962787,"198":0.007808919868488852,"199":0.05986861820697055,"200":-0.016533405486380392,"201":0.04998730268461432,"202":-0.20712493749789504,"203":0.03227461172643204,"204":-0.010115308638964598,"205":0.031190255583645823,"206":-0.14860479117493283,"207":-0.08212674690083308,"208":0.030775426441501753,"209":-0.2813887540357644,"210":0.009410841129002201,"211":0.0019310392898281236,"212":0.032028847960681936,"213":-0.1439061117737692,"214":0.06690255416067557,"215":0.09012492918344742,"216":0.12183874357115565,"217":-0.02902194650883194,"218":-0.1466528212212037,"219":0.13568941147898725,"220":0.19817406632572068,"221":-0.05722646853105009,"222":-0.12957305188330925,"223":-0.3015267413333208,"224":0.003951273140211642,"225":-0.02589008977483186,"226":0.12307784065051987,"227":0.05603676631285298,"228":0.12389850410048127,"229":-0.17706699374681806,"230":-0.15666257831096694,"231":-0.016408413678151774,"232":-0.023379094956139254,"233":-0.07489718973292607,"234":0.19028215313661717,"235":-0.0006856729396194019,"236":0.050132481967735766,"237":0.1257033984811697,"238":-0.1328979025827793,"239":0.12119720701970628,"240":0.040129744076891696,"241":0.011755431196650503,"242":-0.012635703633066354,"243":0.010924765527709832,"244":-0.1468843824752693,"245":0.0892810329056021,"246":-0.05695314948823046,"247":0.18975485911410547,"248":-0.02305455958246413,"249":0.11837398831402189,"250":-0.06615991011595337,"251":0.18059944702721537,"252":-0.04954621496680313,"253":-0.21885165612779053,"254":-0.09872214306507879,"255":-0.13321385235405633,"256":0.029628762741092735,"257":-0.20428553562295063,"258":0.07561241583565038,"259":-0.14955600461144858,"260":0.023706939546118275,"261":0.26769823914851953,"262":-0.23283220529759713,"263":-0.08974926810858144,"264":-0.13801710805610917,"265":-0.0017506823894772386,"266":0.09147255240477407,"267":-0.3051607931079224,"268":0.05216735766579001,"269":0.31832856950572774,"270":-0.0725159157099818,"271":-0.13951314774866305,"272":0.009199207935123268,"273":-0.15119298289437025,"274":-0.18829524104302262,"275":0.08757059965638683,"276":0.1428099734226498,"277":-0.06088183761357473,"278":0.10378181157842753,"279":-0.16803892437081794,"280":-0.05243231115434172,"281":0.10856362328205775,"282":0.2823390005102998,"283":0.14304746854083158,"284":-0.1864429529627394,"285":0.0819335326409932,"286":-0.10200626472764837,"287":-0.07081849173360642,"288":-0.039098753414755535,"289":0.16195172301145955,"290":-0.09532730909227266,"291":-0.05407600067395748,"292":0.05097678301180939,"293":-0.09475032451599019,"294":-0.10972165519515985,"295":0.013371950415621375,"296":0.07331292913266248,"297":-0.051200961534517184,"298":0.012697125335079504,"299":-0.01517048904498312,"300":-0.07099834070643428,"301":-0.08143079297001017,"302":0.08026523961729456,"303":-0.22275473259755363,"304":0.12847708593595838,"305":-0.13606663817093756,"306":-0.01841011030482725,"307":0.03682310738424737,"308":0.06417396699062627,"309":0.12980767243071267,"310":0.061093021040044965,"311":0.2546156731417596,"312":-0.10874533007769739,"313":-0.06273209535736714,"314":-0.045424047476394454,"315":0.10550564630357977,"316":-0.16148442189413661,"317":0.1589980284160212,"318":0.40133411197778995,"319":0.14085387287638584,"320":-0.10605116789431375,"321":-0.0969054055726562,"322":-0.01492466983390059,"323":0.1428671029212805,"324":-0.04374623350136417,"325":-0.08459054996198255,"326":-0.12501023319184357,"327":0.09499093172026982,"328":-0.10941753303060328,"329":0.11526255679344762,"330":0.13237212057539982,"331":0.17215791553515586,"332":-0.2605075177283241,"333":0.1492403145780816,"334":-0.02020832537683313,"335":-0.1788133933465836,"336":-0.17683828423606923,"337":0.027887275548727695,"338":0.21143900269217064,"339":-0.225803984691933,"340":0.09035474094042473,"341":-0.11974271893785741,"342":-0.0035489132853596915,"343":0.12868069339916238,"344":-0.09506219213088477,"345":0.053484783135875444,"346":-0.21708324899960382,"347":-0.2239991985535329,"348":-0.0895531369850706,"349":-0.13336589410085126,"350":0.10435249976716313,"351":-0.1275314893426917,"352":0.07842959101379966,"353":-0.02657138711308215,"354":0.07662486674382767,"355":-0.24571663450847073,"356":-0.11661661104662287,"357":-0.05872458254378538,"358":-0.17312858777859017,"359":0.37350862740110136,"360":0.03293255465223558,"361":0.010816644696592374,"362":-0.15254838896687503,"363":-0.14116911402407292,"364":0.007121843974411319,"365":0.04675583920250762,"366":0.3643667866890973,"367":0.005841958090851228,"368":0.2248140688927213,"369":0.05116998070838257,"370":-0.02843466938738693,"371":-0.17736529587461386,"372":0.019014113064824742,"373":0.037416705968285176,"374":0.025458289206415498,"375":0.014822500799136976,"376":-0.11298197398040385,"377":-0.04324864849506434,"378":-0.09178183901285908,"379":-0.11732290271605787,"380":0.17766643178656233,"381":0.028330050477731177,"382":0.08211824430242767,"383":-0.20334430057351452,"384":-0.04714645494494136,"385":-0.1453135442775593,"386":0.0568657561553113,"387":0.06891738608079988,"388":0.038795138594935656,"389":-0.08167255337401381,"390":-0.11060933138801575,"391":0.002171782975004624,"392":0.032055657027257635,"393":-0.12471733837131048,"394":-0.24468404880959269,"395":0.16357153281434486,"396":-0.19451981873772786,"397":-0.16234016036917812,"398":-0.16056174387110758,"399":-0.1419195592192293,"400":-0.16509019083229956,"401":0.02146262271264945,"402":0.14838508210706935,"403":0.02676242013257134,"404":0.013939537116277274,"405":-0.007963364629122175,"406":-0.19767110868087315,"407":-0.05696522224232001,"408":0.04819850717872963,"409":0.0857419437082042,"410":-0.1366382276683623,"411":0.038954299881398834,"412":-0.10699594300131875,"413":-0.15764916178678817,"414":-0.3340811690969195,"415":-0.02295742244947581,"416":0.29220275711238786,"417":-0.2921565215910927,"418":-0.09338940697277148,"419":-0.16536318434857364}},{"sx":1,"sy":1,"depth":420,"w":{"0":-0.031693385184563834,"1":-0.03517952660332063,"2":-0.04038948112837492,"3":-0.04547927583641363,"4":0.010013917054361512,"5":-0.0066017658707408465,"6":-0.03637514422666179,"7":0.0291591795195994,"8":-0.0409176074364631,"9":0.006678186911556632,"10":0.04987235423491847,"11":-0.010453997062131124,"12":-0.03537723874691803,"13":0.019589630607680073,"14":-0.009375369882825052,"15":0.03646632863126445,"16":-0.0007475943862251281,"17":-0.015350741983592169,"18":-0.039440707578588245,"19":0.035695637278953384,"20":-0.01698713438627874,"21":-0.02162204679658016,"22":-0.059047054696402,"23":0.024247145249108967,"24":-0.001923146997151939,"25":0.013927513131067555,"26":0.03592264786380634,"27":-0.012145653136024281,"28":-0.03922521382652116,"29":0.0073375317034427645,"30":-0.024395061143164157,"31":-0.014201356049391137,"32":0.03446130809201069,"33":-0.004910435046938859,"34":-0.048351004669556316,"35":0.09744113290691796,"36":-0.027555485483423264,"37":0.025085476844013587,"38":-0.0003940912254027413,"39":-0.07543682251819739,"40":-0.0053851230870319835,"41":-0.00029429659580779073,"42":0.0027174297967523194,"43":0.02686963943157652,"44":0.015531724145128682,"45":-0.022064625483168822,"46":0.0093007390177272,"47":0.008472403455561803,"48":-0.020708636867065578,"49":0.019760475796356227,"50":0.018283632355858094,"51":-0.019349564959374364,"52":-0.0655221407274468,"53":0.056033663112982725,"54":-0.015640907661164508,"55":0.004755028685600551,"56":0.002248062396876144,"57":0.015038297196934974,"58":0.019848042169026567,"59":0.02046838182602357,"60":0.006677064968288073,"61":-0.01698281315462161,"62":-0.10395315259157929,"63":0.011125565419474204,"64":0.03439707154834249,"65":0.07412459241401438,"66":-0.011563625041185212,"67":0.018897771072839308,"68":-0.00018246623515307895,"69":-0.0020902044099276994,"70":-0.003514667573394056,"71":-0.01469482185124459,"72":0.047941232407941736,"73":0.03767017471124337,"74":0.02338007202456331,"75":-0.002304436151779734,"76":0.016072759655226157,"77":0.016988637198622085,"78":0.0030232352467464744,"79":0.051503504710142936,"80":0.007597855016509894,"81":-0.04334174022764427,"82":0.012874816967558536,"83":0.005991013214768511,"84":0.009285609083426016,"85":-0.03392171316319285,"86":-0.05750024613604258,"87":-0.005069960877009454,"88":0.0033546651355948146,"89":-0.01617439987807271,"90":0.05157904083506755,"91":-0.02318452884351075,"92":-0.03774933561585763,"93":-0.02654013863688623,"94":0.014381570944399819,"95":-0.04055554586918923,"96":0.03383089901230275,"97":0.010261636382986971,"98":-0.05735654853877225,"99":-0.00508000833573006,"100":0.010181686150378993,"101":-0.01023089653678529,"102":0.039512139425856276,"103":-0.017937093595629134,"104":-0.06416334615724309,"105":0.002771241006716268,"106":-0.03538437124849089,"107":-0.014797867033748451,"108":-0.059730428079826196,"109":0.03272973211555783,"110":-0.004123108977879849,"111":-0.026168639367687426,"112":0.021505802090890248,"113":-0.048484884171060616,"114":0.00630922498302101,"115":-0.024790132676368787,"116":0.025537493704621217,"117":-0.0488424696172807,"118":-0.0045295719806921686,"119":-0.04111339751319655,"120":0.027469198380907677,"121":-0.03675312243441371,"122":0.006803932476554133,"123":-0.023066335373239388,"124":0.03996501034016601,"125":-0.060998330639159624,"126":-0.02075099804722696,"127":0.007302529675275891,"128":-0.01325815351380694,"129":-0.02374590615855208,"130":0.014983956236254039,"131":0.01859945191424575,"132":0.0019428799266114482,"133":0.017341525504901974,"134":-0.013743160018176865,"135":0.01386424345825463,"136":0.04010410145058827,"137":-0.04763823697032615,"138":0.029538985924635504,"139":-0.02647937431628093,"140":-0.04563420885245408,"141":-0.01803151079230883,"142":-0.01829724270265352,"143":-0.0621869133423246,"144":0.013157596274124678,"145":-0.053821425193987166,"146":-0.012504049117912211,"147":0.01272774546009002,"148":-0.054523152513648525,"149":0.026424179685023738,"150":-0.020249513068486956,"151":-0.005127334032987559,"152":-0.003684497341517994,"153":-0.0635164905406934,"154":-0.012408825292539826,"155":-0.0007809186749352455,"156":-0.029675749684572636,"157":0.02119398216947487,"158":0.022028912079602146,"159":-0.009757921466682449,"160":0.04339818352357103,"161":0.022164279650503698,"162":0.08000852569772282,"163":-0.024987472147902208,"164":-0.013360447809584754,"165":-0.01905786761392131,"166":-0.013906370020299813,"167":0.038400282675485155,"168":0.021855039950279733,"169":-0.03422915265824984,"170":-0.026588552539647918,"171":0.005127705443805569,"172":-0.06282507542150248,"173":0.005229121503882511,"174":0.006560092746373117,"175":-0.0579904235345969,"176":-0.03616360339373662,"177":-0.004310901755770541,"178":0.012297849914646703,"179":0.03434667237928443,"180":0.00330105851250798,"181":-0.015840486887923257,"182":-0.06473380588426697,"183":-0.006848413450943346,"184":-0.04323583609236437,"185":-0.03657152991964305,"186":-0.05005742814806406,"187":-0.02513968217732873,"188":0.09288626239293014,"189":0.04116959578595708,"190":0.07472282759134914,"191":0.01250015336216973,"192":0.0050616795365626705,"193":-0.03221328753581116,"194":-0.005817374282446146,"195":-0.022763255167261565,"196":-0.006439930225853039,"197":0.006759839888969099,"198":-0.0183640349933117,"199":-0.03146009475228165,"200":-0.039144162329770936,"201":0.004446397462631966,"202":-0.010416705899101238,"203":0.012207492931230223,"204":-0.03936284310943966,"205":-0.04620246277492172,"206":-0.041353708108813836,"207":0.010759513482900303,"208":-0.028744643214849337,"209":-0.034025686947472586,"210":0.05148049640884111,"211":0.01904029435311128,"212":-0.0056677182061415175,"213":0.01700025433460664,"214":0.01592811963069015,"215":0.02348036746105108,"216":-0.032509625851046775,"217":0.011352106092076528,"218":0.039368962192994336,"219":-0.010189144082533215,"220":0.02929104175062625,"221":-0.013109257113455614,"222":-0.049386183717258926,"223":-0.05924284136038039,"224":-0.03386607717787355,"225":0.06509136058500838,"226":0.001555489655492565,"227":-0.0325131806781031,"228":0.005557875440328079,"229":0.007520819433144762,"230":0.09626898214475595,"231":-0.007191496704250766,"232":0.0733837899943036,"233":0.027543786510904077,"234":0.008183583635861703,"235":-0.0010184167451247855,"236":-0.023028190960275308,"237":0.007523259800172218,"238":-0.004994094252897995,"239":-0.013584259660115838,"240":-0.035714248972964616,"241":0.04953767668119368,"242":0.037232545001706197,"243":0.02904141523163257,"244":-0.010812956109048649,"245":0.01479683971313405,"246":-0.01988118251168903,"247":-0.07026626034827732,"248":-0.012434645905680115,"249":-0.03132781783363294,"250":-0.028902586254538575,"251":0.05168255155013065,"252":0.00029258106484098077,"253":0.00659034607276054,"254":0.039090414464000814,"255":0.02848375111565179,"256":0.015778674152225683,"257":-0.021445071909320705,"258":0.015385040701922726,"259":-0.029789165013187048,"260":-0.025141687563187805,"261":0.037750909323628935,"262":-0.010884780088355224,"263":-0.03342891050061231,"264":-0.01890354168491735,"265":-0.06223767023564764,"266":0.0018175074760916718,"267":0.024055372321309287,"268":0.010884386910719484,"269":0.030276096984157303,"270":-0.011636037078471379,"271":-0.021311250703062244,"272":-0.046649809821902526,"273":0.016435642647363965,"274":-0.001812272343562361,"275":-0.022816523498779415,"276":0.021826354000147333,"277":-0.006638437060178759,"278":-0.039266850103566626,"279":-0.010892783642598231,"280":0.024288632155343107,"281":-0.008255792897000331,"282":-0.030095396197116348,"283":-0.03369719614566163,"284":-0.04466134657920976,"285":0.03414845240768851,"286":-0.013855509756911267,"287":0.019808089282359217,"288":-0.038825205593292944,"289":-0.011321593721020328,"290":-0.023956650749835995,"291":0.002756986194726426,"292":-0.011731884721240362,"293":-0.05300752486746123,"294":0.0342942427239522,"295":-0.007903842602596734,"296":-0.008446043955047396,"297":0.02650260116800988,"298":0.052367827158404136,"299":-0.01946025172444647,"300":0.021073896386462312,"301":0.0011970096740514357,"302":-0.03402564767765522,"303":0.044066699120303636,"304":-0.0030064234717604157,"305":0.034786036148730735,"306":0.041445140636876314,"307":-0.02158187532847582,"308":-0.031169175725810818,"309":0.006050506008159686,"310":0.05143003679857461,"311":0.00022096792781356982,"312":0.02006344328625569,"313":-0.014413832698192006,"314":0.004673497654690799,"315":0.0017576041227154626,"316":0.013788060937660548,"317":-0.014550054302970182,"318":-0.0111390011554171,"319":0.01035945177271294,"320":0.03316813846718282,"321":-0.010417952444957463,"322":-0.014467235534983828,"323":0.009254812668647226,"324":-0.029891251196810985,"325":0.0018799972084182818,"326":-0.008363100523568218,"327":-0.017897942359987686,"328":-0.021778110620297355,"329":-0.03430965921220782,"330":-0.015182223934974244,"331":-0.012806801896245437,"332":0.01744926596092478,"333":-0.01992945388290946,"334":-0.04428282647328039,"335":0.007174602641816357,"336":0.010614610555133233,"337":-0.0030464757780681475,"338":-0.004086797421592602,"339":-0.02511301464209217,"340":-0.04041835738165566,"341":-0.015386041756539882,"342":0.02989594344858571,"343":-0.06016417729679717,"344":-0.017483246070596085,"345":0.058298845640662345,"346":-0.09714379188162696,"347":-0.004783523574273633,"348":-0.03477815484530202,"349":-0.024311656751414754,"350":-0.030691474543027442,"351":0.063625440888595,"352":-0.017301749763631476,"353":-0.01918166739523901,"354":0.030694634988799308,"355":0.007992481581568314,"356":0.03804544041391648,"357":-0.06284000024839462,"358":-0.021799408451266083,"359":-0.006732504445648318,"360":0.029883086153678497,"361":0.003960501926716903,"362":0.04158876516041389,"363":0.0069607335684523965,"364":-0.043504450565150385,"365":-0.012362190716952964,"366":0.054030111315325376,"367":-0.02465724708589331,"368":-0.016405192632650015,"369":0.0435335589097255,"370":0.02326021724059431,"371":-0.024932068106110067,"372":0.048541672002311846,"373":0.011731620173077197,"374":-0.06849017832836907,"375":0.04462850860845606,"376":0.021585215617042634,"377":0.049396987593943405,"378":-0.03421367032904199,"379":0.00197013912463131,"380":0.04071728740293963,"381":0.013524580385922566,"382":-0.01141273320513119,"383":-0.02002943352663785,"384":-0.04009055786798868,"385":-0.0244201999900138,"386":0.020066128100368952,"387":0.02500529590650114,"388":0.039510106235660175,"389":0.0066345428262214795,"390":0.018995877025899388,"391":0.0207187077274764,"392":-0.019917513114690606,"393":-0.03436550449697308,"394":0.039051774935916925,"395":-0.002288999098618365,"396":-0.01581569705012888,"397":0.01493800648141019,"398":-0.033111204303486574,"399":-0.011927597751721131,"400":-0.025928794709031915,"401":0.016841968858197016,"402":-0.0044023200266981016,"403":-0.05185554460359471,"404":0.03188108902543807,"405":-0.0007656491729470325,"406":-0.02577633188165507,"407":-0.0382169665971009,"408":-0.04265869114909465,"409":0.0008201791512536748,"410":0.018756465016538718,"411":-0.01573958961895318,"412":-0.009333915337220137,"413":-0.06270073507710647,"414":0.006094989942068405,"415":-0.07861103413949615,"416":-0.004094276508752393,"417":-0.04756531176616573,"418":-0.0037203339926341252,"419":0.01000170248739424}},{"sx":1,"sy":1,"depth":420,"w":{"0":0.025955903864886318,"1":-0.03290975598987429,"2":-0.01682456150621739,"3":-0.1473348494000431,"4":-0.23770996183373974,"5":-0.019813978575996347,"6":-0.10038650193903262,"7":0.02895770197974372,"8":-0.046191020867266605,"9":0.02201200746189591,"10":-0.05463045562757304,"11":0.613169311736522,"12":0.044466750754710876,"13":0.04224361303622619,"14":0.029091491002338023,"15":0.0134673207589315,"16":-0.14770245522950443,"17":-0.0281519298393692,"18":0.08428357268736285,"19":0.0629791797405798,"20":0.02239047665741183,"21":0.006282833582981232,"22":-0.028915919415344556,"23":-0.07710977708304377,"24":-0.017565138615292648,"25":-0.6054998198004131,"26":-0.2977532271783813,"27":0.09526431119370517,"28":0.013474799235598946,"29":-0.04382860229565443,"30":-0.09035901007199883,"31":0.03284300521984128,"32":-0.07194999323349449,"33":0.11683329435809583,"34":0.28697669681343513,"35":0.023342945092864643,"36":0.004047698758200767,"37":-0.2754718156977997,"38":-0.2808133951674119,"39":0.2207434853166217,"40":0.07095965755237606,"41":-0.4833278667853223,"42":0.02086301630980868,"43":-0.09814906697293034,"44":-0.2150083021361204,"45":-0.1679758153264356,"46":0.4618282963414162,"47":-0.4868335874497237,"48":0.07465590958606007,"49":0.026730465869378377,"50":-0.05310794734720125,"51":-0.339421911615708,"52":-0.15685440914052648,"53":-0.4362891717433937,"54":0.6380008142454201,"55":0.17843301185035565,"56":0.028153857444753603,"57":0.0016045457556032787,"58":-0.37607587399009634,"59":-0.08514421051905591,"60":0.2151424786878305,"61":-0.21399964441922772,"62":-0.024220080458375745,"63":-0.03662214272424506,"64":-0.0702215632439081,"65":-0.2672650708789729,"66":-0.023288318196980313,"67":-0.38209868899405064,"68":-0.31775912034073966,"69":0.04167309235934914,"70":-0.006040208560903475,"71":-0.08027512473192777,"72":-0.3022680997414061,"73":-0.1443306947575974,"74":0.37610499348463117,"75":-0.285262693467852,"76":-0.07939336171359068,"77":-0.051979606256808204,"78":-0.023617862349564575,"79":-0.18407930644855397,"80":0.10752999125144332,"81":0.1640314654097568,"82":0.11395489373166949,"83":-0.09291689707220088,"84":-0.05381231804393226,"85":-0.06263567421003505,"86":-0.1781901589864289,"87":-0.7955038409942518,"88":-0.21178408230332407,"89":-0.1360272221609337,"90":0.2513871730668853,"91":0.057216654819885526,"92":-0.05441506535266502,"93":-0.18799435751033935,"94":0.26405302367008476,"95":0.21294608385432096,"96":-0.28538333655691733,"97":0.15286903083530082,"98":0.049506352948644784,"99":-0.03007724796903734,"100":-0.24444092509545082,"101":-0.2637842436991457,"102":-0.17607195478753668,"103":0.21699810370766529,"104":-0.16056406255928848,"105":-0.007658907126847748,"106":-0.02104950031344501,"107":-0.38645510722279464,"108":-0.034279034296479535,"109":0.12830615103409196,"110":0.16482104868605146,"111":0.09418577960944506,"112":0.0010781763972239609,"113":0.02070890117749211,"114":-0.18819627470067446,"115":0.12458581010354548,"116":0.11464024267893437,"117":0.021228989911844652,"118":-0.3328199862181009,"119":0.013353633827066105,"120":-0.04379479040357099,"121":-0.2792533493431585,"122":0.12167540027028163,"123":0.13960678157445552,"124":0.3185822078087526,"125":0.44777745937885255,"126":-0.00845786141518141,"127":-0.04817469286886002,"128":-0.18123743051483052,"129":-0.13424026135523495,"130":-0.06652783409100044,"131":0.1588055261562119,"132":-0.03419665310372781,"133":0.07038760414806619,"134":-0.10488189470657448,"135":-0.255654731988059,"136":-0.05104654184196983,"137":-0.03479401836312842,"138":-0.1024620704083045,"139":-0.3258227216467258,"140":-0.0011350759659328595,"141":-0.05103511479557105,"142":-0.4237585109070126,"143":0.22508507667986913,"144":0.01682461011554585,"145":0.5096553745276707,"146":-0.019358093318320047,"147":0.040326322974571366,"148":0.009875170555464219,"149":-0.22263677318155975,"150":0.31485530194094474,"151":0.42558683162251404,"152":-0.2254334473010455,"153":0.13842104158162624,"154":-0.026086119378350488,"155":-0.04182466896858968,"156":-0.2996164369451569,"157":-0.11853740722452988,"158":-0.44268064792169665,"159":-0.3447796212451283,"160":0.19956920242588008,"161":0.0014231256675638574,"162":-0.01808217636492769,"163":-0.212896335694789,"164":-0.18697374414781964,"165":-0.2932098368666426,"166":0.2086779177764232,"167":-0.029947461699557323,"168":0.021046043405157647,"169":-0.006878572011093212,"170":-0.13398489073651557,"171":0.5914921546179667,"172":0.4237567509532094,"173":0.07998955065884157,"174":-0.12575253631044345,"175":0.052249674571235624,"176":-0.05034444406563218,"177":-0.2598013109274225,"178":-0.04259355402689194,"179":-0.02544353545616784,"180":0.061375710762373845,"181":0.1678217056202601,"182":0.030455131696802817,"183":-0.031760630394661475,"184":-0.23146279304432288,"185":-0.44545537060479434,"186":-0.07274978155120028,"187":-0.06339724621134947,"188":-0.3218220811633668,"189":0.019819827674563435,"190":-0.05187679212227155,"191":-0.2993135045603344,"192":0.14421660789715982,"193":-0.1102534642295417,"194":0.3084685470556271,"195":-0.12721007992299155,"196":0.04404521114974612,"197":0.011770012681983855,"198":-0.40080726509223263,"199":0.07114729125387016,"200":0.1882109299859891,"201":0.18942120242273627,"202":0.18369120416317805,"203":0.06515285366822772,"204":0.018454677082611455,"205":-0.3225035215123526,"206":-0.07603902948955547,"207":0.4456987952632319,"208":-0.13712672574978244,"209":-0.45466151254600834,"210":0.039328086889623026,"211":-0.03161940557893223,"212":-0.28241875764679897,"213":-0.4004223799681144,"214":-0.32561064936240613,"215":0.009532013287625258,"216":0.36581818599600324,"217":0.08500192198206878,"218":-0.023743893108635863,"219":-0.13713164417878979,"220":0.08915702992971902,"221":-0.05191561767175929,"222":-0.2638858128740595,"223":0.11774200292340617,"224":0.10071203698760922,"225":-0.061634145996798964,"226":-0.30591187776417844,"227":0.30787281137665184,"228":-0.06003997107103894,"229":0.2236175178196543,"230":-0.10664343122412101,"231":-0.0026729426649785074,"232":0.006184468986066591,"233":-0.30883871655306855,"234":0.31565230011394363,"235":0.29308564348020216,"236":0.12841669011855164,"237":-0.08045266039316584,"238":0.03300136984276414,"239":-0.05793028752937508,"240":-0.3328946245720867,"241":-0.0012243827518727808,"242":0.14046497042930295,"243":0.11173037892036333,"244":-0.030625943134278296,"245":0.09118120609763178,"246":-0.046736987814169434,"247":-0.33973385278255536,"248":0.2962087008423342,"249":0.023314408155225744,"250":-0.11798304319299525,"251":-0.08495722765844692,"252":-0.0045170016403774165,"253":-0.016291159274538572,"254":-0.15285817612231528,"255":0.4194362231200015,"256":0.06065275496597174,"257":0.1523904037449857,"258":0.4330795934045476,"259":-0.00971276554899672,"260":-0.027332022327283705,"261":-0.13613030646880542,"262":0.7477974967359269,"263":0.30220336759622324,"264":0.2654730811940975,"265":0.04582667384331419,"266":0.037017209171362635,"267":0.0023180834105627677,"268":-0.2154944734547381,"269":0.5815398530403677,"270":-0.2580133815599842,"271":0.3249061796800389,"272":0.011484732971308045,"273":0.023425120628940633,"274":0.03534598555663564,"275":-0.17518039286753545,"276":0.9099658867107613,"277":0.5677321590202146,"278":0.1360792072571656,"279":-0.25466351797358466,"280":0.012077814632664769,"281":0.004728985965908582,"282":-0.2574974498021213,"283":0.3319683570682063,"284":-0.03268438965729349,"285":0.2628977158679784,"286":0.29591709641671426,"287":-0.008288374103207794,"288":0.11593119778021027,"289":-0.28611079960272073,"290":1.031600938963023,"291":0.0708954253725769,"292":0.08283455220663828,"293":-0.04302151615025436,"294":0.029219969962334474,"295":0.03901672021909652,"296":-0.3622594371440939,"297":0.9542596737059769,"298":0.017618775959082143,"299":0.2680064566667774,"300":0.371211337069856,"301":0.08961772866473104,"302":-0.03285177401395658,"303":-0.32647198927506843,"304":0.6615185016093102,"305":0.002613555215719393,"306":0.26119670144451673,"307":-0.37160985398056023,"308":0.03446990504399495,"309":-0.02685790860437018,"310":-0.3650858400016667,"311":1.1704913176589626,"312":0.10483569886371272,"313":-0.061464599925979135,"314":-0.31148487668769487,"315":0.04896037779121126,"316":-0.07632324346828281,"317":-0.5185482204699745,"318":0.3298388504379272,"319":-0.49308701502809854,"320":0.2250572468633302,"321":0.6667044788413458,"322":0.04027646798865922,"323":-0.007427542835804674,"324":-0.3624585337981722,"325":1.769444300032059,"326":0.11556064653568814,"327":0.037086792416662615,"328":-0.18766377697200098,"329":-0.002214268848228887,"330":0.005998990388049096,"331":-0.3210973673250267,"332":-0.3672029302523281,"333":0.23057009311085605,"334":0.31249696642903857,"335":0.12383748952706759,"336":0.023762635168058727,"337":-0.07745466478382503,"338":-0.24286164346989245,"339":-1.2566697389209551,"340":-0.18266993687705,"341":0.12352491880596707,"342":-0.2348353767167746,"343":0.023582402387463956,"344":-0.06672889996801232,"345":-0.14830790090064894,"346":-1.7852844871420834,"347":-0.060342140761445937,"348":0.21836986125560576,"349":0.334427966302324,"350":0.011222535501419459,"351":-0.01885948969917257,"352":-0.04334836261416498,"353":0.17957706198282922,"354":-0.24489123252242576,"355":0.20229668461574055,"356":0.007950639927173852,"357":0.039890356506458835,"358":-0.04956083233950108,"359":0.05088046521116928,"360":0.12686023072090338,"361":0.05226223665112584,"362":-0.22458129717031694,"363":-0.2043072052461955,"364":0.052890596052343655,"365":-0.028884253600699433,"366":0.026995364708711268,"367":0.03996367241491822,"368":0.11007842858342283,"369":0.13036657892204614,"370":0.4483059444409491,"371":0.03634211398093168,"372":-0.003697707660246375,"373":0.036997345421828115,"374":0.045044237482517124,"375":-0.23462779915167903,"376":0.06666866213585519,"377":0.022842810857846917,"378":0.005969682733569492,"379":0.018217835770281944,"380":-0.16246234534542764,"381":-0.7789837110840329,"382":-0.17977013137779382,"383":-0.08835778679221497,"384":0.06789328488129488,"385":0.01165390732754054,"386":0.034303257627694615,"387":-0.09888419074057422,"388":-0.011720441404961124,"389":-0.4363684471867913,"390":-0.06027640335042092,"391":-0.05100642053702817,"392":-0.021056852894104347,"393":-0.03878509436387889,"394":-0.17826446179973401,"395":0.0570881552296632,"396":0.15047856765312598,"397":-0.11346449631810421,"398":0.2189361671013142,"399":0.046760296968421135,"400":-0.0159588171212337,"401":-0.1574906516935718,"402":0.4177148586452025,"403":-0.05100051433161205,"404":0.1159421663662979,"405":0.01376668636056369,"406":-0.010047695868925366,"407":0.03376583481000983,"408":-0.11965798145687019,"409":-0.03132505372401114,"410":0.3369342075955577,"411":0.10160107390714297,"412":0.27202607508669424,"413":-0.03794631771832441,"414":-0.045225501922331275,"415":-0.2347331831410723,"416":0.1887352483652614,"417":-0.5489643660300079,"418":0.28763660892762005,"419":-0.08742085789334222}},{"sx":1,"sy":1,"depth":420,"w":{"0":-0.021895198640883674,"1":-0.023036014484060636,"2":0.037432575624844096,"3":-0.018026182018765186,"4":0.07937754524799771,"5":-0.0030924673672746883,"6":0.006644421811034426,"7":-0.03998814468609256,"8":0.047485348777137226,"9":-0.03778584639428515,"10":-0.03005649701060285,"11":0.05183449108491036,"12":-0.012706867555083528,"13":-0.0025030161865615677,"14":-0.037878797879367716,"15":-0.0054902284349641894,"16":0.03108923044269686,"17":-0.01322152363275215,"18":-0.021819748567231824,"19":-0.03333267225894934,"20":-0.019849022298853804,"21":-0.010460448477072766,"22":-0.056520448016717136,"23":-0.02038973046324262,"24":-0.04207739691250132,"25":-0.01621746951165869,"26":0.017617511081490924,"27":-0.03411645038362042,"28":0.012701700576252969,"29":-0.000765076214336048,"30":0.0028361454039083182,"31":0.004857548217002012,"32":-0.04849295564122001,"33":-0.0077719035955800585,"34":0.0006572175043400463,"35":0.018211646212812183,"36":-0.0103788153752875,"37":-0.002232193143650185,"38":0.04269117055668663,"39":-0.026911808532239862,"40":-0.02059360755050372,"41":-0.009013865209508946,"42":-0.07805834014549298,"43":-0.016541602554784148,"44":0.0494321056251606,"45":-0.030352381286743887,"46":-0.025518298617934202,"47":-0.029980052213448013,"48":-0.005312609100530251,"49":0.03230884862949684,"50":-0.013524080001639347,"51":-0.015210632025901243,"52":-0.02271327556660913,"53":0.017021752234163818,"54":-0.04538686094698094,"55":0.05152842216516443,"56":-0.002514053469423362,"57":-0.019119984634509028,"58":-0.02471977996223551,"59":-0.04482232198591721,"60":-0.002580895850587198,"61":0.05166039179387717,"62":-0.026875558425445267,"63":-0.012047370162136292,"64":-0.017487198694078835,"65":0.02735724155913828,"66":-0.005445936071561578,"67":0.01710282110447649,"68":-0.04203924449006337,"69":0.03525710497002884,"70":-0.002237115886980907,"71":-0.01467390174439408,"72":-0.007384454811808596,"73":-0.038946931678171474,"74":-0.05507694339974471,"75":-0.015441305876450612,"76":0.05045824820334587,"77":0.015394647467373387,"78":-0.043183517392898475,"79":0.004733213857047928,"80":0.026109301923723873,"81":-0.06439161006125511,"82":-0.02368891233863451,"83":-0.07138885663153198,"84":0.017636562466416723,"85":0.016213477415596075,"86":-0.0184174597879936,"87":-0.028465947381422423,"88":-0.035920990000019117,"89":0.020972907320366194,"90":-0.06383679020786168,"91":-0.02588698344564275,"92":-0.02914064866327537,"93":-0.01260459321852858,"94":-0.014228961212468982,"95":-0.033200924395757433,"96":0.025656406922014957,"97":0.00002718561831025485,"98":-0.01520254913919912,"99":-0.03739185753404125,"100":0.06213982962952596,"101":0.020068584161339244,"102":0.0013324705909336894,"103":0.041510330902573424,"104":0.010241530878162191,"105":-0.06830247556804898,"106":-0.03006239509066165,"107":0.038681079099848484,"108":0.01787427846132678,"109":-0.05238403575132606,"110":-0.0013785598054786004,"111":-0.009944124432680328,"112":0.033046520786740786,"113":-0.02549769351284836,"114":-0.013688005088611096,"115":0.002232543495952533,"116":-0.014017528334201033,"117":-0.04654463530324298,"118":-0.043413985679272946,"119":0.029290535420408464,"120":-0.019662456298316224,"121":-0.08886453723193134,"122":0.0044540186636248405,"123":-0.02672072171044738,"124":-0.020298829350373405,"125":-0.014537309730701775,"126":0.019095883802112246,"127":0.005510588585198858,"128":0.034325652422412076,"129":0.0003087595804305531,"130":-0.001158858776374584,"131":0.010357281813401235,"132":0.008923224063752067,"133":-0.03282946716221295,"134":0.014646327071752722,"135":-0.046999507785237614,"136":-0.0227059573599198,"137":-0.020552781878427993,"138":0.00481630722762984,"139":-0.0405137524084824,"140":-0.04703792522459796,"141":-0.05836787008160841,"142":-0.041999774271895905,"143":-0.03193568043067276,"144":-0.003428398072581511,"145":0.016226787014616516,"146":0.0018838824179716052,"147":0.061617027018740125,"148":0.02677400844038828,"149":-0.013044665218360126,"150":0.046391984569613284,"151":0.01601849827251239,"152":-0.007535643316651587,"153":-0.03325135053467389,"154":0.009071902978320648,"155":-0.0698332453560972,"156":0.030654623614954263,"157":0.047874352360070274,"158":0.010096116340633019,"159":-0.018002479182771383,"160":0.04471709185064565,"161":-0.005422919914379158,"162":0.03639923685771863,"163":-0.024838818754450497,"164":-0.007845434422817743,"165":-0.010262681833236253,"166":0.029817830223866606,"167":-0.006797685105970289,"168":0.013450190247712485,"169":-0.01794600885591147,"170":-0.006026431861686173,"171":0.020514087929683577,"172":-0.05061915845987634,"173":0.018883491677393047,"174":-0.035174042582895824,"175":-0.024095822201400833,"176":-0.013119871985975124,"177":0.031601723197428704,"178":-0.07112716612843804,"179":-0.009387461524510032,"180":-0.03239580157365612,"181":-0.025386257514779166,"182":-0.05839040574103533,"183":0.044537543515226916,"184":-0.0025531027969540898,"185":-0.022404927520765828,"186":0.003548346062357447,"187":0.02166724070046423,"188":0.018606790581089515,"189":-0.019849412761621017,"190":-0.03174490536747189,"191":-0.013739937034055,"192":0.021307850817597385,"193":-0.009783569934730386,"194":0.010701773546989741,"195":0.06786631589321787,"196":-0.02576995586096333,"197":0.034942577047813526,"198":0.03303343043191162,"199":0.01632127630608448,"200":0.012121631296149592,"201":-0.009809512938341734,"202":-0.032479020410775654,"203":0.012417574285412703,"204":-0.043792262129233823,"205":0.01735000760850179,"206":0.0051237038124370944,"207":-0.05094333303161233,"208":0.021157796704647625,"209":0.052059575893969125,"210":-0.00997166803934197,"211":-0.026973624920974628,"212":0.02893401714847195,"213":-0.05654180930414044,"214":0.03349145568694957,"215":0.03501842743572098,"216":-0.02286387603806451,"217":-0.0037306383828559692,"218":0.0006412533326159726,"219":0.0020462998698672647,"220":0.006128095587431407,"221":-0.038007242618353136,"222":-0.054779595734491086,"223":-0.04362539892728761,"224":0.023818210183571956,"225":-0.018070239608383484,"226":0.005975919890830164,"227":0.05091379386366465,"228":0.013914643258525771,"229":0.016896707369415568,"230":-0.012073710892120882,"231":0.005726204578671385,"232":0.002737094882251306,"233":0.008410458508934786,"234":-0.05531263238992479,"235":0.025822260498101494,"236":0.011664100479176237,"237":-0.018570646526988442,"238":-0.000723747149116483,"239":-0.06332052445645343,"240":0.011176367232176694,"241":-0.0007743962928967011,"242":-0.011238175451978808,"243":0.036944926244783446,"244":0.03356161869523228,"245":0.007341859973498689,"246":0.004263217600916903,"247":0.010778338427972023,"248":0.009137098779596496,"249":0.047371636615826884,"250":0.06327041251759853,"251":-0.0012992580315214926,"252":0.015236629580471624,"253":-0.006620118679225339,"254":0.0036741008857410808,"255":0.06368334876572866,"256":0.029671297091133204,"257":-0.017129968639009573,"258":-0.02256102241900969,"259":0.009240720343218227,"260":0.0017826917690414927,"261":-0.027296069701000316,"262":0.07817784511953035,"263":-0.06513472980021771,"264":0.007975459617228071,"265":0.010972727853164149,"266":-0.014440050554523765,"267":-0.03655109006264594,"268":-0.003667998680218061,"269":0.01529578459454508,"270":0.022928546747876727,"271":-0.04085480549757003,"272":0.006165405763331266,"273":0.10156343517171244,"274":-0.00980894642076847,"275":-0.04564681689632163,"276":-0.041565851482550896,"277":-0.01815475194427715,"278":-0.011970467576721348,"279":0.019932126152513163,"280":-0.018848657599103976,"281":-0.03727966612592051,"282":-0.003880480300631336,"283":-0.02242640578256644,"284":-0.008102582499596347,"285":-0.03832432912979873,"286":0.04314953697142285,"287":-0.025627930384179095,"288":0.049890300481874116,"289":-0.018902826092429395,"290":0.013024879296151018,"291":-0.015316653436006484,"292":0.07011911275336377,"293":-0.0017793178137003043,"294":0.0037312751487308385,"295":-0.029224790835649026,"296":-0.007555937837881696,"297":-0.07972094287043352,"298":0.007250649463255989,"299":-0.04390470817617158,"300":-0.01468360275062996,"301":0.009208086697788274,"302":-0.013356964842410985,"303":-0.019651682053615227,"304":-0.008511745012167952,"305":0.011905408584761808,"306":-0.04873571912118623,"307":0.005853297289960371,"308":0.02577304442779653,"309":-0.03987852983067504,"310":0.03203440048169254,"311":-0.046439767184629575,"312":0.08596900349144032,"313":-0.030133528071008664,"314":0.024192190846462295,"315":-0.0009632000115499321,"316":-0.03113843883762654,"317":-0.00044259593137293966,"318":-0.011462568102101185,"319":-0.019367238087229243,"320":-0.030059199427846645,"321":-0.033418931843308436,"322":-0.04435678692999609,"323":0.007441510054248458,"324":0.012495995309855163,